tree
version=v2
num_class=1
num_tree_per_iteration=1
label_index=0
max_feature_idx=98
objective=binary sigmoid:1
feature_names=DFF_5 DFF_10 DFF_15 DFF_20 DFF_25 DFF_30 DFF_35 DFF_40 DFF_45 DFF_50 DFF_55 DFF_60 DFF_65 DFF_70 DFF_75 DFF_80 DFF_85 DFF_90 DFF_95 DFF_100 DFF_105 DFF_110 DFF_115 DFF_120 DFF_125 DTB3_5 DTB3_10 DTB3_15 DTB3_20 DTB3_25 DTB3_30 DTB3_35 DTB3_40 DTB3_45 DTB3_50 DTB3_55 DTB3_60 DTB3_65 DTB3_70 DTB3_75 DTB3_80 DTB3_85 DTB3_90 DTB3_95 DTB3_100 DTB3_105 DTB3_110 DTB3_115 DTB3_120 DTB3_125 DGS10_5 DGS10_10 DGS10_15 DGS10_20 DGS10_25 DGS10_30 DGS10_35 DGS10_40 DGS10_45 DGS10_50 DGS10_55 DGS10_60 DGS10_65 DGS10_70 DGS10_75 DGS10_80 DGS10_85 DGS10_90 DGS10_95 DGS10_100 DGS10_105 DGS10_110 DGS10_115 DGS10_120 DGS10_125 Curve_5 Curve_10 Curve_15 Curve_20 Curve_25 Curve_30 Curve_35 Curve_40 Curve_45 Curve_50 Curve_55 Curve_60 Curve_65 Curve_70 Curve_75 Curve_80 Curve_85 Curve_90 Curve_95 Curve_100 Curve_105 Curve_110 Curve_115 Curve_120
feature_infos=[-0.097100000000000006:0.099400000000000016] [-0.10240000000000002:0.099500000000000005] [-0.10280000000000002:0.096400000000000013] [-0.10200000000000001:0.1031] [-0.10150000000000001:0.1023] [-0.099500000000000005:0.10140000000000002] [-0.099700000000000011:0.1019] [-0.10290000000000001:0.10010000000000001] [-0.11410000000000002:0.10280000000000002] [-0.1135:0.1018] [-0.11120000000000001:0.1003] [-0.10630000000000001:0.10240000000000002] [-0.11410000000000002:0.10340000000000002] [-0.1135:0.1031] [-0.11250000000000002:0.10280000000000002] [-0.11950000000000001:0.10390000000000001] [-0.11889999999999999:0.1086] [-0.1123:0.10569999999999997] [-0.11550000000000001:0.10270000000000001] [-0.11550000000000001:0.1106] [-0.1132:0.12119999999999999] [-0.1157:0.11210000000000001] [-0.1132:0.11720000000000001] [-0.1162:0.12519999999999998] [-0.1231:0.12349999999999998] [-0.021699999999999997:0.019099999999999978] [-0.029399999999999996:0.025599999999999984] [-0.036500000000000019:0.029999999999999971] [-0.045200000000000004:0.033700000000000035] [-0.052400000000000002:0.037499999999999978] [-0.057300000000000018:0.037099999999999994] [-0.062200000000000005:0.041499999999999995] [-0.0683:0.044299999999999978] [-0.071899999999999992:0.051399999999999973] [-0.078600000000000003:0.054099999999999981] [-0.07640000000000001:0.059400000000000008] [-0.084600000000000009:0.058899999999999994] [-0.083299999999999999:0.058399999999999994] [-0.087900000000000006:0.056299999999999989] [-0.0906:0.063700000000000007] [-0.09820000000000001:0.068499999999999978] [-0.091899999999999996:0.068000000000000005] [-0.091899999999999996:0.069199999999999984] [-0.094299999999999995:0.073700000000000002] [-0.095200000000000007:0.072700000000000001] [-0.088899999999999993:0.068299999999999986] [-0.084099999999999994:0.076000000000000012] [-0.080399999999999999:0.083399999999999988] [-0.081700000000000009:0.08589999999999999] [-0.078799999999999995:0.085199999999999998] [-0.0126:0.010200000000000015] [-0.016200000000000006:0.014500000000000013] [-0.022499999999999992:0.016400000000000012] [-0.024699999999999972:0.019300000000000025] [-0.024599999999999983:0.023600000000000024] [-0.027200000000000002:0.025500000000000009] [-0.028899999999999981:0.028000000000000011] [-0.031700000000000006:0.029399999999999996] [-0.02990000000000001:0.029700000000000018] [-0.03040000000000001:0.030200000000000005] [-0.028900000000000009:0.031500000000000014] [-0.033200000000000021:0.032400000000000012] [-0.033199999999999993:0.032600000000000004] [-0.038500000000000006:0.033100000000000018] [-0.034200000000000008:0.031400000000000011] [-0.036400000000000016:0.033500000000000002] [-0.036800000000000013:0.032100000000000017] [-0.03800000000000002:0.032800000000000024] [-0.036699999999999983:0.031400000000000011] [-0.041099999999999984:0.028899999999999995] [-0.040800000000000017:0.030200000000000005] [-0.043700000000000003:0.029700000000000004] [-0.04229999999999999:0.028100000000000014] [-0.040700000000000014:0.028999999999999984] [-0.040799999999999989:0.030299999999999994] [-0.018800000000000011:0.017799999999999996] [-0.025700000000000028:0.0252] [-0.027800000000000047:0.028899999999999988] [-0.027800000000000047:0.036400000000000002] [-0.031299999999999939:0.041500000000000009] [-0.032400000000000012:0.042200000000000001] [-0.031099999999999961:0.046200000000000005] [-0.035800000000000012:0.049100000000000005] [-0.037299999999999972:0.051000000000000004] [-0.040400000000000019:0.052600000000000008] [-0.042199999999999974:0.057900000000000007] [-0.040099999999999983:0.059300000000000019] [-0.039399999999999963:0.056799999999999989] [-0.045100000000000015:0.057800000000000004] [-0.052100000000000007:0.057599999999999998] [-0.05029999999999997:0.062300000000000008] [-0.049599999999999977:0.057300000000000031] [-0.049099999999999977:0.061700000000000019] [-0.051699999999999982:0.063100000000000031] [-0.05319999999999997:0.061000000000000013] [-0.053299999999999972:0.055199999999999999] [-0.055300000000000016:0.053100000000000008] [-0.06049999999999997:0.051800000000000013] [-0.060699999999999976:0.052300000000000027]
tree_sizes=2509 2549 2527 2520 2555 2552 2552 2541 2559 2551 2568 2557 2582 2578 2587 2586 2570 2599 2574 2603 2600 2590 2581 2592 2593 2611 2598 2607 2591 2601 2592 2589 2612 2592 2602 2574 2579 2604 2581 2614 2597 2615 2618 2599 2597 2600 2606 2590 2602 2614 2618 2611 2616 2616 2614 2602 2594 2618 2593 2621 2603 2609 2591 2572 2602 2618 2618 2630 2579 2617 2601 2597 2625 2616 2590 2597 2608 2598 2606 2613 2603 2612 2607 2628 2590 2578 2627 2598 2617 2597 2620 2611 2621 2605 2614 2604 2589 2602 2634 2624

Tree=0
num_leaves=31
num_cat=0
split_feature=13 92 84 24 83 74 21 23 61 13 82 65 74 62 34 64 30 18 11 98 64 53 69 58 43 28 90 28 26 43
split_gain=1644.52 389.102 290.817 230.695 225.155 167.418 160.958 158.082 150.849 137.6 112.445 110.275 98.0647 90.9157 90.721 89.1106 81.047 77.3281 77.0889 75.1538 72.1046 71.0709 62.7233 59.5522 58.5472 57.4975 67.6546 57.0836 51.6835 49.3332
threshold=-0.012500000000000001 0.0058999999999999929 0.0068000000000000187 -0.035400000000000001 -0.0092999999999999906 -0.009749999999999993 0.0061000000000000056 0.020050000000000002 -0.00069999999999998872 -0.0073999999999999995 0.0054000000000000064 0.01865000000000001 -0.007999999999999995 -0.013099999999999992 0.0038000000000000017 0.0051000000000000151 -0.0057000000000000063 -0.012449999999999998 -0.014149999999999994 0.004099999999999983 0.01070000000000001 -0.0019999999999999979 0.0017000000000000142 -0.0017999999999999889 -0.0012999999999999884 -0.0064999999999999945 0.012199999999999976 0.0021000000000000068 -0.0038000000000000078 -0.0058499999999999967
decision_type=2 2 2 2 2 2 2 2 2 2 2 2 2 2 2 2 2 2 2 2 2 2 2 2 2 2 2 2 2 2
left_child=3 2 4 15 6 13 -2 14 -7 12 16 -8 -6 -5 18 -1 22 29 -3 -20 25 -19 -11 -4 -12 26 -10 -17 -18 -14
right_child=1 7 23 5 9 8 11 -9 20 10 24 -13 17 -15 -16 27 28 21 19 -21 -22 -23 -24 -25 -26 -27 -28 -29 -30 -31
leaf_value=-1.4033032612294116 -1.4861380801664397 -1.5046936116665848 -1.6828766952976084 -1.4667578583773995 -1.7655738361944655 -1.4452242786117986 -1.730121229474896 -1.423237360324817 -1.3892369712212376 -1.708651737744312 -1.4597105049995662 -1.4323041307524382 -1.6637901132326443 -1.7562866263167012 -1.5043070380936652 -1.4597105049995662 -1.6439484575914838 -1.5744257572054019 -1.5478024222224775 -1.7040871763376879 -1.3892369712212371 -1.7317093836577062 -1.4918381453985103 -1.4610155704399057 -1.687394229514168 -1.6856403632889154 -1.6711311063345535 -1.7768414070020471 -1.7641705822724614 -1.4156645463881103
leaf_count=248 96 47 33 25 172 180 224 57 33 108 33 27 24 132 64 22 70 90 66 618 25 146 34 81 65 153 33 22 6944 44
internal_value=0 -0.377065 -0.563332 3.62454 -0.625659 2.60987 1.56841 1.41368 3.51934 -0.724151 -0.819308 0.395677 0.726002 0.153714 1.09255 5.64345 -0.859875 1.67658 0.814249 0.577239 2.09295 0.922813 1.22261 3.85261 2.14288 1.58157 3.7537 1.99186 -0.902035 4.29261
internal_count=9916 9043 8191 873 8077 581 347 852 424 7730 7254 251 476 157 795 292 7156 304 731 684 244 236 142 114 98 219 66 44 7014 68
shrinkage=1


Tree=1
num_leaves=31
num_cat=0
split_feature=17 92 84 20 84 74 95 23 27 65 14 82 64 74 22 37 35 7 68 20 56 32 74 4 31 66 8 66 33 71
split_gain=1380.3 317.321 216.734 208.582 182.367 134.268 104.456 104.103 101.396 99.4395 87.7864 84.8846 81.2777 74.8094 95.0816 85.7189 81.6918 74.6678 73.6634 81.8522 63.6661 61.6438 54.636 54.1725 53.178 51.1258 50.1176 49.6514 44.3811 47.68
threshold=-0.011499999999999998 0.0058999999999999929 0.0068000000000000187 -0.027949999999999992 -0.011500000000000002 -0.009299999999999994 -0.019549999999999994 0.020050000000000002 -0.0057999999999999953 -0.0016999999999999964 -0.0075000000000000041 0.0055000000000000162 0.0046000000000000147 0.0084000000000000134 -0.0045000000000000014 0.0032000000000000036 -0.0047999999999999874 -0.0088999999999999999 0.0041999999999999893 0.0046500000000000022 0.0063000000000000079 0.0032999999999999995 0.0081000000000000013 0.0088000000000000005 0.0046000000000000043 -0.00089999999999999445 0.0036500000000000009 0.0036000000000000133 -0.0025999999999999942 0.005749999999999999
decision_type=2 2 2 2 2 2 2 2 2 2 2 2 2 2 2 2 2 2 2 2 2 2 2 2 2 2 2 2 2 2
left_child=3 2 4 12 6 21 -2 13 25 -7 24 23 -1 14 15 17 -16 -3 19 -8 -11 -5 -14 -12 -10 -6 -19 -13 -25 -30
right_child=1 7 -4 5 8 9 18 -9 10 20 11 27 22 -15 16 -17 -18 26 -20 -21 -22 -23 -24 28 -26 -27 -28 -29 29 -31
leaf_value=0.22642778086321283 -0.054513213349614224 0.23451951356533726 0.15345099114544031 -0.031661582705829971 0.25405511532123076 0.19270701552714242 0.26041769410589266 0.23035041512918994 0.0079634711999528301 0.049467211564963115 -0.046861330056837701 0.23162629239578636 -4.6030263155973661e-05 -0.034730395635064429 0.0082227797527681928 0.27559661583907696 0.22958523863980251 -0.0213686413801207 0.20678990916761453 -0.036923546730080914 0.2199974418009156 0.18934495842596186 0.20357759505425138 0.16171249451477138 0.18373922313181154 0.034589005676420426 0.19220152564605722 -0.027623470055577373 -0.044266422996210975 0.06998327907919126
leaf_count=353 84 25 109 200 29 206 21 56 373 276 6722 30 56 154 43 24 105 269 100 70 44 25 39 34 35 59 22 24 223 106
internal_value=0 -0.434535 -0.59812 2.62081 -0.656415 1.72421 1.51394 1.31516 -0.740611 2.44354 -0.777054 -0.851151 3.98433 0.98153 1.50011 0.698575 3.30485 0.307308 2.59016 0.782946 1.48701 -0.0892143 1.77784 -0.879636 0.471649 2.15544 -0.0973996 2.47609 0.179622 -0.137669
internal_count=9916 8717 8019 1199 7910 751 275 698 7635 526 7547 7139 448 642 488 340 148 316 191 91 320 225 95 7085 408 88 291 54 363 329
shrinkage=0.05


Tree=2
num_leaves=31
num_cat=0
split_feature=21 92 16 16 31 35 24 68 24 13 64 6 90 75 31 70 74 62 83 8 92 25 74 59 16 48 22 34 98 91
split_gain=1170.48 313.641 196.629 166.437 128.86 115.466 103.706 92.1017 101.339 87.8409 76.6107 75.2421 72.575 68.436 65.4449 65.1328 94.7857 133.254 56.7725 53.0413 47.4767 46.2283 43.4805 44.2745 43.287 41.9142 59.7211 41.8876 41.7881 39.8163
threshold=-0.012450000000000001 0.0058999999999999929 0.017549999999999993 -0.023700000000000002 0.010799999999999999 -0.0014 0.022550000000000011 0.0056000000000000156 -0.0074999999999999971 -0.0062999999999999957 0.018750000000000006 -0.0075000000000000041 -0.0064000000000000055 -0.0024000000000000093 -0.0023999999999999972 -0.024700000000000003 -0.01 -0.00044999999999999202 0.0050999999999999978 -0.0052000000000000058 0.0039000000000000115 -0.004150000000000007 -0.0075999999999999983 -0.0042999999999999939 0.052200000000000003 -0.013349999999999999 -0.012450000000000001 -0.0029999999999999918 0.00070000000000000108 0.0011999999999999947
decision_type=2 2 2 2 2 2 2 2 2 2 2 2 2 2 2 2 2 2 2 2 2 2 2 2 2 2 2 2 2 2
left_child=3 2 4 -1 6 -4 9 8 11 13 14 -3 -6 -2 24 -5 -17 25 21 -9 28 -11 -15 29 -7 -18 -27 -19 -20 -24
right_child=1 7 5 15 12 10 -8 19 -10 18 -12 -13 -14 22 -16 16 17 27 20 -21 -22 -23 23 -25 -26 26 -28 -29 -30 -31
leaf_value=0.1717745338596208 0.19199841510682691 0.2309687010403621 0.1840965563067237 0.23646525380460737 0.015547672825681556 0.19029196111945512 0.096429233800232689 0.13377054810545447 0.16360164064669946 0.14230130761826457 0.19155481644999894 -0.0018072890521949134 0.25374572809492435 -0.054533454036335985 -0.022343701815859589 -0.014728173956200902 0.071417146421044117 -0.027847876989768441 -0.028210509173550852 -0.032635180375442677 -0.046473994988367774 -0.047946888347926223 0.20075741931528079 0.00014651030856703413 -0.029595946611910021 0.23142553762199949 0.07832912790090199 0.071239655988624348 0.19686232298963419 0.0055607810303213122
leaf_count=431 33 25 86 36 54 48 102 39 207 23 36 173 38 194 373 205 71 127 22 193 59 6557 43 246 25 139 63 196 39 33
internal_value=0 -0.431993 -0.595295 2.24468 -0.723963 0.944878 -0.768948 1.34038 2.0722 -0.811535 0.393424 0.657204 2.4042 0.243155 0.0434154 1.51813 1.34837 1.85678 -0.905251 -0.0362571 0.905057 -0.943675 -0.0192007 0.581163 2.35328 3.15242 3.73922 0.669975 2.43066 2.34868
internal_count=9916 8648 8011 1268 7443 568 7351 637 405 7249 482 198 92 549 446 837 801 596 6700 232 120 6580 516 322 73 273 202 323 61 76
shrinkage=0.05


Tree=3
num_leaves=31
num_cat=0
split_feature=17 91 16 23 74 5 35 42 22 64 71 32 38 29 23 65 98 95 88 30 74 21 87 95 7 28 41 23 21 19
split_gain=1004.18 255.121 175.193 124.312 123.685 122.486 89.5348 68.5988 67.2743 62.6829 64.2175 60.5451 83.0201 58.3956 57.143 58.0268 55.1009 79.4114 49.0928 54.0759 56.355 66.4064 48.1852 58.6639 47.9219 46.7718 41.5527 38.1654 38.5003 37.9687
threshold=-0.011499999999999998 0.0055999999999999982 0.017549999999999993 -0.035799999999999978 -0.01 -0.0028999999999999959 -0.0014 -0.025400000000000009 0.023200000000000005 -0.00080000000000000546 0.0096999999999999951 0.0095000000000000067 0.0068000000000000048 0.0047000000000000002 0.017200000000000017 0.01865000000000001 0.0009999999999999959 1.0000000180025095e-35 0.0022999999999999935 0.0031000000000000042 0.006700000000000002 -0.0038000000000000009 0.004700000000000021 0.0027999999999999991 -0.0083999999999999995 0.0049000000000000059 0.0086000000000000017 -0.016199999999999999 0.022599999999999999 -0.014299999999999995
decision_type=2 2 2 2 2 2 2 2 2 2 2 2 2 2 2 2 2 2 2 2 2 2 2 2 2 2 2 2 2 2
left_child=3 2 5 -1 7 13 -4 -5 18 29 25 22 -13 16 26 -16 -2 -18 -3 20 21 24 27 -24 -20 -11 -8 -7 -29 -6
right_child=1 8 6 4 9 11 14 -9 -10 10 -12 12 -14 -15 15 -17 17 -19 19 -21 -22 -23 23 -25 -26 -27 -28 28 -30 -31
leaf_value=0.16525886476964294 -0.025584366313075813 0.1702642961435504 0.15596540310434548 0.19068714082330476 0.1772723162630753 0.1124457918673385 -0.024314886864625337 -0.039014507038262175 0.18794135585499069 0.026209483753539278 0.18359993290933754 0.25248145869628547 -0.0061245043673335319 0.13722445691424745 -0.027102846973761065 0.14641472702146061 0.25713969098134604 0.02315308363363552 0.15963517030388508 0.14526446612795763 -0.052022108248776622 0.13009721800550317 0.13043497265572282 -0.04161630780084033 -0.0058849729948502513 0.18115192324578777 0.15842233536378839 -0.049240407648330403 0.081768014603897085 0.087851363519518777
leaf_count=302 637 43 86 20 168 25 37 209 47 293 56 25 127 58 347 30 30 342 29 61 164 102 57 96 301 32 67 5963 43 119
internal_value=0 -0.409249 -0.571704 2.0518 1.54591 -0.698307 0.859642 -0.227234 1.05267 2.04532 1.34274 -0.856182 0.837388 0.175177 0.355297 -0.161814 0.00801357 0.838547 0.82127 0.629308 0.371409 0.853773 -0.903706 0.614145 0.237891 0.872661 2.0758 -0.947091 -0.963877 2.86397
internal_count=9916 8717 7970 1199 897 7403 567 229 747 668 381 6336 152 1067 481 377 1009 372 700 657 596 432 6184 153 330 325 104 6031 6006 287
shrinkage=0.05


Tree=4
num_leaves=31
num_cat=0
split_feature=21 92 16 33 17 24 6 37 42 98 91 24 49 61 98 62 34 92 51 67 68 69 42 78 13 31 59 67 22 6
split_gain=882.691 257.693 165.39 107.137 96.1577 88.0267 77.5684 75.2394 69.7169 61.0118 106.359 57.096 55.0152 81.935 65.3641 75.8836 54.6729 53.7512 52.7969 48.8782 45.6609 55.4577 43.8925 40.9261 57.6115 40.8709 38.117 39.0147 43.2905 39.5023
threshold=-0.012450000000000001 0.0058999999999999929 0.017549999999999993 0.012200000000000015 -0.023649999999999987 0.022550000000000011 -0.0017999999999999924 -0.0016999999999999964 -0.011500000000000005 0.0009999999999999959 -0.0021999999999999897 0.019949999999999999 -0.013099999999999995 -0.012600000000000019 -0.00099999999999999894 -0.00044999999999999202 -0.0025000000000000001 -0.00609999999999999 -0.0050499999999999981 0.020199999999999992 0.010650000000000001 0.0010000000000000046 0.0076000000000000069 -0.00099999999999999894 -0.004299999999999987 0.0064999999999999858 -0.0021999999999999967 0.0049000000000000059 -0.0049999999999999932 -0.0063000000000000096
decision_type=2 2 2 2 2 2 2 2 2 2 2 2 2 2 2 2 2 2 2 2 2 2 2 2 2 2 2 2 2 2
left_child=4 2 3 5 -1 6 9 -4 -3 25 -11 22 13 -6 -14 -16 -17 -5 -13 -20 21 -10 -9 24 -12 -2 -23 28 29 -28
right_child=1 8 7 17 12 -7 -8 11 20 10 23 18 14 -15 15 16 -18 -19 19 -21 -22 26 -24 -25 -26 -27 27 -29 -30 -31
leaf_value=0.12998919826113228 -0.037692483111504201 0.16101995082087295 0.16400864535921186 0.012308935373414083 0.17784535480525476 0.082258258552700261 -0.047517312365941054 -0.024599640791142709 -0.017673368983383224 0.21586347172601617 0.1940745095495896 0.16116411333628186 -0.015995738687849752 -0.0064859266473828283 0.16032814522590233 -0.033810766176694144 0.10743625374896495 0.19746868868767997 -0.03984864477432784 0.14334513668200632 -0.041664437159742079 -0.060016429607836277 0.13768556464936421 -0.014925398785332082 -0.015267687425789428 0.1240774678463958 0.17366333503575968 0.039422639270448478 0.17924825871050887 -0.028215879462415269
leaf_count=467 1016 77 60 64 35 100 5658 47 129 48 43 27 91 292 191 87 105 39 322 20 112 31 92 390 57 28 23 122 98 45
internal_value=0 -0.407671 -0.566332 -0.6931 1.82136 -0.740949 -0.784113 0.805535 1.14149 -0.228269 0.522983 0.427587 1.24385 0.410851 1.78168 2.19849 0.989627 1.87885 -0.155337 -0.472259 0.797188 1.13232 1.83111 0.118643 1.68463 -0.648492 1.67082 1.93176 2.66346 1.01149
internal_count=9916 8648 8011 7443 1268 7340 7240 568 637 1582 538 508 801 327 474 383 192 103 369 342 560 448 139 490 100 1044 319 288 166 68
shrinkage=0.05


Tree=5
num_leaves=31
num_cat=0
split_feature=11 93 78 28 95 74 81 70 36 24 23 74 38 35 31 70 66 19 20 10 75 32 98 4 22 73 68 57 14 49
split_gain=793.236 226.282 160.277 120.327 116.447 87.8633 85.2074 71.1603 55.712 53.444 47.3694 66.9972 64.1726 58.0337 44.0976 81.952 64.2569 42.518 39.635 39.4132 38.1234 37.4005 50.7434 36.9086 37.6018 36.1299 61.599 35.0027 39.6193 51.3161
threshold=-0.0075000000000000041 0.0062999999999999905 0.0028000000000000008 0.0050000000000000018 0.015099999999999994 -0.0088999999999999999 0.0044000000000000055 -0.024700000000000003 0.0025000000000000009 -0.016199999999999999 0.018799999999999997 0.0027000000000000153 0.0037999999999999965 -0.0030999999999999947 0.010799999999999999 0.0081000000000000186 0.020650000000000005 -0.022499999999999992 0.017500000000000009 -0.011299999999999999 -0.0006000000000000084 0.0060999999999999987 -0.00019999999999999703 0.0087000000000000046 -1.0000000180025095e-35 0.0068000000000000048 0.0065499999999999942 -0.0070000000000000019 -1.0000000180025095e-35 0.0081000000000000082
decision_type=2 2 2 2 2 2 2 2 2 2 2 2 2 2 2 2 2 2 2 2 2 2 2 2 2 2 2 2 2 2
left_child=4 2 3 6 5 7 9 -1 -5 -2 11 13 -13 19 25 -16 -17 -7 -8 -3 -4 22 -19 -11 -25 -10 -27 -22 29 -29
right_child=1 10 20 8 -6 17 18 -9 14 23 -12 12 -14 -15 15 16 -18 21 -20 -21 27 -23 -24 24 -26 26 -28 28 -30 -31
leaf_value=0.16313368052003405 0.063815572359189582 0.14758567394626629 0.12013727937690584 0.15680104370122017 0.13313506723820787 0.13452884721467093 0.020380388767427621 -0.033772296744595941 -0.055768211748888533 -0.046276809045449396 0.1439905117797618 -0.033622112316978522 0.14647034836565193 0.12285470939782694 0.16536377442600983 -0.054276775753580531 0.16039044767074601 -0.011550261532981859 0.19341310110883272 -0.0064596878196319278 0.14763296012608643 0.14636250061924608 0.075025244749358358 0.15835452560074589 -0.01123109127858072 0.22260248599488028 -0.058136714429293294 0.030190411218986964 -0.022739776308986093 0.22894401792093141
leaf_count=25 78 27 85 52 370 131 70 259 223 6261 54 281 36 165 63 112 22 165 29 163 32 67 394 28 255 24 37 142 243 23
internal_value=0 -0.387228 -0.553059 -0.677754 1.6343 1.16259 -0.79474 -0.143079 0.561056 -0.841905 0.958011 0.736587 -0.198955 1.45403 0.259052 1.12407 -0.0982822 1.57151 1.5866 0.429912 0.870339 1.26832 1.03967 -0.875821 0.13813 -0.535991 1.33042 0.528305 0.285501 1.27565
internal_count=9916 8505 7779 7254 1411 1041 6721 284 533 6622 726 672 317 355 481 197 134 757 99 190 525 626 559 6544 283 284 61 440 408 165
shrinkage=0.05


Tree=6
num_leaves=31
num_cat=0
split_feature=20 92 20 27 26 38 16 11 61 65 42 69 68 77 36 49 63 97 62 4 22 63 59 32 82 8 97 68 71 47
split_gain=700.442 211.757 147.445 127.567 79.0375 78.1783 70.4317 67.4171 59.2572 59.1302 48.7069 47.92 64.7207 43.018 41.89 40.7491 62.3892 49.772 54.6032 40.0057 42.9131 38.0561 36.2399 32.3542 30.7428 30.6824 30.3574 75.2201 26.5379 26.1773
threshold=-0.011050000000000009 0.0057000000000000011 0.018750000000000006 0.0060999999999999987 -0.004699999999999988 -0.0012000000000000047 -0.021299999999999999 -0.0061999999999999998 -0.0044999999999999927 0.01865000000000001 -0.010599999999999993 0.00070000000000000281 0.0056000000000000156 0.006399999999999976 0.0030000000000000066 -0.013099999999999995 -0.010100000000000017 -0.0017999999999999941 -0.00039999999999999406 0.0075000000000000023 0.0015000000000000085 0.0072999999999999949 -0.0025000000000000053 0.0060999999999999987 0.0054000000000000064 0.0024999999999999922 -0.0056000000000000104 0.0050499999999999929 0.0011000000000000109 0.0069000000000000077
decision_type=2 2 2 2 2 2 2 2 2 2 2 2 2 2 2 2 2 2 2 2 2 2 2 2 2 2 2 2 2 2
left_child=6 2 3 4 -2 29 -1 23 -7 26 -3 -12 22 15 -14 16 -8 -17 -19 24 -21 -20 -13 -6 -9 -5 -10 -28 -27 -4
right_child=1 10 5 25 7 8 13 19 9 -11 11 12 14 -15 -16 17 -18 18 21 20 -22 -23 -24 -25 -26 28 27 -29 -30 -31
leaf_value=0.10792316569838566 0.08999657521863802 0.12280604957335546 0.030496719743372605 0.16729958309817644 0.0005662334758297188 0.15083147365352048 0.12067801731506418 -0.045995039297369977 -0.047684116457993232 0.12802957553090086 -0.047324753250370027 -0.059974377428074099 -0.034634780447720261 0.18796363287168605 0.10028339732970037 -0.026125110748251041 -0.017184898516821204 0.12751080223876207 0.007551825936009943 0.096127634856420757 -0.024531623314961545 0.14888693344047135 0.11045501151200138 0.12898536682866021 0.051177668713181516 0.15330137898482249 -0.054552228185566258 0.14384417733915286 -0.0035041948164746145 0.17683706794745577
leaf_count=494 78 96 26 43 462 40 54 6287 286 37 108 25 183 30 47 90 275 197 159 75 236 31 187 30 53 20 92 48 65 62
internal_value=0 -0.365852 -0.520567 -0.6507 -0.714572 0.732171 1.54418 -0.75394 0.278018 -0.0332954 0.992727 0.669579 1.02104 1.0608 -0.0407335 0.940711 0.23306 1.39381 1.72904 -0.841701 0.170349 0.720692 1.90066 0.223277 -0.896502 1.78695 -0.398558 0.601065 0.84621 2.75471
internal_count=9916 8586 7940 7349 7221 591 1330 7143 503 463 646 550 442 836 230 806 329 477 387 6651 311 190 212 492 6340 128 426 140 85 88
shrinkage=0.05


Tree=7
num_leaves=31
num_cat=0
split_feature=14 93 16 22 23 33 95 74 70 23 45 61 32 64 85 64 66 16 10 68 24 28 49 39 26 37 74 10 54 69
split_gain=625.643 203.583 130.147 103.327 86.4347 78.493 63.3851 91.7293 58.4113 57.0031 122.885 53.3782 50.0231 44.6689 43.2761 42.1221 46.3917 40.4358 38.7167 37.7126 36.4271 36.3076 31.565 40.4413 31.4505 30.6245 39.0868 45.0393 32.0015 27.5321
threshold=-0.0099000000000000025 0.0062999999999999905 0.017549999999999993 -0.011999999999999992 0.021300000000000006 0.012200000000000015 0.015899999999999997 -0.009749999999999993 -0.024700000000000003 -0.00034999999999999609 0.0067499999999999999 -0.00049999999999999687 -0.0011000000000000018 0.018750000000000006 0.0059000000000000068 0.0054000000000000098 0.01205 0.011749999999999998 -0.012900000000000003 0.0055000000000000127 0.016550000000000013 0.0039000000000000046 0.0060999999999999917 0.0043000000000000009 -0.004699999999999988 0.002900000000000002 0.0027000000000000153 -9.9999999999992442e-05 0.002100000000000012 0.0099000000000000008
decision_type=2 2 2 2 2 2 2 2 2 2 2 2 2 2 2 2 2 2 2 2 2 2 2 2 2 2 2 2 2 2
left_child=6 2 3 -2 5 9 7 8 -1 10 14 -9 29 -14 24 -8 -17 -7 -3 -12 25 -13 -6 -24 -5 26 27 -20 -27 -4
right_child=1 18 12 4 22 17 15 11 -10 -11 19 21 13 -15 -16 16 -18 -19 20 -21 -22 -23 23 -25 -26 28 -28 -29 -30 -31
leaf_value=0.13349184416440288 0.058548715545276957 0.16766820986103201 0.12019029074074511 0.12480378453541517 -0.048199762609987262 0.12799450468129164 0.12812038629983763 0.10371474654865974 -0.041532625580327831 -0.049817211425129689 0.074618747804218996 0.020052006062398521 -0.0064530802484996696 0.12500764350407448 0.081728898575256059 -0.013157647585892503 0.13666045894568912 -0.061191946322559268 0.0087800815379429388 0.29800635127417163 0.11110719771822641 0.14501748335064485 0.18256123045200101 0.0013092546010317933 -0.033087789707845532 0.16950773837211094 -0.027188921945284852 0.11913293610746084 0.016983093724219103 -0.032959477757428073
leaf_count=24 207 31 103 21 30 57 272 351 243 4758 33 282 400 33 56 70 38 28 180 29 72 33 42 41 2060 36 246 74 42 24
internal_value=0 -0.353818 -0.512319 -0.634781 -0.706088 -0.756262 1.44325 1.06836 -0.302742 -0.801304 -0.406648 1.49463 0.689579 0.201217 -0.533437 2.14563 0.939136 1.55186 0.940282 3.55036 0.792134 0.725494 1.52546 2.27239 -0.617544 0.542482 0.284804 0.930115 1.9106 1.94234
internal_count=9916 8603 7922 7362 7155 7042 1313 933 267 6957 2199 666 560 433 2137 380 108 85 681 62 650 315 113 83 2081 578 500 254 78 127
shrinkage=0.05


Tree=8
num_leaves=31
num_cat=0
split_feature=11 92 12 78 98 74 31 70 84 43 88 23 31 63 32 69 11 62 73 24 65 96 5 98 57 42 1 53 64 79
split_gain=561.808 166.883 134.164 95.8213 86.5345 83.6924 78.7796 62.7214 47.4265 45.5232 43.663 42.5175 46.3824 44.1105 41.6632 41.1048 38.7716 35.0911 61.4668 52.1602 50.711 33.3211 33.1535 56.0101 36.3497 32.7686 31.2519 33.4913 26.6897 36.4678
threshold=-0.0061999999999999998 0.0062000000000000015 0.014049999999999995 0.0028000000000000008 0.018350000000000002 -0.0086999999999999942 0.010399999999999998 -0.024700000000000003 0.005849999999999995 -0.013150000000000004 -0.0082999999999999966 -0.012499999999999989 0.0067999999999999979 -0.00020000000000001264 -0.0022999999999999926 0.010699999999999999 -0.0025999999999999942 0.0044000000000000124 0.0081000000000000186 0.018150000000000003 0.01865000000000001 0.0091999999999999912 -0.0025000000000000001 0.0055000000000000005 -0.001699999999999986 -0.011500000000000005 0.0050000000000000001 -0.0034999999999999992 0.0054000000000000098 0.0039000000000000046
decision_type=2 2 2 2 2 2 2 2 2 2 2 2 2 2 2 2 2 2 2 2 2 2 2 2 2 2 2 2 2 2
left_child=4 2 3 6 5 7 8 -1 9 -2 -8 13 21 -7 -4 16 25 -16 19 -19 -20 -13 23 -11 -25 -3 27 -5 -6 -30
right_child=1 15 14 26 28 11 10 -9 -10 22 -12 12 -14 -15 17 -17 -18 18 20 -21 -22 -23 -24 24 -26 -27 -28 -29 29 -31
leaf_value=0.12887988289576899 0.086609803672139912 0.098406475022737555 0.10574711776319604 0.14657103342152658 0.12532332029123092 0.11521570037749876 -0.059168956489928717 -0.030461470124589426 0.078788161998390574 -0.029062431428455712 0.13493611807326192 0.011287524332959643 0.12614970157164529 0.041009588306751991 -0.027857574825530664 -0.036859937006159062 0.076515081484878456 0.20913146533887114 -0.035816792747243753 -0.039858568339631514 0.10994563858005715 0.11358685602646264 -0.048716719229327389 0.23918838789787167 0.027813143109845215 -0.024805700375447107 0.12313718829560034 0.00088302399595098177 -0.065282886528934866 0.099803488584021605
leaf_count=30 42 36 86 22 224 239 32 364 47 747 52 474 61 185 235 113 322 47 159 25 38 49 5612 25 45 152 45 328 27 53
internal_value=0 -0.390844 -0.541776 -0.677798 1.18608 0.890339 -0.778984 -0.193185 -0.828249 -0.857794 1.56659 1.22644 0.750481 1.73572 0.663586 0.809416 1.0677 0.317636 0.916292 2.91578 0.143546 0.461871 -0.884441 -0.319568 2.06826 0.117196 0.610044 0.295137 2.16358 1.04408
internal_count=9916 8210 7587 6997 1706 1402 6602 394 6518 6471 84 1008 584 424 590 623 510 504 269 72 197 523 6429 817 70 188 395 350 304 80
shrinkage=0.05


Tree=9
num_leaves=31
num_cat=0
split_feature=14 92 16 9 95 73 71 4 27 88 60 78 63 58 69 64 66 72 23 65 23 26 74 39 22 13 19 43 39 3
split_gain=507.746 164.455 121.339 83.0549 64.8371 81.5696 59.4485 56.6913 40.8157 40.1075 44.0833 39.3026 38.5132 37.9891 39.4559 32.4147 36.0607 31.395 31.0993 30.4001 34.9784 29.8121 29.4529 43.6712 36.0782 31.1604 29.2981 41.7692 26.9974 26.5073
threshold=-0.0075000000000000041 0.0057000000000000011 0.017549999999999993 -0.0062000000000000067 0.015899999999999997 -0.0093000000000000044 -0.025100000000000001 0.0075000000000000023 0.0027000000000000153 0.001599999999999994 -0.0053000000000000087 0.0028000000000000008 -0.0013000000000000058 0.0033999999999999972 0.007199999999999992 0.0039000000000000046 0.01205 -0.0011000000000000001 0.020050000000000002 0.01865000000000001 0.018200000000000004 0.00080000000000000568 0.0026000000000000125 0.0027999999999999991 0.0025000000000000061 -0.0025499999999999963 -0.016199999999999999 -0.0061999999999999998 -0.0030999999999999964 -0.0067499999999999982
decision_type=2 2 2 2 2 2 2 2 2 2 2 2 2 2 2 2 2 2 2 2 2 2 2 2 2 2 2 2 2 2
left_child=4 2 3 8 5 6 -1 11 -2 10 -4 -5 26 28 -15 -6 -17 -13 22 20 -12 -14 25 -24 -25 -3 -7 -28 -9 -29
right_child=1 18 9 7 15 12 -8 13 -10 -11 19 17 21 14 -16 16 -18 -19 -20 -21 -22 -23 23 24 -26 -27 27 29 -30 -31
leaf_value=0.11065708564457442 0.008461258604792167 0.023802308697325181 0.11147863758017099 -0.044209505013694132 0.11125169705460841 0.11728588969375825 -0.042288028094920181 0.086873946678594813 0.12598197609345371 0.11108626647291293 0.050971862776642299 0.069034359769242909 0.0067783753655741453 0.13979906063056707 -0.021691974943915407 -0.0054242882306709053 0.11912502381521542 -0.025956571067484863 0.11012242162737783 0.094725426501829052 -0.039781900732422583 0.073556499446622806 -0.029260777194029183 0.17119605593216053 -0.012142201277523558 0.10424513830785143 0.017304729168557843 0.0028427262116820264 -0.042851988866608404 0.1327781057003814
leaf_count=33 283 189 51 6098 268 144 307 34 51 69 94 101 289 63 44 79 40 202 57 32 313 142 249 30 36 96 177 28 206 111
internal_value=0 -0.372836 -0.528414 -0.660052 1.13891 0.829722 -0.341056 -0.747001 0.663136 0.616805 0.31564 -0.821736 1.16973 0.372842 1.58129 1.85311 0.870646 0.169274 0.784899 -0.0140213 -0.281269 0.627774 0.582064 -0.0167159 1.73026 1.10191 1.61726 1.15483 -0.368959 2.12562
internal_count=9916 8298 7641 7082 1618 1231 340 6748 334 559 490 6401 891 347 107 387 119 303 657 439 407 431 600 315 66 285 460 316 240 139
shrinkage=0.05


Tree=10
num_leaves=31
num_cat=0
split_feature=16 89 15 7 98 91 95 74 71 29 33 35 8 39 23 64 46 77 62 59 21 78 85 79 98 57 77 1 68 5
split_gain=453.869 150.486 104.154 79.2067 62.8969 59.3328 57.6715 58.6253 71.4907 52.1187 51.3342 47.9681 42.9883 38.1232 68.1594 37.9573 34.2589 33.5487 33.0344 38.2934 38.1248 28.7572 28.7391 28.3255 28.3206 28.1729 27.9251 26.6319 26.192 26.1778
threshold=-0.0085999999999999913 0.0049999999999999845 0.017500000000000009 -0.0025000000000000001 0.0017999999999999859 -0.0020999999999999938 0.016700000000000003 -0.01059999999999999 -0.025100000000000001 0.0041000000000000038 0.0091000000000000091 -0.00085000000000000342 0.013349999999999996 -0.0016000000000000022 -0.0053999999999999907 0.0049000000000000059 -0.0024999999999999914 0.0013000000000000062 -0.00020000000000000223 0.0043999999999999985 -0.013699999999999999 0.0078000000000000092 0.0011999999999999964 0.0041999999999999859 -0.016850000000000007 0.0029000000000000037 0.0038000000000000087 0.0010000000000000046 0.0068999999999999938 -0.0028999999999999959
decision_type=2 2 2 2 2 2 2 2 2 2 2 2 2 2 2 2 2 2 2 2 2 2 2 2 2 2 2 2 2 2
left_child=6 2 3 4 10 -6 7 8 -1 13 -2 -4 29 14 26 -8 28 -17 20 21 -9 -20 -22 -21 -13 -14 -3 -24 -15 -5
right_child=1 9 11 12 5 -7 15 18 -10 -11 -12 24 25 16 -16 17 -18 -19 19 23 22 -23 27 -25 -26 -27 -28 -29 -30 -31
leaf_value=0.11170144929862008 -0.031878313178636035 -0.037877053290970984 0.10781981594389954 -0.0032560680067945606 0.20495842976937159 0.028832178155557081 0.10899633374759621 0.099240215625618217 -0.052825393534852987 0.11861613978989201 0.10783984473835634 -0.047226581840526166 -0.021842172037975633 -0.021443178543531421 0.087779462536592287 -0.058667884956047793 -0.054258238354998281 0.07497834254900225 -0.01070749677539197 0.11381960706725847 0.085503638978700239 0.11280082563813805 -0.036392655105266 -0.040271621459464613 0.029419520793346088 0.11454871897441982 0.11167962743985603 0.077381450418660042 0.1427748830689349 -0.046286715962858667
leaf_count=36 824 159 74 333 34 284 245 241 249 78 35 145 77 41 190 40 207 65 295 82 107 24 108 20 306 45 20 43 24 5485
internal_value=0 -0.3873 -0.541308 -0.659772 0.0198318 1.03017 1.0646 0.776744 -0.332951 0.693281 -0.430215 0.56955 -0.822732 0.418102 0.875578 1.77357 -0.441733 0.628928 1.0396 0.516085 1.42792 0.0484763 0.694099 1.69946 0.173213 0.835981 -0.348773 -0.00865374 1.14019 -0.867658
internal_count=9916 8361 7642 7117 1177 318 1555 1205 285 719 859 525 5940 641 369 350 272 105 920 421 499 319 258 102 451 122 179 151 65 5818
shrinkage=0.05


Tree=11
num_leaves=31
num_cat=0
split_feature=10 91 16 16 95 22 74 85 35 69 33 48 49 74 5 93 5 65 21 33 79 11 27 0 93 95 69 55 36 26
split_gain=416.358 146.657 105.78 80.9797 62.6734 56.2424 47.3631 43.9266 43.6857 39.4894 39.2495 44.0845 38.7274 40.1606 95.8182 47.4029 35.0102 33.6048 33.4319 35.3885 29.5353 28.8812 27.5565 26.8168 26.4213 24.5576 31.5109 24.6889 24.4477 23.481
threshold=-0.0062999999999999957 0.0064000000000000142 0.017549999999999993 -0.0075000000000000041 0.016700000000000003 0.023200000000000005 -0.0088999999999999999 -0.0099000000000000008 -0.0014 0.010699999999999999 0.0091000000000000091 0.011600000000000011 -0.0034999999999999992 -0.0031999999999999871 -0.0021000000000000025 0.00089999999999999987 0.0038000000000000017 -0.0038999999999999968 -0.0036999999999999876 0.002900000000000002 1.0000000180025095e-35 -0.0079999999999999846 0.0033999999999999955 0.001799999999999998 0.0055000000000000092 -0.019549999999999994 0.0037500000000000038 0.0025999999999999951 -0.0052999999999999948 -0.0037000000000000049
decision_type=2 2 2 2 2 2 2 2 2 2 2 2 2 2 2 2 2 2 2 2 2 2 2 2 2 2 2 2 2 2
left_child=4 2 3 23 6 10 7 -1 -4 16 12 -12 13 24 15 -15 18 -8 19 21 -17 -3 -19 -2 -5 -10 -27 -28 -20 -14
right_child=1 9 8 5 -6 -7 17 -9 25 -11 11 -13 29 14 -16 20 -18 22 28 -21 -22 -23 -24 -25 -26 26 27 -29 -30 -31
leaf_value=0.11601995284969689 0.0084046090641777312 0.077639390734260127 0.10819999971591743 -0.0473095630048996 0.090191474791767257 0.077405581036225066 0.079966662012425471 -0.028888090904622341 -0.053894334114165734 -0.032168171107828436 0.076462962565784859 -0.053568668368010691 0.033325490880151923 0.2585279388276876 -0.025797604495308296 0.19366472576109703 0.1048151218662764 0.021708708062256929 -0.038826085538278425 0.10927757182659602 -0.011409936817682355 -0.039026140068034926 0.089982091462642397 0.094105144227890403 0.066044184685700794 -0.032833211586709037 0.084033392603724527 0.00019859154368288999 0.10727880864783237 -0.048709005704924993
leaf_count=25 283 33 64 648 309 70 293 308 109 133 92 108 66 36 276 20 102 563 21 31 38 190 83 75 35 132 131 97 86 5459
internal_value=0 -0.379133 -0.524716 -0.6473 1.01036 -0.740233 0.733246 -0.18345 0.573976 0.757906 -0.777639 0.41185 -0.828679 -0.294097 0.476405 2.77202 1.03815 0.977824 0.64333 0.108581 1.21521 -0.316339 0.653585 0.58596 -0.762804 0.22546 0.516856 1.02497 1.66773 -0.945546
internal_count=9916 8335 7739 7206 1581 6848 1272 333 533 596 6778 200 6578 1053 370 94 463 939 361 254 58 223 646 358 683 469 360 228 107 5525
shrinkage=0.05


Tree=12
num_leaves=31
num_cat=0
split_feature=14 93 23 31 22 64 72 97 13 27 95 72 71 63 36 62 71 64 74 74 24 24 48 28 6 68 24 16 8 36
split_gain=377.044 134.473 89.4962 77.9852 77.5882 61.8381 54.259 71.1317 51.9084 45.7016 37.4109 52.8164 47.9546 39.8012 36.1448 57.37 32.9095 29.7421 29.8334 28.3348 49.6646 50.4049 29.9419 27.478 26.926 27.8735 48.5836 27.8944 26.8234 50.7673
threshold=-0.0095999999999999922 0.0062999999999999905 0.016300000000000002 0.0067999999999999979 -0.011999999999999992 -0.0034500000000000012 0.0049500000000000039 -0.0074000000000000133 -0.00039999999999999059 -0.0060499999999999955 0.016700000000000003 -0.0099999999999999863 -0.025100000000000001 -0.0012000000000000029 -0.0019999999999999979 0.0017000000000000038 -0.0019999999999999979 0.0051000000000000151 0.0084000000000000134 -0.0026000000000000012 -0.0017500000000000083 -0.0033000000000000074 -0.0019999999999999996 0.0049000000000000059 -0.0050000000000000018 0.0052000000000000006 -0.0074999999999999971 -0.012900000000000003 0.012000000000000005 0.0063000000000000044
decision_type=2 2 2 2 2 2 2 2 2 2 2 2 2 2 2 2 2 2 2 2 2 2 2 2 2 2 2 2 2 2
left_child=10 2 3 4 -2 -4 -7 -8 -5 -6 11 12 -1 -13 15 19 -10 -12 -19 -11 21 -21 -23 -15 -3 26 27 -26 -16 -30
right_child=1 24 5 8 9 6 7 -9 16 14 17 13 -14 23 28 -17 -18 18 -20 20 -22 22 -24 -25 25 -27 -28 -29 29 -31
leaf_value=0.099402031413966127 0.049444374048091606 0.082472005678539531 0.12596474084885645 0.12849526903796893 0.080746813171969328 -0.044434959905470105 -0.014487818836462402 0.096695356126474286 0.11863330968954325 -0.045542826990510717 0.097928679128464757 0.077506185582268558 -0.048986288702256166 0.011294875931620416 -0.049038589056940543 0.11183342433852449 -0.01816572458624454 -0.023906937339605874 0.09344614199699941 0.009737880757620547 -0.038595560409805552 0.28140121533207135 0.066624339526088511 0.10979917685641923 0.1091645164146568 -0.018049019930821905 0.081937269400026824 -0.028039947411280047 -0.049063661820221857 0.18185533433025233
leaf_count=29 169 116 62 65 43 315 254 141 23 758 242 356 217 334 5209 51 243 62 42 119 304 25 26 35 22 230 163 165 71 25
internal_value=0 -0.342608 -0.489572 -0.621897 -0.711692 0.368508 0.0954877 0.685459 0.649873 -0.78322 1.03943 0.773035 -0.362317 1.04539 -0.814353 -0.355748 0.0495796 1.59522 0.595377 -0.52114 0.0569113 1.23996 3.55111 0.47296 0.671313 0.430359 0.814617 -0.140782 -0.944784 0.639513
internal_count=9916 8599 7903 7131 6800 772 710 395 331 6631 1317 971 246 725 6588 1283 266 346 104 1232 474 170 51 369 696 580 350 187 5305 96
shrinkage=0.05


Tree=13
num_leaves=31
num_cat=0
split_feature=10 91 16 16 95 24 23 42 72 85 85 86 69 29 21 33 73 46 41 55 60 38 34 2 98 12 49 75 0 35
split_gain=344.79 124.556 92.5336 72.0057 51.5832 49.1808 47.096 68.7091 37.9923 42.428 36.7671 36.0407 32.8781 30.4863 36.5241 30.1437 49.3079 35.3698 51.6289 29.9774 24.5777 24.0626 24.8408 40.7554 34.7602 26.6054 23.8731 21.8501 21.5954 21.5886
threshold=-0.0062999999999999957 0.0064000000000000142 0.017549999999999993 -0.0075000000000000041 0.016700000000000003 0.020000000000000014 -0.00039999999999999926 0.0060499999999999972 -0.0099999999999999863 -0.0099000000000000008 0.00029999999999999303 0.0024000000000000102 0.010699999999999999 0.0011000000000000109 -0.0036999999999999876 -0.0013000000000000058 -0.0023999999999999955 -0.0021999999999999863 -0.0042999999999999939 -0.0036000000000000021 -0.0070499999999999998 -0.0096999999999999951 -0.0050000000000000001 -0.0074999999999999954 0.0067999999999999909 -0.007899999999999999 -0.0076 -0.0013000000000000197 0.0020000000000000091 0.0022999999999999935
decision_type=2 2 2 2 2 2 2 2 2 2 2 2 2 2 2 2 2 2 2 2 2 2 2 2 2 2 2 2 2 2
left_child=4 2 3 28 8 6 7 15 9 -1 -9 20 13 14 29 16 -5 18 -18 -19 -4 -10 27 24 -24 26 -25 -23 -2 -3
right_child=1 12 11 5 -6 -7 -8 10 21 -11 -12 -13 -14 -15 -16 -17 17 19 -20 -21 -22 22 23 25 -26 -27 -28 -29 -30 -31
leaf_value=0.10359136069783029 0.0086797416828380408 -0.020070581705598958 0.10394310910895191 -0.034359949670959421 0.081254927995275977 0.040425140085629731 -0.048222284683888401 0.03310203460183473 0.071627126693355567 -0.044802189074865724 0.20733709053651472 0.099855165866431977 -0.030981486915606257 0.098117374438915245 0.070796024504951607 -0.043222974277849338 -0.047572067953519911 0.1273524857061363 0.15065580929492661 -0.056706897219744201 0.00060371521419745697 0.077689542286936197 -0.030085985351481822 0.020363414982286707 0.11675436828802735 0.038477638097155084 0.13027704387384517 -0.015695442934562265 0.086781608132981095 0.10153202578245267
leaf_count=24 290 208 28 474 309 145 4703 67 235 228 32 63 133 98 137 1186 39 20 83 99 442 37 138 36 24 230 102 218 68 20
internal_value=0 -0.360104 -0.500681 -0.621557 0.905832 -0.714771 -0.766864 -0.369116 0.656849 -0.348066 1.7699 0.521237 0.682113 0.932079 0.582987 -0.53062 -0.0423579 0.975871 1.93414 -0.291742 0.213038 0.83354 0.612787 0.919135 -0.0843914 1.37799 2.09795 0.00297296 0.531615 -0.109613
internal_count=9916 8335 7739 7206 1581 6848 6703 2000 1272 252 99 533 596 463 365 1901 715 241 122 119 470 1020 785 530 162 368 138 255 358 228
shrinkage=0.05


Tree=14
num_leaves=31
num_cat=0
split_feature=14 92 31 14 22 86 82 71 42 31 38 74 65 39 33 23 74 62 13 67 74 61 88 37 28 79 48 51 79 23
split_gain=315.105 114.748 83.2933 81.3853 75.6982 70.3739 43.9893 38.1054 31.88 30.2073 28.7266 38.4574 38.3591 41.4429 26.6378 26.5487 41.5378 38.3773 24.7614 35.9368 26.3555 24.3561 24.1977 21.0267 23.1459 20.64 20.1815 19.6041 19.1063 19.036
threshold=-0.010199999999999996 0.0057000000000000011 0.0067999999999999979 0.015000000000000003 -0.011999999999999992 -0.00089999999999999618 0.0055000000000000162 -0.0019999999999999979 -0.011500000000000005 -0.0025000000000000001 -0.0016000000000000022 -0.0026000000000000012 -0.0052999999999999879 -0.0042999999999999939 0.002900000000000002 -0.035799999999999978 -0.010299999999999981 -9.9999999999999381e-05 0.0053999999999999977 0.020199999999999992 0.0042999999999999957 0.0053000000000000104 0.0021000000000000085 0.0089000000000000138 -0.01329999999999998 -0.00025000000000000017 -0.010700000000000003 -0.00029999999999999813 0.0085000000000000162 -0.00069999999999998525
decision_type=2 2 2 2 2 2 2 2 2 2 2 2 2 2 2 2 2 2 2 2 2 2 2 2 2 2 2 2 2 2
left_child=15 2 3 4 -2 7 10 -4 -3 28 11 -6 13 -13 -10 -1 25 -18 20 -20 -9 22 -11 24 -19 -17 -12 -8 -5 -14
right_child=1 8 5 9 6 -7 27 18 14 21 26 12 29 -15 -16 16 17 23 19 -21 -22 -23 -24 -25 -26 -27 -28 -29 -30 -31
leaf_value=0.076477671402462352 0.043719766822189234 0.087074648086158085 0.1197794787369113 0.10136183248278947 -0.043124731937679135 0.13098077941169822 -0.042006907200013467 -0.058609550127374059 0.0069189015727791877 -0.047531942943608803 0.071760375934731876 0.011066605151128912 0.020925292771249514 0.2078295738187273 0.073436049797643177 0.051496632371993895 0.075343262928906501 0.098945090014262521 -0.043179372963886076 0.089428376535273871 0.078637060717532514 0.10707537837248249 0.087350287694546933 0.099468226293378162 -0.00030541565273118368 -0.043717895682591212 -0.047401768634137101 0.083644547539375363 -0.0083080706016450314 -0.038436949005879149
leaf_count=282 194 90 29 84 906 70 28 48 623 177 25 51 236 31 88 52 330 28 370 25 82 27 24 34 279 172 5158 54 26 293
internal_value=0 -0.309198 -0.459704 -0.576812 -0.674381 0.479106 -0.752659 0.0878217 0.546652 0.661543 -0.796438 -0.419947 0.158839 1.85991 0.346384 1.00017 0.783606 1.01074 -0.144614 -0.530341 0.850059 -0.0534469 -0.466797 0.443973 0.230398 -0.329212 -0.92814 0.93797 1.52034 -0.18778
internal_count=9916 8739 7938 7314 6976 624 6782 554 801 338 6700 1517 611 82 711 1177 895 671 525 395 130 228 201 341 307 224 5183 82 110 529
shrinkage=0.05


Tree=15
num_leaves=31
num_cat=0
split_feature=20 89 69 35 31 64 64 74 14 8 32 71 6 24 89 22 23 13 48 24 98 4 46 31 68 80 15 61 74 48
split_gain=293.258 98.9149 80.7191 72.7511 57.781 54.9733 45.0099 40.7959 38.4134 36.4857 35.7184 35.2529 32.906 32.5978 41.9432 34.4188 30.2645 28.736 28.5655 27.7159 27.7025 27.3155 37.996 26.3204 25.6796 25.0687 23.0216 22.1674 33.6286 37.7958
threshold=-0.011050000000000009 0.0055000000000000075 0.0047000000000000002 -0.0018999999999999952 0.0035000000000000018 0.0078000000000000092 0.005749999999999999 -0.0032500000000000025 -0.0023999999999999972 0.0084000000000000134 -0.0044999999999999997 0.0077999999999999953 -0.0030000000000000005 -0.0017500000000000083 -0.0033999999999999981 -0.0050499999999999981 -0.0053999999999999907 -0.02179999999999999 -0.002799999999999993 0.011900000000000016 0.0033999999999999903 -0.0099999999999999985 0.0060000000000000131 0.006200000000000005 0.020150000000000005 0.0066499999999999971 -0.0024999999999999966 9.999999999999247e-05 -0.0088999999999999999 -0.034700000000000009
decision_type=2 2 2 2 2 2 2 2 2 2 2 2 2 2 2 2 2 2 2 2 2 2 2 2 2 2 2 2 2 2
left_child=17 2 3 7 6 10 16 19 21 26 -5 -11 20 15 -15 -9 25 -1 -17 -2 23 -4 -23 -12 -13 -3 -10 28 29 -19
right_child=1 4 8 5 -6 -7 -8 13 9 11 12 24 -14 14 -16 18 -18 27 -20 -21 -22 22 -24 -25 -26 -27 -28 -29 -30 -31
leaf_value=0.06932829288415833 -0.033667347059008826 -0.025970314092019848 -0.040291141877259261 0.066811929105546952 0.11304010259524218 0.12325372884708462 -0.045569160024490671 0.0090480040423727964 0.074236413867175735 0.084809156359188523 -0.035068577682015843 -0.027904067512320191 -0.050015944268554803 0.12047157247208738 -0.024564888197717724 0.16034049377171386 0.064866787564602402 0.0950210966189029 0.035147459323275308 0.10458219000180349 0.091287139138962414 0.014755451756825988 0.15620190199363151 0.10135100285972663 0.070976565235295247 0.093629979231810989 -0.027622179603425431 0.010101300078958181 0.070927544429248257 -0.012616815030250495
leaf_count=374 765 159 27 46 80 30 204 127 43 121 355 193 4575 26 378 65 179 44 66 20 42 67 58 20 46 27 861 356 306 256
internal_value=0 -0.302433 -0.431801 -0.605968 0.597573 -0.823277 0.272193 -0.0294441 0.192148 -0.0106809 -0.862917 0.648967 -0.901894 0.473385 -0.109709 1.17155 0.698052 0.918595 2.12502 -0.539835 -0.0853631 1.36055 1.88644 -0.414466 0.00375635 -0.0709583 -0.41115 0.678693 0.953523 0.279762
internal_count=9916 8580 7931 6515 649 5068 569 1447 1416 1264 5038 360 4992 662 404 258 365 1336 131 785 417 152 125 375 239 186 904 962 606 300
shrinkage=0.05


Tree=16
num_leaves=31
num_cat=0
split_feature=21 81 31 91 11 29 23 42 87 98 88 63 28 8 59 3 63 74 62 44 86 81 34 65 74 71 42 79 77 45
split_gain=266.297 97.7193 92.8367 62.1665 59.6852 44.4544 39.6392 55.4719 49.229 30.7827 52.6592 28.4678 34.0606 27.893 31.7 27.6561 27.22 45.2579 44.1764 32.9104 27.059 32.914 26.3754 23.4683 29.6655 23.3959 22.8212 24.0652 21.0844 26.3855
threshold=-0.012450000000000001 0.003599999999999996 0.0064999999999999858 0.0061999999999999998 -0.0012000000000000047 -0.0073999999999999995 -0.0010500000000000021 0.006700000000000002 -0.0019999999999999996 0.0059000000000000016 0.0016999999999999951 0.0061999999999999946 0.0036999999999999989 0.015000000000000003 0.0041499999999999948 -0.0084000000000000064 -0.012200000000000008 -0.0088999999999999999 -0.00039999999999999406 -0.025049999999999999 -0.00089999999999999618 -0.011549999999999996 0.00039999999999999937 0.016200000000000003 0.0065999999999999991 0.010250000000000004 -0.011500000000000005 0.0009999999999999959 0.0055500000000000072 -0.015099999999999994
decision_type=2 2 2 2 2 2 2 2 2 2 2 2 2 2 2 2 2 2 2 2 2 2 2 2 2 2 2 2 2 2
left_child=16 2 3 5 15 -2 7 9 -9 -7 22 25 -13 -8 -15 -4 -1 19 -19 -18 21 23 -11 24 -6 26 -3 -28 29 -20
right_child=1 11 4 -5 20 6 13 8 -10 10 -12 12 -14 14 -16 -17 17 18 28 -21 -22 -23 -24 -25 -26 -27 27 -29 -30 -31
leaf_value=0.082574976417418358 0.06031542026433509 0.099227938326111112 -0.016706529928855896 0.035634289311328511 0.097595541242258846 -0.03043899268241166 -0.046516282597866811 -0.041465524302167267 0.21175190700531871 0.15469325880009629 -0.025382032143658324 -0.046666353393828602 0.10057687196523585 -0.018233785126164862 0.16463549030253208 0.12939981857216568 0.056254677438412073 0.077254250443246297 0.080255906017171086 -0.035337508323389742 0.086831062347333079 -0.035116517982074075 -0.037572739707161046 0.10290785781682843 -0.059306081287463022 0.12247411525063652 0.088298772875706075 0.011033725691267227 0.071226300148348645 -0.0015745406982266956
leaf_count=169 75 48 20 217 22 1747 4707 32 31 45 168 186 22 82 20 78 63 338 51 245 46 400 22 39 73 33 61 459 83 334
internal_value=0 -0.289583 -0.433364 -0.571233 0.511261 -0.64907 -0.689923 -0.327756 2.24414 -0.43671 0.505277 0.520061 -0.401043 -0.880648 0.613046 2.01299 0.885843 0.743744 0.987387 -0.136515 0.0734986 -0.157947 2.27761 0.821819 -0.0394012 0.764205 0.625472 0.443855 0.508117 0.24928
internal_count=9916 8633 7824 7146 678 6929 6854 2045 63 1982 235 809 208 4809 102 98 1283 1114 806 308 580 534 67 134 95 601 568 520 468 385
shrinkage=0.05


Tree=17
num_leaves=31
num_cat=0
split_feature=20 25 29 79 87 48 74 57 77 90 10 42 29 36 68 41 74 80 61 92 23 17 57 74 16 15 57 92 45 39
split_gain=244.192 85.1164 81.0137 80.9582 56.1819 43.6717 57.011 50.2623 36.3235 32.2763 29.3105 28.5062 27.998 27.4853 33.9856 25.9984 41.1423 30.8392 26.9957 25.4126 23.7524 22.7177 22.3029 22.1751 21.8702 21.487 21.1872 20.568 31.7171 21.9437
threshold=-0.011050000000000009 -0.0027999999999999896 0.0049000000000000059 0.0019000000000000165 0.0010999999999999918 -0.001899999999999997 -0.0026000000000000012 -0.0017999999999999889 -0.00049999999999998993 -0.0030999999999999964 -9.9999999999992442e-05 -0.0062999999999999957 -0.0049999999999999932 0.0076499999999999979 0.0070500000000000016 -0.028899999999999999 -0.0088999999999999999 -0.00039999999999998885 -9.9999999999999381e-05 0.006500000000000017 -0.0075999999999999878 -0.0087000000000000081 -0.0022999999999999926 0.010249999999999997 -0.0029500000000000008 -0.011849999999999994 -0.0058999999999999981 0.024150000000000008 -0.014349999999999996 -0.0036000000000000021
decision_type=2 2 2 2 2 2 2 2 2 2 2 2 2 2 2 2 2 2 2 2 2 2 2 2 2 2 2 2 2 2
left_child=15 -2 3 5 10 6 -3 20 -5 -9 -4 -7 22 -14 -15 -1 17 25 -18 -11 -8 -19 26 27 -21 -17 -10 28 -20 -30
right_child=1 2 4 8 -6 11 7 9 12 19 -12 -13 13 14 -16 16 18 21 23 24 -22 -23 -24 -25 -26 -27 -28 -29 29 -31
leaf_value=0.081386250404551358 0.048777506760314886 -0.038583476215550888 0.07126487921745478 0.077789264190059715 0.099611734295852378 0.084571515377330819 -0.019940172276873176 0.1875797629546288 0.084491064929444762 -0.041706851553956467 -0.010908613074300744 -0.044952552950458927 -0.017665349440221152 0.18642479298526946 -0.039116568552265335 0.089204589802254222 0.067529856294071447 -0.051657593227706682 0.084045941327987442 -0.035126846572907454 0.11088709249014062 0.084010923021489728 0.087432705968634561 0.081613192486389846 0.10205722748650269 -0.01065935762315511 -0.051379891021028502 -0.075552648088844571 -0.029543178150914458 0.038723783052504172
leaf_count=150 296 952 81 104 99 29 35 21 20 338 513 4703 1009 27 35 58 382 208 69 34 118 21 76 66 30 76 60 27 152 127
internal_value=0 -0.286274 -0.368807 -0.487318 0.52231 -0.68167 -0.227394 0.471153 0.127902 -0.149625 0.0978482 -0.868508 -0.0286001 -0.235932 1.72212 0.834144 0.705812 -0.071623 0.946638 -0.339046 1.70412 -0.721587 0.893237 0.548319 0.893207 0.841327 -0.0760866 0.30615 0.470066 0.0565011
internal_count=9916 8580 8284 7591 693 6260 1528 576 1331 423 594 4732 1227 1071 62 1336 1186 363 823 402 153 229 156 441 64 134 80 375 348 279
shrinkage=0.05


Tree=18
num_leaves=31
num_cat=0
split_feature=11 31 59 49 98 74 10 33 71 6 98 3 24 15 17 8 98 23 11 13 26 67 73 20 69 6 43 11 39 38
split_gain=227.201 87.6947 71.886 65.7124 40.2178 39.4824 37.7139 33.3795 32.8895 30.2755 30.0831 25.3816 27.1759 27.1294 26.667 21.7227 21.1061 25.9103 23.6246 21.0394 23.6735 20.2315 28.3748 19.4637 18.8408 18.54 18.4582 18.0266 17.9706 22.2245
threshold=-0.0062999999999999974 -0.0026000000000000029 0.0034000000000000076 -0.0033999999999999963 0.018350000000000002 -0.0088999999999999999 0.0050000000000000001 -0.0036999999999999841 -0.025100000000000001 -0.0028999999999999976 0.0029000000000000106 0.0050000000000000001 0.016550000000000013 0.0014000000000000004 0.011700000000000002 -0.027799999999999995 -0.014099999999999993 0.00050000000000000229 -0.0025999999999999942 -0.012500000000000001 0.00074999999999999384 0.020199999999999992 0.0081000000000000186 0.010200000000000009 0.008349999999999998 0.012750000000000006 0.0064000000000000072 0.012299999999999986 -0.0065999999999999904 -0.0099499999999999988
decision_type=2 2 2 2 2 2 2 2 2 2 2 2 2 2 2 2 2 2 2 2 2 2 2 2 2 2 2 2 2 2
left_child=4 6 3 9 5 8 16 23 -1 10 -3 12 27 26 -14 -7 -2 18 -18 -17 28 22 25 -5 -9 -15 -13 -4 29 -21
right_child=1 2 11 7 -6 15 -8 24 -10 -11 -12 13 14 21 -16 19 17 -19 -20 20 -22 -23 -24 -25 -26 -27 -28 -29 -30 -31
leaf_value=0.083473004001415621 0.1239377950358682 -0.029664700202398326 -0.024020452115961627 -0.0440107804090848 0.069294916447170105 -0.030307456031144236 0.068214102436636725 -0.049114031869868346 -0.033162837210165934 -0.0131779328513549 0.092785666190980998 0.052512313230031041 0.09731292084936867 -0.0035689363637331443 -0.026009548044001147 0.063140925606314791 -0.010479757743864452 -0.038221723216986053 0.046730388742378781 0.045896779046250759 0.063063397642809924 0.083893717494564937 -0.041890567173209936 0.1081299609509212 0.011321013777887716 0.10155785510246573 0.18817383572235571 0.083313255209045076 0.032499759478490022 -0.045925680851590295
leaf_count=31 21 85 1006 40 301 56 164 4554 347 750 87 36 51 84 69 294 313 285 256 46 173 35 175 29 118 40 23 29 289 129
internal_value=0 -0.310046 -0.469341 -0.68069 0.720317 0.51759 0.415367 -0.884507 -0.304914 0.0377721 1.05091 0.0772654 -0.186786 0.631259 0.93869 0.727693 0.124506 0.038786 0.358452 0.817183 0.540348 0.292535 -0.0299829 1.02017 -0.934639 0.92631 2.06133 -0.392278 0.228183 -0.352181
internal_count=9916 8250 7211 5663 1666 1365 1039 4741 378 922 172 1548 1155 393 120 987 875 854 569 931 637 334 299 69 4672 124 59 1035 464 175
shrinkage=0.05


Tree=19
num_leaves=31
num_cat=0
split_feature=21 26 28 34 83 23 98 17 38 46 19 98 35 84 31 56 67 39 38 86 63 73 63 43 82 53 58 86 77 48
split_gain=207.255 82.2918 73.5387 68.0939 48.0338 45.9127 49.2637 38.065 33.0067 31.0338 41.4427 30.7076 29.2366 41.6254 35.8261 29.1901 27.3176 26.9932 24.1209 23.3521 22.9488 35.6324 36.6885 34.4756 22.0853 21.3841 25.2292 24.5085 20.2967 19.4659
threshold=-0.012450000000000001 -0.0037000000000000049 0.0047499999999999981 -0.0013999999999999948 0.0021000000000000068 0.014899999999999991 0.0009999999999999959 -0.011499999999999998 -0.0048000000000000083 -0.0021999999999999863 -0.0036999999999999876 0.0028000000000000078 0.0078000000000000057 -0.0016000000000000022 -0.0055500000000000054 -0.0032999999999999935 0.0064999999999999962 -0.0010999999999999931 -0.0021999999999999863 -0.0026999999999999902 -0.012200000000000008 -0.0091000000000000057 -0.00075000000000000056 -0.026150000000000003 0.0031999999999999984 0.0030000000000000066 0.0029999999999999996 1.0000000180025095e-35 0.0055500000000000072 -0.010499999999999999
decision_type=2 2 2 2 2 2 2 2 2 2 2 2 2 2 2 2 2 2 2 2 2 2 2 2 2 2 2 2 2 2
left_child=20 -2 3 5 25 6 -3 -5 11 10 17 24 14 -14 -9 -11 -15 -10 19 -16 -1 23 -23 -22 -8 26 27 -4 -24 -20
right_child=1 2 4 7 -6 -7 8 12 9 15 -12 -13 13 16 18 -17 -18 -19 29 -21 21 22 28 -25 -26 -27 -28 -29 -30 -31
leaf_value=0.075136752253585001 0.046696611824495089 -0.039686853167146138 -0.038888150706390137 0.065018936606001373 0.099075696371957123 0.065789394816748059 0.0038145260143655647 0.10073600950008087 -0.027596941908926975 0.11440053549093775 0.10403606500509517 -0.035212937648229803 -0.027406257572758976 0.15387434275465459 0.079824667690939571 -0.040275354556710927 -0.014515925220244551 0.12276199854503378 0.074942476374602468 -0.02330074200848337 0.07352098420188978 0.069318190784015341 0.0099281699046682853 -0.036230783137806359 0.15197966652706796 -0.036191637232874059 0.059630395464629671 0.1038046795993237 0.065064881520548082 -0.047190508550720267
leaf_count=169 302 938 189 58 84 115 55 20 122 21 144 332 279 44 52 198 39 20 20 240 41 333 409 239 22 184 156 20 92 4979
internal_value=0 -0.267333 -0.353429 -0.466015 0.526323 -0.00804206 -0.167557 -0.691904 0.237893 0.72939 1.22427 -0.332291 -0.735248 0.120128 -0.814475 -0.262002 1.82336 0.0774045 -0.846546 -0.0205523 0.782845 0.653275 0.853011 -0.202335 1.18179 0.134463 0.509883 -0.290502 0.446078 -0.921343
internal_count=9916 8633 8331 7698 633 1967 1852 5731 914 505 286 409 5673 362 5311 219 83 142 5291 292 1283 1114 834 280 77 549 365 209 501 4999
shrinkage=0.05


Tree=20
num_leaves=31
num_cat=0
split_feature=11 31 60 49 45 8 98 32 68 74 65 90 29 2 72 66 8 33 39 69 21 46 43 33 29 79 29 42 11 81
split_gain=190.356 82.7542 69.9703 68.3693 42.3983 33.4556 32.2848 43.4279 28.523 49.4085 35.4174 29.4888 41.5862 25.0224 34.4007 26.9996 24.5679 24.2098 22.1033 22.076 23.0909 31.9925 21.5452 20.8925 20.628 19.3806 19.3071 29.7409 30.5936 24.9999
threshold=-0.00609999999999999 -0.0029999999999999988 0.0046000000000000147 -0.0023999999999999955 0.0024000000000000015 0.00480000000000001 -0.00079999999999998464 0.0031000000000000008 0.0065499999999999942 0.0070500000000000016 0.017650000000000002 0.0083000000000000001 0.0076999999999999924 -0.0013000000000000058 -0.0026500000000000061 -0.0046999999999999915 -0.0034000000000000102 -0.0036999999999999841 0.0020000000000000091 0.0056499999999999962 -0.0010500000000000021 0.0049499999999999969 -0.0091500000000000001 -0.00060000000000000667 -0.0021999999999999967 0.0035000000000000001 -0.0073999999999999995 -0.0053999999999999977 -0.014149999999999994 -0.0028000000000000069
decision_type=2 2 2 2 2 2 2 2 2 2 2 2 2 2 2 2 2 2 2 2 2 2 2 2 2 2 2 2 2 2
left_child=6 5 3 4 13 24 7 -1 9 11 16 12 -4 14 -3 -16 -10 -5 -9 -19 21 -21 -15 -17 -2 -22 -8 28 -28 -30
right_child=1 2 8 17 -6 -7 26 18 10 -11 -12 -13 -14 22 15 23 -18 19 -20 20 25 -23 -24 -25 -26 -27 27 -29 29 -31
leaf_value=-0.030799275452870811 -0.0070442315529635315 -0.026966453546446553 -0.038736458802418418 0.043048150987605276 0.12688651070512727 0.069046224144512336 0.067006690054312812 0.092968828676931334 0.065101689744902755 0.10195059619627489 0.065323243475379877 0.10904416802142572 0.08816152228441422 0.031954019124024839 0.19903823244592259 0.073753071702346004 -0.038132026292126489 -0.049705067991893614 -0.0029135236327521925 -0.041150798865611508 -0.044377406094296599 0.17418265534876523 -0.033414617667947046 -0.038042599367665353 0.044653059661475258 0.080006228767201634 0.050646851161196632 0.064380915866597194 0.085819889505487995 -0.0094259149445417544
leaf_count=343 526 200 341 60 36 151 255 68 35 115 60 25 37 100 20 95 552 4355 58 38 295 20 857 56 203 20 239 293 36 427
internal_value=0 -0.280245 -0.432003 -0.615001 -0.0233946 0.470418 0.664276 0.0357082 0.200754 0.695459 -0.224583 0.108639 -0.217618 -0.143461 0.486317 1.27262 -0.541958 -0.861561 1.07179 -0.904044 -0.144815 1.48462 -0.445137 0.859712 0.169637 -0.558729 0.834285 0.673781 0.405386 0.00447156
internal_count=9916 8197 7317 6152 1364 880 1719 469 1165 518 647 403 378 1328 371 171 587 4788 126 4728 373 58 957 151 729 315 1250 995 702 463
shrinkage=0.05


Tree=21
num_leaves=31
num_cat=0
split_feature=11 31 60 36 44 4 24 70 74 31 66 68 73 65 30 90 9 36 11 5 78 3 12 33 0 73 68 21 41 47
split_gain=173.469 76.2472 65.4327 65.5987 36.3237 30.3956 29.3513 28.9782 28.9731 26.3077 26.2998 25.7909 46.8958 32.175 27.1479 35.4418 22.8584 19.9985 19.9958 19.3534 25.7283 18.7833 24.1735 18.5878 18.4493 18.3648 17.0281 26.8676 47.3992 16.1182
threshold=-0.00609999999999999 -0.0029999999999999988 0.0046000000000000147 -0.0016000000000000022 -0.010299999999999991 0.0013000000000000045 -0.038999999999999979 -0.0022999999999999891 -0.0088999999999999999 0.0028999999999999968 -0.0043999999999999968 0.0065499999999999942 0.0068000000000000048 0.017650000000000002 0.0089999999999999993 0.0078999999999999817 -0.0024999999999999914 -0.007799999999999997 -0.0025999999999999942 -0.0024999999999999914 0.0038000000000000017 -0.0095999999999999992 -0.013699999999999999 -0.0036999999999999841 0.00019999999999999361 0.004000000000000001 0.0045999999999999973 -0.0010500000000000021 0.0050499999999999998 0.0054000000000000098
decision_type=2 2 2 2 2 2 2 2 2 2 2 2 2 2 2 2 2 2 2 2 2 2 2 2 2 2 2 2 2 2
left_child=6 5 3 7 -5 18 -1 17 9 21 -9 12 14 16 15 -4 -13 -3 -2 -12 -21 22 -8 -6 -10 -18 -25 28 -28 -14
right_child=1 2 11 4 23 -7 8 10 24 -11 19 13 29 -15 -16 -17 25 -19 -20 20 -22 -23 -24 26 -26 -27 27 -29 -30 -31
leaf_value=0.067820368799082917 -0.027599826653886272 0.075979528348392333 -0.039775733509388372 0.085005882073740782 0.057439714157443547 0.05835302697031463 -0.041854928910225901 0.15228117690905518 0.022518107387544981 0.085284715944052999 0.063064021040796087 0.050904987239499683 0.0046390299752225002 0.061728980142175198 0.090117087562081782 0.086656683907893106 0.0581064540777858 -0.037490488525811654 0.023479448495718602 -0.014351603235157646 0.10222853138196436 -0.043071426815780224 0.11830258330060224 -0.049129901172021873 0.054302101047733822 -0.048183248342945524 -0.043388462577424729 -0.039949365070430551 0.14326413411835234 0.11838866770585384
leaf_count=215 269 23 341 28 29 231 36 25 758 28 109 46 29 60 31 31 26 505 380 395 26 300 29 4414 353 515 86 478 34 86
internal_value=0 -0.272393 -0.421685 -0.602576 -0.818342 0.4449 0.632875 0.0653249 0.498202 -0.205387 0.496219 0.192078 0.661427 -0.217517 0.0687574 -0.299023 -0.526811 -0.539747 0.101768 0.337307 -0.00546295 -0.494797 0.745405 -0.860263 0.660353 -0.777336 -0.887602 -0.35072 0.843371 1.92707
internal_count=9916 8197 7317 6152 5069 880 1719 1083 1504 393 555 1165 518 647 403 372 587 528 649 530 421 365 65 5041 1111 541 5012 598 120 115
shrinkage=0.05


Tree=22
num_leaves=31
num_cat=0
split_feature=11 31 60 49 45 10 98 73 71 10 79 8 2 22 74 64 69 73 30 90 63 66 57 71 49 18 0 51 36 40
split_gain=157.969 70.3248 61.1515 64.4829 35.5618 28.2808 28.1984 29.0475 29.8925 23.0482 22.0451 21.4 19.9972 24.0742 26.6155 19.3451 19.3068 34.2227 29.5773 34.6769 25.4773 28.0022 20.995 19.1919 18.5978 18.591 19.8984 22.1553 18.1341 29.791
threshold=-0.00609999999999999 -0.0029999999999999988 0.0046000000000000147 -0.0023999999999999955 0.0024000000000000015 0.0050000000000000001 0.018350000000000002 -0.0091000000000000057 -0.025100000000000001 -0.0085999999999999879 0.0041999999999999859 -0.027799999999999995 -0.0013000000000000058 -0.004000000000000001 -0.0031999999999999871 0.0051000000000000151 0.0068999999999999938 0.0068000000000000048 0.0089999999999999993 0.0078999999999999817 0.018149999999999996 0.0055000000000000127 0.0016000000000000114 0.011900000000000016 -0.0033999999999999963 -0.020249999999999997 0.0012000000000000016 -0.0019000000000000091 -0.0033999999999999894 -0.002799999999999993
decision_type=2 2 2 2 2 2 2 2 2 2 2 2 2 2 2 2 2 2 2 2 2 2 2 2 2 2 2 2 2 2
left_child=6 5 3 4 9 -2 7 8 -1 -3 -5 -9 13 -11 -15 -8 17 18 19 -4 21 -18 -23 -17 -16 -13 27 -27 -29 -30
right_child=1 2 16 10 -6 -7 15 11 -10 12 -12 25 -14 14 24 23 20 -19 -20 -21 -22 22 -24 -25 -26 26 -28 28 29 -31
leaf_value=0.073907105305682744 0.0056212652404057728 0.075382132505002364 -0.036795076536798886 -0.044080679516178306 0.11383961832853468 0.058279088822873006 0.07496664652097558 -0.034080966544010785 -0.035058257008655634 -0.018779418169000344 0.052033501453616404 0.068752744128251067 -0.02595632863925651 -0.04565006519326107 0.12457603262142376 -0.041487677519256583 0.088828688095779859 0.087618060103506548 0.089341900810131922 0.083684702765455643 0.06332202118948034 0.053466205622003715 -0.044601721269685951 0.069487507329191275 -0.025361896861740469 0.07365569119370409 0.060740055482382996 -0.0095722428745292111 0.092866989675457243 0.0039126538937262088
leaf_count=35 703 45 368 4745 36 177 222 60 325 199 43 145 934 63 59 39 27 108 36 33 48 47 498 32 28 82 180 336 73 190
internal_value=0 -0.264953 -0.41199 -0.590587 -0.0136857 0.420865 0.602085 0.442308 -0.306793 -0.128954 -0.843528 0.606343 -0.238771 0.354759 1.20973 1.18889 0.184251 0.577525 0.124099 -0.259653 -0.186635 -0.444016 -0.661918 0.220752 1.91565 0.692022 0.542332 0.343934 0.173567 0.670033
internal_count=9916 8197 7317 6152 1364 880 1719 1426 360 1328 4788 1066 1283 349 150 293 1165 545 437 401 620 572 545 71 87 1006 861 681 599 263
shrinkage=0.05


Tree=23
num_leaves=31
num_cat=0
split_feature=90 5 5 86 18 97 33 64 98 98 19 1 31 70 77 85 17 31 60 35 17 98 92 10 33 54 63 30 11 23
split_gain=145.134 76.8927 60.4926 37.0502 37.6654 32.8955 26.5819 39.3531 28.3299 33.0212 30.92 23.8166 22.7591 19.7013 19.1706 19.8554 18.1246 17.8441 22.9165 19.0207 18.2737 17.5711 30.3239 17.3506 20.7535 16.3855 17.6471 16.2711 23.3714 16.4609
threshold=0.0056000000000000051 -0.0025000000000000001 0.0072999999999999914 0.0052000000000000145 -0.0099500000000000057 0.0051999999999999937 0.002900000000000002 0.0059999999999999958 0.018350000000000002 0.0055000000000000005 -0.0044000000000000037 0.0070999999999999995 -0.014649999999999995 0.0041000000000000142 -0.0018500000000000007 -0.0099000000000000008 0.0054499999999999974 -0.0022000000000000019 0.0032499999999999964 -0.0030999999999999947 0.0061999999999999998 -0.0022999999999999856 -0.002799999999999993 -0.0099999999999999985 -0.012399999999999996 0.0025999999999999951 0.018149999999999996 0.0077000000000000028 0.0011999999999999964 0.021950000000000015
decision_type=2 2 2 2 2 2 2 2 2 2 2 2 2 2 2 2 2 2 2 2 2 2 2 2 2 2 2 2 2 2
left_child=1 5 3 4 -3 14 7 8 9 12 -11 27 -2 -13 -1 -16 -15 -4 19 -19 -20 -17 -23 24 -9 -22 -27 29 -29 -6
right_child=6 2 17 -5 11 -7 -8 23 -10 10 -12 13 -14 16 15 21 -18 18 20 -21 25 22 -24 -25 -26 26 -28 28 -30 -31
leaf_value=0.035095165435870483 -0.050552496151894347 0.031818112378572593 0.062224023304306181 0.052555943108139949 -0.043782195643815469 0.053132925789621435 0.071880078902344074 -0.063143979506572023 0.070579370837553099 -0.010419584424630958 0.055981391564885852 -0.033151408668370241 0.069855694091702905 0.16760469151137011 0.07194711625416865 -0.035033408083210087 0.010772415345987706 0.070007052854036786 0.077877744779386804 -0.04391002272381736 0.039248442064559158 0.095453180462252263 -0.0058195943554044671 -0.044336678969405074 0.068159871231416966 -0.057848492825359581 0.05401431884395063 0.10056482962298052 -0.043711729996804297 0.013470006960886747
leaf_count=270 25 152 86 87 5293 224 170 20 205 411 117 100 217 25 41 482 35 25 65 383 137 60 657 223 41 135 23 26 83 98
internal_value=0 -0.232245 -0.447168 -0.616005 -0.670419 0.260214 0.642836 0.512403 0.708791 0.486284 0.136655 -0.743293 1.17267 0.503321 0.0744934 -0.0959719 1.65058 0.261245 0.0748026 -0.580774 0.502013 -0.187748 0.069828 -0.397303 0.509131 0.152562 -0.543579 -0.794291 0.380131 -0.832787
internal_count=9916 8487 6753 5899 5812 1734 1429 1259 975 770 528 5660 242 160 1510 1240 60 854 768 408 360 1199 717 284 61 295 158 5500 109 5391
shrinkage=0.05


Tree=24
num_leaves=31
num_cat=0
split_feature=23 93 14 38 34 74 68 18 78 98 43 49 45 36 69 41 74 80 73 5 2 98 71 92 88 24 23 93 95 57
split_gain=134.26 70.2867 51.0386 53.8084 53.5718 42.8814 32.8212 28.6336 27.8712 27.402 26.974 42.545 25.1203 23.4404 20.5653 18.8047 28.8197 30.3631 24.1456 30.9302 18.5823 18.0482 22.312 20.5279 17.5106 17.3949 17.1265 19.1703 16.4631 22.3555
threshold=-0.012499999999999989 0.0078999999999999956 0.013800000000000005 -0.0014999999999999994 0.0079499999999999935 -0.0035500000000000041 -0.0063000000000000096 -0.0087499999999999991 0.0045000000000000153 -0.005100000000000003 -0.0049999999999999932 -0.0019500000000000001 0.010700000000000006 -0.0016000000000000022 0.0068999999999999938 -0.028899999999999999 -0.0088999999999999999 -0.00020000000000001091 -0.0011000000000000105 -0.005900000000000012 -0.019899999999999984 -0.022699999999999988 0.004899999999999992 -0.017200000000000003 0.0014999999999999894 -0.0025000000000000001 -0.0056999999999999993 0.000799999999999997 -0.0040999999999999969 -0.0040999999999999847
decision_type=2 2 2 2 2 2 2 2 2 2 2 2 2 2 2 2 2 2 2 2 2 2 2 2 2 2 2 2 2 2
left_child=15 2 3 5 7 8 -7 -5 -2 -6 24 26 25 -4 -3 -1 17 -17 -18 20 -20 -15 23 -23 -8 -13 27 -12 29 -24
right_child=1 14 13 4 9 6 10 -9 -10 -11 11 12 -14 21 -16 16 18 -19 19 -21 -22 22 28 -25 -26 -27 -28 -29 -30 -31
leaf_value=0.070181129705252615 -0.035646735539707618 0.053947060090464807 0.076833691825897166 0.023638251951365968 -0.030527199035384006 0.09605784968057933 0.070322898809679166 -0.042415754095512903 0.11247370383882505 0.0608394341535239 0.10153093971237681 0.031437376458650461 0.065975286885750009 -0.057578696730011238 -0.010234315200167 0.034827665777320709 0.055775493287729641 -0.045666645306426945 -0.019221422605522911 -0.011794185328553945 0.066219308637537735 0.076525677046889562 0.085824574068749826 -0.039237021036893957 -0.051363618765351143 -0.049431098445269772 0.077640403541214154 -0.045578213784803555 0.085111360242971834 -0.014534739752861573
leaf_count=141 891 249 68 134 159 62 24 5135 20 150 21 74 38 100 138 144 405 207 37 258 147 20 36 250 184 335 218 60 74 137
internal_value=0 -0.218975 -0.317847 -0.428013 -0.656106 -0.0145179 0.353525 -0.779623 -0.588961 0.523475 0.184164 0.455011 -0.224381 0.384038 0.75915 0.641308 0.539272 -0.152116 0.734772 0.353232 0.985639 0.156935 0.341315 -0.373439 -0.708485 -0.590991 1.18661 0.0518769 0.817404 0.344625
internal_count=9916 8577 8190 7505 5578 1927 1016 5269 911 309 954 746 447 685 387 1339 1198 351 847 442 184 617 517 270 208 409 299 81 247 173
shrinkage=0.05


Tree=25
num_leaves=31
num_cat=0
split_feature=23 93 71 98 67 64 76 35 64 49 98 46 91 77 7 91 43 35 29 84 78 61 74 43 63 24 53 84 13 82
split_gain=141.681 64.9188 51.0717 42.9944 42.528 36.0398 31.6934 28.2654 24.7086 35.5286 40.0362 27.2276 22.1393 22.4122 21.9584 33.0516 20.4716 20.8013 21.5673 20.077 19.5742 19.2527 28.6788 28.272 24.4196 17.7573 15.918 15.3382 15.2973 24.5226
threshold=-0.011999999999999988 0.0062999999999999905 0.0046000000000000112 0.0016999999999999969 0.0069999999999999967 0.0009000000000000016 -0.0019999999999999996 -0.00070000000000000433 -0.0039999999999999992 0.010400000000000005 0.00089999999999999293 -0.0028499999999999979 -0.0022000000000000036 0.0030999999999999956 0.0088000000000000109 -0.013699999999999992 -0.00020000000000000397 -0.0044999999999999927 -0.0038999999999999898 -0.011500000000000002 -0.0081000000000000013 -0.012600000000000019 -0.0088999999999999999 -0.026150000000000003 -0.00020000000000001264 -0.0017500000000000083 0.0073000000000000087 0.0075000000000000179 -0.0073999999999999995 -0.0021999999999999897
decision_type=2 2 2 2 2 2 2 2 2 2 2 2 2 2 2 2 2 2 2 2 2 2 2 2 2 2 2 2 2 2
left_child=21 2 3 4 8 -4 25 12 9 10 28 -12 -8 -14 19 -16 17 18 -3 -7 -10 -1 23 -23 -24 -5 -18 -21 29 -2
right_child=1 16 5 6 -6 14 7 -9 20 -11 11 -13 13 -15 15 -17 26 -19 -20 27 -22 22 24 -25 -26 -27 -28 -29 -30 -31
leaf_value=0.067697272212352125 0.096754082311746092 0.042668061654770842 0.059558375556834575 0.095631384421401275 0.096851324562231556 0.07938545581005578 0.10702983228108515 -0.049099870749755054 0.076932711243870966 0.10044411903584197 0.011962431175039081 0.23835249910226236 -0.015150155472242058 0.064474472216257905 -0.05139583020246194 0.050052002684232266 -0.057330376924194786 0.055044300595623319 -0.039153007586025204 -0.028985933225885347 -0.048281590144945478 0.070674793361740193 0.055898471283003903 -0.028986999403382004 0.018069456661878949 -0.026254725273430885 0.061768941943572811 0.064944324208683998 -0.045922023820896579 -0.040431196784002268
leaf_count=165 35 81 173 71 40 24 32 466 20 28 24 20 452 64 112 209 122 270 106 1080 4048 44 386 303 494 42 23 21 871 90
internal_value=0 -0.244706 -0.367274 -0.542299 -0.724444 0.115247 -0.0103896 -0.224101 -0.772782 -0.297818 -0.485882 2.12027 0.159103 -0.0137475 -0.0928493 0.496959 0.508571 0.703043 0.0750891 -0.368871 -0.933011 0.63347 0.526021 -0.185758 0.712195 1.29969 -0.561238 -0.48055 -0.688748 0.259192
internal_count=9916 8524 7922 6303 5176 1619 1127 1014 5136 1068 1040 44 548 516 1446 321 602 457 187 1125 4068 1392 1227 347 880 113 145 1101 996 125
shrinkage=0.05


Tree=26
num_leaves=31
num_cat=0
split_feature=23 81 31 30 85 69 81 98 81 91 64 58 41 74 83 63 23 13 7 19 94 67 63 71 21 88 77 63 49 21
split_gain=129.466 55.9677 53.465 45.0867 27.6215 27.1728 22.9612 20.8812 41.3332 19.3034 18.7991 23.0107 18.7451 24.3841 29.0645 22.4193 18.173 21.692 18.0001 17.5959 17.1076 17.0466 24.227 17.0326 15.3631 15.1819 14.4943 16.4983 17.7759 17.2868
threshold=-0.011999999999999988 0.003599999999999996 0.0067999999999999979 -0.00070000000000000433 -0.0018000000000000045 0.0039000000000000046 -0.011549999999999996 0.0016999999999999969 -0.0013000000000000075 -0.0022000000000000036 0.0059999999999999958 0.013199999999999984 -0.028899999999999999 -0.0088999999999999999 -0.0078500000000000011 -0.00020000000000001264 0.017600000000000022 -0.0073999999999999995 0.011200000000000007 0.0055999999999999965 0.008850000000000002 -0.0095000000000000032 -0.0055500000000000054 0.0094000000000000142 -0.0089000000000000017 -0.018500000000000013 -0.0035500000000000041 0.0072999999999999949 -0.018799999999999987 -0.017499999999999995
decision_type=2 2 2 2 2 2 2 2 2 2 2 2 2 2 2 2 2 2 2 2 2 2 2 2 2 2 2 2 2 2
left_child=12 2 3 5 6 7 25 16 -9 -10 20 -12 -1 14 -14 -15 17 21 24 -8 23 -2 -23 -3 -5 -4 -17 28 -28 -30
right_child=1 10 4 18 -6 -7 19 8 9 -11 11 -13 13 15 -16 26 -18 -19 -20 -21 -22 22 -24 -25 -26 -27 27 -29 29 -31
leaf_value=0.067734489835755793 -0.05790899440000942 0.0078546774529627047 -0.01289298306403574 0.0030682332928570742 0.067615101193179858 0.036216365560870552 0.024298006690654787 0.10289379920806535 0.088938184094580111 -0.021684785612176339 -0.042071984616762703 0.086558251638765252 0.079081379177716335 0.053298520789879393 -0.025645632435498208 -0.045299703471318314 0.055626986957355774 -0.045758409124961229 0.01621312771528503 -0.052302386006173179 0.064225839400179383 0.13586663848079764 -0.021034266359624257 0.082120961766277978 -0.042126607481422773 0.076193504232275444 0.071165304861292619 0.062322197343295839 -0.032061060674241901 0.025191339952968773
leaf_count=155 51 463 71 167 112 287 94 54 31 361 197 22 37 387 319 48 36 1120 161 270 116 26 44 40 4740 61 47 96 128 175
internal_value=0 -0.23796 -0.373581 -0.494765 0.411794 -0.0924313 0.0206941 -0.280237 0.221278 -0.206057 0.361035 -0.414211 0.605707 0.504439 -0.144661 0.676994 -0.569321 -0.687588 -0.725032 -0.499068 0.551688 0.429024 1.17216 0.32301 -0.780456 0.853621 0.341866 0.467591 0.215207 -0.0169111
internal_count=9916 8524 7686 7078 608 2010 496 1723 446 392 838 219 1392 1237 356 881 1277 1241 5068 364 619 121 70 503 4907 132 494 446 350 303
shrinkage=0.05


Tree=27
num_leaves=31
num_cat=0
split_feature=23 88 71 98 67 89 15 31 29 70 30 16 7 39 28 37 16 5 78 92 49 43 74 86 63 77 64 98 21 50
split_gain=118.506 52.4897 52.8113 41.7109 40.042 39.0781 31.0273 24.8828 24.8824 23.9313 25.4439 23.7118 23.5048 23.2037 21.3873 20.9381 27.6132 19.4426 25.4799 19.1544 17.6254 17.3177 30.2858 24.6885 19.9803 16.1317 14.4581 22.9151 17.5413 14.3227
threshold=-0.012499999999999989 0.0056000000000000156 0.0046000000000000112 0.00090000000000000854 0.0069999999999999967 -0.00040000000000000273 0.0013000000000000045 -0.0047999999999999944 -0.0047999999999999944 -0.0069999999999999949 0.0031000000000000042 -0.0025000000000000001 0.0075000000000000023 -0.0042999999999999939 0.0097500000000000035 -0.00079999999999999158 -0.0031999999999999871 -0.0021000000000000025 -0.00099999999999999894 -0.012749999999999989 -0.013099999999999995 -0.026150000000000003 -0.0088999999999999999 -0.010149999999999998 -0.00020000000000001264 -0.0035500000000000041 -0.0043000000000000078 0.0029000000000000106 -0.0025999999999999925 -0.00080000000000000546
decision_type=2 2 2 2 2 2 2 2 2 2 2 2 2 2 2 2 2 2 2 2 2 2 2 2 2 2 2 2 2 2
left_child=21 2 3 4 14 6 13 -4 -7 -3 15 -9 -13 -5 -2 16 20 18 -10 -14 -11 -1 23 -23 -24 -26 28 -28 -15 -27
right_child=1 9 7 5 -6 8 -8 11 17 10 -12 12 19 26 -16 -17 -18 -19 -20 -21 -22 22 24 -25 25 29 27 -29 -30 -31
leaf_value=0.061978929405121709 -0.042420829546804872 0.094540559294788426 0.059586088112662951 -0.040989597454123471 0.089530439863417646 0.041523430041185597 -0.027144690756412911 0.047783255311001027 0.07670107491395195 0.074974998631417086 0.065490184694240491 -0.027102244888593204 -0.035553501628136967 0.079144249459460775 0.075683578383566374 -0.049323904823159063 0.050752230491536522 -0.049893303980514669 -0.031317280937207342 0.038489725772286668 -0.032375750036790385 0.067461064737611917 0.05226165490018142 -0.03336117362820934 -0.051240600760026449 0.070492547508468589 -0.020975193051021777 0.093584451454418807 0.22843310027817113 0.014388802389445572
leaf_count=186 4665 45 98 47 40 83 183 146 48 20 92 1003 123 32 22 173 143 837 163 247 178 36 367 295 46 67 86 68 20 357
internal_value=0 -0.227817 -0.346299 -0.532118 -0.757793 -0.0905621 0.646959 0.146861 -0.464821 0.422429 0.267225 -0.00413241 -0.183408 1.19411 -0.814516 0.0102529 0.285965 -0.669363 0.0603429 0.381022 -0.348634 0.58966 0.47851 -0.296452 0.669408 0.345744 1.54704 1.06 2.6157 0.479114
internal_count=9916 8562 7911 6294 4727 1567 436 1617 1131 651 606 1519 1373 253 4687 514 341 1048 211 370 198 1354 1168 331 837 470 206 154 52 424
shrinkage=0.05


Tree=28
num_leaves=31
num_cat=0
split_feature=24 89 71 97 64 74 65 81 30 62 65 43 74 86 17 62 24 49 46 92 83 81 88 22 45 12 94 35 83 13
split_gain=109.857 54.3245 51.1713 41.7802 32.5688 41.8141 34.1261 30.6363 22.9832 24.6128 22.4251 21.9196 27.3002 31.638 20.7219 19.7185 20.2488 19.6533 19.5424 19.3712 37.4131 19.6622 17.7527 17.2786 22.4424 19.7853 29.9939 16.6564 20.8903 17.6574
threshold=-0.012099999999999988 0.0049999999999999845 0.0046000000000000112 0.0060999999999999917 -0.0039999999999999992 -0.0031999999999999871 0.0071499999999999975 0.0029000000000000037 0.0031000000000000042 0.0049000000000000059 -0.00019999999999998488 -0.026150000000000003 -0.0088999999999999999 -0.011500000000000015 -0.0037999999999999905 -0.00030000000000000507 -0.017499999999999995 -0.012499999999999999 -0.013300000000000001 -0.01449999999999999 -0.0092999999999999906 0.0047000000000000071 0.0022999999999999935 -0.0025000000000000001 0.006600000000000006 0.013149999999999997 -0.004899999999999999 0.0015999999999999992 -0.0016000000000000022 0.00089999999999999987
decision_type=2 2 2 2 2 2 2 2 2 2 2 2 2 2 2 2 2 2 2 2 2 2 2 2 2 2 2 2 2 2
left_child=11 2 3 4 5 7 -6 -2 9 14 -4 -1 13 -13 18 16 -14 -18 -3 -12 -21 23 -5 24 -22 -25 -27 28 29 -7
right_child=1 8 10 22 6 27 -8 -9 -10 -11 19 12 15 -15 -16 -17 17 -19 -20 20 21 -23 -24 25 -26 26 -28 -29 -30 -31
leaf_value=0.0653491771019971 -0.042003100959264378 0.066617626911177605 0.069457861380279345 0.073043857673743481 -0.042837789488667184 0.077536493634361936 0.08144687780701515 0.1019308579331582 0.066051268510076686 -0.031034653042020466 -0.056094849694783691 0.077718898019891305 0.069584827234959942 -0.036372395099500111 0.050886511798435556 0.015052095140441571 -0.040175783960053404 0.045655969638575072 -0.02010197381738062 0.075793099554786844 -0.01685250127155586 0.04793373173580491 -0.030580815452385474 -0.03545693844280335 0.11193135541127675 -0.057382788716350025 0.085051129853360885 -0.054156505337314732 0.013498489837007709 0.2779708919432175
leaf_count=186 853 37 74 80 4745 82 38 28 108 271 139 35 227 298 193 506 56 107 205 80 79 82 61 932 37 63 57 76 161 20
internal_value=0 -0.226041 -0.36377 -0.554129 -0.63026 -0.127657 -0.805596 -0.64711 0.369447 0.175324 0.135932 0.559587 0.439091 -0.302751 0.474533 0.614664 0.985623 0.34342 -0.0333822 0.0153513 0.141177 -0.0821094 0.854661 -0.262279 0.765975 -0.450277 0.561175 0.714497 0.968595 1.90452
internal_count=9916 8501 7687 6144 6003 1220 4783 881 814 706 1543 1415 1229 333 435 896 390 163 242 1469 1330 1250 141 1168 116 1052 120 339 263 102
shrinkage=0.05


Tree=29
num_leaves=31
num_cat=0
split_feature=8 1 47 23 14 24 71 34 98 8 39 77 22 22 73 40 90 62 70 82 13 96 24 85 90 25 70 27 48 17
split_gain=101.936 54.0947 49.525 43.8036 24.2386 24.2126 27.6757 22.7174 22.0835 21.473 20.4792 20.3547 19.6792 21.3803 27.1408 20.2847 29.9655 22.1306 16.9848 17.0827 15.9683 15.9661 15.8492 15.3294 14.9038 14.7428 14.7059 14.6277 14.3009 15.0053
threshold=-0.0050000000000000018 0.0038000000000000017 -0.0018999999999999952 0.016300000000000002 -0.0013999999999999948 -0.017499999999999995 0.0012000000000000034 0.0083000000000000001 -0.00029999999999999119 -0.025399999999999989 0.0036000000000000012 -0.00089999999999998057 -0.0041999999999999997 -0.012450000000000001 0.00079999999999999874 -0.00010000000000000112 -0.0013000000000000075 0.0016000000000000009 0.003599999999999996 -0.0033999999999999981 -0.010000000000000004 0.0064999999999999962 -0.0021999999999999863 0.0070999999999999995 0.0080000000000000054 -0.0029500000000000008 -0.0016500000000000054 -0.0060499999999999955 -0.013349999999999999 -0.021299999999999986
decision_type=2 2 2 2 2 2 2 2 2 2 2 2 2 2 2 2 2 2 2 2 2 2 2 2 2 2 2 2 2 2
left_child=5 2 8 7 21 -1 11 27 26 -8 -5 -7 13 14 28 16 -14 22 -6 -20 -11 -3 -18 -13 -25 -12 -2 -4 29 -10
right_child=1 4 3 10 18 6 9 -9 12 20 25 23 15 -15 -16 -17 17 -19 19 -21 -22 -23 -24 24 -26 -27 -28 -29 -30 -31
leaf_value=0.040965687375486476 -0.046753517357066753 0.093393938514253538 0.056632561861075952 0.051360895106273091 -0.021030657815806288 0.034464767988248095 -0.038891551195726626 0.013691601276913018 0.059463423083746275 0.08259453131513772 0.049122781782612923 -0.033236712061723149 0.13819267711877331 -0.028350853908695142 -0.040770612110060792 -0.038846917117600042 0.035354231925143871 0.066421952195002659 -0.012316446432996625 0.044921121293197752 0.027580075730833084 0.020367718464464626 -0.04419793932402389 0.074488057196992127 -0.034983633454878392 -0.037250396757259739 0.092109621813233955 -0.046292765133623223 0.069556110865916579 -0.044223638250075116
leaf_count=682 485 96 22 118 506 163 48 166 35 87 41 463 54 527 88 121 105 122 190 274 279 81 154 34 32 255 21 4506 101 60
internal_value=0 -0.243001 -0.391576 -0.647174 0.352086 0.487184 0.225032 -0.811664 0.0041857 0.702121 0.248034 -0.14822 0.15517 -0.119762 0.362018 0.601632 0.84245 0.542621 0.0984628 0.452988 0.914806 1.13393 -0.0832993 -0.42694 0.558391 -0.321172 -0.757132 -0.894945 0.844583 0.0722931
internal_count=9916 8128 6981 5108 1147 1788 1106 4694 1873 414 414 692 1367 811 284 556 435 381 970 464 366 177 259 529 66 296 506 4528 196 95
shrinkage=0.05


Tree=30
num_leaves=31
num_cat=0
split_feature=14 25 47 72 66 74 92 67 66 15 31 60 14 24 73 42 40 88 48 23 33 74 22 66 4 33 22 1 61 3
split_gain=97.3111 41.0509 33.8908 49.6045 37.1777 26.0201 36.0072 20.4378 27.0814 25.6978 32.5442 24.4893 19.5899 19.4026 26.274 17.49 16.1276 16.0606 22.1643 15.4444 17.0187 16.1741 14.9293 14.0598 14.0564 13.8654 15.759 13.7686 13.9232 13.3656
threshold=-0.0075000000000000041 -0.0014000000000000087 -0.0017500000000000013 0.0047000000000000002 0.0064000000000000072 -0.003699999999999998 -0.00039999999999999579 0.0086000000000000052 0.020650000000000005 0.014050000000000009 0.0060999999999999987 0.0086000000000000017 -0.0031999999999999837 -0.035400000000000001 -0.0097999999999999806 -0.0050499999999999981 0.019099999999999989 0.0038999999999999977 -0.0050499999999999981 -0.013249999999999996 -0.0058999999999999912 -0.0063999999999999986 -0.0061999999999999928 0.0066000000000000164 -1.0000000180025095e-35 0.0010000000000000046 -0.0020999999999999938 0.00060000000000000689 0.00019999999999998494 -0.00080000000000000026
decision_type=2 2 2 2 2 2 2 2 2 2 2 2 2 2 2 2 2 2 2 2 2 2 2 2 2 2 2 2 2 2
left_child=13 -2 5 4 15 19 25 9 -9 10 11 22 -8 23 -15 -4 -11 18 24 21 -21 -3 -5 -1 -14 26 29 -16 -29 -7
right_child=1 2 3 7 -6 6 12 8 -10 16 -12 -13 17 14 27 -17 -18 -19 -20 20 -22 -23 -24 -25 -26 -27 -28 28 -30 -31
leaf_value=0.060210233695726229 0.019949701228509073 -0.0219784676191494 0.05758415525202585 0.079705522567964912 0.071952860964463836 0.10954454616153374 -0.025771574419671723 -0.045532473091684872 0.073985790079458366 0.073400371701699108 0.051213516762539171 0.0911838573333182 0.080518054394775107 -0.024454237214096744 0.017436352541408611 -0.047290408980198539 -0.049645167433408847 0.047411575519881732 -0.045116772211319663 0.029670270224000352 -0.047293346859123363 0.082773440548949487 -0.042335194162052649 -0.013101295172349814 -0.024514950474879522 -0.00782245668773098 0.20813645321956789 0.076337118999979983 0.020301571947326943 -0.03325605768109139
leaf_count=281 751 64 23 20 56 39 289 452 25 117 141 31 47 319 732 4050 29 187 252 74 716 31 758 37 60 35 27 124 119 30
internal_value=0 -0.219812 -0.32826 -0.512598 -0.822954 0.0249657 0.329201 -0.0452679 -0.612207 0.218854 -0.0814404 -0.500832 0.0935406 0.505073 0.361855 -0.902924 1.13793 0.437821 -0.0893239 -0.454216 -0.703698 0.438916 -0.707889 1.01514 0.839081 1.72878 2.19625 0.510746 0.992242 1.56058
internal_count=9916 8304 7553 5702 4129 1851 966 1573 477 1096 950 809 835 1612 1294 4073 146 546 359 885 790 95 778 318 107 131 96 975 243 69
shrinkage=0.05


Tree=31
num_leaves=31
num_cat=0
split_feature=10 3 47 23 23 40 33 96 39 16 78 84 74 91 18 74 83 22 98 48 14 41 98 66 84 76 49 90 24 23
split_gain=90.3738 43.2008 42.8821 43.2833 36.1217 21.7778 28.2829 21.3391 20.6685 17.6063 16.4965 17.9753 15.982 23.5437 23.6731 19.2377 17.3872 16.0864 15.9624 15.1925 14.7603 14.5347 17.2014 15.4371 14.1327 13.6744 15.036 12.8615 13.0924 12.8244
threshold=-0.0075000000000000006 0.0075000000000000023 -0.0018999999999999952 0.016300000000000002 -0.0024500000000000004 0.0049000000000000042 -0.0039999999999999923 0.0098500000000000063 0.0026999999999999962 0.017549999999999993 -0.00010000000000000112 0.00060000000000000515 -0.0069999999999999949 -0.0011000000000000018 0.00040000000000000284 -0.0031999999999999871 -0.0092999999999999906 -0.0020999999999999938 -0.0014000000000000035 0.0058000000000000039 0.0025000000000000096 -0.0071999999999999903 0.018350000000000002 0.0066000000000000164 -0.007949999999999997 0.0030000000000000239 0.018749999999999996 0.01059999999999999 -0.035400000000000001 0.012700000000000012
decision_type=2 2 2 2 2 2 2 2 2 2 2 2 2 2 2 2 2 2 2 2 2 2 2 2 2 2 2 2 2 2
left_child=7 2 12 4 5 6 -4 10 19 -6 11 24 16 14 15 -14 -2 -17 -10 -5 -3 22 27 -24 -1 -12 -27 -9 -29 -15
right_child=1 20 3 8 9 -7 -8 21 18 -11 25 -13 13 29 -16 17 -18 -19 -20 -21 -22 -23 23 -25 -26 26 -28 28 -30 -31
leaf_value=0.072899202526900533 0.059547536240637133 0.0605857419533034 0.078837762187496163 -0.0084644932652495238 -0.045339975862504406 0.055758545471752963 -0.038006825812080584 0.051660196638448633 -0.029271335004363686 0.042017030325767583 -0.010989087554929843 0.072559390456445633 0.0088765752019806261 -0.00086786665177356515 -0.052208454512249404 0.083826821714890309 -0.029114599424223606 0.21669044598525727 0.062700376242617414 0.084944565177722406 0.011939845564706744 0.081226667639954175 0.064595740108517805 -0.035392866948878159 -0.0076710689684582906 0.061391085060751915 -0.054004646430096226 0.035256359264694774 -0.054690202732575667 0.075323287520881313
leaf_count=38 37 138 41 57 4537 105 445 43 288 48 409 109 81 1306 55 59 708 20 37 61 559 103 218 20 165 77 20 33 71 28
internal_value=0 -0.189936 -0.290909 -0.530309 -0.686903 0.0834807 -0.341266 0.551717 0.333429 -0.859988 0.290539 0.737686 0.0294382 0.182537 1.11292 1.5784 -0.407075 2.28656 -0.208203 1.1104 0.47425 0.922156 0.695258 1.08967 0.237583 0.00533368 0.774441 0.0625743 -0.438 0.0396089
internal_count=9916 8610 7913 5619 5176 591 486 1306 443 4585 818 312 2294 1549 215 160 745 79 325 118 697 488 385 238 203 506 97 147 104 1334
shrinkage=0.05


Tree=32
num_leaves=31
num_cat=0
split_feature=10 3 98 69 91 61 15 41 34 5 96 43 13 98 24 61 9 82 98 77 77 26 6 36 43 59 81 14 9 21
split_gain=82.7527 39.4294 40.8942 35.073 32.8789 27.6735 22.253 22.0507 21.4945 20.9952 20.1512 17.1112 16.6438 16.1812 30.2482 23.9837 19.9584 15.2777 18.3058 15.2675 22.103 14.8565 13.8844 14.0529 13.3257 13.9562 14.8063 13.2039 13.1722 12.981
threshold=-0.0075000000000000006 0.0075000000000000023 -9.9999999999987238e-05 0.0034999999999999931 -0.0011000000000000018 0.00049999999999999708 0.0014000000000000004 -0.0022000000000000053 -0.0051500000000000044 -0.0050000000000000018 0.0098500000000000063 -0.010899999999999995 -0.0062999999999999957 0.0067999999999999909 -0.012849999999999999 0.0017500000000000018 0.0051499999999999957 -0.0055999999999999861 -0.00079999999999998464 -0.00010000000000000805 0.0032000000000000192 -0.004699999999999988 -0.00069999999999999392 -0.0030000000000000005 -0.0086000000000000052 -0.0040999999999999951 0.0057000000000000184 0.0025000000000000096 -0.0091999999999999877 -0.0023000000000000013
decision_type=2 2 2 2 2 2 2 2 2 2 2 2 2 2 2 2 2 2 2 2 2 2 2 2 2 2 2 2 2 2
left_child=10 2 3 11 6 -5 29 13 -9 -10 17 -2 -13 14 -6 21 28 -1 -19 -20 22 -16 23 -21 25 -12 -27 -3 -15 -4
right_child=1 27 4 5 7 -7 -8 8 9 -11 24 12 -14 16 15 -17 -18 18 19 20 -22 -23 -24 -25 -26 26 -28 -29 -30 -31
leaf_value=0.064499498512410089 0.065840109163110866 0.05718135981637517 0.039829223829614444 0.062781755456845334 0.081901652071673658 -0.015657070196641875 -0.011354872017001352 0.088679557724752389 0.033355530220850756 -0.037397349148913683 0.063448576048037095 0.0042204061916333432 -0.048958686177251368 0.035856551363710076 0.077451718998505351 0.068439192566424542 0.063147513196080016 -0.024430839905699941 0.052363486639834117 -0.046386310482779837 0.049454191569226445 -0.018195612455777544 0.065155975872980665 0.026179408567972462 0.080325271981286667 0.049375107596241911 -0.0094848576671050285 0.011302048370836364 -0.031850824469774268 0.11046938361395363
leaf_count=76 27 138 158 105 81 776 197 22 91 1694 158 183 3375 46 21 71 39 264 140 159 101 541 29 49 94 105 131 559 397 89
internal_value=0 -0.183666 -0.281975 -0.592342 -0.0419722 0.0228008 0.743596 -0.177162 -0.511775 -0.595139 0.530504 -0.830501 -0.876673 0.0723267 0.378699 0.0806319 -0.276714 0.277356 0.160172 0.404686 0.121187 -0.205104 -0.316756 -0.538525 0.895642 0.685628 0.338409 0.448584 -0.45998 1.24793
internal_count=9916 8610 7913 4466 3447 881 444 3003 1807 1785 1306 3585 3558 1196 714 633 482 818 742 478 338 562 237 208 488 394 236 697 443 247
shrinkage=0.05


Tree=33
num_leaves=31
num_cat=0
split_feature=14 25 81 31 49 73 35 90 15 45 14 36 24 73 65 49 9 0 43 49 6 16 31 59 98 6 35 9 6 68
split_gain=76.3697 34.9601 29.3813 33.9303 28.8396 26.1808 20.1585 18.4024 18.1181 20.8079 25.4904 21.672 16.7838 22.6469 13.3123 13.1732 12.627 12.3609 17.1389 16.0328 15.9176 12.3568 12.1676 12.0829 11.8207 11.3229 11.3175 11.2304 12.1748 10.3625
threshold=-0.0075000000000000041 -0.0014000000000000087 0.0010000000000000219 0.0067999999999999979 -0.0042999999999999939 -0.0022999999999999891 0.0032000000000000054 0.0030000000000000135 0.013799999999999998 -0.00089999999999999965 -0.002599999999999996 0.0077000000000000098 -0.035400000000000001 -0.0097999999999999806 0.0070000000000000001 0.012350000000000002 0.0011500000000000054 -0.014599999999999993 -0.0063999999999999916 -0.0042999999999999939 -0.0075000000000000041 0.0032999999999999995 0.0028999999999999968 0.0031999999999999984 -0.0012999999999999971 -0.0017999999999999924 0.0081000000000000186 -0.013800000000000002 0.0022999999999999987 -0.0073999999999999995
decision_type=2 2 2 2 2 2 2 2 2 2 2 2 2 2 2 2 2 2 2 2 2 2 2 2 2 2 2 2 2 2
left_child=12 -2 3 4 5 -3 -5 -7 9 10 -4 15 14 22 -1 -11 17 -15 19 20 29 -13 -14 -8 -20 -12 -10 -22 -29 -19
right_child=1 2 8 6 -6 7 23 -9 26 11 25 21 13 16 -16 -17 -18 18 24 -21 27 -23 -24 -25 -26 -27 -28 28 -30 -31
leaf_value=0.05545282066162293 0.018487725174659051 -0.030658117967674533 -0.017402103792660516 0.092949956194887898 -0.040892774062544102 0.078995135355001189 -0.043824425521964229 -0.0091762563326558445 0.058478735275773464 -0.045647403168517182 0.064584482229603682 0.12039807330943711 -0.036053543836698419 -0.026548918794094836 -0.027320548034859435 0.048684984571493256 0.064869449075784985 0.083182297527963245 0.003109840214091583 0.062783768093944675 0.053937070833728465 -0.020109784821374592 0.061637925911957742 0.012449956418580425 0.057592811657697897 0.015207998147142866 -0.047937600475892378 -0.036393169291485783 0.051469890965714318 0.013205576274685894
leaf_count=290 751 440 418 28 4447 85 193 88 117 888 123 21 298 73 28 30 92 34 93 58 23 39 21 331 227 284 21 231 22 122
internal_value=0 -0.202158 -0.307188 -0.487736 -0.645249 0.00209891 0.189345 0.785281 0.0237715 -0.0976474 0.197967 -0.560485 0.451044 0.319546 0.944833 -0.770182 0.457584 0.371274 0.458 0.185956 0.0172382 1.18306 -0.484202 -0.0117303 0.89515 0.701007 0.883543 -0.362967 -0.535228 0.56285
internal_count=9916 8304 7553 5612 5060 613 552 173 1941 1803 825 978 1612 1294 318 918 975 883 810 490 432 60 319 524 320 407 138 276 253 156
shrinkage=0.05


Tree=34
num_leaves=31
num_cat=0
split_feature=8 1 25 47 71 14 16 37 73 24 72 90 98 35 4 94 37 24 96 44 74 54 66 43 35 86 18 8 72 11
split_gain=71.735 39.3337 36.6313 34.8249 29.6095 26.1119 21.0395 20.8296 24.7387 23.6563 21.7065 19.8772 18.9829 20.2479 28.0655 25.2755 17.1652 16.7108 16.5314 13.0406 12.4664 16.2224 12.458 12.1939 12.1772 11.6861 11.5986 11.2417 17.3317 19.4516
threshold=-0.0050000000000000018 0.0047000000000000002 -0.001699999999999986 -0.0018999999999999952 0.0050999999999999978 0.00020000000000001269 -0.0025000000000000001 -0.0043999999999999968 -0.0034999999999999992 -0.0031999999999999976 -0.00070000000000000259 0.0053999999999999855 0.018350000000000002 -0.0044999999999999927 -0.0099999999999999985 0.0061500000000000036 -0.00079999999999999158 0.00074999999999999384 0.0034000000000000111 -0.0036999999999999911 0.0059000000000000068 -0.00040000000000000099 0.0079000000000000129 -0.0019999999999999996 -0.0087999999999999971 0.0090000000000000063 -0.008899999999999993 -0.012699999999999991 -0.0099999999999999863 -0.028050000000000002
decision_type=2 2 2 2 2 2 2 2 2 2 2 2 2 2 2 2 2 2 2 2 2 2 2 2 2 2 2 2 2 2
left_child=12 2 -2 7 22 24 18 -4 11 10 26 -9 13 19 15 -15 17 23 -6 27 21 -8 -5 -11 -3 -7 -10 28 -1 -30
right_child=1 5 3 4 6 25 20 8 9 16 -12 -13 -14 14 -16 -17 -18 -19 -20 -21 -22 -23 -24 -25 -26 -27 -28 -29 29 -31
leaf_value=-0.056121776717176865 0.020070588823371684 -0.019648203184849691 -0.030864848177247509 -0.047595433063375388 0.096129712178162796 -0.0042892152594374419 0.075608070431964797 -0.041828350592122324 0.088894962910352746 0.084944115817789018 -0.026765647611045846 0.072441161622339753 0.05079589737722992 -0.039376784867571693 0.045826251247687598 0.078900117927173413 -0.010105991013028922 0.0045805467539513844 -0.036495427765836301 0.036127540727857399 -0.031730753160329382 -0.026163252153644203 0.064368257514752433 0.20253936269205869 0.070106743895347975 0.066672679868253343 0.0080720473113206296 -0.0188693716347033 -0.053375081115001138 0.065794022447853914
leaf_count=59 494 28 476 3913 38 743 55 519 36 92 267 25 268 134 578 26 103 68 41 131 736 152 20 21 176 37 105 469 20 86
internal_value=0 -0.202719 -0.329008 -0.43818 -0.680223 0.348988 -0.158091 -0.0781653 0.162301 0.477014 0.0194462 -0.545167 0.428737 0.306305 0.619718 -0.271773 1.1493 1.55715 1.11338 0.0106267 -0.37969 0.389334 -0.91752 2.03377 1.13713 0.0339194 0.874547 -0.152297 0.393579 0.821571
internal_count=9916 8145 7161 6667 4955 984 1022 1712 1236 692 408 544 1771 1503 738 160 284 181 79 765 943 207 3933 113 204 780 141 634 165 106
shrinkage=0.05


Tree=35
num_leaves=31
num_cat=0
split_feature=11 4 4 89 71 16 11 98 34 3 96 92 87 20 64 79 5 97 20 98 85 8 63 64 39 95 44 2 11 4
split_gain=66.263 39.8641 39.382 24.2751 17.8022 17.3008 16.0251 16.0166 20.8569 22.1784 22.497 15.8046 16.7871 15.7518 15.4573 19.1797 14.465 14.113 13.1243 12.431 12.1504 12.0953 12.0001 13.1122 11.6998 11.3529 11.7553 11.1546 11.9083 10.9887
threshold=-0.00609999999999999 0.0075000000000000023 -0.0028999999999999976 0.0038000000000000087 0.0047000000000000002 -0.0024999999999999914 -0.0025999999999999942 0.018350000000000002 -0.0048999999999999972 -0.0099999999999999985 0.0093999999999999969 0.0068999999999999938 0.0064999999999999962 -0.0016000000000000022 0.0052000000000000006 0.0039000000000000046 -0.0021000000000000025 0.0049000000000000198 0.0062000000000000085 0.0036999999999999919 0.0012999999999999976 0.010000000000000007 0.002600000000000002 -0.0036999999999999876 0.017350000000000001 0.015899999999999997 -0.023050000000000005 0.00069999999999999414 -0.011199999999999993 0.001799999999999998
decision_type=2 2 2 2 2 2 2 2 2 2 2 2 2 2 2 2 2 2 2 2 2 2 2 2 2 2 2 2 2 2
left_child=7 2 6 4 16 17 -2 8 11 10 -10 12 -1 -8 -9 -16 19 -6 -15 -4 29 -7 23 -11 -23 -13 -27 28 -25 -5
right_child=1 -3 3 20 5 21 13 14 9 22 -12 25 -14 18 15 -17 -18 -19 -20 -21 -22 24 -24 27 -26 26 -28 -29 -30 -31
leaf_value=-0.001529308588152201 -0.015562730376832435 0.020181252221764173 -0.025766679863276007 -0.012872540169549166 0.088304623888716877 -0.031211111927036718 0.054776736946470943 0.062422289276068167 -0.037354722038386655 0.052871180850235844 0.080195233708133085 -0.041188119114889295 0.059937648796063073 -0.03945028978509843 -0.069402195531681199 0.044675339631777201 -0.043673404904519514 -0.057818721178060278 0.025709291613767983 0.042569417110536925 -0.0080203784231897401 0.06652946117394852 0.071211680260006446 0.035505169078238502 -0.056585373240668473 -0.047956719841834 0.066874149666520694 0.058346175392210035 -0.028081403541634017 0.092233259217198216
leaf_count=352 363 755 471 42 46 731 205 231 124 225 24 209 78 193 30 49 4257 22 187 56 708 46 118 66 31 20 31 51 165 30
internal_value=0 -0.216567 -0.333789 -0.485518 -0.629602 -0.13639 0.229025 0.385002 0.268541 0.551877 -0.27694 -0.0615706 0.258841 0.53191 0.88528 0.0653621 -0.759837 1.10337 0.0865298 -0.179242 -0.0217021 -0.377429 0.774874 0.579437 0.633689 -0.54049 0.43026 0.202006 -0.0826386 0.995749
internal_count=9916 8143 7388 6440 5660 876 948 1773 1463 773 148 690 430 585 310 79 4784 68 380 527 780 808 625 507 77 260 51 282 231 72
shrinkage=0.05


Tree=36
num_leaves=31
num_cat=0
split_feature=11 4 4 34 43 68 24 24 72 11 29 98 43 28 31 37 9 9 20 78 19 88 20 0 32 89 0 97 92 86
split_gain=60.6963 36.4359 34.9943 23.6743 26.2002 17.4411 18.0727 16.6929 15.939 15.311 14.7699 14.6128 21.7236 19.0208 18.1213 15.5262 14.4277 15.9151 13.9181 13.5584 13.2539 12.9232 12.0209 11.8373 11.3873 10.9603 10.8941 10.8246 10.6003 10.1772
threshold=-0.0061999999999999998 0.0075000000000000023 -0.0028999999999999976 -0.0013999999999999948 -0.0093999999999999952 0.0013999999999999883 -0.0061999999999999998 -0.035400000000000001 0.0045000000000000118 -0.0025999999999999942 0.0044000000000000055 -0.0019999999999999961 -0.0067499999999999982 -0.0067999999999999892 0.0002999999999999965 0.0056000000000000051 -0.0038000000000000009 -0.015199999999999993 -0.0016000000000000022 1.0000000180025095e-35 -0.034849999999999992 0.0046000000000000112 0.0062000000000000085 -0.0050499999999999981 0.0031000000000000008 0.0072999999999999914 -0.0099999999999999985 -0.02555 0.0099499999999999988 0.000799999999999997
decision_type=2 2 2 2 2 2 2 2 2 2 2 2 2 2 2 2 2 2 2 2 2 2 2 2 2 2 2 2 2 2
left_child=7 2 9 5 -5 28 -7 -1 25 -2 11 24 13 20 -14 -16 17 23 -11 -8 -13 -21 -20 -15 -9 -6 -12 -3 -4 -19
right_child=1 27 3 4 8 6 19 10 -10 18 26 12 14 16 15 -17 -18 29 22 21 -22 -23 -24 -25 -26 -27 -28 -29 -30 -31
