tree
version=v2
num_class=1
num_tree_per_iteration=1
label_index=0
max_feature_idx=98
objective=binary sigmoid:1
feature_names=DFF_5 DFF_10 DFF_15 DFF_20 DFF_25 DFF_30 DFF_35 DFF_40 DFF_45 DFF_50 DFF_55 DFF_60 DFF_65 DFF_70 DFF_75 DFF_80 DFF_85 DFF_90 DFF_95 DFF_100 DFF_105 DFF_110 DFF_115 DFF_120 DFF_125 DTB3_5 DTB3_10 DTB3_15 DTB3_20 DTB3_25 DTB3_30 DTB3_35 DTB3_40 DTB3_45 DTB3_50 DTB3_55 DTB3_60 DTB3_65 DTB3_70 DTB3_75 DTB3_80 DTB3_85 DTB3_90 DTB3_95 DTB3_100 DTB3_105 DTB3_110 DTB3_115 DTB3_120 DTB3_125 DGS10_5 DGS10_10 DGS10_15 DGS10_20 DGS10_25 DGS10_30 DGS10_35 DGS10_40 DGS10_45 DGS10_50 DGS10_55 DGS10_60 DGS10_65 DGS10_70 DGS10_75 DGS10_80 DGS10_85 DGS10_90 DGS10_95 DGS10_100 DGS10_105 DGS10_110 DGS10_115 DGS10_120 DGS10_125 Curve_5 Curve_10 Curve_15 Curve_20 Curve_25 Curve_30 Curve_35 Curve_40 Curve_45 Curve_50 Curve_55 Curve_60 Curve_65 Curve_70 Curve_75 Curve_80 Curve_85 Curve_90 Curve_95 Curve_100 Curve_105 Curve_110 Curve_115 Curve_120
feature_infos=[-0.097100000000000006:0.099400000000000016] [-0.10240000000000002:0.099500000000000005] [-0.10280000000000002:0.096400000000000013] [-0.10200000000000001:0.1031] [-0.10150000000000001:0.1023] [-0.099500000000000005:0.10140000000000002] [-0.099700000000000011:0.1019] [-0.10290000000000001:0.10010000000000001] [-0.11410000000000002:0.10280000000000002] [-0.1135:0.1018] [-0.11120000000000001:0.1003] [-0.10630000000000001:0.10240000000000002] [-0.11410000000000002:0.10340000000000002] [-0.1135:0.1031] [-0.11250000000000002:0.10280000000000002] [-0.11950000000000001:0.10390000000000001] [-0.11889999999999999:0.1086] [-0.1123:0.10569999999999997] [-0.11550000000000001:0.10270000000000001] [-0.11550000000000001:0.1106] [-0.1132:0.12119999999999999] [-0.1157:0.11210000000000001] [-0.1132:0.11720000000000001] [-0.1162:0.12519999999999998] [-0.1231:0.12349999999999998] [-0.021699999999999997:0.019099999999999978] [-0.029399999999999996:0.025599999999999984] [-0.036500000000000019:0.029999999999999971] [-0.045200000000000004:0.033700000000000035] [-0.052400000000000002:0.037499999999999978] [-0.057300000000000018:0.037099999999999994] [-0.062200000000000005:0.041499999999999995] [-0.0683:0.044299999999999978] [-0.071899999999999992:0.051399999999999973] [-0.078600000000000003:0.054099999999999981] [-0.07640000000000001:0.059400000000000008] [-0.084600000000000009:0.058899999999999994] [-0.083299999999999999:0.058399999999999994] [-0.087900000000000006:0.056299999999999989] [-0.0906:0.063700000000000007] [-0.09820000000000001:0.068499999999999978] [-0.091899999999999996:0.068000000000000005] [-0.091899999999999996:0.069199999999999984] [-0.094299999999999995:0.073700000000000002] [-0.095200000000000007:0.072700000000000001] [-0.088899999999999993:0.068299999999999986] [-0.084099999999999994:0.076000000000000012] [-0.080399999999999999:0.083399999999999988] [-0.081700000000000009:0.08589999999999999] [-0.078799999999999995:0.085199999999999998] [-0.0126:0.010200000000000015] [-0.016200000000000006:0.014500000000000013] [-0.022499999999999992:0.016400000000000012] [-0.024699999999999972:0.019300000000000025] [-0.024599999999999983:0.023600000000000024] [-0.027200000000000002:0.025500000000000009] [-0.028899999999999981:0.028000000000000011] [-0.031700000000000006:0.029399999999999996] [-0.02990000000000001:0.029700000000000018] [-0.03040000000000001:0.030200000000000005] [-0.028900000000000009:0.031500000000000014] [-0.033200000000000021:0.032400000000000012] [-0.033199999999999993:0.032600000000000004] [-0.038500000000000006:0.033100000000000018] [-0.034200000000000008:0.031400000000000011] [-0.036400000000000016:0.033500000000000002] [-0.036800000000000013:0.032100000000000017] [-0.03800000000000002:0.032800000000000024] [-0.036699999999999983:0.031400000000000011] [-0.041099999999999984:0.028899999999999995] [-0.040800000000000017:0.030200000000000005] [-0.043700000000000003:0.029700000000000004] [-0.04229999999999999:0.028100000000000014] [-0.040700000000000014:0.028999999999999984] [-0.040799999999999989:0.030299999999999994] [-0.018800000000000011:0.017799999999999996] [-0.025700000000000028:0.0252] [-0.027800000000000047:0.028899999999999988] [-0.027800000000000047:0.036400000000000002] [-0.031299999999999939:0.041500000000000009] [-0.032400000000000012:0.042200000000000001] [-0.031099999999999961:0.046200000000000005] [-0.035800000000000012:0.049100000000000005] [-0.037299999999999972:0.051000000000000004] [-0.040400000000000019:0.052600000000000008] [-0.042199999999999974:0.057900000000000007] [-0.040099999999999983:0.059300000000000019] [-0.039399999999999963:0.056799999999999989] [-0.045100000000000015:0.057800000000000004] [-0.052100000000000007:0.057599999999999998] [-0.05029999999999997:0.062300000000000008] [-0.049599999999999977:0.057300000000000031] [-0.049099999999999977:0.061700000000000019] [-0.051699999999999982:0.063100000000000031] [-0.05319999999999997:0.061000000000000013] [-0.053299999999999972:0.055199999999999999] [-0.055300000000000016:0.053100000000000008] [-0.06049999999999997:0.051800000000000013] [-0.060699999999999976:0.052300000000000027]
tree_sizes=2507 2548 2538 2546 2528 2560 2564 2563 2560 2553 2573 2593 2588 2579 2576 2571 2563 2593 2604 2590 2600 2598 2601 2585 2600 2597 2591 2603 2595 2606 2588 2606 2571 2596 2584 2591 2589 2600 2597 2615 2601 2588 2598 2614 2615 2605 2597 2613 2617 2609 2613 2618 2597 2599 2620 2615 2611 2610 2591 2629 2616 2610 2603 2624 2614 2600 2589 2599 2606 2603 2591 2595 2626 2625 2603 2615 2619 2618 2610 2612 2617 2615 2604 2601 2624 2619 2612 2615 2622 2583 2603 2598 2627 2625 2603 2612 2624 2608 2612 2639

Tree=0
num_leaves=31
num_cat=0
split_feature=13 92 84 24 84 74 74 24 64 89 15 82 35 74 22 30 64 64 58 64 11 8 29 86 26 43 21 98 43 58
split_gain=1604.95 369.615 278.072 244.305 230.588 173.605 172.909 161.608 159.226 128.573 113.319 99.7506 99.3811 94.3098 112.674 94.255 73.1262 72.3957 72.0035 71.9008 69.5859 88.4743 64.9857 106.782 59.5759 52.0423 51.962 55.1438 68.3566 88.2076
threshold=-0.012000000000000002 0.0058000000000000039 0.0067999999999999979 -0.037049999999999986 -0.012099999999999991 -0.0014999999999999976 -0.01 0.016999999999999998 -0.0009999999999999972 -0.012149999999999999 -0.008699999999999989 0.0055000000000000023 0.0033000000000000013 0.0026000000000000125 -0.0050499999999999981 -0.0055999999999999895 0.0059999999999999958 0.01070000000000001 -0.0017999999999999889 -0.018349999999999995 -0.014149999999999994 0.0024999999999999922 0.0076999999999999924 -0.0013999999999999965 -0.004699999999999988 -0.00039999999999999059 0.0049000000000000059 -0.0016000000000000022 -0.0060000000000000114 -0.0023999999999999955
decision_type=2 2 2 2 2 2 2 2 2 2 2 2 2 2 2 2 2 2 2 2 2 2 2 2 2 2 2 2 2 2
left_child=3 2 4 16 5 -2 19 12 -8 -7 26 15 13 14 20 -12 -1 -10 -4 -5 -3 -22 24 -24 -17 -13 27 -6 -29 -30
right_child=1 7 18 6 10 9 8 -9 17 -11 11 25 -14 -15 -16 22 -18 -19 -20 -21 21 -23 23 -25 -26 -27 -28 28 29 -31
leaf_value=-1.4093320535720761 -1.3911552360936028 -1.4817639171605366 -1.6955164427663161 -1.4688198198652611 -1.776371571601026 -1.7473410858049994 -1.4599013987622953 -1.4549891405634587 -1.638781445220628 -1.4937311014523964 -1.6534660819448976 -1.4377539863565976 -1.5131995820204938 -1.7439533453402507 -1.5096959165871859 -1.5905643025343461 -1.6338570603800338 -1.3911552360936028 -1.4599719558912745 -1.7504199773502516 -1.7370563234799783 -1.5106392111269227 -1.7315681844434019 -1.4518306921652107 -1.7678527340414421 -1.6823974252373199 -1.4882359658081752 -1.7302905852298422 -1.4343022270778574 -1.6727960343864281
leaf_count=235 51 30 37 20 125 145 209 73 276 53 151 25 70 317 95 37 32 25 79 147 238 39 154 32 6881 52 24 150 45 91
internal_value=0 -0.391445 -0.57538 3.42825 -0.637373 2.00247 2.53792 1.34378 3.34385 0.82148 -0.722003 -0.803995 0.976738 0.668128 1.5644 -0.837483 5.68576 2.0463 3.70854 0.0766836 0.74367 0.30703 -0.883793 0.741766 -0.927499 2.35124 0.659983 0.427231 1.10209 2.53294
internal_count=9938 8994 8132 944 8016 249 677 862 510 198 7767 7332 789 719 402 7255 267 301 116 167 307 277 7104 186 6918 77 435 411 286 136
shrinkage=1


Tree=1
num_leaves=31
num_cat=0
split_feature=14 92 20 84 84 74 24 74 91 82 63 30 74 37 19 64 74 29 88 11 37 29 27 89 11 31 2 31 23 97
split_gain=1327.44 314.744 272.679 221.833 191.656 155.166 108.399 102.932 101.897 91.4315 85.287 81.4676 78.4209 84.956 76.2665 73.1716 72.7195 62.1567 89.1661 60.5663 57.0075 61.2965 56.9658 59.1886 56.8092 54.197 53.9251 48.3536 47.1368 46.1251
threshold=-0.0095999999999999922 0.0058000000000000039 -0.027949999999999992 0.0069999999999999863 -0.012099999999999991 -0.010299999999999981 0.016999999999999998 -0.0014999999999999976 -0.012099999999999991 0.0055000000000000023 -0.0013000000000000058 -0.0053999999999999977 0.0039000000000000046 -0.0043999999999999968 -0.014299999999999995 0.0051000000000000151 0.0082999999999999931 0.0076999999999999924 -0.0023999999999999972 0.0088000000000000005 0.008349999999999998 -0.0081500000000000027 -0.00069999999999999739 0.0078000000000000057 -0.00609999999999999 0.0025000000000000009 0.0012000000000000016 0.005200000000000018 -0.012499999999999989 -1.0000000180025095e-35
decision_type=2 2 2 2 2 2 2 2 2 2 2 2 2 2 2 2 2 2 2 2 2 2 2 2 2 2 2 2 2 2
left_child=2 3 15 4 7 25 12 -2 -9 11 14 19 13 -3 -7 -1 -17 24 -19 -6 21 -12 -15 -24 28 -4 -16 -14 -13 -10
right_child=1 6 5 -5 9 10 -8 8 29 -11 20 17 27 22 26 16 -18 18 -20 -21 -22 -23 23 -25 -26 -27 -28 -29 -30 -31
leaf_value=0.22954779577582501 0.25148126756259848 0.022148603178177569 -0.048916455605597917 0.15743554330733542 0.0075509852129196295 0.23162046022865709 0.21556916737690637 -0.035339965020272694 0.24156710717761182 0.099441666793117917 0.2050074309284404 0.14194362170090288 -0.028161992868108526 0.25973672481381616 0.071908725794939843 -0.010586150682532249 0.23228390469515939 -0.018077968262996881 0.20055198254609527 0.19365190648544328 0.23025677310550427 0.020051805747975989 0.047645200967749018 0.26323889771428116 -0.047947349712626847 0.17799544710364412 0.26452885394533115 0.18688840918290908 -0.010550329448957969 -0.0039487008118722728
leaf_count=348 45 206 200 106 157 130 67 132 46 85 37 44 267 55 168 51 38 151 43 41 31 277 98 29 6643 21 31 20 351 20
internal_value=0 -0.452409 2.42953 -0.623183 -0.682472 1.54497 1.23479 1.67116 0.753915 -0.765852 2.16579 -0.801042 0.88387 1.66217 3.11822 4.07609 1.90393 -0.85159 0.682767 0.929533 1.2081 0.84816 2.97359 1.97172 -0.896359 -0.50723 2.04383 -0.234126 0.136006 3.41182
internal_count=9938 8606 1332 7864 7758 895 742 243 198 7515 674 7430 675 388 329 437 89 7232 194 198 345 314 182 127 7038 221 199 287 395 66
shrinkage=0.05


Tree=2
num_leaves=31
num_cat=0
split_feature=21 92 18 17 33 87 68 22 8 77 13 63 65 75 74 62 85 48 53 84 48 22 87 7 63 24 74 59 91 23
split_gain=1139.54 296.432 204.326 180.839 155.726 127.385 93.9603 90.4343 93.4764 88.4114 79.5366 72.7097 70.59 60.8923 55.9628 125.666 106.542 55.359 53.7959 52.6116 45.0675 45.6743 45.1595 44.9076 42.9319 40.0312 37.5362 46.3777 47.5102 44.6128
threshold=-0.012450000000000001 0.0059999999999999888 0.017500000000000009 -0.022499999999999992 0.012200000000000015 0.0021000000000000016 0.0089999999999999993 -0.004000000000000001 -0.0075000000000000041 0.0028999999999999898 -0.0060500000000000059 -0.0038999999999999968 0.01865000000000001 -0.0022999999999999926 -0.01 -0.00044999999999999202 -0.010299999999999991 0.013000000000000006 -0.0035000000000000131 0.005700000000000008 -0.013349999999999999 -0.012450000000000001 0.0064999999999999962 0.0025000000000000009 0.0072999999999999949 -0.022499999999999992 -0.0075999999999999983 -0.0042999999999999939 0.0011999999999999947 -0.012799999999999983
decision_type=2 2 2 2 2 2 2 2 2 2 2 2 2 2 2 2 2 2 2 2 2 2 2 2 2 2 2 2 2 2
left_child=3 2 4 -1 9 11 7 8 -3 10 13 -4 -13 -2 16 20 -5 -6 -11 -12 22 -22 -16 -10 -17 -26 -15 28 -28 -29
right_child=1 6 5 14 17 -7 -8 -9 23 18 19 12 -14 26 15 24 -18 -19 -20 -21 21 -23 -24 -25 25 -27 27 29 -30 -31
leaf_value=0.16641460698143665 0.17606017728538048 0.21673713029785291 0.18276896692645675 0.20085477676859448 0.18693529747023108 0.18899721538713676 -0.032082712751172297 0.14879837483079217 -0.023790899899272102 0.21196958414763928 -0.048098253665970793 -0.013765401353415196 0.17913597110672166 -0.054420648522519079 -0.032816960783180131 0.0015309607872407219 -0.037564200969694074 -0.017943770492490192 0.015004718361710918 0.096227925612466292 0.22551970133461535 0.088939522567868579 0.19877362360851497 0.13063720809723772 -0.017831388338615747 0.18739991097050479 0.20286517279889671 0.17903734075114244 -0.013656778155610019 -0.026301972167060289
leaf_count=494 34 41 43 34 68 88 153 223 201 26 6426 437 34 189 39 232 189 37 272 45 131 61 21 38 27 45 44 21 30 215
internal_value=0 -0.430533 -0.590918 2.20876 -0.726178 0.934592 1.27556 1.80203 0.747252 -0.780204 -0.847729 0.379475 0.0505733 0.176491 1.37045 1.80158 0.192365 2.44276 0.683797 -0.938565 3.11241 3.70702 1.13644 0.0699345 0.613077 2.35538 -0.0849217 0.494162 2.30467 -0.131247
internal_count=9938 8665 8009 1273 7407 602 656 503 280 7302 7004 514 471 533 779 556 223 105 298 6471 252 192 60 239 304 72 499 310 74 236
shrinkage=0.05


Tree=3
num_leaves=31
num_cat=0
split_feature=21 92 18 17 34 87 6 67 83 75 64 67 22 30 70 98 92 74 86 62 26 72 60 63 30 23 54 7 74 40
split_gain=978.369 260.652 187.739 140.886 128.712 98.0491 84.5576 80.2132 73.8387 68.2201 61.7332 62.1848 60.3313 91.7587 53.974 53.8706 67.3281 48.4256 92.2438 83.8737 48.0149 43.4543 39.5736 39.5473 38.8856 37.5945 52.5225 34.8034 34.5643 34.243
threshold=-0.011950000000000001 0.0059999999999999888 0.017500000000000009 -0.022499999999999992 0.01410000000000001 0.0021000000000000016 -0.0021000000000000025 0.0086000000000000052 0.0058000000000000213 -0.0019999999999999979 -0.00059999999999999973 0.020350000000000004 -0.0041999999999999997 -0.0051999999999999885 0.0097999999999999979 0.0029000000000000106 -0.00045000000000000243 -0.01 -0.011500000000000015 -0.00039999999999999406 -0.0040999999999999951 0.002699999999999998 -0.0050000000000000001 0.0072999999999999949 0.0050000000000000122 -0.0056999999999999993 -0.0022000000000000036 0.0025000000000000009 0.00039999999999999416 -0.02714999999999999
decision_type=2 2 2 2 2 2 2 2 2 2 2 2 2 2 2 2 2 2 2 2 2 2 2 2 2 2 2 2 2 2
left_child=3 2 4 29 6 10 9 12 20 22 21 28 13 -3 -6 24 -17 18 -5 -19 -8 -4 -2 -21 -11 -18 -27 -15 -12 -1
right_child=1 7 5 17 14 -7 8 -9 -10 15 11 -13 -14 27 -16 16 25 19 -20 23 -22 -23 -24 -25 -26 26 -28 -29 -30 -31
leaf_value=0.18968265395481934 -0.0053360523219007647 0.21146870345963154 -0.024112485734394375 0.17835833087606459 0.19198819587659538 0.15996778680093104 0.083412241155539621 -0.035059160855888727 0.11515834614208974 -0.034541130490281555 0.14804261682652484 0.18489363474101522 0.12455146496719788 -0.022986508223817703 -0.033283694277560415 0.22750923943337567 -0.032385901621660239 0.12850351400473356 -0.03611542144433693 0.0023578900840797281 -0.048897403401206581 0.2146883924289997 0.20385226910727688 0.10912307666431653 0.12123106412536047 0.1984253331994095 0.0015913436581672215 0.11846433430093173 -0.024412534374304521 0.12333295935571405
leaf_count=147 28 38 20 33 49 88 49 145 46 1053 20 24 231 197 29 32 146 271 201 235 5769 39 40 75 31 39 73 32 411 347
internal_value=0 -0.423137 -0.578402 1.94045 -0.713604 0.859597 -0.759462 1.16009 -0.918001 -0.146482 0.354633 -0.0135845 1.61518 0.709939 2.46635 -0.293034 0.767395 1.2284 0.15092 1.60438 -0.951159 2.81087 2.45703 0.624256 -0.593153 0.290714 1.49883 0.0131829 -0.295851 2.88365
internal_count=9938 8629 7986 1309 7384 602 7306 643 5864 1442 514 455 498 267 78 1374 290 815 234 581 5818 59 68 310 1084 258 112 229 431 494
shrinkage=0.05


Tree=4
num_leaves=31
num_cat=0
split_feature=14 93 16 95 22 73 62 70 31 85 35 24 66 74 24 78 28 37 31 66 64 74 31 21 41 46 46 66 51 11
split_gain=861.156 230.888 158.105 123.36 119.254 106.258 88.1153 87.2564 86.826 79.0917 66.7562 61.3112 60.9107 57.6616 57.2871 54.3428 52.0265 44.7094 43.84 48.6853 43.7934 53.9816 42.5663 40.8807 38.6631 38.5241 37.0621 36.3923 34.8738 34.3797
threshold=-0.0095999999999999922 0.0062999999999999905 0.017549999999999993 0.015100000000000001 -0.011999999999999992 -0.0093000000000000044 -9.9999999999999381e-05 -0.024700000000000003 0.010799999999999999 0.0058000000000000039 -0.0014 0.016550000000000013 0.020550000000000002 0.0030999999999999956 0.018700000000000008 0.0028000000000000008 0.0039000000000000046 -0.0045999999999999852 -0.0044500000000000017 0.0067999999999999979 0.0051000000000000151 0.0081000000000000013 0.005200000000000018 -0.012450000000000001 0.01060000000000001 -0.007349999999999998 0.014799999999999999 -0.0024000000000000093 -0.0050499999999999981 0.011300000000000003
decision_type=2 2 2 2 2 2 2 2 2 2 2 2 2 2 2 2 2 2 2 2 2 2 2 2 2 2 2 2 2 2
left_child=3 2 4 5 -2 7 23 -1 9 15 -4 13 14 17 24 -6 -8 27 -11 -20 -5 -22 -15 -7 -12 -25 -10 -3 -16 -17
right_child=1 11 10 20 8 6 16 -9 26 18 12 -13 -14 22 28 29 -18 -19 19 -21 21 -23 -24 25 -26 -27 -28 -29 -30 -31
leaf_value=0.17240921796665526 0.067030498549258785 0.098213110015956284 0.13882070979735181 0.16105296605517239 -0.045450864436638566 0.15058225460453356 0.0081549500959849763 -0.04199789551249157 0.15161111980584074 -0.062683139276201102 -0.013998245541336943 0.15287011240424697 0.17234597047116207 -0.021425406506166148 0.12974271871032128 -0.0031309160293443352 0.1738055289078273 0.11825773189646674 0.1784144207993594 -0.060315978748309886 -0.017126611054074523 0.15656146568493612 0.15907429272095075 -0.018264665941932139 0.14061704320032328 0.11614992776910085 -0.033657784636404987 -0.030308924471733785 -0.043834014224909908 0.14051677761078582
leaf_count=27 195 59 83 286 6638 228 253 248 50 29 55 66 30 305 22 302 32 153 52 21 55 48 20 59 65 96 32 100 297 32
internal_value=0 -0.415112 -0.572431 1.75352 -0.69536 1.22049 1.7238 -0.215671 -0.763574 -0.803463 0.802475 0.996487 0.361972 0.711129 0.0474007 -0.847603 0.591284 1.45944 1.38602 2.41295 2.79483 1.4294 -0.130327 2.43857 1.59034 1.36964 1.8563 0.440991 -0.604454 0.255432
internal_count=9938 8606 7903 1332 7351 943 668 275 7156 7074 552 703 469 637 439 6972 285 312 102 73 389 103 325 383 120 155 82 159 319 334
shrinkage=0.05


Tree=5
num_leaves=31
num_cat=0
split_feature=17 89 15 8 35 31 20 74 38 21 81 78 31 97 93 90 6 98 14 45 64 23 41 71 54 94 61 66 11 31
split_gain=823.903 219.821 148.237 124.422 82.8031 82.2858 75.0823 95.997 74.6578 89.9643 67.9214 59.9733 61.6936 59.0896 48.9178 48.7003 47.749 40.9833 40.2067 46.2865 39.8304 46.1343 38.5311 36.1773 72.1645 40.1193 35.913 38.2912 34.1569 62.3311
threshold=-0.011500000000000003 0.0053000000000000104 0.017500000000000009 -0.0050000000000000018 -0.00079999999999998811 0.0035000000000000018 -0.027949999999999992 -0.009299999999999994 -0.0013999999999999965 -0.0049999999999999932 -0.0078999999999999817 0.0028000000000000008 0.010399999999999998 0.008399999999999996 0.0078999999999999956 -0.0055000000000000023 -0.0098500000000000029 -0.016850000000000007 1.0000000180025095e-35 0.0053999999999999994 -0.00080000000000000546 -0.017499999999999995 0.030150000000000007 0.004899999999999999 0.0025499999999999971 -0.0036000000000000159 0.0042000000000000067 0.012800000000000014 -0.0050000000000000018 0.005200000000000018
decision_type=2 2 2 2 2 2 2 2 2 2 2 2 2 2 2 2 2 2 2 2 2 2 2 2 2 2 2 2 2 2
left_child=6 2 3 10 -4 8 26 -8 9 16 -2 12 14 -12 28 -14 -3 -6 19 -13 -9 -22 23 -19 25 -25 -1 -28 29 -5
right_child=1 5 4 11 17 -7 7 20 -10 -11 13 18 15 -15 -16 -17 -18 22 -20 -21 21 -23 -24 24 -26 -27 27 -29 -30 -31
leaf_value=0.13706119973793285 0.16864400271643742 0.17063025455742648 0.15618090037039495 -0.019156947762845287 -0.047396169901155881 0.15505110483655449 -0.013853948559358086 0.12588111900426244 -0.033951464329373043 0.1217300754539356 -0.0010390979303503748 0.031520549104316072 -0.009996747941256089 0.16593586914196634 0.10864124882755899 0.19268199734241803 -0.012200201067372537 -0.032516538243671948 -0.028569618750433901 0.21934694345250327 -0.0056909986177246874 0.097694002804012872 0.15603451163941398 0.068713460046091066 -0.04748183424297036 0.24951871614907994 -0.00098228314687972044 0.17398898130806481 -0.04799111401628943 0.20691601695909356
leaf_count=371 38 22 72 294 142 85 227 221 242 177 616 131 56 37 33 27 240 129 179 24 115 176 35 52 66 36 62 22 5988 23
internal_value=0 -0.362114 -0.524107 -0.642085 0.830764 0.939116 1.80758 1.2715 0.609443 1.18785 0.457168 -0.774763 -0.844395 0.203627 -0.883521 1.35451 0.144177 0.344615 0.356682 1.33834 1.80352 1.16037 0.861953 0.472224 1.33555 2.8321 2.47354 1.04317 -0.906238 0.00522963
internal_count=9938 8744 7978 7446 532 766 1194 739 681 439 691 6755 6421 653 6338 83 262 460 334 155 512 291 318 283 154 88 455 84 6305 317
shrinkage=0.05


Tree=6
num_leaves=31
num_cat=0
split_feature=17 89 15 8 30 39 21 35 20 73 78 31 12 81 24 26 14 67 22 32 93 60 41 45 4 65 10 59 22 36
split_gain=723.09 199.218 135.571 116.436 68.9444 69.8619 72.8618 67.2715 62.7089 70.6737 56.7441 57.6184 70.2538 56.1767 54.9475 49.4384 36.8537 35.1846 47.7565 34.7392 34.5478 32.9891 32.4761 31.6974 29.755 29.7193 44.5026 26.6243 37.7454 26.4279
threshold=-0.011500000000000003 0.0053000000000000104 0.017500000000000009 -0.0050000000000000018 0.0039000000000000046 -0.0013999999999999965 -0.0049999999999999932 -0.00079999999999998811 -0.027949999999999992 -0.010849999999999997 0.002600000000000009 0.0067999999999999979 -0.002799999999999993 -0.0078999999999999817 -0.017499999999999995 -0.0042999999999999939 -0.00065000000000000463 0.020350000000000004 0.021100000000000004 0.0013000000000000062 0.006100000000000016 -0.0018000000000000062 -0.012999999999999999 0.0053999999999999994 0.0077999999999999918 0.0047000000000000002 -0.0099499999999999988 0.0024999999999999922 -0.0088999999999999999 -0.015549999999999993
decision_type=2 2 2 2 2 2 2 2 2 2 2 2 2 2 2 2 2 2 2 2 2 2 2 2 2 2 2 2 2 2
left_child=8 2 3 13 5 6 15 -4 25 19 11 20 -13 -2 -15 -3 23 18 -9 -10 22 -8 -5 -12 -14 -1 29 -16 -29 -27
right_child=1 4 7 10 -6 -7 21 17 9 -11 16 12 24 14 27 -17 -18 -19 -20 -21 -22 -23 -24 -25 -26 26 -28 28 -30 -31
leaf_value=0.12548528985007365 0.14912407304507824 0.17690864656932792 0.13758575097825201 0.12683314870319404 0.14299124951830242 -0.034806334074622809 0.011882825585047571 0.07193711515330585 -0.050669418807605983 0.077041569531745999 0.031859761452812295 0.20899328998042277 -0.030920603747799414 0.1488818956861922 -0.013797574219631134 -0.012203269762628054 -0.024902757828275883 0.14221955080303633 -0.026614113832465688 0.10738233930508188 0.028143103531759209 0.13241881220264851 -0.047910122390587284 0.18194205209809763 0.075173175154459648 -0.0091589187501913399 -0.063427698942153873 0.18093082555633322 -0.0069885115316800604 0.15275239468645449
leaf_count=357 38 20 72 20 77 241 42 122 153 561 133 27 246 40 532 241 226 24 314 25 111 145 5911 23 58 20 34 31 50 44
internal_value=0 -0.351191 -0.510023 -0.626592 0.872145 0.577749 1.11216 0.77159 1.65443 1.17016 -0.759268 -0.833955 0.309102 0.428461 0.191741 0.144625 0.268977 0.322543 0.0963114 -0.417568 -0.90713 2.15384 -0.943432 1.22924 -0.128819 2.24849 1.08628 -0.0402023 1.39845 2.13825
internal_count=9938 8744 7978 7446 766 689 448 532 1194 739 6755 6373 331 691 653 261 382 460 436 178 6042 187 5931 156 304 455 98 613 81 64
shrinkage=0.05


Tree=7
num_leaves=31
num_cat=0
split_feature=14 93 12 6 95 72 29 71 98 92 30 61 37 23 10 25 36 36 86 33 74 21 65 24 28 8 37 73 79 56
split_gain=642.181 184.812 135.778 104.4 69.0168 86.3438 66.8201 61.5912 54.9014 56.9453 54.7043 50.06 49.6427 45.7983 49.7247 44.9789 44.6884 43.7724 43.716 41.4105 37.358 51.3998 37.2173 49.9457 36.789 36.1454 32.6814 52.8451 32.5075 32.4532
threshold=-0.0099000000000000025 0.0062999999999999905 0.014049999999999995 -0.0018999999999999952 0.015100000000000001 -0.0099999999999999863 0.0039000000000000115 -0.025049999999999992 0.0028000000000000078 -0.00045000000000000243 0.0069000000000000112 -0.00050000000000000381 0.0037000000000000058 0.018150000000000003 -0.012900000000000003 -0.0027999999999999896 -0.0025000000000000001 0.0028000000000000078 0.0052000000000000006 -0.0004999999999999986 0.0039000000000000046 -0.0034999999999999992 0.01865000000000001 0.017500000000000012 0.0039000000000000046 0.0013000000000000045 0.0062999999999999905 0.0081000000000000186 0.0043000000000000009 0.0037000000000000162
decision_type=2 2 2 2 2 2 2 2 2 2 2 2 2 2 2 2 2 2 2 2 2 2 2 2 2 2 2 2 2 2
left_child=4 2 3 6 5 7 8 -1 15 -10 16 -7 -12 14 -3 -2 18 20 -5 -4 21 25 23 26 -13 -16 -21 -28 -11 -19
right_child=1 13 19 10 -6 11 -8 -9 9 28 12 24 -14 -15 17 -17 -18 29 -20 22 -22 -23 -24 -25 -26 -27 27 -29 -30 -31
leaf_value=0.12561344627943391 0.10284806400765373 0.17737744098649122 0.10059261005880407 -0.021026203485431758 0.1089437893089515 0.10041667477938654 0.088478750864064301 -0.049658873263869634 0.16564720754423828 -0.0065730871718250794 0.15646430157198432 0.018342568395837439 -0.0076004351867237077 0.13176233665651901 -0.025193377253274998 -0.034057891794002274 -0.050141240160368451 0.19398321304357163 0.10784307777042357 -0.040981343340508708 -0.032515027614409019 0.11442642368063123 0.11127959658108029 -0.038536413231783029 0.14423072478747151 0.096930197702572995 0.15758610002479567 -0.033140570182787092 0.12589192305682961 0.036373875130866679
leaf_count=28 44 29 114 549 394 357 125 218 46 250 34 278 177 57 186 1019 4999 32 41 56 252 75 44 281 33 42 64 39 31 44
internal_value=0 -0.356392 -0.511316 -0.638225 1.46522 1.06305 0.0238799 -0.353812 -0.184968 0.76988 -0.836449 1.45929 0.524983 0.846849 0.620405 -0.536218 -0.902086 0.451174 -0.142515 0.706776 0.178093 0.730157 0.323909 0.0184851 0.700667 0.0573051 1.16475 1.89631 0.26122 2.14033
internal_count=9938 8630 7913 7315 1308 914 1515 246 1390 327 5800 668 211 717 660 1063 5589 631 590 598 555 303 484 440 311 228 159 103 281 76
shrinkage=0.05


Tree=8
num_leaves=31
num_cat=0
split_feature=22 81 31 28 13 92 16 13 49 62 5 98 89 45 28 60 72 74 63 72 63 66 37 23 73 46 21 46 68 85
split_gain=579.377 191.051 144 109.187 81.2516 66.2102 61.2876 59.7943 52.1263 60.8049 45.0998 62.8803 62.0651 41.2802 46.0514 51.7673 46.4824 39.0466 48.8871 37.6627 35.9895 34.0377 37.8823 30.9199 30.7817 29.3378 38.9553 29.2253 28.8893 26.7363
threshold=-0.011999999999999992 0.0043500000000000006 0.0067999999999999979 -0.0055999999999999861 0.0011999999999999964 0.0065999999999999922 -0.023700000000000002 0.016300000000000002 -0.013399999999999997 -0.010949999999999993 -0.0025000000000000001 0.0054000000000000064 0.0024000000000000206 -0.012099999999999994 0.0038000000000000087 0.0033999999999999972 0.0050000000000000122 -0.011599999999999991 -0.00075000000000000056 0.0051000000000000116 0.0065999999999999991 0.020550000000000002 0.0047000000000000002 0.021950000000000015 -0.00040000000000000099 -0.0013000000000000058 -0.0036999999999999876 -0.010999999999999998 0.007199999999999992 -0.0017999999999999924
decision_type=2 2 2 2 2 2 2 2 2 2 2 2 2 2 2 2 2 2 2 2 2 2 2 2 2 2 2 2 2 2
left_child=6 2 3 -2 -4 7 -1 10 9 -8 11 -5 -13 -3 15 16 -15 -10 -19 -9 27 22 -6 -12 -24 26 -7 -20 -21 -25
right_child=1 13 4 5 21 25 8 19 17 -11 23 12 -14 14 -16 -17 -18 18 20 28 -22 -23 24 29 -26 -27 -28 -29 -30 -31
leaf_value=0.098518171552549633 0.083204784560281866 0.14887454368123185 0.1195051195716125 -0.025550624269202456 0.11176972474137348 -0.0016945216303728785 0.11169259485400217 -0.024671997808067971 -0.043540015921475932 -0.014152723098026837 -0.048756710390795648 0.2051341551361015 -0.025001549606269581 0.021521163896052551 0.13250720747431707 -0.024375315567556677 0.12406112039399464 0.11836394944631019 0.1123267635420054 0.15534393180590375 0.11639974584639748 0.11982333755215385 0.11576180550697278 -0.057812514760337365 -0.026163789635549484 -0.040276410230945081 0.1235532575779492 -0.0039619059671567591 -0.025920484424090642 0.11692851221685702
leaf_count=425 121 45 123 1012 33 88 56 96 62 320 5602 43 42 207 54 239 80 214 39 55 67 27 20 33 441 81 61 189 24 39
internal_value=0 -0.355054 -0.508103 -0.648316 0.681123 -0.709438 1.34378 -0.774827 0.957819 0.222995 -0.825946 -0.284313 1.91853 0.937362 0.739508 0.480971 1.13191 1.41016 1.58651 0.854894 0.8916 0.159129 -0.0589205 -0.945598 -0.318637 0.635937 1.21938 0.366035 2.13455 0.890984
internal_count=9938 8566 7941 7297 644 7176 1372 6946 947 376 6771 1097 85 625 580 526 287 571 509 175 295 521 494 5674 461 230 149 228 79 72
shrinkage=0.05


Tree=9
num_leaves=31
num_cat=0
split_feature=11 23 23 45 39 38 97 95 6 71 85 5 47 73 97 62 65 43 9 36 23 48 5 68 78 66 20 6 19 31
split_gain=522.635 151.199 171.718 103.671 80.5291 77.8771 72.3036 71.2901 70.7601 67.6298 51.2505 45.9338 42.9311 40.7188 40.8605 47.098 45.0454 37.9953 37.8948 35.8465 85.3431 41.7826 34.6723 34.638 26.0194 28.7993 25.7977 25.7265 27.2761 24.5892
threshold=-0.0075000000000000041 0.016300000000000002 -0.00039999999999999926 0.0067499999999999999 0.0034000000000000041 0.019250000000000007 0.00020000000000000749 0.014150000000000008 0.01190000000000001 -0.0093999999999999934 -0.0088999999999999999 -0.0060500000000000024 0.0089000000000000034 0.0049000000000000094 -0.0066999999999999916 -0.0036000000000000021 0.01865000000000001 -0.0031999999999999871 -0.0095000000000000136 -0.0014999999999999994 -0.0045999999999999852 -0.0097999999999999979 -0.002599999999999996 0.004000000000000001 0.0024999999999999853 0.0019999999999999987 0.00445 -0.024899999999999999 -0.024049999999999985 0.0064999999999999858
decision_type=2 2 2 2 2 2 2 2 2 2 2 2 2 2 2 2 2 2 2 2 2 2 2 2 2 2 2 2 2 2
left_child=7 2 3 6 12 -5 26 9 18 10 -1 -8 17 -6 15 -15 -17 -3 -4 20 -13 -21 -22 -10 25 -24 -2 -11 -29 -30
right_child=1 4 8 5 13 -7 11 -9 23 27 -12 19 -14 14 -16 16 -18 -19 -20 21 22 -23 24 -25 -26 -27 -28 28 29 -31
leaf_value=0.12615465805742493 -0.044305271511095846 0.11792057103655716 0.074687799287238579 0.18053041484039201 -0.047137402626977201 -0.027897628961142465 0.078012141723883377 0.099051451463920914 -0.029544169275644863 -0.037219727954244559 -0.048255412307895901 -0.0042033929316340765 0.15623106293389594 0.14826830945249878 0.099631850756197751 -0.0522398808315441 0.099531094429096356 0.00017271142148107843 -0.049642400929122865 0.053787858156234186 0.19868731827560177 -0.034908545097496572 -0.021499818635541353 0.11781150075655444 0.15506685227875439 0.10760616361560996 0.11816545117404978 0.11407116780371725 0.045222732283576157 0.12182899062968303
leaf_count=21 966 56 38 90 230 43 132 386 64 37 214 606 76 22 88 215 29 111 4659 93 45 725 94 64 32 45 20 99 583 55
internal_value=0 -0.346824 -0.498225 0.0350939 0.707348 2.23151 -0.100066 1.25759 -0.886914 0.876252 -0.426427 0.211563 1.79482 0.0849189 0.608581 0.0195883 -0.435135 1.04937 -0.959461 0.0622893 0.444355 -0.394441 1.88824 1.14866 1.33347 0.711707 -0.805347 1.18305 1.28051 1.07148
internal_count=9938 8543 7716 2891 827 133 2758 1395 4825 1009 235 1772 243 584 354 266 244 167 4697 1640 822 818 216 128 171 139 986 774 737 638
shrinkage=0.05


Tree=10
num_leaves=31
num_cat=0
split_feature=22 89 71 29 98 5 79 29 25 16 14 49 91 74 71 62 62 16 59 46 22 14 91 7 14 30 84 91 65 64
split_gain=445.611 157.866 106.208 88.6502 78.5688 57.4727 67.1438 53.1937 50.0151 45.5772 51.1284 54.112 44.5729 52.6919 61.799 55.4335 44.454 37.2176 36.98 35.7458 35.6286 37.0717 32.8523 31.8388 35.5108 30.5765 29.7944 34.1426 27.6018 27.3504
threshold=-0.012450000000000001 0.0049999999999999932 0.0050000000000000122 0.010050000000000005 0.0016999999999999969 -0.0015500000000000025 -0.0016999999999999912 0.0039000000000000115 -0.0023000000000000013 -0.0025000000000000001 0.013650000000000004 0.013500000000000003 0.015450000000000004 -0.0088999999999999999 -0.025049999999999992 -9.9999999999999381e-05 0.0049000000000000059 -0.0062999999999999888 0.0025000000000000096 0.0043000000000000026 -0.0074999999999999954 -0.012499999999999999 -0.012099999999999991 0.0088000000000000109 0.0062000000000000085 0.0031000000000000042 0.0054000000000000133 -0.0014000000000000035 0.0071499999999999975 0.0035000000000000001
decision_type=2 2 2 2 2 2 2 2 2 2 2 2 2 2 2 2 2 2 2 2 2 2 2 2 2 2 2 2 2 2
left_child=12 2 3 4 28 6 -6 16 22 19 23 -12 13 14 -1 -15 20 -7 -17 -10 21 -3 -4 -11 -25 -18 27 -8 -2 -14
right_child=1 7 8 -5 5 17 26 -9 9 10 11 -13 29 15 -16 18 25 -19 -20 -21 -22 -23 -24 24 -26 -27 -28 -29 -30 -31
leaf_value=0.11057745374935107 -0.047371387755541804 0.12838577564392636 -0.046351120377840706 0.11401924007500958 0.18559128906179989 0.075283413877511821 0.10880787593370399 0.11584345478877663 -0.031066321399818186 -0.040839660200584098 0.11017858309936064 -0.0079838281909211089 0.1091122473522876 0.094165275227125575 -0.024845107703699701 -0.011312506654674703 -0.04160741620497771 -0.038312540311700713 0.067501864472753095 0.12164455774258619 0.067912304580215965 -0.031054113586622502 0.12630027653465151 0.14609206459323321 -0.039747139425505326 0.093421909639691825 0.12767187319601156 -0.025415561379887854 0.083393004290888778 0.038185869135720356
leaf_count=44 5220 21 26 47 49 61 39 78 48 821 89 198 216 305 296 195 264 725 159 74 264 159 72 31 46 28 26 216 35 86
internal_value=0 -0.354029 -0.518212 -0.704192 -0.750594 -0.0414249 0.875912 0.670761 0.187952 0.00603595 -0.195388 0.729809 1.15331 0.88357 0.0452213 1.23965 0.421347 -0.541858 0.544492 1.49796 0.860221 -0.085572 1.8188 -0.608946 1.04984 -0.478899 0.340133 -0.0220449 -0.926364 1.81973
internal_count=9938 8637 7823 6418 6371 1116 330 814 1405 1307 1185 287 1301 999 340 659 736 786 354 122 444 180 98 898 77 292 281 255 5255 302
shrinkage=0.05


Tree=11
num_leaves=31
num_cat=0
split_feature=10 92 16 96 14 82 71 73 85 68 35 32 88 7 95 27 72 74 65 28 24 37 11 81 24 49 73 5 24 56
split_gain=410.042 139.585 112.358 72.7359 65.6861 48.3982 50.4215 44.4105 44.2436 43.0002 57.0345 41.8867 41.9077 38.8753 37.4221 35.2059 33.4961 33.3157 28.6348 33.8213 27.6601 36.3326 35.2803 27.3232 27.1671 25.7994 47.3796 82.0073 56.8386 26.8806
threshold=-0.0062999999999999957 0.0055000000000000127 0.017549999999999993 0.014150000000000013 -0.0075000000000000041 0.0043999999999999985 -0.0019999999999999979 -0.0093000000000000044 -0.0097999999999999945 0.0052000000000000006 0.0038000000000000017 0.0095000000000000067 -0.0033999999999999981 0.0044000000000000055 -0.019549999999999994 -0.0060499999999999955 0.0047000000000000002 -0.00019999999999999529 -0.0038999999999999968 0.0044000000000000055 -0.0049999999999999932 -0.0045999999999999852 -0.0075000000000000041 -0.0016000000000000022 -0.014999999999999994 -0.0033999999999999963 -0.0024999999999999914 -0.0014999999999999959 -0.0053999999999999977 0.0056499999999999962
decision_type=2 2 2 2 2 2 2 2 2 2 2 2 2 2 2 2 2 2 2 2 2 2 2 2 2 2 2 2 2 2
left_child=3 2 4 7 -2 11 -7 8 -1 13 -11 15 -13 20 -4 -6 17 -16 23 -20 22 -22 -3 -9 -25 26 -17 28 -28 -27
right_child=1 9 14 -5 5 6 -8 18 -10 10 -12 12 -14 -15 16 25 -18 -19 19 -21 21 -23 -24 24 -26 29 27 -29 -30 -31
leaf_value=0.11190560455237811 0.03164880244230061 0.078259017964588173 -0.050016791679503028 0.088901059258010673 0.094412475048515507 0.1404911833879042 -0.014358622015727124 0.14218162858272063 -0.036977511320451753 -0.042626169872358642 0.087395078751447974 -0.020127762129394319 0.12314074709405894 0.10368881671660057 0.085879982159168256 -0.044271327091909389 0.073001224600592191 -0.040601887556090961 0.019201780279698447 0.10128767804154236 -0.031158341535877179 0.11716769768578977 -0.024816834012641443 0.097919679648219377 0.017557024541668919 -0.050324959659394312 0.028454051332192139 -0.034221677180600672 0.23969024495844515 0.028930768181922251
leaf_count=24 263 59 110 364 28 42 139 63 266 279 55 126 37 107 37 716 235 155 574 70 34 69 205 86 131 5246 55 212 46 105
internal_value=0 -0.37427 -0.539347 1.00481 -0.669588 -0.744004 0.599983 0.674744 -0.286939 0.580792 -0.207483 -0.800181 0.507787 0.99887 0.603476 -0.852227 0.905611 -0.0240929 0.905947 0.606612 0.574676 1.51906 0.095576 1.50002 1.1231 -0.873936 -0.419605 0.567413 2.55009 -0.970656
internal_count=9938 8360 7552 1578 7015 6752 181 1214 290 808 334 6571 163 474 537 6408 427 192 924 644 367 103 264 280 217 6380 1029 313 101 5351
shrinkage=0.05


Tree=12
num_leaves=31
num_cat=0
split_feature=10 91 16 16 96 24 23 42 64 69 73 85 5 98 32 68 33 73 48 24 37 9 26 76 81 65 82 24 0 55
split_gain=370.508 117.742 101.136 80.1381 64.7533 53.9216 48.0984 63.6009 42.7903 39.7932 39.1439 39.2399 36.0332 35.3496 29.1484 35.2654 27.4631 44.7723 32.1353 48.2768 27.1711 27.1337 28.1668 26.1916 24.3616 23.2162 24.3441 34.1317 22.9171 22.4433
threshold=-0.0062999999999999957 0.0064000000000000142 0.017549999999999993 -0.0075000000000000006 0.014150000000000013 0.020000000000000014 -0.00034999999999999609 0.0060499999999999972 0.0085999999999999948 0.010799999999999999 -0.0091000000000000057 -0.0097999999999999945 0.0038000000000000017 -0.022699999999999988 -0.0016000000000000022 0.0045999999999999973 -0.0012999999999999884 -0.0024999999999999914 -0.0022000000000000053 -0.0046999999999999915 -0.0048000000000000083 -0.027599999999999996 -0.004699999999999988 -0.0026000000000000012 0.0035999999999999908 -0.0039999999999999992 -0.0013000000000000006 -0.014999999999999994 0.0022000000000000027 0.0025999999999999951
decision_type=2 2 2 2 2 2 2 2 2 2 2 2 2 2 2 2 2 2 2 2 2 2 2 2 2 2 2 2 2 2
left_child=4 2 3 28 10 6 7 16 -9 12 11 -1 20 -4 -15 -16 17 24 19 -19 -3 -12 -23 -24 -5 26 -25 -28 -2 -17
right_child=1 9 13 5 -6 -7 -8 8 -10 -11 21 -13 -14 14 15 29 -18 18 -20 -21 -22 22 23 25 -26 -27 27 -29 -30 -31
leaf_value=0.10548951994995043 0.01239122987503539 -0.018227142548463002 -0.057103511065585748 -0.047061648574270185 0.083571725476046785 0.047579784553250723 -0.04817701492650367 0.14150127106337448 -0.050722210929390305 -0.038350089892206826 -0.040212732347968072 -0.034117235759514246 0.10140725235092847 0.094261670696563882 -0.036048911454250661 0.094354493206620982 -0.041971043228275128 -0.0065773424880511038 -0.01903097205786251 0.15356266287417589 0.051320470549408186 0.11799707617444605 0.10080593139663899 0.13457539363013843 0.061612336338286382 0.017273102867568686 0.095867181137836197 -0.0040835726258843371 0.095038621343488547 0.0097542776094455899
leaf_count=24 292 141 98 448 364 140 4688 66 29 132 48 275 98 90 160 88 1189 67 122 72 234 59 75 48 41 506 69 110 62 103
internal_value=0 -0.364215 -0.497619 -0.62001 0.945864 -0.715183 -0.765843 -0.373271 1.69296 0.654025 0.635416 -0.260595 0.932923 0.580606 0.843264 0.430597 -0.521565 -0.0754368 0.844768 1.66622 0.54094 0.852409 0.953462 0.822364 -0.679274 0.665349 1.25305 0.864228 0.603419 1.06126
internal_count=9938 8360 7755 7216 1578 6862 6722 2034 95 605 1214 299 473 539 441 351 1939 750 261 139 375 915 867 808 489 733 227 179 354 191
shrinkage=0.05


Tree=13
num_leaves=31
num_cat=0
split_feature=14 92 16 23 42 29 95 73 71 38 98 91 34 40 19 98 68 24 64 10 36 63 34 91 21 82 9 64 96 32
split_gain=337.588 121.798 94.2575 61.2688 64.6821 55.5309 47.7191 60.869 50.338 43.5696 39.896 63.0702 43.7907 39.468 31.6918 30.7619 30.5123 33.1373 27.769 29.6983 27.2475 26.8322 35.8305 38.6468 27.8849 29.6055 37.5328 24.7735 24.6778 23.5336
threshold=-0.0075000000000000041 0.0055000000000000127 0.017549999999999993 -0.00034999999999999609 0.0060499999999999972 0.011950000000000004 0.015899999999999997 -0.0093000000000000044 -0.025049999999999992 0.017099999999999997 0.0009999999999999959 -0.0020999999999999938 -0.00090000000000000832 -0.010500000000000004 -0.00010000000000000112 -0.022699999999999988 0.0098000000000000014 0.0062999999999999974 0.0035000000000000001 -0.0099499999999999988 0.0026000000000000003 -0.00075000000000000056 -0.0048999999999999972 0.0075000000000000041 -0.012450000000000001 -0.0015000000000000046 -0.0025499999999999963 0.0027000000000000153 0.0002999999999999913 -0.0016000000000000022
decision_type=2 2 2 2 2 2 2 2 2 2 2 2 2 2 2 2 2 2 2 2 2 2 2 2 2 2 2 2 2 2
left_child=6 2 3 4 10 13 7 8 -1 -6 -2 14 28 -5 -12 -4 17 20 -8 -20 -3 24 -23 27 -9 -26 -27 -24 -13 -17
right_child=1 16 15 5 9 -7 18 21 -10 -11 11 12 -14 -15 -16 29 -18 -19 19 -21 -22 22 23 -25 25 26 -28 -29 -30 -31
leaf_value=0.094156841416603229 -0.041599241464496478 0.014576338863876048 -0.053360582634191793 0.11238434077860882 0.12214808075130656 0.12186609937632387 0.092990645697897306 0.086850145091979733 -0.046523639309723808 -0.06081336843497024 0.14552706211152985 0.16286046860442474 -0.047845752882303055 -0.046762756499537386 -0.055415090450108263 0.08092654450128979 -0.025680325326277398 0.097497523578465528 0.066866042484737986 -0.050028919116403905 0.10485860357004489 -0.035706794949034996 -0.018652950544658178 0.10687794818315313 0.1246620477185138 -0.027484604648285088 0.086299548838006945 0.06999363757281514 0.011697173427552858 0.018125582007287377
leaf_count=32 1099 422 104 21 85 22 255 225 301 30 57 20 480 4821 28 97 175 93 76 41 46 117 141 83 38 142 63 70 391 363
internal_value=0 -0.358263 -0.510521 -0.639341 -0.218635 -0.865043 0.886524 0.62206 -0.429175 1.58927 -0.377436 0.0463618 -0.234573 -0.905084 2.14103 0.494638 0.588395 0.824883 1.50118 0.624375 0.519329 0.904171 0.437928 0.882091 1.25981 0.623249 0.220724 0.272988 0.406922 0.732814
internal_count=9938 8354 7618 7054 2190 4864 1584 1212 333 115 2075 976 891 4842 85 564 736 561 372 117 468 879 411 294 468 243 205 211 411 460
shrinkage=0.05


Tree=14
num_leaves=31
num_cat=0
split_feature=22 92 71 31 38 97 31 32 91 12 68 90 74 88 65 40 91 74 71 62 33 22 86 36 94 24 18 46 66 66
split_gain=308.624 123.69 85.6206 62.7761 59.7727 50.7452 49.0134 43.6044 45.4325 39.5365 39.0458 36.9402 34.2586 44.1959 41.6852 39.1529 30.053 38.6606 45.9439 41.6239 29.6307 29.3169 25.2809 24.4461 23.9983 22.7384 33.822 23.8399 22.6955 27.0038
threshold=-0.012450000000000001 0.0059999999999999888 0.004899999999999999 0.010799999999999999 -0.0014999999999999994 0.0074000000000000116 -0.0022999999999999891 0.0063000000000000217 -0.012849999999999999 0.012699999999999998 0.0089999999999999993 0.0023000000000000004 -0.002700000000000004 0.0054999999999999849 -0.0052999999999999879 -0.0046000000000000025 0.015450000000000004 -0.0088999999999999999 -0.025049999999999992 -9.9999999999999381e-05 -0.0017999999999999924 -0.0099999999999999985 -1.0000000180025095e-35 -0.0037999999999999939 -0.0040999999999999951 -0.0016999999999999947 -0.0026499999999999991 0.00015000000000000432 0.0067999999999999979 0.01255
decision_type=2 2 2 2 2 2 2 2 2 2 2 2 2 2 2 2 2 2 2 2 2 2 2 2 2 2 2 2 2 2
left_child=16 2 3 4 12 23 11 9 -9 -8 21 -4 13 -2 15 -14 17 18 -1 -19 -21 -3 -22 -6 -11 26 27 -16 -18 -30
right_child=1 10 6 -5 5 -7 7 8 -10 24 -12 -13 14 -15 25 -17 28 19 -20 20 22 -23 -24 -25 -26 -27 -28 -29 29 -31
leaf_value=0.091498257492306556 -0.039462067270085006 -0.028506232516846749 0.098291858820906533 0.080586739060371518 0.08308410818373263 0.10902397245664118 -0.038385439144527661 -0.045114763795392324 0.05695342235215442 -0.046657953601852271 -0.029125532050042431 -0.039723511285684243 0.023341488343819036 0.098822760414771171 -0.039693204576677854 0.18448834229194241 0.087279226365426024 0.077844709531339512 -0.024940895256157645 -0.027334441900212482 -0.019191314377742342 0.05826233804343707 0.069727338192144411 -0.049209505569321584 0.10460889726600382 -0.030967367247809463 0.098273647302672837 0.10309204056777371 -0.042249887238248379 0.1062554351388677
leaf_count=44 979 78 108 62 23 31 866 133 285 31 176 51 68 36 136 40 242 305 296 134 62 405 158 4599 56 369 84 21 40 20
internal_value=0 -0.319308 -0.463264 -0.648147 -0.69585 -0.917637 0.147123 -0.0827093 0.607358 -0.509054 0.669217 1.35618 -0.22327 -0.618186 0.252971 1.70652 0.93715 0.718735 -0.0142751 1.01157 0.418485 0.951542 0.91646 -0.959837 1.15947 -0.0943289 0.555482 -0.249866 1.48268 0.285537
internal_count=9938 8637 7978 6448 6386 4653 1530 1371 418 953 659 159 1733 1015 718 108 1301 999 340 659 354 483 220 4622 87 610 241 157 302 60
shrinkage=0.05


Tree=15
num_leaves=31
num_cat=0
split_feature=11 31 60 36 95 74 10 80 68 74 65 31 89 98 89 40 32 28 65 21 90 8 2 34 94 25 23 11 98 1
split_gain=316.824 102.772 93.831 62.7182 46.6957 53.3568 45.3723 38.5708 37.5503 75.0094 45.3546 44.9908 46.8138 32.4176 45.6728 29.1966 26.4452 23.7962 29.9593 31.22 39.784 22.8713 22.6336 20.5877 42.7265 24.9578 19.0684 25.8731 22.1478 21.3537
threshold=-0.00609999999999999 -0.0026000000000000029 0.0046000000000000043 -0.0016000000000000022 0.015899999999999997 -0.0088999999999999999 0.0050000000000000001 -0.0013000000000000127 0.0065499999999999942 0.0076 0.017650000000000002 0.010399999999999998 0.0078000000000000057 0.0017999999999999859 -0.00010000000000000112 -0.008849999999999995 0.0025499999999999971 0.0047499999999999981 -0.0019999999999999979 -0.012450000000000001 -0.0017000000000000051 -0.0033499999999999984 -0.0013000000000000006 -0.0047999999999999874 0.005799999999999997 -0.0014999999999999994 0.00050000000000000229 -0.0025999999999999942 -0.010450000000000006 0.0036000000000000133
decision_type=2 2 2 2 2 2 2 2 2 2 2 2 2 2 2 2 2 2 2 2 2 2 2 2 2 2 2 2 2 2
left_child=4 6 3 13 5 7 26 -1 9 11 21 12 -4 16 -15 -5 -3 18 19 -7 -21 -10 -16 -20 25 -25 27 29 -28 -2
right_child=1 2 8 15 -6 17 -8 -9 10 -11 -12 -13 -14 14 22 -17 -18 -19 23 20 -22 -23 -24 24 -26 -27 28 -29 -30 -31
leaf_value=0.055077816198951336 -0.024812004262177414 -0.042720686752350107 -0.03363738629243257 0.081672872439945199 0.072592759753453237 0.082813007352413481 0.072607990867628341 -0.044353087102283563 0.056759911201735208 0.13964555564993961 0.071572820795286526 0.11169748266339584 0.11112198599527377 0.12697842016819746 0.058337245748883229 -0.046576204573042422 0.091062227480981986 0.099168525647280611 -0.026281796058358023 0.10538085104614184 -0.012052935958092625 -0.042931821296557988 -0.017527519870931409 0.092308163386244355 0.090522317042756983 -0.020394618805544103 0.10600521437846894 0.049582267616348819 -0.038698946706007341 0.10220321515448499
leaf_count=86 260 527 379 26 360 205 169 291 36 85 62 38 29 56 88 5024 24 73 136 66 175 532 283 30 102 211 20 254 288 23
internal_value=0 -0.365897 -0.529698 -0.726345 0.822209 0.585233 0.424696 -0.340069 0.196118 0.742958 -0.293867 0.190469 -0.23156 -0.0419762 0.470998 -0.903516 -0.636072 0.838842 0.722339 1.1357 0.423389 -0.649518 0.084206 0.274873 0.605535 -0.0387041 0.100484 0.396132 -0.522463 -0.222654
internal_count=9938 8203 7189 6028 1735 1375 1014 377 1161 531 630 446 408 978 427 5050 551 998 925 446 241 568 371 479 343 241 845 537 308 283
shrinkage=0.05


Tree=16
num_leaves=31
num_cat=0
split_feature=11 31 60 36 24 74 10 68 74 65 31 88 98 90 40 31 32 2 74 3 12 65 29 98 42 27 87 79 82 24
split_gain=288.27 95.1204 88.0619 60.2312 43.8761 46.3527 39.9745 33.8355 62.3116 41.5083 40.1278 40.7612 29.6873 37.889 26.9345 25.1189 24.0591 21.9463 21.4467 20.57 27.0557 19.2496 25.6853 28.976 28.1703 23.3282 21.7372 19.9952 19.0589 22.634
threshold=-0.00609999999999999 -0.0026000000000000029 0.0046000000000000043 -0.0016000000000000022 -0.035400000000000001 -0.0088999999999999999 0.0050000000000000001 0.0065499999999999942 0.0076 0.01865000000000001 0.010399999999999998 0.006749999999999993 0.0017999999999999859 -0.00010000000000000805 -0.008849999999999995 0.0028999999999999968 0.0025499999999999971 -0.00099999999999999894 0.0032499999999999999 -0.0095999999999999992 -0.013699999999999999 -0.0039999999999999992 0.0041999999999999997 -9.9999999999987238e-05 -0.0076999999999999907 -0.0055000000000000005 0.017649999999999992 0.0040999999999999761 -0.0024000000000000093 -0.014999999999999994
decision_type=2 2 2 2 2 2 2 2 2 2 2 2 2 2 2 2 2 2 2 2 2 2 2 2 2 2 2 2 2 2
left_child=4 6 3 12 -1 15 -2 8 10 18 11 -4 16 -14 -5 19 -3 -15 -9 20 -6 28 23 -23 25 26 -25 -26 -7 -30
right_child=1 2 7 14 5 21 -8 9 -10 -11 -12 -13 13 17 -16 -17 -18 -19 -20 -21 -22 22 -24 24 27 -27 -28 -29 29 -31
leaf_value=0.073414014539919747 0.0047484341633281541 -0.041994103345804223 -0.038028603082991594 0.075996423991027032 -0.05368101945336215 0.12291834386519165 0.067783667292955485 0.054138640411790874 0.12536044292134316 0.079888736536827404 0.10479759244399395 0.078250012252592469 0.12569702593023657 0.050567490323749943 -0.045986218161076411 0.095413895772235954 0.084368532707263938 -0.018574705182318789 -0.039704424594697862 -0.045479069119088583 0.12135556571877387 -0.026178702016458295 0.083537495190193434 0.10858578482895707 0.038822878747482116 -0.022759897472972926 -0.026940135349566158 0.11001747600072259 0.085476511828264046 0.018777308735960771
leaf_count=303 845 527 360 26 30 54 169 40 85 45 38 48 45 114 5024 20 24 268 545 294 27 181 87 35 200 163 20 63 99 159
internal_value=0 -0.355839 -0.517475 -0.712687 0.781019 0.576946 0.401486 0.186968 0.70293 -0.284974 0.182665 -0.224396 -0.0409924 0.443272 -0.891518 -0.312559 -0.622461 0.125173 -0.588764 -0.552514 0.801708 0.792981 0.577376 0.399602 0.675744 0.0620892 1.18037 1.20043 1.25301 0.997706
internal_count=9938 8203 7189 6028 1735 1432 1014 1161 531 630 446 408 978 427 5050 371 551 382 585 351 57 1061 749 662 481 218 55 263 312 258
shrinkage=0.05


Tree=17
num_leaves=31
num_cat=0
split_feature=20 26 28 35 68 83 38 13 31 32 41 74 80 61 74 45 34 40 60 56 73 36 17 44 47 84 30 80 64 6
split_gain=266.965 88.0513 79.1735 81.5854 57.2166 47.703 39.0894 36.2232 29.317 25.8634 25.7481 49.8017 32.7794 30.2745 27.3432 22.9328 26.4458 25.8882 22.3037 35.004 22.1544 20.5816 40.438 20.5654 20.1399 19.9297 19.2015 18.9865 20.8763 18.1733
threshold=-0.011050000000000009 -0.0037000000000000049 0.0046499999999999953 -0.0018999999999999952 0.0011000000000000109 0.0020000000000000039 0.0016499999999999989 -0.0050000000000000018 -0.0021500000000000056 0.0053500000000000015 -0.028899999999999999 -0.009299999999999994 -0.00050000000000001074 9.999999999999247e-05 0.010249999999999997 -0.014349999999999996 -0.016599999999999993 -0.0023999999999999972 0.0034000000000000041 -0.00020000000000000223 -0.0014000000000000087 0.0071499999999999975 0.0014000000000000039 0.0067000000000000089 0.010299999999999995 0.00060000000000000515 -0.0025000000000000001 -0.00039999999999999579 0.001500000000000005 -0.0031000000000000034
decision_type=2 2 2 2 2 2 2 2 2 2 2 2 2 2 2 2 2 2 2 2 2 2 2 2 2 2 2 2 2 2
left_child=10 -2 3 4 6 20 -3 9 24 26 -1 12 -12 -13 15 16 -15 -17 -10 -20 -4 -21 23 -23 -9 -19 -5 -6 -29 -22
right_child=1 2 5 7 27 -7 -8 8 18 -11 11 13 -14 14 -16 17 -18 25 19 21 29 22 -24 -25 -26 -27 -28 28 -30 -31
leaf_value=0.082159078370895866 0.046201118795939911 -0.019992724555533262 0.081527288006185528 0.073489822169901214 0.10708608199345288 0.098067559395532647 0.1206908627569344 -0.016051162631255538 -0.050373822563262255 0.087093782205619058 0.044038151822394983 0.070158779254157394 -0.041709651348569875 -0.045728460528770644 0.089410763771819474 -0.033649425364081838 0.091476717196914914 -0.034185080859272514 0.13887288304362216 -0.043076984749820899 0.059477105543328725 0.033412694178153887 -0.022147264090437716 0.22891785094974765 0.08256868305642602 0.077167913480904571 -0.026865163706077472 -0.015001207593936645 0.057118605950117245 -0.016340175560906278
leaf_count=155 303 1261 45 33 62 82 24 188 4338 43 116 408 221 20 64 178 64 38 24 796 53 21 236 20 37 66 288 122 170 462
internal_value=0 -0.305884 -0.393129 -0.507486 0.0415368 0.510437 -0.296554 -0.725969 -0.81273 0.132153 0.86931 0.737733 -0.172458 0.990901 0.556622 0.287016 1.194 -0.0872477 -0.877444 -0.464755 0.128494 -0.573173 0.167528 2.62071 0.212544 0.836915 -0.227493 0.915612 0.628862 -0.087956
internal_count=9938 8608 8305 7663 1639 642 1285 6024 5660 364 1330 1175 337 838 430 366 84 282 5435 1097 560 1073 277 41 225 104 321 354 292 515
shrinkage=0.05


Tree=18
num_leaves=31
num_cat=0
split_feature=20 26 28 35 62 86 23 13 31 76 98 41 74 80 62 74 30 61 32 56 24 45 85 20 71 7 35 16 47 77
split_gain=243.177 80.1366 72.5225 74.96 54.2387 43.045 38.8953 35.9046 26.6304 24.6081 29.3612 24.4556 44.6787 29.8863 29.3297 24.5684 23.1834 22.3313 22.1061 21.6059 21.3094 20.6971 27.9038 23.5918 18.7955 18.9578 18.5733 35.3703 18.3003 17.8523
threshold=-0.011050000000000009 -0.0042999999999999939 0.0046499999999999953 -0.0018999999999999952 0.0009000000000000016 0.00060000000000000168 0.014999999999999998 -0.0050000000000000018 -0.0021500000000000056 -0.00099999999999999894 0.00049999999999999014 -0.028899999999999999 -0.009299999999999994 -0.00020000000000001091 -0.00020000000000000223 0.010249999999999997 -0.00065000000000000116 0.003599999999999996 0.0039999999999999992 -0.00030000000000000507 0.0002999999999999965 -0.014349999999999996 0.018199999999999984 -0.014999999999999994 -0.0024999999999999983 -0.0091999999999999946 0.0078000000000000057 0.0037000000000000058 0.010299999999999995 0.0039000000000000115
decision_type=2 2 2 2 2 2 2 2 2 2 2 2 2 2 2 2 2 2 2 2 2 2 2 2 2 2 2 2 2 2
left_child=11 20 3 4 6 24 9 18 28 10 -3 -1 13 -13 -14 21 -12 -10 -5 -19 -2 22 -16 -23 -4 -26 -21 -28 -9 -22
right_child=1 2 5 7 -6 -7 -8 8 17 -11 16 12 14 -15 15 -17 -18 19 -20 26 29 23 -24 -25 25 -27 27 -29 -30 -31
leaf_value=0.079556920337420345 0.098627355084156931 -0.031967807428844773 0.079992588948313736 -0.012684634202220249 0.052144811082319532 0.080046854599477385 0.075080537325438748 -0.016494602370865578 -0.049517038409468792 -0.030410976381137225 0.094517492133771447 0.038315528947016023 0.067753283358706215 -0.042718798831344079 0.086622259890355657 0.085072737041090946 -0.03895802238528278 0.087536312560092158 0.068468874753992173 -0.037807078301064709 0.072992329892669447 -0.029000629239423717 -0.053951295420237945 0.0439442582130391 0.081853232188729974 -0.017464449362627196 0.12174838239603683 -0.028743931667031999 0.07649400273210509 -0.0040804898652415343
leaf_count=155 71 169 34 305 258 126 60 192 4322 1066 86 129 394 208 68 63 38 34 62 920 66 192 20 101 27 457 41 132 37 105
internal_value=0 -0.29689 -0.374889 -0.485658 0.0312386 0.488043 -0.239593 -0.701331 -0.790485 -0.382644 0.373353 0.828933 0.701552 -0.165888 0.940209 0.522496 1.24764 -0.854608 0.147506 -0.446013 0.979255 0.275398 1.11606 -0.0777157 0.0399193 -0.155889 -0.54397 0.366757 0.17681 0.516632
internal_count=9938 8608 8366 7722 1677 644 1419 6045 5678 1359 293 1330 1175 337 838 444 124 5449 367 1127 242 381 88 293 518 484 1093 173 229 171
shrinkage=0.05


Tree=19
num_leaves=31
num_cat=0
split_feature=11 31 60 49 24 74 8 44 68 73 64 31 89 68 71 31 10 22 74 38 43 8 3 12 33 48 65 67 24 92
split_gain=224.5 76.4887 76.503 54.4968 35.3529 36.2088 33.5147 29.4507 29.0533 49.4751 35.7473 31.487 39.4142 22.5505 43.6697 21.511 20.7917 20.9486 27.3592 38.8763 35.5572 19.4304 19.1458 22.2826 17.9872 16.96 16.166 20.7264 22.7438 19.6062
threshold=-0.00609999999999999 -0.0026000000000000029 0.0046000000000000043 -0.0023999999999999955 -0.035400000000000001 -0.0088999999999999999 0.0045000000000000083 0.0037000000000000058 0.0065499999999999942 0.0068000000000000048 0.016499999999999997 0.010399999999999998 0.0078000000000000057 0.006100000000000016 0.005749999999999999 0.0028999999999999968 -0.0085999999999999879 -0.0038000000000000078 -0.0026000000000000012 -0.00079999999999999158 -0.0042999999999999939 -0.0033499999999999984 -0.0095999999999999992 -0.013699999999999999 -0.0036499999999999931 -0.0031000000000000034 -0.0039999999999999992 0.0016999999999999969 -0.012099999999999988 -0.0053999999999999977
decision_type=2 2 2 2 2 2 2 2 2 2 2 2 2 2 2 2 2 2 2 2 2 2 2 2 2 2 2 2 2 2
left_child=4 6 3 7 -1 15 -2 16 9 11 21 12 -4 24 -15 22 -3 -18 -19 20 -20 -10 23 -6 -5 -22 -7 28 -28 -29
right_child=1 2 8 13 5 26 -8 -9 10 -11 -12 -13 -14 14 -16 -17 17 18 19 -21 25 -23 -24 -25 -26 -27 27 29 -30 -31
leaf_value=0.065929207714493884 0.0041502716844944408 0.072998872452483238 -0.038573258163337051 0.036096977683153307 -0.052136544353524633 0.055784027604886037 0.064062073159110194 0.11475815010990126 0.051196451625573708 0.09921746741085731 0.054391713217868315 0.092940831014935471 0.096815681084424232 0.18364715458520239 -0.023137421123860521 0.088115815751087775 -0.036136138170500612 -0.036456619560445068 -0.0097110190200030699 -0.046653331898303702 0.15676389784801725 -0.043256692077139176 -0.044585181271724145 0.10801307557203493 -0.049682015991833764 0.034672131002895311 0.028996028783178907 -0.029061879069150372 -0.032777012609777702 0.052961842037746537
leaf_count=303 860 40 354 46 30 312 154 27 35 115 79 34 28 22 217 20 628 284 62 126 54 516 294 27 4482 40 184 54 191 320
internal_value=0 -0.329449 -0.484877 -0.679005 0.68803 0.50605 0.342602 -0.116705 0.177769 0.656194 -0.272893 0.0862758 -0.302119 -0.889712 0.0779267 -0.299549 -0.214097 -0.317156 0.137844 0.727686 1.46291 -0.651495 -0.530177 0.771471 -0.959364 2.43518 0.69404 0.496258 0.072478 0.866899
internal_count=9938 8203 7189 6028 1735 1432 1014 1261 1161 531 630 416 382 4767 239 371 1234 1194 566 282 156 551 351 57 4528 94 1061 749 375 374
shrinkage=0.05


Tree=20
num_leaves=31
num_cat=0
split_feature=20 88 71 98 65 65 98 23 30 46 17 8 39 30 24 84 74 19 27 67 12 4 80 23 72 63 62 60 63 21
split_gain=197.75 82.9055 68.4663 68.1703 43.1427 47.9003 46.2368 52.3592 41.3681 32.1064 29.099 30.8739 42.8247 28.6797 28.0523 26.8251 26.4783 43.9385 41.1678 24.9412 23.4309 23.3403 21.1951 20.9143 26.9762 30.7949 25.1984 26.2064 20.3983 20.9293
threshold=-0.011050000000000009 0.0038999999999999977 0.0046000000000000112 0.0063999999999999934 0.0071499999999999975 -0.0023999999999999955 0.00090000000000000854 0.017500000000000009 0.0036999999999999989 -0.0046999999999999984 -0.0064000000000000003 0.0075000000000000023 0.018450000000000005 0.00059999999999999301 0.0061999999999999998 -0.011399999999999992 0.0079500000000000005 -0.0033999999999999981 -0.0038999999999999968 0.020350000000000004 0.017500000000000009 -0.00040000000000000273 0.0027000000000000119 -0.035799999999999978 -0.0099999999999999863 -0.011349999999999997 -0.00020000000000000223 0.0091500000000000001 -0.0028499999999999979 -0.0034999999999999992
decision_type=2 2 2 2 2 2 2 2 2 2 2 2 2 2 2 2 2 2 2 2 2 2 2 2 2 2 2 2 2 2
left_child=23 2 3 4 5 6 7 -2 16 22 -4 15 14 -11 -13 -12 17 18 -3 -14 -16 -5 -8 -1 25 -25 -26 -28 -17 -30
right_child=1 8 10 21 -6 -7 9 -9 -10 13 11 12 19 -15 20 28 -18 -19 -20 -21 -22 -23 -24 24 26 -27 27 -29 29 -31
leaf_value=0.063203443452471406 -0.039217019930463524 0.086781114120092193 0.1035104573765977 0.10407977869496435 0.088424350574346083 -0.048911006327125445 -0.041775424330484451 0.099763453104104713 0.081891310264683284 0.10575013272177169 0.092690436868197543 0.15045776929448185 -0.041474313200203249 -0.043780295267899685 -0.0010815246417295067 0.07841604381702845 -0.036752577467317887 0.051245449966901002 -0.032126469588867779 0.079857045898732715 0.094181161426420759 -0.0010840674149127049 0.094119030169924636 0.057598160758174179 0.057242696801837203 -0.050458459519169364 0.0031425827500772825 0.084693635639866982 0.040097112146821851 -0.036527360620805256
leaf_count=291 1371 43 38 60 45 4075 135 41 114 114 24 45 189 46 139 31 236 349 349 23 58 80 25 57 410 182 338 52 74 904
internal_value=0 -0.246514 -0.410533 -0.608338 -0.693559 -0.733668 -0.278036 -0.603908 0.40372 0.666957 0.147045 0.0539651 0.613764 1.52911 1.35776 -0.301735 0.189649 0.404235 -0.249388 -0.341717 0.856216 1.13741 -0.300312 0.777531 0.604873 -0.273621 0.771982 0.334259 -0.432995 -0.547046
internal_count=9938 8608 7517 5992 5852 5807 1732 1412 1091 320 1525 1487 454 160 242 1033 977 741 392 212 197 140 160 1330 1039 239 800 390 1009 978
shrinkage=0.05


Tree=21
num_leaves=31
num_cat=0
split_feature=20 92 11 5 88 97 30 86 74 48 91 74 92 30 42 68 74 22 41 74 62 80 17 31 60 10 19 69 74 92
split_gain=180.095 77.0478 60.4687 60.6632 41.7423 35.6094 31.6133 25.1747 24.4045 33.8902 33.9799 24.8741 24.216 23.6287 22.444 26.3145 26.4891 21.4449 20.3452 33.4003 27.2009 26.9226 20.7651 19.4919 19.2974 18.8083 23.2955 18.635 17.8235 21.0209
threshold=-0.011050000000000009 0.0059999999999999888 0.011800000000000003 -0.0021000000000000025 0.0050000000000000001 0.003700000000000011 0.0077000000000000028 -0.0013999999999999965 -0.0041999999999999876 -0.00099999999999999894 -0.0013000000000000041 0.00074999999999999384 -0.0034000000000000033 0.0052499999999999986 -0.011500000000000005 0.0009000000000000016 0.0086000000000000087 0.019500000000000014 -0.028899999999999999 -0.0088999999999999999 -0.00020000000000000223 -0.00039999999999998885 -0.0075000000000000006 0.0035000000000000018 -0.0076500000000000032 -0.0075000000000000006 -0.0041000000000000038 0.004000000000000001 0.012800000000000014 0.023850000000000027
decision_type=2 2 2 2 2 2 2 2 2 2 2 2 2 2 2 2 2 2 2 2 2 2 2 2 2 2 2 2 2 2
left_child=18 2 3 8 6 -6 17 -8 -2 10 -10 -12 24 -11 -3 -16 25 -5 -1 21 -21 -20 -23 -18 -4 -17 -27 -14 29 -22
right_child=1 14 12 4 5 -7 7 -9 9 13 11 -13 27 -15 15 16 23 -19 19 20 28 22 -24 -25 -26 26 -28 -29 -30 -31
leaf_value=0.074263032899467923 -0.028587643356100995 0.088903557371277253 0.092061236380355516 -0.043730496433710797 0.092942132417925261 -0.038940795946449142 -0.013633509644505829 0.11493952540603175 0.12710050160102573 -0.021723538424265901 -0.0090547660091026497 0.082299683940771931 0.00032499689868501728 0.05216859967288915 -0.042210644186302146 0.11104456569559738 -0.043304453637782139 0.015793582138245867 0.038935871320674872 0.062456202750533346 0.022156091069214665 -0.052901892901353768 0.077605803415124727 0.068025496177806052 -0.0078720161060562739 -0.012812943960666979 0.062421055166740881 0.082906396278716321 0.082459579607902372 -0.06816743066222257
leaf_count=146 482 57 22 5383 69 91 112 25 65 586 177 70 112 73 98 46 162 124 129 383 365 205 20 25 466 105 140 118 47 35
internal_value=0 -0.239593 -0.366003 -0.486889 -0.688959 0.693007 -0.762477 0.552044 0.0417461 0.295043 0.991679 0.480635 0.393919 -0.142624 0.559969 0.382915 0.618927 -0.824126 0.741382 0.631119 0.842122 -0.10164 -0.734825 -0.325232 0.0208344 0.987094 0.709043 1.1124 0.443658 0.269209
internal_count=9938 8608 7975 7257 5804 160 5644 137 1453 971 312 247 718 659 633 576 478 5507 1330 1184 830 354 225 187 488 291 245 230 447 400
shrinkage=0.05


Tree=22
num_leaves=31
num_cat=0
split_feature=11 4 49 23 91 98 78 98 32 24 36 38 3 9 34 28 29 41 19 10 35 60 73 67 38 62 93 22 45 39
split_gain=166.994 68.246 72.9252 71.0973 35.1693 33.0086 30.3446 30.2926 38.6274 25.7235 24.6362 28.0983 22.9628 21.6996 36.1087 20.3685 20.0287 25.5119 18.2587 18.1182 17.2855 21.1828 31.7628 22.3755 19.8887 17.2359 20.5201 16.5691 29.8575 15.7882
threshold=-0.00609999999999999 0.0075000000000000023 -0.0023999999999999955 0.016300000000000002 -0.00069999999999999739 0.0016999999999999969 0.003999999999999994 -0.00079999999999998464 0.0031000000000000008 -0.0046999999999999915 -0.0016000000000000022 -0.0049499999999999987 -0.0024999999999999966 -0.015149999999999995 -0.0031999999999999976 -0.0049999999999999932 -0.0081500000000000027 -0.002799999999999993 -0.0057000000000000045 -0.009299999999999994 -0.0026500000000000026 0.0032499999999999964 0.0087000000000000081 0.020350000000000004 -0.0023999999999999972 -0.0021000000000000007 -0.0022500000000000016 -0.0050000000000000018 0.006600000000000006 0.0017000000000000038
decision_type=2 2 2 2 2 2 2 2 2 2 2 2 2 2 2 2 2 2 2 2 2 2 2 2 2 2 2 2 2 2
left_child=7 2 5 15 25 6 -2 8 -1 12 11 -11 -7 -9 16 -4 -15 -18 -12 -14 -3 24 -23 -24 -22 -5 -27 28 -17 -10
right_child=1 20 3 4 -6 9 -8 13 29 10 18 -13 19 14 -16 27 17 -19 -20 -21 21 22 23 -25 -26 26 -28 -29 -30 -31
leaf_value=-0.031108837425497079 -0.038816171748647585 0.072072815326412687 0.029940534034913452 0.062982636178453372 0.069996309566978526 0.036730652027596976 0.077629819994836688 0.060895571182556854 0.08776187901427937 -0.00018857478166067824 0.08099056570932045 0.098941675101486964 0.081045212699116992 0.069747117321848795 0.05943193321597745 -0.028393887610775454 -0.0069836128554281278 0.087716572598878731 -0.026173710632681532 -0.022838986226716148 0.0899279476923774 0.07558372398400412 -0.031110968322485156 0.076871875695451689 -0.034181268193497205 -0.047809473228432174 0.073226872023143083 -0.046264531805659898 0.12821879801397049 0.0044213343701302891
leaf_count=343 762 89 69 34 115 185 33 363 60 66 29 132 23 55 315 191 491 35 183 526 20 152 165 28 313 253 26 4801 22 59
internal_value=0 -0.267032 -0.391942 -0.650182 0.405299 0.0776767 -0.540523 0.627431 -0.00134202 0.327949 0.871231 1.39317 0.0161704 0.789143 0.575579 -0.8238 0.203233 0.0324558 0.0188353 -0.315072 0.516661 0.321642 0.712234 -0.075887 -0.363536 -0.239891 -0.585668 -0.866774 0.008764 1.01953
internal_count=9938 8217 7450 5511 428 1939 795 1721 462 1144 410 198 734 1259 896 5083 581 526 212 549 767 678 345 193 333 313 279 5014 213 119
shrinkage=0.05


Tree=23
num_leaves=31
num_cat=0
split_feature=11 88 71 97 30 23 74 85 57 67 64 97 23 38 55 16 7 91 98 37 20 74 11 56 31 20 3 7 53 31
split_gain=152.331 61.999 60.1101 59.4704 42.7379 28.2189 30.4758 27.8966 26.1012 25.4431 28.5893 43.6758 35.53 29.563 36.2837 23.5308 25.2676 38.1928 22.4031 21.6191 21.6133 30.0482 26.5696 21.0149 20.7696 20.3482 19.961 18.3865 16.5456 22.2705
threshold=-0.00609999999999999 0.0038999999999999977 0.0047999999999999961 0.0056000000000000034 0.011049999999999999 -0.035799999999999978 -0.01059999999999999 0.0019000000000000009 -0.0058999999999999981 0.0069999999999999967 -0.0031500000000000031 0.00020000000000000749 0.019200000000000012 -0.0035500000000000006 -0.00039999999999999059 -0.0025000000000000001 0.0088000000000000109 -0.012099999999999991 0.0063999999999999934 -0.0025000000000000001 0.023299999999999998 0.0039000000000000046 -0.0028499999999999979 0.006100000000000016 0.0028999999999999968 -0.0032000000000000045 -0.0019000000000000004 -0.0023000000000000065 -0.00030000000000000507 0.0049000000000000059
decision_type=2 2 2 2 2 2 2 2 2 2 2 2 2 2 2 2 2 2 2 2 2 2 2 2 2 2 2 2 2 2
left_child=5 2 3 4 9 -1 24 27 -4 10 11 12 -2 -13 19 18 25 -18 -10 -15 21 22 -9 -19 -7 -17 -5 -3 -8 -30
right_child=1 7 8 26 -6 6 28 20 15 -11 -12 13 -14 14 -16 16 17 23 -20 -21 -22 -23 -24 -25 -26 -27 -28 -29 29 -31
leaf_value=0.062262427735428671 -0.049235394964665585 0.14954909243301925 0.091369000834768066 0.077496002791786756 0.084909860232456225 -0.04123015750511641 0.04386319744279564 -0.018779317953187831 0.090265315996965745 0.083139399703986885 -0.048924651745517189 -0.012235547937670399 0.081119768309092899 0.11451469223999491 0.23244030558586665 0.066324942565473374 -0.048763400875179483 0.077751798790157131 -0.04905589645375133 -0.044189824080130426 0.069473411670187502 -0.030338936727366927 0.04598403573391445 -0.015949713039675777 0.07767812864449429 -0.032230685281662126 0.00054858442711976996 0.039208328979922255 0.0058806572237167579 0.066491661199861093
leaf_count=256 923 31 41 66 33 263 564 189 75 34 4272 131 33 32 30 39 130 146 33 55 60 415 271 58 20 883 162 75 534 84
internal_value=0 -0.259655 -0.414869 -0.613094 -0.732885 0.598577 0.451487 0.325339 0.14707 -0.781196 -0.810374 -0.328075 -0.757803 0.787122 1.91733 0.0366825 -0.121547 0.473803 1.16292 0.81937 0.164323 0.0247152 0.444176 1.07117 -0.487912 -0.488125 0.631404 1.53539 0.585713 0.317361
internal_count=9938 8217 7176 5771 5543 1721 1465 1041 1405 5510 5476 1204 956 248 117 1364 1256 334 108 87 935 875 460 204 283 922 228 106 1182 618
shrinkage=0.05


Tree=24
num_leaves=31
num_cat=0
split_feature=20 93 71 88 64 74 31 64 17 81 8 13 91 5 98 41 74 80 61 17 74 38 23 30 35 32 96 5 2 24
split_gain=140.579 62.218 52.138 52.1247 41.2478 48.6927 39.0238 33.1968 31.6407 24.4603 21.822 30.1102 29.6226 20.843 34.4544 18.9819 27.404 23.3484 21.714 19.0543 18.8175 24.8945 23.7617 23.4924 22.6842 18.5745 18.1443 17.9907 17.4922 17.034
threshold=-0.011050000000000009 0.006100000000000016 0.0042999999999999957 0.0050000000000000001 -0.0039999999999999992 -0.0031999999999999871 0.01364999999999999 0.0009000000000000016 -0.0048000000000000083 0.0029000000000000037 0.0088499999999999985 -0.0028999999999999959 -0.012099999999999991 -0.0021000000000000025 0.0055999999999999843 -0.028899999999999999 -0.0088999999999999999 -0.00039999999999998885 -9.9999999999999381e-05 -0.0075000000000000006 0.0079500000000000005 0.001500000000000005 -0.0040499999999999972 -0.0051999999999999885 0.0058000000000000039 0.0095000000000000067 0.0037000000000000162 -0.0030999999999999843 -0.0013000000000000058 -0.016899999999999991
decision_type=2 2 2 2 2 2 2 2 2 2 2 2 2 2 2 2 2 2 2 2 2 2 2 2 2 2 2 2 2 2
left_child=15 2 3 4 5 9 13 26 -5 -2 11 -9 -12 14 -6 -1 17 -17 29 -19 21 22 23 -3 -22 -13 -4 -20 -7 -18
right_child=1 20 7 8 6 28 -8 10 -10 -11 12 25 -14 -15 -16 16 18 19 27 -21 24 -23 -24 -25 -26 -27 -28 -29 -30 -31
leaf_value=0.070094465864975516 -0.036948667521580374 0.077602536194018329 0.070446545282503797 -0.022033846171947355 -0.03187945888972564 0.079745293740671339 0.088898980515558279 0.043598445065476027 0.081130755517016304 0.10200622759490002 -0.038587839894912816 -0.036792397144680883 0.046304537056828764 -0.04986058631561107 0.077755738417845416 0.034973938845618634 0.075415541936746447 -0.052482098755007436 0.037181613448513472 0.071820226700834613 -0.040792770468421918 0.11505925871898824 0.058638067691009578 -0.022279079892811103 0.075855469572853162 0.03609723375700033 -0.04523408280258872 -0.0099278231581547555 0.011367157204342193 0.028512300906598332
leaf_count=146 858 34 152 92 656 103 24 105 93 28 147 1095 243 3988 43 129 210 205 266 20 185 41 151 196 24 66 48 188 236 166
internal_value=0 -0.222262 -0.339635 -0.528531 -0.623035 -0.0811334 -0.810591 0.10429 0.736037 -0.599091 -0.0766819 -0.337132 0.457424 -0.860594 -0.344781 0.656002 0.551662 -0.121761 0.741845 -0.72512 0.512928 0.754268 0.542333 -0.0220483 -0.272567 -0.573291 1.09266 0.396733 0.819795 1.11894
internal_count=9938 8608 7977 6121 5936 1225 4711 1856 185 886 1656 1266 390 4687 699 1330 1184 354 830 225 631 422 381 230 209 1161 200 454 339 376
shrinkage=0.05


Tree=25
num_leaves=31
num_cat=0
split_feature=19 25 29 30 84 95 2 47 98 98 77 23 11 39 47 58 52 63 74 43 63 49 92 16 24 35 83 79 91 11
split_gain=140.722 59.8397 49.9766 48.0388 30.6342 25.4177 21.585 19.3286 19.0262 17.9889 28.5064 19.9156 17.2058 16.8888 16.7766 15.3327 21.9028 14.9501 23.7657 22.5816 17.376 16.8922 15.691 20.106 21.2938 18.2583 19.8536 14.3736 15.5853 14.127
threshold=-0.010900000000000012 -0.0019999999999999979 0.004800000000000003 -0.00070000000000000433 0.0016000000000000148 0.0096000000000000096 0.010100000000000007 -0.00070000000000000433 -0.00079999999999999852 0.0009999999999999959 -0.0010000000000000024 0.016300000000000002 0.012749999999999999 0.0076000000000000069 -1.0000000180025095e-35 -0.0021000000000000007 -0.0058999999999999947 -0.011349999999999997 -0.0088999999999999999 -0.026150000000000003 0.00029999999999999824 -0.014249999999999997 0.023850000000000027 -0.023700000000000002 -0.018699999999999994 -0.0042000000000000049 0.0011000000000000022 0.0063000000000000044 -0.0022000000000000036 -0.0028499999999999979
decision_type=2 2 2 2 2 2 2 2 2 2 2 2 2 2 2 2 2 2 2 2 2 2 2 2 2 2 2 2 2 2
left_child=8 15 3 6 29 12 9 -7 -1 11 14 13 -5 -3 -11 16 -2 -10 19 -19 -20 -21 23 -22 -25 -26 -27 28 -12 -4
right_child=1 2 4 5 -6 7 -8 -9 17 10 27 -13 -14 -15 -16 -17 -18 18 20 21 22 -23 -24 24 25 26 -28 -29 -30 -31
leaf_value=-0.013205195845994 0.063726370602098389 -0.038974286334563756 0.052467176464028556 -0.040673823935224285 0.079917366970164494 0.075436019117001998 0.055749504280093766 -0.040197402303537716 0.068636678119487912 0.078313224401375364 0.075005077762956993 0.033221701015555459 0.010359384945067983 0.091145299756690057 -0.056335330818177889 0.048060296247438676 -0.02925314040848714 0.06749221027518687 0.054846286463282212 -0.049392074866708852 0.070739921387870039 0.052247113853711849 -0.041746048267537611 -0.028984079568417601 -0.038982306928950938 -0.034853261730095925 0.087330593036117218 0.063373395778860198 -0.017578091356692863 -0.0072333102889217821
leaf_count=179 48 1107 63 4855 81 52 85 73 154 97 36 76 183 22 31 313 150 38 399 166 92 32 41 108 38 28 75 33 727 556
internal_value=0 -0.248403 -0.348313 -0.457722 0.375548 -0.696872 -0.0912913 0.574643 0.634139 -0.173947 0.093903 -0.505435 -0.757137 -0.693449 1.19461 0.600801 0.0277826 0.721345 0.617681 -0.14309 0.781233 -0.59064 0.431113 0.597387 0.224055 0.809826 1.24891 -0.137214 -0.247704 0.0731875
internal_count=9938 8588 8077 7377 700 5163 2214 125 1350 2129 924 1205 5038 1129 128 511 198 1171 1017 236 781 198 382 341 249 141 103 796 763 619
shrinkage=0.05


Tree=26
num_leaves=31
num_cat=0
split_feature=17 26 28 46 46 84 86 67 72 90 18 24 24 36 78 23 6 41 74 80 66 73 37 1 88 84 84 47 42 31
split_gain=129.418 59.3337 48.5109 51.5015 36.5652 36.1525 33.3752 29.8908 25.9623 34.2868 22.7905 21.901 21.5634 21.0065 17.5713 16.7671 16.7559 16.469 28.0299 25.4464 19.6086 17.1416 16.3435 15.9007 15.5216 15.1574 19.8429 23.7179 20.414 15.1293
threshold=-0.011500000000000003 -0.0025000000000000001 0.0036000000000000029 -0.0020999999999999938 0.0077500000000000008 0.0016000000000000148 -0.00039999999999999579 0.0086000000000000052 -0.0025499999999999997 -0.0014000000000000156 -0.0023000000000000013 -0.0025499999999999963 0.0025000000000000009 -0.0011000000000000018 0.0021999999999999975 -0.012499999999999989 0.0022999999999999987 -0.028899999999999999 -0.009299999999999994 0.00060000000000000515 -0.0012999999999999884 0.011899999999999999 -0.0045999999999999852 -0.0022499999999999877 0.018599999999999988 -9.9999999999992442e-05 0.004999999999999988 -0.017649999999999996 -0.0071999999999999937 -0.0025499999999999963
decision_type=2 2 2 2 2 2 2 2 2 2 2 2 2 2 2 2 2 2 2 2 2 2 2 2 2 2 2 2 2 2
left_child=17 -2 3 8 15 -4 14 12 16 11 23 -10 -8 22 -6 -5 -3 -1 19 -19 -20 24 -12 -11 25 -22 -27 -28 -29 -18
right_child=1 2 5 4 6 -7 7 -9 9 10 13 -13 -14 -15 -16 -17 29 18 20 -21 21 -23 -24 -25 -26 26 27 28 -30 -31
leaf_value=0.06706408067592709 0.026554774274363258 -0.028979582329293499 -0.000966996752649694 0.039389300955712109 -0.04160315310152396 0.071266984866606375 0.17883465947563515 -0.049920545335786874 0.047064370084153262 0.030490543834790957 0.0012474809683668412 0.21737565130035549 0.046453438208806846 -0.039932920597083289 0.036931928643348266 -0.046615500762450017 0.076126730192007913 0.028643875805295732 0.055439338913680802 -0.058826004304424917 -0.044699411823629152 0.069881811484832579 0.087320411096693709 -0.03080407467613764 -0.058059890748287872 0.064105844689402794 0.077734846420512746 -0.055295137852305221 0.034153204766859312 -0.023384196531277282
leaf_count=154 619 1006 836 49 707 119 26 89 39 96 57 29 116 84 71 4236 50 111 335 155 50 66 101 320 36 110 37 91 52 91
internal_value=0 -0.228842 -0.338301 -0.464254 -0.706338 0.27943 -0.102761 0.829395 -0.0534736 0.330183 0.144133 2.33463 1.46827 0.804279 -0.569363 -0.892249 -0.405854 0.647679 0.54001 -0.294183 0.71603 0.39931 1.21064 -0.266224 0.202545 0.358681 0.543675 0.072175 -0.387782 0.55763
internal_count=9938 8741 8122 7167 5294 955 1009 231 1873 726 658 68 142 242 778 4285 1147 1197 1043 266 777 442 158 416 376 340 290 180 143 141
shrinkage=0.05


Tree=27
num_leaves=31
num_cat=0
split_feature=19 25 1 8 47 74 22 11 37 36 28 79 64 98 13 71 2 7 97 43 57 34 63 43 13 79 8 63 85 76
split_gain=119.826 51.444 46.2176 42.2008 28.6219 34.0687 29.8255 25.7604 23.0748 31.3661 19.9285 17.8253 17.1922 16.899 16.3721 24.7825 15.1231 14.5331 14.014 17.8947 16.1438 19.4624 13.7928 20.6942 14.0496 13.5507 13.5362 13.3903 13.5434 13.3341
threshold=-0.010900000000000012 -0.0019999999999999979 0.0038000000000000017 -0.0050000000000000018 -0.0018999999999999952 -0.0031999999999999871 -0.0041999999999999997 0.011800000000000003 -0.0039999999999999992 -0.00060000000000000147 0.0034000000000000041 0.0019000000000000165 -0.0042000000000000049 -0.00079999999999999852 0.00050000000000000229 0.0029999999999999996 -0.0074999999999999954 -0.0034999999999999923 0.008399999999999996 -0.0049999999999999932 -0.0044999999999999997 -0.0042999999999999939 -0.011349999999999997 -0.0069999999999999845 -0.020649999999999998 -0.015099999999999987 -0.012699999999999991 -0.00075000000000000056 0.00019999999999999535 0.0029000000000000106
decision_type=2 2 2 2 2 2 2 2 2 2 2 2 2 2 2 2 2 2 2 2 2 2 2 2 2 2 2 2 2 2
left_child=13 -2 3 10 5 -5 -7 17 -8 12 18 14 -10 -1 15 -4 -12 -6 20 -20 21 -3 -15 24 -24 -16 -26 -25 -29 -28
right_child=1 2 11 4 7 6 8 -9 9 -11 16 -13 -14 22 25 -17 -18 -19 19 -21 -22 -23 23 27 26 -27 29 28 -30 -31
leaf_value=-0.013063538665398795 0.027488190195870926 -0.0095558647538128358 -0.0094417919916087063 -0.039765602861860989 -0.003193971552013156 -0.024995450832455378 -0.039523539085541431 0.0089345154313884446 0.19950015947391508 -0.021474210964212915 -0.030741549470992776 0.043418622325818376 0.070459711028224764 0.065895465897831171 0.055435493421515991 0.10575173986520421 0.084208211548402134 -0.046922192430182044 -0.038637840875880049 0.096668454306920004 -0.029376938649847986 0.10026057067215349 0.041793885190903046 0.082391630037191313 0.049042149017524204 -0.022728846345192649 -0.011601063128877227 -0.030488959388392363 0.049029066747590562 0.04779754209715386
leaf_count=179 511 96 126 781 246 295 69 250 20 145 26 230 152 154 34 46 61 4362 24 33 394 39 207 113 82 648 376 42 138 59
internal_value=0 -0.234484 -0.330632 -0.45935 -0.593131 -0.204306 0.24015 -0.771862 0.784562 1.12805 0.172786 0.260183 1.70318 0.590179 -0.00939952 0.79033 1.16624 -0.86791 -0.0573589 0.992669 -0.245952 0.541829 0.673731 0.57475 0.352782 -0.281168 0.12844 1.07197 0.670171 -0.0509463
internal_count=9938 8588 8077 6993 6320 1462 681 4858 386 317 673 1084 172 1350 854 172 87 4608 586 57 529 135 1171 1017 724 682 517 293 180 435
shrinkage=0.05


Tree=28
num_leaves=31
num_cat=0
split_feature=17 26 28 46 69 83 54 74 66 72 90 18 35 42 33 36 40 15 38 6 41 74 80 66 73 6 87 68 2 88
split_gain=109.51 51.4065 43.5992 46.7113 36.0741 32.4977 23.7911 28.0577 24.7051 21.9451 26.9527 19.3983 19.1307 19.4856 18.6761 18.3662 18.1575 17.6916 17.1409 16.14 15.4765 25.3104 23.4924 18.8267 15.5573 15.3672 14.8948 19.9878 14.6415 14.3835
threshold=-0.011500000000000003 -0.0025000000000000001 0.0036000000000000029 -0.0020999999999999938 0.0041000000000000038 0.0021999999999999975 -0.00060000000000000667 0.0074999999999999971 0.0060000000000000131 -0.0025499999999999997 -0.0014000000000000156 -0.0023000000000000013 0.0074999999999999971 0.010299999999999995 0.00080000000000000568 -0.0011000000000000018 -0.0068000000000000031 0.016300000000000002 0.0075999999999999896 -0.00085000000000000342 -0.028899999999999999 -0.0088999999999999999 0.00049999999999999535 -0.0012999999999999884 0.011899999999999999 0.0022999999999999987 0.0035000000000000244 0.004000000000000001 -0.0011999999999999977 0.018599999999999988
decision_type=2 2 2 2 2 2 2 2 2 2 2 2 2 2 2 2 2 2 2 2 2 2 2 2 2 2 2 2 2 2
left_child=20 26 3 9 16 19 7 8 -6 25 14 28 17 18 -11 -13 -5 -8 -14 -4 -1 22 -22 -23 29 -3 27 -2 -12 -25
right_child=1 2 5 4 6 -7 12 -9 -10 10 11 15 13 -15 -16 -17 -18 -19 -20 -21 21 23 -24 24 -26 -27 -28 -29 -30 -31
leaf_value=0.064819813259313061 -0.013164982641777206 -0.02781539907552117 0.036763210989658894 0.068143307432506434 0.03684635178944537 0.070870395151060389 -0.04190928391983742 -0.034802616838607296 0.18354868059243382 0.1362925764067846 0.015564529323206906 0.055410959572731303 -0.024787581045688435 -0.044162718411141916 -0.054363583462654463 -0.039469476641108163 -0.048520991409193248 0.052125792589687664 0.12543616863244128 -0.013112737467136712 0.027330618353387265 0.05350167054815709 -0.05470099521045893 0.016335566908114638 0.066236506559081809 0.026885343238804312 0.050756796652959402 0.048843571692848323 -0.03813800354280944 -0.057214279338508311
leaf_count=154 335 1006 152 21 91 104 932 105 26 44 163 158 32 70 24 84 3947 32 38 699 116 323 162 340 66 141 175 109 253 36
internal_value=0 -0.215377 -0.321271 -0.444956 -0.685334 0.265918 -0.208313 0.682817 1.55658 -0.0530701 0.298145 0.125759 -0.463582 0.595141 2.00633 0.733522 -0.931387 -0.685846 1.52952 -0.00428114 0.600556 0.497541 -0.270832 0.672696 0.363317 -0.384507 0.487388 0.175381 -0.258142 0.175391
internal_count=9938 8741 8122 7167 5294 955 1326 222 117 1873 726 658 1104 140 68 242 3968 964 70 851 1197 1043 278 765 442 1147 619 444 416 376
shrinkage=0.05


Tree=29
num_leaves=31
num_cat=0
split_feature=14 93 4 23 23 39 23 45 74 34 40 47 39 69 8 6 49 74 62 16 85 65 35 22 61 95 13 77 37 94
split_gain=102.212 43.8145 44.0114 39.1972 28.3213 34.7268 28.033 34.8465 19.9916 38.9881 18.8527 31.0143 18.2508 21.6909 20.3839 19.7319 17.0857 35.3878 16.2813 15.7123 14.9257 14.8405 16.0057 13.9511 12.418 17.6164 12.3914 12.3758 12.1957 15.2576
threshold=-0.0099000000000000025 0.0062999999999999905 0.0075000000000000023 -0.012499999999999989 0.015000000000000003 0.0032999999999999995 -0.00034999999999999609 0.0069000000000000077 -0.003699999999999998 -0.00090000000000000832 -0.0047999999999999944 -0.0021499999999999987 0.0026000000000000003 0.0086499999999999997 1.0000000180025095e-35 -0.0075000000000000006 -0.028150000000000005 -0.009749999999999993 -0.00020000000000000223 -1.0000000180025095e-35 -0.012549999999999983 0.01865000000000001 -0.0031999999999999906 -0.0049999999999999932 -0.0038999999999999968 -0.00059999999999999279 0.016300000000000002 0.0064999999999999962 0.0068000000000000048 0.0053000000000000018
decision_type=2 2 2 2 2 2 2 2 2 2 2 2 2 2 2 2 2 2 2 2 2 2 2 2 2 2 2 2 2 2
left_child=16 2 3 -2 6 27 7 8 -5 10 -10 23 13 14 15 -3 -1 -18 -19 -4 -8 22 -21 -12 -7 -26 -22 -6 29 -20
right_child=1 12 19 4 5 24 20 -9 9 -11 11 -13 -14 -15 -16 -17 17 18 28 21 26 -23 -24 -25 25 -27 -28 -29 -30 -31
leaf_value=0.059299121585350917 0.033751170888989851 0.078244938614683013 0.083796578593403614 -0.043737971284181394 0.074059383981625232 0.044620128375664182 0.041574736214706108 0.07522291032373693 -0.031549663596359433 -0.039359897173077425 0.0086799912332327193 -0.016254282335710333 0.067970273367632936 -0.054983575623958794 0.048000178473770833 -0.014356244415366102 -0.035817958300159922 0.045697117388469315 -0.033822439389778122 0.072259980083481695 -0.045668165204081554 0.075983636696851847 -0.0071523781680002734 0.09655767762866517 -0.051015670816474616 0.066269639538590941 0.070598745660047632 -0.014400762909752746 0.068815830317912274 0.020173917556183654
leaf_count=202 203 30 55 895 108 34 40 60 98 797 53 185 93 138 173 290 239 418 108 34 4253 35 559 106 330 21 31 24 43 283
internal_value=0 -0.217125 -0.331651 -0.44339 -0.516299 0.131495 -0.613179 -0.309445 -0.421603 -0.148115 0.458324 0.793618 0.355687 0.192294 0.367718 -0.0407101 0.562146 0.440435 0.602903 0.375997 -0.848284 0.216755 0.0483094 1.49604 -0.485284 -0.737553 -0.888439 1.09051 0.285858 0.14907
internal_count=9938 8645 7921 7238 7035 517 6518 2194 2134 1239 442 344 724 631 493 320 1293 1091 852 683 4324 628 593 159 385 351 4284 132 434 391
shrinkage=0.05


Tree=30
num_leaves=31
num_cat=0
split_feature=10 4 4 39 21 96 23 32 41 98 8 20 74 64 67 72 69 68 80 76 78 83 2 47 31 60 93 68 88 23
split_gain=98.0827 47.7754 42.7184 35.9749 27.6224 23.7601 23.0214 20.6178 19.4564 19.3899 16.8457 13.9432 13.8494 17.4594 13.7876 15.0911 24.6147 18.1394 17.7462 13.4435 17.9661 13.8835 19.9944 13.064 20.1102 16.9592 18.1753 12.8905 12.2628 12.7945
threshold=-0.0075000000000000006 0.0077999999999999918 -0.0025999999999999942 -0.0014999999999999994 -0.0050000000000000018 0.0098500000000000063 0.014999999999999998 -0.0062999999999999888 0.0050499999999999998 -0.00039999999999999579 -0.027499999999999997 -0.014999999999999994 0.0029000000000000037 0.0031999999999999984 -0.0026000000000000012 0.0053999999999999994 0.007199999999999992 0.020150000000000005 0.0041000000000000038 0.0034000000000000041 -0.00010000000000000112 0.00040000000000000978 -0.0061999999999999928 -0.010199999999999996 -0.0029999999999999988 -0.0012999999999999884 0.0033000000000000152 0.0088000000000000005 0.0074499999999999992 -0.02095
decision_type=2 2 2 2 2 2 2 2 2 2 2 2 2 2 2 2 2 2 2 2 2 2 2 2 2 2 2 2 2 2
left_child=5 2 -2 6 8 10 9 -6 27 -4 -1 -7 13 23 -3 -16 -17 18 -18 20 21 22 -12 -11 -25 26 -26 -5 29 -22
right_child=1 14 3 4 7 11 -8 -9 -10 12 19 -13 -14 -15 15 16 17 -19 -20 -21 28 -23 -24 24 25 -27 -28 -29 -30 -31
leaf_value=-0.044041374236611294 0.0095251143390227225 0.072433753838911472 -0.046232926309904714 -0.023501935026783365 0.04895380415199907 0.039311118953496704 0.063345098796733376 -0.042037153761502043 0.083086008903392891 -0.025991013720560226 -0.049206254201732802 0.090681591844760989 -0.038597561433243721 0.0769862395881101 -0.014210171064212017 0.073577047966518802 -0.044619763876237929 0.064455153414854791 0.06409728929138743 0.067363666766299221 0.043339127763255256 0.069856315792475684 0.041978548245198907 0.056783581286811075 -0.0095371001276054711 -0.036305290166004221 0.095229274261073915 0.0774753766549129 0.042119496467832529 -0.027667288724816014
leaf_count=58 1222 77 497 292 38 410 58 4726 41 236 58 72 183 38 301 122 162 45 27 69 49 102 136 136 126 254 33 20 66 284
internal_value=0 -0.195739 -0.304152 -0.456918 -0.672349 0.575016 -0.0702915 -0.792687 0.155216 -0.181687 0.301339 0.968633 0.00124283 0.157707 0.47539 0.320262 0.637233 0.0662382 -0.417324 0.410865 0.290296 0.740168 0.301778 0.0250217 0.301033 -0.11683 0.607588 -0.211556 -0.0882811 -0.318297
internal_count=9938 8634 7900 6678 5117 1304 1561 4764 353 1503 822 482 1006 823 734 657 356 234 189 764 695 296 194 785 549 413 159 312 399 333
shrinkage=0.05


Tree=31
num_leaves=31
num_cat=0
split_feature=10 3 3 41 16 98 32 5 9 38 95 10 88 1 45 11 24 74 49 97 17 69 75 29 24 41 44 98 49 45
split_gain=89.4633 44.4311 46.7132 34.4654 25.0333 22.138 24.5566 17.5965 16.3042 15.998 13.7787 18.6935 13.9534 11.9597 12.3122 11.817 18.1182 19.3234 13.4494 11.5758 11.4002 11.3784 11.0659 11.014 10.9899 17.2363 13.8059 13.7227 12.8472 20.3115
threshold=-0.0075000000000000006 0.0063000000000000079 -0.0021000000000000025 -0.0025499999999999963 0.018499999999999999 -0.00079999999999998464 0.0030000000000000066 0.0044000000000000055 -0.0023999999999999972 -0.0053999999999999977 0.0041000000000000108 -0.001699999999999986 0.0020000000000000057 0.0032999999999999995 -0.0095999999999999922 -0.0061999999999999998 -0.0037999999999999905 -0.0024999999999999983 -0.0025999999999999942 -0.025450000000000004 -0.0050000000000000018 0.0012000000000000138 -0.0021499999999999987 0.0016000000000000114 -0.038999999999999979 -0.0073000000000000035 -0.0066999999999999898 0.018350000000000002 -0.013399999999999997 -0.010799999999999999
decision_type=2 2 2 2 2 2 2 2 2 2 2 2 2 2 2 2 2 2 2 2 2 2 2 2 2 2 2 2 2 2
left_child=5 2 10 7 8 6 -1 9 21 13 22 12 -12 -4 -15 -11 -17 -18 23 -3 -10 -5 -2 -19 -7 26 27 28 -26 -30
right_child=1 19 3 4 -6 24 -8 -9 20 15 11 -13 -14 14 -16 16 17 18 -20 -21 -22 -23 -24 -25 25 -27 -28 -29 29 -31
leaf_value=-0.036969203566641406 0.048505494200832659 -0.056978681849854808 -0.045361291845543245 -0.037050020380815799 0.02676089453562798 0.060049647013765819 0.041407412658680698 0.04523635259020304 0.0059312364534515995 0.05643283102091784 0.075546509367939663 0.060997479967183577 -0.013958139981601093 -0.058713782173835244 0.081636488347183955 -0.033222950964614417 -0.043040647025493817 0.092034494353108703 -0.013123283124392166 0.025032369032599457 -0.045399161785248415 0.025483143152110685 -0.0080223054836682569 -0.054641896344806776 -0.032779803700332191 0.049212071423305415 0.093800478048542482 0.047057697152149434 0.051024783247809458 -0.024002120867626819
leaf_count=231 62 56 345 226 131 201 89 117 120 62 30 141 159 23 28 303 129 64 83 797 4468 154 1116 20 167 314 23 89 93 97
internal_value=0 -0.189387 -0.301103 -0.486403 -0.686927 0.550188 -0.107091 -0.0457733 -0.763335 -0.197522 0.159875 0.568178 0.0382423 -0.676286 0.557977 0.12011 -0.0651583 0.500689 1.01714 0.426157 -0.855501 -0.0621878 -0.0553461 1.54469 0.703985 0.57939 0.279358 0.173263 -0.0605783 0.307985
internal_count=9938 8634 7781 6273 5099 1304 320 1174 4968 1057 1508 330 189 396 51 661 599 296 167 853 4588 380 1178 84 984 783 469 446 357 190
shrinkage=0.05


Tree=32
num_leaves=31
num_cat=0
split_feature=19 79 28 28 83 31 63 67 38 63 67 72 49 68 84 42 77 54 56 59 2 58 53 87 65 20 89 73 26 44
split_gain=83.5062 42.0661 41.3617 29.9177 24.7082 24.6959 22.8239 25.6175 21.0295 17.9958 17.7303 17.482 38.9906 17.2382 17.3002 16.754 16.6704 16.5879 20.9786 19.5887 16.2323 13.9848 19.4936 13.899 13.4543 12.5761 12.6723 12.183 12.0687 15.9399
threshold=-0.012450000000000001 0.0032000000000000054 0.0036000000000000029 -0.0017000000000000016 0.0020000000000000039 -0.0045499999999999976 0.0071000000000000065 0.0088999999999999965 -0.0014 -0.00075000000000000056 0.0036000000000000133 -0.0083999999999999995 -0.035799999999999985 0.0010000000000000046 -0.0031000000000000016 -0.0043999999999999968 -0.0002000000000000005 9.9999999999999408e-05 -0.001699999999999986 -0.0066499999999999953 0.0024000000000000033 0.0029999999999999996 0.003500000000000007 0.0012000000000000016 -0.0074500000000000044 0.017100000000000001 -0.00040000000000000273 0.01070000000000001 0.00049999999999999882 -0.0027999999999999948
decision_type=2 2 2 2 2 2 2 2 2 2 2 2 2 2 2 2 2 2 2 2 2 2 2 2 2 2 2 2 2 2
left_child=9 2 3 10 21 -5 8 20 13 11 28 12 -1 14 24 -15 -3 18 19 -18 -8 23 -23 -4 -7 -19 -27 -11 -2 -30
right_child=1 16 4 5 -6 6 7 -9 -10 27 -12 -13 -14 15 -16 -17 17 25 -20 -21 -22 22 -24 -25 -26 26 -28 -29 29 -31
leaf_value=0.065375008108672236 -0.014658212693630452 0.071152711350066331 -0.032816995527305222 0.049443051939655924 0.06850250832006384 -0.054358295350680097 0.011653132599955377 -0.04454453477428983 -0.04433796493719705 0.003922509525045084 0.0423444088662112 0.060244697010192208 -0.020868593659562316 -0.056255440850538733 -0.039726687356337491 0.040171093496789705 0.072800234281454906 -0.015662678384422934 0.088927982615523149 -0.019225539920262071 0.12174799446512385 0.03943634292731657 -0.027343243791669913 0.073696030418852684 0.074201285441477222 -0.030561802123569456 0.074632378339173022 0.0577118055509281 0.091281554770514903 -0.058512266992265027
leaf_count=150 862 69 402 66 93 57 84 154 4432 421 158 300 240 46 795 179 42 452 66 106 42 297 154 21 52 26 42 61 34 35
internal_value=0 -0.175533 -0.292911 -0.427743 0.27737 -0.580333 -0.628756 0.316487 -0.705341 0.56307 0.0229219 0.830659 0.411155 -0.307891 -0.58303 0.377555 0.373323 0.235278 0.745658 0.226947 1.21438 0.0575352 0.384377 -0.442127 0.671054 -0.084396 0.794634 0.226719 -0.172616 0.95304
internal_count=9938 8766 7963 6996 967 5907 5841 280 5561 1172 1089 690 390 1129 904 225 803 734 214 148 126 874 451 423 109 520 68 482 931 69
shrinkage=0.05


Tree=33
num_leaves=31
num_cat=0
split_feature=14 81 62 23 43 64 83 24 73 15 8 0 85 1 44 36 73 4 23 4 70 65 72 49 2 37 75 45 23 88
split_gain=77.3294 37.6005 36.7623 40.9939 39.257 29.7263 24.651 17.0618 19.9687 17.0546 16.061 15.3587 23.6233 15.0904 14.9113 14.7789 16.6472 16.904 14.518 13.317 19.3491 18.9386 12.9376 12.9211 14.5712 12.894 15.0289 13.5796 16.0727 12.8662
threshold=-0.0075000000000000041 0.0021999999999999975 0.0044000000000000124 -0.001399999999999993 0.0043000000000000009 -0.0042000000000000049 0.0024999999999999905 -0.035400000000000001 -0.0093000000000000044 0.015000000000000003 -0.0022999999999999926 -0.015599999999999994 0.0021000000000000155 -0.0049999999999999932 -9.9999999999997647e-05 -0.00090000000000000312 -0.0036000000000000021 -0.0011999999999999977 -0.013249999999999996 0.0050000000000000001 0.0079499999999999935 0.01865000000000001 0.0034999999999999931 -0.028150000000000005 -0.0076999999999999907 -0.0033000000000000022 0.001700000000000009 -0.0095999999999999922 -0.0030999999999999843 0.0033999999999999972
decision_type=2 2 2 2 2 2 2 2 2 2 2 2 2 2 2 2 2 2 2 2 2 2 2 2 2 2 2 2 2 2
left_child=7 2 3 4 15 -3 -5 -1 23 14 -4 -10 13 -13 25 16 18 29 -2 -12 -21 -22 -11 -9 -25 26 -7 -27 -29 -18
right_child=1 5 10 6 -6 9 -8 8 11 22 19 12 -14 -15 -16 -17 17 -19 -20 20 21 -23 -24 24 -26 27 -28 28 -30 -31
leaf_value=0.04754905889854507 0.037437940554096723 0.073482143667955621 0.054562317115327323 -0.043289187145853211 0.085764555117964728 -0.028676825872830589 0.025738710998342535 0.059723460237473436 -0.036333837174478432 -0.041183017631162194 -0.023252131548707342 0.015995421645923252 0.012018904010232869 0.070341410951464317 -0.03033907599845688 -0.037974404229989392 0.066560924751047107 -0.018377928335079147 -0.040388290825911582 0.061762359504572407 -0.037289667129419279 0.059684704091410384 0.053180248847738268 0.034993560207364972 -0.05034871874792736 0.080954207567835626 0.046806091113366206 -0.031298893855558778 0.040915503101355534 -0.039708190285774859
leaf_count=315 50 91 105 4399 75 241 126 24 55 29 496 108 533 223 540 618 142 159 421 110 178 34 126 46 277 40 45 143 162 27
internal_value=0 -0.201667 -0.359702 -0.513571 -0.0433889 0.203638 -0.776155 0.459934 0.322448 0.061056 0.20599 0.465997 0.544507 1.04925 -0.10155 -0.230993 0.0291023 0.495804 -0.465943 0.00510492 0.389902 -0.175545 0.769672 -0.382105 -0.627348 0.143609 -0.259857 0.537887 0.231508 1.02371
internal_count=9938 8357 6940 6017 1492 1417 4525 1581 1266 1326 923 919 864 331 1171 1417 799 328 471 818 322 212 155 347 323 631 286 345 305 169
shrinkage=0.05


Tree=34
num_leaves=31
num_cat=0
split_feature=14 4 6 3 15 46 86 74 24 31 14 79 74 23 68 73 70 0 49 10 53 8 33 83 70 68 71 38 64 97
split_gain=71.2778 34.3057 45.0846 29.0421 23.7879 20.7833 15.4078 15.0285 14.1759 14.1441 18.382 13.7269 13.4917 13.0168 15.8536 15.6098 14.1543 12.9108 17.3682 17.9223 16.6027 16.7323 12.6231 12.6168 12.5656 17.5678 17.1263 16.4965 20.0292 14.8724
threshold=-0.0095999999999999922 0.0088000000000000005 -0.0025000000000000001 -0.0025000000000000001 0.016300000000000002 -0.0014999999999999994 -0.00089999999999999618 -0.0067999999999999892 -0.035400000000000001 0.0060999999999999987 -1.0000000180025095e-35 0.0035000000000000001 -0.01059999999999999 -0.012499999999999989 -0.0063000000000000096 -0.00059999999999999973 0.011399999999999999 -0.014599999999999993 -0.0062999999999999957 -0.033149999999999992 -0.0018000000000000062 -0.013349999999999999 -0.0048000000000000013 0.00060000000000000515 0.0076 0.020150000000000005 0.0054000000000000098 -0.0026000000000000029 0.0064499999999999983 -0.015649999999999994
decision_type=2 2 2 2 2 2 2 2 2 2 2 2 2 2 2 2 2 2 2 2 2 2 2 2 2 2 2 2 2 2
left_child=8 2 7 23 5 -5 -6 11 -1 -7 -11 -2 -10 22 -15 -16 -17 -14 20 -20 -19 -22 -9 -4 26 -26 27 -3 29 -29
right_child=1 24 3 4 6 9 -8 13 12 10 -12 -13 17 14 15 16 -18 18 19 -21 21 -23 -24 -25 25 -27 -28 28 -30 -31
leaf_value=0.046852898590209385 -0.035270642910785133 0.075011489266781722 -0.014490678030603228 -0.014031243543272343 -0.026759316164774102 -0.046060518667214057 0.062008789474382188 -0.021208349842468915 -0.020217371569496285 0.1074006972096532 -0.022403564896927231 0.065132063492852096 -0.0268172302674555 0.078862184442725344 -0.028489385428408315 0.022416959070820929 -0.060974870374016443 0.05067441356533893 -0.048914570089628163 0.058273312307124681 0.053102306425420777 -0.015319378789226089 0.068234186971195168 0.035259169998757896 -0.026369901269192704 0.060275467745198312 0.089432123648231804 0.0653718195286421 0.073297295306474206 -0.053474699594911357
leaf_count=312 346 53 337 1320 99 4186 73 32 239 20 273 23 66 59 317 553 45 103 23 257 56 264 95 228 189 43 65 21 31 210
internal_value=0 -0.177169 -0.265679 -0.45491 -0.565243 -0.634586 0.490248 0.17829 0.491214 -0.827117 -0.066118 -0.450565 0.343923 0.327305 0.176452 0.069374 0.318103 0.455042 0.547219 0.991627 0.244879 -0.0359157 0.992842 0.244655 0.456571 -0.0528211 0.785697 0.410656 -0.0462169 -0.613504
internal_count=9938 8618 8006 6536 5971 5799 172 1470 1320 4479 293 369 1008 1101 974 915 598 769 703 280 423 320 127 565 612 232 380 315 262 231
shrinkage=0.05


Tree=35
num_leaves=31
num_cat=0
split_feature=11 4 49 23 33 17 37 15 3 72 49 74 98 91 19 66 3 27 23 85 94 2 73 0 86 11 84 79 44 82
split_gain=64.8039 39.2779 36.8545 43.3371 19.9011 19.8888 20.1112 19.866 19.4723 17.5447 16.8655 26.3398 16.0248 18.3221 20.5367 14.2156 12.3229 11.447 11.2726 13.6982 12.8861 12.5352 11.3997 11.2633 17.8178 23.3072 17.6973 17.6685 15.4094 11.9743
threshold=-0.0062999999999999974 0.0075000000000000023 -0.0023999999999999955 0.016300000000000002 0.0091000000000000091 0.0084999999999999989 0.0030000000000000066 0.016300000000000002 -0.0075000000000000006 0.0040000000000000079 -0.028150000000000005 -0.0088999999999999999 -0.0012999999999999971 -0.0017000000000000034 -1.0000000180025095e-35 0.0044500000000000034 0.0075000000000000023 -0.0055000000000000005 -0.0030999999999999843 0.003699999999999978 0.0049000000000000042 0.0024000000000000033 0.00480000000000001 -0.0074999999999999954 0.0016000000000000079 -0.014149999999999994 0.0019000000000000234 0.0058000000000000039 -0.0044000000000000037 0.0021000000000000016
decision_type=2 2 2 2 2 2 2 2 2 2 2 2 2 2 2 2 2 2 2 2 2 2 2 2 2 2 2 2 2 2
left_child=10 2 8 4 7 -5 9 17 -2 -7 -1 -12 -10 14 -14 -6 18 -4 21 20 -20 -15 -21 26 -25 -26 -13 28 29 -27
right_child=1 -3 3 5 15 6 -8 -9 12 -11 11 23 13 16 -16 -17 -18 -19 19 22 -22 -23 -24 24 25 27 -28 -29 -30 -31
leaf_value=0.0552321717198615 0.057941532784425466 0.021031075104695707 0.042441691618845451 0.0628452892247022 -0.045826538854583737 -0.0414210853105349 -0.040495882407143025 0.048570640685982547 -0.045315316511980751 0.074190243309338683 -0.026124201696124467 -0.03493585903441835 0.07372591871572913 -0.024671857697564959 -0.056646815557431889 0.072399420217654359 0.069350972894245466 -0.044374110077949343 -0.035386760878335241 0.071571597912057194 0.045470360388100386 0.022940703080608037 -0.037407587565554672 0.053215655464677561 0.043935573797638801 0.02427958192455764 0.028715112735913064 0.0575646655537611 0.035686963036676816 -0.04195706451692597
leaf_count=191 77 747 27 94 67 37 252 56 398 51 339 123 121 812 54 46 33 4863 248 65 45 128 20 305 248 46 120 48 77 200
internal_value=0 -0.204897 -0.317972 -0.552886 -0.737039 0.299886 -0.124154 -0.803673 0.0156134 0.73937 0.394769 0.305716 -0.0720335 0.0343841 0.956775 0.578922 -0.0897031 -0.855482 -0.148845 0.309763 -0.189232 -0.330028 1.0243 0.439879 0.563093 0.340922 -0.00820971 -0.0499949 -0.279095 -0.56696
internal_count=9938 8241 7494 5493 5059 434 340 4946 2001 88 1697 1506 1924 1526 175 113 1351 4890 1318 378 293 940 85 1167 924 619 243 371 323 246
shrinkage=0.05


Tree=36
num_leaves=31
num_cat=0
split_feature=12 4 4 47 71 21 21 18 75 37 3 98 34 0 41 94 23 84 24 91 67 2 97 13 31 59 70 65 38 35
split_gain=60.1802 30.7326 42.3469 22.0055 26.5109 19.7236 21.1391 15.9495 14.5489 14.206 14.1686 12.9376 19.575 20.0173 16.4215 15.8046 12.9291 16.5007 12.759 12.169 11.3534 10.767 14.3049 14.4117 10.5991 12.5348 15.403 21.1602 13.8697 10.561
threshold=-0.0085000000000000023 0.0075000000000000023 -0.0025999999999999942 -0.0019999999999999961 0.0046000000000000112 0.018050000000000004 -0.0024999999999999914 -0.012449999999999998 -0.0021499999999999987 0.0056000000000000051 0.0012000000000000016 0.023100000000000016 -0.0048999999999999972 -0.0099999999999999985 -0.0073000000000000035 0.0060500000000000007 -0.0030999999999999843 0.0039000000000000185 -0.035400000000000001 0.0069000000000000112 0.0075499999999999951 0.0022499999999999955 0.0023999999999999946 -0.003699999999999998 -0.0029999999999999988 0.0031999999999999984 0.0081000000000000186 0.01865000000000001 -0.0026999999999999971 0.00080000000000000568
decision_type=2 2 2 2 2 2 2 2 2 2 2 2 2 2 2 2 2 2 2 2 2 2 2 2 2 2 2 2 2 2
left_child=11 2 7 16 20 6 10 -2 -9 -7 -6 12 14 15 18 -14 21 19 -1 -18 -5 -4 23 -23 -3 28 29 -28 -26 -27
right_child=1 24 3 4 5 9 -8 8 -10 -11 -12 -13 13 -15 -16 -17 17 -19 -20 -21 -22 22 -24 -25 25 26 27 -29 -30 -31
