tree
version=v2
num_class=1
num_tree_per_iteration=1
label_index=0
max_feature_idx=98
objective=binary sigmoid:1
feature_names=DFF_5 DFF_10 DFF_15 DFF_20 DFF_25 DFF_30 DFF_35 DFF_40 DFF_45 DFF_50 DFF_55 DFF_60 DFF_65 DFF_70 DFF_75 DFF_80 DFF_85 DFF_90 DFF_95 DFF_100 DFF_105 DFF_110 DFF_115 DFF_120 DFF_125 DTB3_5 DTB3_10 DTB3_15 DTB3_20 DTB3_25 DTB3_30 DTB3_35 DTB3_40 DTB3_45 DTB3_50 DTB3_55 DTB3_60 DTB3_65 DTB3_70 DTB3_75 DTB3_80 DTB3_85 DTB3_90 DTB3_95 DTB3_100 DTB3_105 DTB3_110 DTB3_115 DTB3_120 DTB3_125 DGS10_5 DGS10_10 DGS10_15 DGS10_20 DGS10_25 DGS10_30 DGS10_35 DGS10_40 DGS10_45 DGS10_50 DGS10_55 DGS10_60 DGS10_65 DGS10_70 DGS10_75 DGS10_80 DGS10_85 DGS10_90 DGS10_95 DGS10_100 DGS10_105 DGS10_110 DGS10_115 DGS10_120 DGS10_125 Curve_5 Curve_10 Curve_15 Curve_20 Curve_25 Curve_30 Curve_35 Curve_40 Curve_45 Curve_50 Curve_55 Curve_60 Curve_65 Curve_70 Curve_75 Curve_80 Curve_85 Curve_90 Curve_95 Curve_100 Curve_105 Curve_110 Curve_115 Curve_120
feature_infos=[-0.097100000000000006:0.099400000000000016] [-0.10240000000000002:0.099500000000000005] [-0.10280000000000002:0.096400000000000013] [-0.10200000000000001:0.1031] [-0.10150000000000001:0.1023] [-0.099500000000000005:0.10140000000000002] [-0.099700000000000011:0.1019] [-0.10290000000000001:0.10010000000000001] [-0.11410000000000002:0.10280000000000002] [-0.1135:0.1018] [-0.11120000000000001:0.1003] [-0.10630000000000001:0.10240000000000002] [-0.11410000000000002:0.10340000000000002] [-0.1135:0.1031] [-0.11250000000000002:0.10280000000000002] [-0.11950000000000001:0.10390000000000001] [-0.11889999999999999:0.1086] [-0.1123:0.10569999999999997] [-0.11550000000000001:0.10270000000000001] [-0.11550000000000001:0.1106] [-0.1132:0.12119999999999999] [-0.1157:0.11210000000000001] [-0.1132:0.11720000000000001] [-0.1162:0.12519999999999998] [-0.1231:0.12349999999999998] [-0.021699999999999997:0.019099999999999978] [-0.029399999999999996:0.025599999999999984] [-0.036500000000000019:0.029999999999999971] [-0.045200000000000004:0.033700000000000035] [-0.052400000000000002:0.037499999999999978] [-0.057300000000000018:0.037099999999999994] [-0.062200000000000005:0.041499999999999995] [-0.0683:0.044299999999999978] [-0.071899999999999992:0.051399999999999973] [-0.078600000000000003:0.054099999999999981] [-0.07640000000000001:0.059400000000000008] [-0.084600000000000009:0.058899999999999994] [-0.083299999999999999:0.058399999999999994] [-0.087900000000000006:0.056299999999999989] [-0.0906:0.063700000000000007] [-0.09820000000000001:0.068499999999999978] [-0.091899999999999996:0.068000000000000005] [-0.091899999999999996:0.069199999999999984] [-0.094299999999999995:0.073700000000000002] [-0.095200000000000007:0.072700000000000001] [-0.088899999999999993:0.068299999999999986] [-0.084099999999999994:0.076000000000000012] [-0.080399999999999999:0.083399999999999988] [-0.081700000000000009:0.08589999999999999] [-0.078799999999999995:0.085199999999999998] [-0.0126:0.010200000000000015] [-0.016200000000000006:0.014500000000000013] [-0.022499999999999992:0.016400000000000012] [-0.024699999999999972:0.019300000000000025] [-0.024599999999999983:0.023600000000000024] [-0.027200000000000002:0.025500000000000009] [-0.028899999999999981:0.028000000000000011] [-0.031700000000000006:0.029399999999999996] [-0.02990000000000001:0.029700000000000018] [-0.03040000000000001:0.030200000000000005] [-0.028900000000000009:0.031500000000000014] [-0.033200000000000021:0.032400000000000012] [-0.033199999999999993:0.032600000000000004] [-0.038500000000000006:0.033100000000000018] [-0.034200000000000008:0.031400000000000011] [-0.036400000000000016:0.033500000000000002] [-0.036800000000000013:0.032100000000000017] [-0.03800000000000002:0.032800000000000024] [-0.036699999999999983:0.031400000000000011] [-0.041099999999999984:0.028899999999999995] [-0.040800000000000017:0.030200000000000005] [-0.043700000000000003:0.029700000000000004] [-0.04229999999999999:0.028100000000000014] [-0.040700000000000014:0.028999999999999984] [-0.040799999999999989:0.030299999999999994] [-0.018800000000000011:0.017799999999999996] [-0.025700000000000028:0.0252] [-0.027800000000000047:0.028899999999999988] [-0.027800000000000047:0.036400000000000002] [-0.031299999999999939:0.041500000000000009] [-0.032400000000000012:0.042200000000000001] [-0.031099999999999961:0.046200000000000005] [-0.035800000000000012:0.049100000000000005] [-0.037299999999999972:0.051000000000000004] [-0.040400000000000019:0.052600000000000008] [-0.042199999999999974:0.057900000000000007] [-0.040099999999999983:0.059300000000000019] [-0.039399999999999963:0.056799999999999989] [-0.045100000000000015:0.057800000000000004] [-0.052100000000000007:0.057599999999999998] [-0.05029999999999997:0.062300000000000008] [-0.049599999999999977:0.057300000000000031] [-0.049099999999999977:0.061700000000000019] [-0.051699999999999982:0.063100000000000031] [-0.05319999999999997:0.061000000000000013] [-0.053299999999999972:0.055199999999999999] [-0.055300000000000016:0.053100000000000008] [-0.06049999999999997:0.051800000000000013] [-0.060699999999999976:0.052300000000000027]
tree_sizes=2513 2550 2532 2530 2547 2578 2561 2578 2557 2567 2570 2580 2587 2586 2582 2565 2579 2599 2595 2603 2567 2578 2598 2568 2600 2579 2612 2591 2597 2603 2597 2605 2579 2586 2608 2590 2595 2585 2601 2606 2604 2581 2600 2602 2614 2601 2603 2609 2597 2609 2609 2597 2599 2610 2608 2613 2598 2632 2578 2621 2583 2613 2612 2617 2615 2625 2614 2610 2591 2610 2610 2595 2624 2617 2620 2630 2608 2620 2611 2626 2615 2618 2617 2600 2615 2634 2616 2623 2609 2591 2625 2618 2593 2604 2615 2607 2613 2614 2603 2621

Tree=0
num_leaves=31
num_cat=0
split_feature=13 92 84 84 20 74 23 13 74 64 89 82 74 35 64 74 9 30 18 53 98 58 13 28 87 18 90 58 41 30
split_gain=1629.14 382.447 257.063 221.687 218.23 168.101 147.028 143.72 140.224 131.096 117.381 115.866 104.659 104.278 96.5464 117.373 94.9326 92.9797 78.7042 76.3272 73.2428 67.3168 65.7475 55.3053 74.2263 53.9312 62.0043 50.7471 50.2313 50.0564
threshold=-0.012500000000000001 0.0058000000000000039 0.0067999999999999979 -0.012099999999999991 -0.027949999999999992 -0.0014999999999999976 0.020050000000000002 -0.0073999999999999995 -0.010299999999999981 -0.00089999999999999445 -0.012149999999999999 0.0055000000000000023 -0.007799999999999997 0.0033000000000000013 0.0053000000000000035 0.0082999999999999931 -0.013800000000000002 -0.0057000000000000063 -0.012449999999999998 -0.0018000000000000062 0.0052000000000000006 -0.0017999999999999889 0.010799999999999992 0.0060500000000000076 -0.0012999999999999919 -0.014999999999999994 0.0053999999999999855 -0.0036000000000000021 0.013100000000000006 0.0031000000000000042
decision_type=2 2 2 2 2 2 2 2 2 2 2 2 2 2 2 2 2 2 2 2 2 2 2 2 2 2 2 2 2 2
left_child=4 2 3 5 14 -2 13 12 -6 -10 -7 17 -5 16 -1 -16 -3 22 -14 27 -18 -4 -9 -19 -25 -11 -27 -20 -12 -22
right_child=1 6 21 7 8 10 -8 11 9 25 28 -13 18 -15 15 -17 20 23 19 -21 29 -23 -24 24 -26 26 -28 -29 -30 -31
leaf_value=-1.4304936302864317 -1.3909500651537032 -1.4644019944911548 -1.6952509152660027 -1.7661090365048606 -1.7318489149010396 -1.7424700126972217 -1.427577038003915 -1.7059420316655241 -1.4608343293519073 -1.7116749491551224 -1.6682685738767349 -1.596767175242122 -1.5018774686429159 -1.5100121448987913 -1.7387536948438387 -1.3909500651537032 -1.5946200518879954 -1.7667829413702065 -1.4506802054940486 -1.7348250159702625 -1.7233430566617298 -1.4665823857145299 -1.4880115432067642 -1.7348853026025934 -1.5296093195152189 -1.6641601515252826 -1.4427161867820024 -1.6627222037022742 -1.3909500651537032 -1.5601854627846814
leaf_count=324 49 37 37 178 123 148 53 106 150 92 21 83 70 75 48 31 122 6881 39 140 570 77 36 184 42 54 45 50 32 39
internal_value=0 -0.376759 -0.566227 -0.625005 3.62143 1.958 1.35151 -0.707698 2.31854 3.23856 0.829812 -0.80412 0.774416 1.06847 5.12154 2.35942 0.762207 -0.841603 1.78152 0.991086 0.541794 3.58891 1.39106 -0.886213 0.470164 1.70741 3.13482 3.0088 4.38828 0.147006
internal_count=9936 9069 8173 8059 867 250 896 7809 464 341 201 7332 477 843 403 79 768 7249 299 229 731 114 142 7107 226 191 99 89 53 609
shrinkage=1


Tree=1
num_leaves=31
num_cat=0
split_feature=15 92 83 20 84 74 24 95 13 74 23 63 74 30 65 74 30 88 19 9 15 61 31 60 18 43 82 32 29 10
split_gain=1351.3 300.645 231.519 226.988 197.552 122.782 112.128 106.223 98.6542 87.0345 96.634 86.49 79.8341 75.0702 61.4023 59.1252 58.9543 111.569 53.7372 53.5983 53.06 52.4034 50.4561 47.5909 46.7857 105.405 45.0184 54.4537 57.6739 43.1741
threshold=-0.011199999999999996 0.0059999999999999888 0.0059999999999999958 -0.027949999999999992 -0.012099999999999991 -0.010299999999999981 0.016550000000000013 -0.019549999999999994 -0.0073999999999999995 0.0031499999999999935 -0.0045999999999999939 -0.0013000000000000058 -0.007799999999999997 -0.0081499999999999993 0.0031999999999999984 0.0084000000000000134 0.0077000000000000028 -0.0016999999999999895 -0.014299999999999995 0.0019000000000000026 -1.0000000180025095e-35 -0.0012999999999999884 0.0017000000000000038 -0.0070499999999999998 0.0060000000000000045 0.02045000000000001 0.0045999999999999973 -0.0022000000000000036 -0.0020999999999999938 -0.0075000000000000006
decision_type=2 2 2 2 2 2 2 2 2 2 2 2 2 2 2 2 2 2 2 2 2 2 2 2 2 2 2 2 2 2
left_child=3 2 4 14 7 22 9 -2 12 10 19 18 -6 23 -1 -16 26 -18 -7 20 -3 -14 -5 -10 -9 -26 -15 28 -28 -11
right_child=1 6 -4 5 8 11 -8 24 13 29 -12 -13 21 16 15 -17 17 -19 -20 -21 -22 -23 -24 -25 25 -27 27 -29 -30 -31
leaf_value=0.23261596373089422 -0.053633250835680359 0.0023366770850810378 0.13146685583038686 -0.04603105664989058 -0.056017656006006916 0.23249029842075483 0.21360254700359019 0.26535043917002621 0.26870588613668084 0.15626782284040308 0.20988606140144489 0.065749156730191563 0.12468853913428446 -0.046664408382266209 0.029584731836634327 0.2323339341965471 -0.021152301714512226 0.2225338382500413 0.10915420432061518 0.20115253216353737 0.19341333394784824 0.0034453984124932905 0.18695128113037893 0.024642717740701411 -0.0052229197017432689 0.23538584622336411 -0.013923283029131312 -0.045663704005716323 0.23550723595916023 -0.028090015160503509
leaf_count=321 77 226 156 153 148 122 71 39 20 26 87 301 144 6764 63 40 189 43 125 36 29 120 20 47 77 55 33 88 36 280
internal_value=0 -0.422053 -0.586667 2.66355 -0.657604 1.70619 1.21301 1.71188 -0.741571 0.854253 1.72081 2.30998 0.561152 -0.820543 4.12183 2.32555 -0.850046 0.53338 3.4537 0.957567 0.510112 1.42739 -0.365641 1.99368 2.83445 2.05315 -0.897673 0.563675 2.35525 -0.244079
internal_count=9936 8791 8036 1145 7880 721 755 248 7632 684 378 548 412 7220 424 103 7153 232 247 291 255 264 173 67 171 132 6921 157 69 306
shrinkage=0.05


Tree=2
num_leaves=31
num_cat=0
split_feature=21 92 18 16 33 86 68 24 77 10 6 85 74 63 63 48 64 65 31 53 33 24 44 75 47 95 74 16 73 29
split_gain=1154.62 298.753 196.041 169.855 155.985 130.245 105.585 103.997 94.8087 74.8806 72.6632 63.5416 99.001 109.042 67.9028 62.7045 61.6359 73.3382 59.7784 54.3659 54.237 51.8115 51.0104 46.5373 45.4795 41.1803 69.9446 38.2559 55.6743 42.8966
threshold=-0.011950000000000001 0.0059999999999999888 0.017500000000000009 -0.023700000000000002 0.012200000000000015 0.0032999999999999943 0.0062499999999999925 -0.0074999999999999971 0.0028000000000000008 -0.0062999999999999957 -0.0075000000000000006 -0.0093999999999999865 -0.01 -0.00020000000000001264 0.0072999999999999949 0.013000000000000006 -0.00059999999999998238 0.01865000000000001 0.0064999999999999858 -0.0035000000000000131 0.0047000000000000071 -0.028799999999999992 -0.025049999999999999 -0.0024000000000000093 0.01 0.015800000000000026 -0.0088999999999999999 -0.0015999999999999832 0.0091500000000000001 0.0064999999999999962
decision_type=2 2 2 2 2 2 2 2 2 2 2 2 2 2 2 2 2 2 2 2 2 2 2 2 2 2 2 2 2 2
left_child=3 2 4 25 8 16 7 10 9 18 -3 -5 22 -14 -15 -6 24 -18 23 -10 -8 -16 -13 -2 -4 26 -1 28 29 -11
right_child=1 6 5 11 15 -7 20 -9 19 27 -12 12 13 14 21 -17 17 -19 -20 -21 -22 -23 -24 -25 -26 -27 -28 -29 -30 -31
leaf_value=-0.01035014259211723 0.18259482359206478 0.23705976320839928 -0.0072120490697991273 0.20003069641047766 0.19054234279507937 0.19705871182627077 -0.031343688657108536 0.16387930064654394 0.21825285057395136 -0.033809343576271793 -0.002667879657229668 0.16585664599399852 0.14733129005532417 -0.00090946770567559864 -0.0087700461434254834 -0.035773408765909197 -0.015816361659497413 0.17711067607265252 0.21472957068525594 0.017962772997145864 0.17554969359211672 0.21700562893993378 -0.044194044812123835 -0.012091853711463419 0.24297090946917504 0.19560375112860526 0.17670357872803572 -0.052578626700884139 0.17181355472206963 0.14567501957473056
leaf_count=46 22 23 22 56 69 79 216 212 25 1476 169 21 282 243 27 34 431 34 26 272 22 49 192 377 33 294 89 5044 27 24
internal_value=0 -0.436966 -0.596819 2.19879 -0.729458 0.898594 1.29413 2.08585 -0.782834 -0.85223 0.611621 1.48492 1.28056 1.80239 0.706597 2.48961 0.366975 0.0271445 0.271089 0.747028 -0.167101 2.81553 -0.379159 0.00333054 3.01298 3.41004 2.28397 -0.930261 -0.535471 -0.610129
internal_count=9936 8637 7995 1299 7396 599 642 404 7293 6996 192 870 814 601 319 103 520 465 425 297 238 76 213 399 55 429 135 6571 1527 1500
shrinkage=0.05


Tree=3
num_leaves=31
num_cat=0
split_feature=14 92 11 95 22 73 71 30 60 32 67 85 24 74 37 28 71 64 90 10 27 86 69 19 82 25 76 79 69 67
split_gain=1005.04 257.967 169.046 140.176 133.922 124.439 100.752 100.612 98.6869 97.0049 83.8801 79.4853 65.8612 66.8362 67.9763 60.0869 51.0305 50.8156 50.7011 46.5058 46.241 42.3118 38.8256 37.9421 37.9112 35.3296 37.3579 34.5683 34.8103 34.6008
threshold=-0.0095999999999999922 0.0058000000000000039 0.011300000000000003 0.015800000000000026 -0.011999999999999992 -0.0091000000000000057 -0.025049999999999992 0.0089999999999999993 -0.00050000000000000381 -0.0022000000000000036 0.020350000000000004 0.0064000000000000003 0.016550000000000013 0.0039000000000000046 -0.0045999999999999852 0.0039000000000000046 -0.0018999999999999918 0.0052000000000000006 0.0062999999999999905 -0.0118 -0.0055000000000000005 -0.0026999999999999988 0.0097000000000000055 -0.016199999999999999 0.0055000000000000023 0.0002999999999999913 0.0029000000000000106 0.0021000000000000016 0.0047000000000000002 0.0059000000000000068
decision_type=2 2 2 2 2 2 2 2 2 2 2 2 2 2 2 2 2 2 2 2 2 2 2 2 2 2 2 2 2 2
left_child=3 2 4 5 -2 6 -1 11 23 22 16 20 13 14 -3 -10 -11 -5 -16 -19 -6 -9 -4 -7 -22 26 -25 -18 -29 -30
right_child=1 12 9 17 7 8 -8 21 15 10 -12 -13 -14 -15 18 -17 27 19 -20 -21 24 -23 -24 25 -26 -27 -28 28 29 -31
leaf_value=0.2003114339759729 0.0729819100086187 0.016676766682437224 0.17625364867066304 0.18103940974548585 0.074067846007890306 0.18845239158899174 -0.038790258475923656 0.033864270375672294 0.028219619844576962 0.12466151709758058 0.18809920809114383 0.085959235906409304 0.15717869499992335 -0.014600173268541232 0.037372082305496934 0.19793349693715012 -0.035447811488522885 0.1559719059286043 0.17479162599450451 -0.017984021199927348 -0.046670647259956385 0.22375973665438931 -0.02589217215867505 0.033448640092443103 0.093937429791309118 0.18838021434703478 0.20651117762806126 -0.058325114076830657 0.23579870238726156 0.027095620691919342
leaf_count=29 194 202 88 273 56 140 254 67 313 44 34 78 71 285 69 35 445 49 115 48 6691 26 20 106 32 56 24 35 24 33
internal_value=0 -0.42922 -0.596176 1.96013 -0.737964 1.4009 -0.141965 -0.809336 1.96284 0.658387 0.197271 -0.854056 1.02971 0.743218 1.41734 0.959252 -0.0981526 3.14729 2.49868 1.56001 -0.892022 1.91119 2.83843 2.89748 -0.916323 2.09836 1.35362 -0.365877 1.1455 2.36626
internal_count=9936 8609 7867 1327 7144 957 283 6950 674 723 615 6857 742 671 386 348 581 370 184 97 6779 93 108 326 6723 186 130 537 92 57
shrinkage=0.05


Tree=4
num_leaves=31
num_cat=0
split_feature=14 92 11 22 95 73 31 71 62 32 85 61 69 67 42 36 45 40 31 27 68 14 98 85 74 81 77 64 66 90
split_gain=873.802 233.554 156.067 121.628 109.543 102.569 99.2614 84.1029 80.2668 78.4567 71.3884 70.1662 77.9703 77.1306 58.6428 44.8551 69.5914 47.4097 43.8219 43.0709 42.1644 49.7136 39.7057 38.3555 54.1298 58.0161 43.9548 38.2155 46.9048 37.6384
threshold=-0.0095999999999999922 0.0058000000000000039 0.011300000000000003 -0.011999999999999992 0.015800000000000026 -0.0091000000000000057 0.010399999999999998 -0.025049999999999992 -9.9999999999999381e-05 -0.0022000000000000036 0.0064000000000000003 0.004800000000000003 0.0074499999999999922 0.020350000000000004 -0.011500000000000005 -0.0019999999999999979 0.0073000000000000053 -0.0085999999999999983 0.0035000000000000018 0.0039000000000000046 0.010100000000000003 -0.0030000000000000109 0.0017999999999999859 0.00069999999999999414 -0.0026000000000000012 0.00050000000000000229 0.0030999999999999956 0.0052000000000000006 0.01205 -0.0055000000000000023
decision_type=2 2 2 2 2 2 2 2 2 2 2 2 2 2 2 2 2 2 2 2 2 2 2 2 2 2 2 2 2 2
left_child=4 2 3 -2 5 7 10 -1 -7 -4 15 -11 -13 -14 -3 16 22 -17 20 -10 21 -16 -5 24 -24 -26 -25 -6 -29 -8
right_child=1 14 9 6 27 8 29 -9 19 11 -12 12 13 -15 18 17 -18 -19 -20 -21 -22 -23 23 26 25 -27 -28 28 -30 -31
leaf_value=0.1718666328486915 0.066116120847689711 0.14241075577043022 0.12419040822249419 -0.044486446971546585 0.1583378367168394 0.12235661854844655 0.014145695007740312 -0.037861457806070781 0.015193116767937477 -0.035035409587319148 0.076960932655521813 0.17692327859138821 -0.032594340732247436 0.16285398387444905 -0.005999023091166112 0.15722782924145284 0.17643992748042947 -0.050315750981291575 0.13042973637571037 0.16005425736148571 -0.05285123948645485 0.077386682202920151 -0.057944743713357033 -0.040597311793588123 0.22638342725005503 -0.010246988306684399 0.11919486858486127 0.0033014664343993215 0.17819183949323963 0.20843612356425012
leaf_count=29 194 82 108 809 273 384 36 254 257 348 78 68 165 34 237 21 31 5508 59 33 120 244 45 267 55 35 35 65 32 30
internal_value=0 -0.416315 -0.58073 -0.721547 1.77152 1.28022 -0.793185 -0.137909 1.76628 0.612653 -0.832696 0.184884 1.178 0.299661 0.948845 -0.870672 -0.380921 -0.988083 0.672805 0.702457 0.440996 0.763732 -0.49892 0.194934 1.47047 2.73393 -0.375029 2.77863 1.4222 2.33713
internal_count=9936 8609 7867 7144 1327 957 6950 283 674 723 6884 615 267 199 742 6806 1277 5529 660 290 601 481 1246 437 135 90 302 370 97 66
shrinkage=0.05


Tree=5
num_leaves=31
num_cat=0
split_feature=17 89 25 75 22 29 23 74 17 68 21 28 44 34 33 64 71 23 43 95 94 71 6 92 23 28 30 59 64 78
split_gain=831.811 219.625 136.011 114.525 86.737 79.316 69.1361 99.5794 66.3257 61.4757 80.2811 55.4277 54.9201 51.3317 48.2513 46.9473 45.4732 45.1288 119.938 49.6922 49.1024 44.9104 44.3818 36.5654 34.1457 33.2293 31.6851 29.4211 28.8798 28.0813
threshold=-0.011500000000000003 0.0053000000000000104 -0.0029500000000000008 -0.0022000000000000036 -0.012450000000000001 0.0026000000000000003 -0.034599999999999978 -0.009299999999999994 0.020050000000000002 0.0053000000000000035 -0.0049999999999999932 -0.0063499999999999937 -0.028999999999999988 -0.0014999999999999994 0.012200000000000015 -0.00080000000000000546 0.0095999999999999922 -0.0010500000000000021 0.0063000000000000044 0.0089000000000000103 -0.0040999999999999951 -0.0041000000000000021 -0.0031000000000000034 -0.0055999999999999965 -0.013249999999999996 0.0049000000000000059 -0.0021999999999999984 -0.0035500000000000041 0.0072500000000000004 0.0041000000000000108
decision_type=2 2 2 2 2 2 2 2 2 2 2 2 2 2 2 2 2 2 2 2 2 2 2 2 2 2 2 2 2 2
left_child=6 2 -2 22 21 9 28 12 14 10 11 -3 -8 -10 17 -9 25 18 19 -6 -20 -5 -4 -16 26 -17 -13 -12 -1 -19
right_child=1 5 3 4 8 -7 7 15 13 -11 27 24 -14 -15 23 16 -18 29 20 -21 -22 -23 -24 -25 -26 -27 -28 -29 -30 -31
leaf_value=0.14138696467823739 0.078380009778687448 0.18725207669302321 0.11779076063295296 -0.013458874882045824 -0.033677200795111446 0.14090189609845014 0.16368511780190084 0.13014494912370927 0.15285275029913323 -0.028678705676105212 0.0095342582805054334 -0.013908494958422661 -0.029187883924971028 -0.00032754889831390529 -0.0077277405385184879 0.02435599515648787 0.15457720648755924 -0.051709290031022141 -0.0082513577230405363 0.17137711187606297 0.24237592687130036 0.10273046019132355 0.014037583359158279 0.19798908161862061 -0.044518686356876308 0.15163631247897902 0.19295157448141892 0.13813404286397052 0.031562837705461692 0.036381922492067419
leaf_count=300 204 21 83 118 1866 102 20 260 38 242 33 29 226 216 38 260 57 4766 24 20 47 108 362 20 176 31 20 145 38 66
internal_value=0 -0.363098 -0.525875 -0.595902 -0.691954 0.928388 1.82068 1.40934 -0.757431 0.569441 1.11675 0.102547 -0.0953679 0.601632 -0.818136 1.88736 1.26288 -0.845403 -0.470884 -0.617015 3.15927 0.890347 0.732221 1.48132 -0.321417 0.819628 1.54528 2.30796 2.62339 -1.00384
internal_count=9936 8744 7976 7772 7327 768 1192 854 7101 666 424 246 246 254 6847 608 348 6789 1957 1886 71 226 445 58 225 291 49 178 338 4832
shrinkage=0.05


Tree=6
num_leaves=31
num_cat=0
split_feature=17 92 18 84 78 6 63 19 73 71 97 36 68 21 29 63 54 70 96 28 48 8 26 70 20 53 49 16 0 30
split_gain=730.528 201.908 145.467 128.923 92.7482 66.4509 61.4468 56.1879 54.3021 54.0119 105.438 53.3827 66.0249 80.213 49.7939 41.5049 41.041 53.4667 44.2588 40.9342 36.5243 34.2006 37.1581 30.4902 29.7107 29.5312 29.0571 30.3216 30.2317 28.7097
threshold=-0.011500000000000003 0.0059999999999999888 0.017500000000000009 -0.011399999999999992 0.0028500000000000057 -0.0021000000000000025 -0.0041000000000000021 -0.024049999999999985 -0.010849999999999997 0.004899999999999999 -0.0074000000000000133 0.0028000000000000078 0.0054000000000000098 -0.0049999999999999932 0.0051499999999999957 0.018149999999999996 -0.0024999999999999983 0.0028999999999999968 0.0040999999999999969 0.0013000000000000062 -0.0092999999999999975 0.0033000000000000082 -0.0034999999999999923 0.011399999999999999 0.0081499999999999993 0.0069000000000000112 -0.013399999999999997 -0.01889999999999999 -0.014599999999999993 0.0053999999999999925
decision_type=2 2 2 2 2 2 2 2 2 2 2 2 2 2 2 2 2 2 2 2 2 2 2 2 2 2 2 2 2 2
left_child=7 2 3 24 5 14 -4 -1 19 -8 15 12 13 21 16 -11 17 18 -5 -9 -6 22 -3 -13 -2 -14 27 -10 -28 -7
right_child=1 11 6 4 20 29 9 8 26 10 -12 23 25 -15 -16 -17 -18 -19 -20 -21 -22 -23 -24 -25 -26 -27 28 -29 -30 -31
leaf_value=0.10877421351260917 0.14495611738630063 0.12754315494118459 0.15986305709502577 -0.010959856674966541 0.12573294245492533 -0.050093284188545119 -0.040543847589445868 -0.051871091178592732 0.12237645977950518 -0.031564839667877612 0.13534305235856312 0.17029400803576325 -0.048247229252617728 0.11770531771143351 0.10196895742711674 0.12768231229278293 -0.035568960334666354 0.18765342552315281 0.1791215497813895 0.13270169381663982 0.010978929745358532 0.13283953980297708 -0.028498730697799148 -0.010221889241644713 0.010707425373034384 0.10805296866592523 -0.030800904523669084 -0.013339698104258339 0.099836480004615313 -0.0089313372568579057
leaf_count=516 63 25 50 322 53 5208 193 137 28 206 126 61 204 162 62 26 873 29 23 20 354 26 204 21 48 20 31 102 358 385
internal_value=0 -0.351884 -0.508714 -0.637851 -0.697326 -0.788293 0.72449 1.6682 1.15725 0.437496 0.995184 0.900739 0.639056 1.17032 -0.203203 -0.153525 -0.347033 0.429432 0.0822255 -0.344207 0.563743 0.201241 -0.161017 2.68452 1.98378 -0.607069 1.49213 0.463082 1.8119 -0.9389
internal_count=9936 8744 8021 7420 7309 6902 601 1192 676 551 358 723 641 417 1309 232 1247 374 345 157 407 255 229 82 111 224 519 130 389 5593
shrinkage=0.05


Tree=7
num_leaves=31
num_cat=0
split_feature=17 89 71 78 98 5 26 91 30 39 21 33 23 74 67 42 21 26 70 18 96 32 67 11 96 72 62 20 98 89
split_gain=644.716 184.348 119.508 96.4393 93.0293 76.2385 68.5576 64.2004 61.6015 69.2587 64.9708 53.1982 52.3962 74.805 48.086 47.4959 46.5984 43.3914 39.3373 35.0487 57.065 44.7018 39.801 32.4684 32.402 31.1314 33.5842 35.8888 31.0948 55.6656
threshold=-0.011500000000000003 0.0053000000000000104 0.0046000000000000112 -0.0081000000000000013 0.0016999999999999969 -0.0015500000000000025 -0.0018999999999999952 -0.0021999999999999897 0.0032999999999999995 -0.0013999999999999965 -0.0049999999999999932 -0.0036499999999999931 -0.035799999999999978 -0.009299999999999994 0.0075499999999999951 -0.025400000000000009 -0.0024999999999999914 -0.0042999999999999939 -0.0035000000000000061 0.017500000000000009 -0.0061999999999999946 0.0063000000000000217 0.0067999999999999909 -0.0065999999999999974 0.0010999999999999936 0.010199999999999996 -0.00040000000000000099 -0.014999999999999994 0.0059000000000000068 0.0020999999999999947
decision_type=2 2 2 2 2 2 2 2 2 2 2 2 2 2 2 2 2 2 2 2 2 2 2 2 2 2 2 2 2 2
left_child=12 2 3 -2 14 7 -4 -6 9 10 17 -8 -1 15 23 -14 24 -3 -15 21 -21 -18 -23 -5 -13 26 -20 -28 -9 -30
right_child=1 8 6 4 5 -7 11 28 -10 -11 -12 16 13 18 -16 -17 19 -19 25 20 -22 22 -24 -25 -26 -27 27 -29 29 -31
leaf_value=0.11291262955792158 0.10985027026051747 0.15790278365185995 0.084650164946704035 0.0010758431525143503 0.20570221390200963 -0.030206153121350138 0.095132086832390356 0.00010562405279645937 0.12148485605120381 -0.040460284206922457 0.10022550767312247 0.1375249783867962 0.13646753142542387 0.11726530943169425 0.13803764575210417 -0.02927990482246666 -0.052011218263794991 -0.014164761185126346 0.10036897336240402 -0.018902624724636986 0.12355568476025401 0.080195645745166647 -0.052698200439161673 -0.051042534017619712 0.01254152035114648 0.13112462858136101 -0.018606634395393982 0.070458646076923787 0.20703263686754805 0.009609633156372548
leaf_count=305 63 20 167 253 41 758 79 260 100 230 185 55 22 208 27 229 800 233 90 179 61 100 83 4839 111 57 160 121 36 64
internal_value=0 -0.34136 -0.498547 -0.697189 -0.745647 -0.0174353 0.177723 0.91544 0.81976 0.502045 1.02717 -0.0462781 1.53593 1.21123 -0.934538 -0.0935237 -0.201398 0.101572 1.58323 -0.417109 0.474955 -0.697388 0.525006 -0.95877 1.12393 1.15281 0.87643 0.416104 0.542237 1.73757
internal_count=9936 8744 7976 6341 6278 1159 1635 401 768 668 438 1468 1192 887 5119 251 1389 253 636 1223 240 983 183 5092 166 428 371 281 360 100
shrinkage=0.05


Tree=8
num_leaves=31
num_cat=0
split_feature=22 81 31 28 11 92 13 5 98 89 16 49 61 43 28 15 79 87 98 62 38 96 72 23 11 72 69 85 67 36
split_gain=581.976 194.782 142.691 105.545 87.3038 73.683 52.9061 51.5002 49.2473 56.4944 44.9517 58.5049 60.8327 44.3873 51.6255 49.3762 40.3478 41.4555 38.3547 41.282 36.5558 39.4172 36.3304 32.8845 32.534 30.9187 35.7711 30.217 26.3709 34.135
threshold=-0.012999999999999989 0.0043500000000000006 0.0067999999999999979 -0.006049999999999999 -9.9999999999992442e-05 0.0065999999999999922 0.016300000000000002 -0.0021000000000000025 0.0054000000000000064 0.0020999999999999947 -0.023700000000000002 -0.012999999999999992 -0.012600000000000019 -0.011799999999999993 0.0036000000000000029 0.014550000000000002 -0.015099999999999987 -0.00090000000000000312 -0.0029999999999999936 -0.00040000000000000099 -0.0060999999999999969 0.0097999999999999945 0.0034000000000000041 0.021950000000000015 0.040600000000000018 0.0051000000000000116 0.0068999999999999938 -0.0011999999999999943 0.0055499999999999933 -0.0052999999999999948
decision_type=2 2 2 2 2 2 2 2 2 2 2 2 2 2 2 2 2 2 2 2 2 2 2 2 2 2 2 2 2 2
left_child=10 2 3 -2 -4 6 7 8 -5 -10 -1 12 -12 -3 15 28 24 -18 -13 -20 -21 -22 -17 -9 -6 -8 -27 -25 29 -15
right_child=1 13 4 5 16 -7 25 23 9 -11 11 18 -14 14 -16 22 17 -19 19 20 21 -23 -24 27 -26 26 -28 -29 -30 -31
leaf_value=0.097116463058096153 0.094307693032149489 0.1344209382327396 0.12804794436678091 -0.023666148040599994 0.15393261910548003 0.032337268161654227 -0.025001628045475212 -0.048857081129696361 0.16814030711269817 -0.031113600525985399 0.13140564668857221 -0.013947951822884953 -0.0070537913999490741 -0.028226647888104237 0.13254091521926534 -0.04987653139675341 -0.024093896839472176 0.089356457708823112 0.13265819846387331 -0.048119892359518489 0.039745136470462288 0.1753873830958694 0.13262577503173376 -0.047009489651458389 -0.03171471806756098 0.15798019492194795 -0.018637477984595901 0.1328546760522879 -0.047731431058415721 0.058814539012938552
leaf_count=427 98 62 104 1267 37 259 97 5431 47 52 42 69 334 126 57 21 431 50 170 44 106 41 66 39 25 49 34 34 148 169
internal_value=0 -0.336674 -0.491371 -0.629088 0.683199 -0.682235 -0.75394 -0.802139 -0.295745 1.47535 1.42376 1.04977 0.302727 0.935995 0.699772 0.419735 0.180967 -0.133463 1.63133 1.8965 1.07595 1.63818 1.92938 -0.94523 1.93785 0.742259 1.82928 0.914329 0.0239019 0.43557
internal_count=9936 8703 8054 7407 647 7309 7050 6870 1366 99 1233 806 376 649 587 530 543 481 430 361 191 147 87 5504 62 180 83 73 443 295
shrinkage=0.05


Tree=9
num_leaves=31
num_cat=0
split_feature=14 93 12 84 31 19 74 11 31 22 6 31 70 95 5 69 54 33 31 74 74 23 39 22 95 19 3 88 2 28
split_gain=527.559 150.247 120.701 93.4163 88.3979 63.9632 65.4371 62.0077 52.9705 37.8853 35.3823 35.3438 34.0234 33.7983 33.4355 31.9982 39.0364 37.9269 31.5663 28.6973 28.3067 41.6436 29.8864 30.3648 29.1357 28.0723 25.4431 29.4393 23.8788 23.9182
threshold=-0.0075000000000000041 0.0059000000000000068 0.014049999999999995 0.005849999999999995 0.010399999999999998 -0.024049999999999985 -0.0088999999999999999 -0.0050000000000000018 0.0049000000000000059 0.020050000000000009 -0.0050000000000000018 -0.0043000000000000078 0.0079499999999999935 -0.019549999999999994 0.0027999999999999991 0.0043000000000000026 0.0022499999999999886 -0.0025999999999999942 0.0028999999999999968 -0.00019999999999999529 0.0027000000000000153 -0.0048000000000000083 0.003549999999999998 0.0025000000000000061 0.010999999999999991 -0.010900000000000012 -0.0095999999999999992 0.0034999999999999931 0.0024000000000000033 -0.0063499999999999937
decision_type=2 2 2 2 2 2 2 2 2 2 2 2 2 2 2 2 2 2 2 2 2 2 2 2 2 2 2 2 2 2
left_child=5 2 3 4 7 -1 18 8 25 10 -3 14 -6 -4 -9 17 -17 -15 26 -19 21 24 -22 -24 -12 -2 27 -7 29 -8
right_child=1 9 13 -5 12 6 28 11 -10 -11 20 -13 -14 15 -16 16 -18 19 -20 -21 22 -23 23 -25 -26 -27 -28 -29 -30 -31
leaf_value=0.087631893820642404 0.075584736746274417 0.088153777787516596 -0.041748715265438885 0.074136144003547719 0.12213524974875814 -0.057348549487776818 0.11391480741760714 -0.012561657458929948 0.13110329686342045 0.12273184344372089 -0.023463715306496297 -0.046017209618541985 -0.048088795157066364 0.12047423600359573 0.13571846601681814 0.11008143861046314 0.012708295650873761 0.095215459051926188 0.10949878520213406 -0.052491710380172397 -0.033914288807080473 0.11507369867395167 0.17248417684163198 -0.023888438707040688 0.10517647728407742 -0.024054906500641127 -0.047922620487528399 0.15880815927876485 0.10692424070629424 0.039870180455130161
leaf_count=504 54 100 110 107 62 26 60 200 45 47 137 6090 28 28 33 147 117 20 23 172 284 64 20 30 29 401 270 20 110 598
internal_value=0 -0.375097 -0.526793 -0.659531 -0.720088 1.1718 0.792297 -0.77424 0.185037 0.704066 0.512737 -0.868687 1.61092 0.603252 0.229459 0.881082 1.42367 0.0491847 -0.289389 -0.525018 0.235216 0.865458 -0.303023 1.46646 0.111009 -0.169285 -0.589579 1.23364 1.13699 0.957843
internal_count=9936 8325 7614 7020 6913 1611 1107 6823 500 711 664 6323 90 594 233 484 264 220 339 192 564 230 334 50 166 455 316 46 768 658
shrinkage=0.05


Tree=10
num_leaves=31
num_cat=0
split_feature=14 91 16 9 95 73 70 23 42 24 87 64 68 34 98 91 21 1 27 60 62 21 2 30 86 65 21 42 34 91
split_gain=447.685 135.67 106.65 80.0774 63.6179 70.7328 61.9354 55.2035 61.3435 51.9408 45.8254 43.5243 40.4725 38.181 56.9472 50.7 35.8999 35.4539 34.4501 33.3677 32.1104 46.4985 35.5133 31.9183 31.8233 31.7793 33.049 30.988 29.7999 35.6599
threshold=-0.0075000000000000041 0.0061999999999999998 0.017549999999999993 -0.0061499999999999914 0.015800000000000026 -0.0097999999999999806 -0.024700000000000003 -0.00039999999999999926 0.0060499999999999972 0.020000000000000014 0.0011000000000000057 0.0085999999999999948 0.0098000000000000014 -0.0011000000000000105 0.0009999999999999959 -0.0013999999999999965 -0.0037500000000000029 -0.00020000000000000397 0.0027000000000000153 -0.0070499999999999998 -0.00020000000000000223 -0.012450000000000001 0.0022999999999999987 -0.010450000000000003 -0.0072999999999999966 0.016949999999999996 0.019700000000000006 0.0078999999999999956 -0.0051500000000000044 0.0075000000000000041
decision_type=2 2 2 2 2 2 2 2 2 2 2 2 2 2 2 2 2 2 2 2 2 2 2 2 2 2 2 2 2 2
left_child=4 2 3 18 5 6 -1 8 13 -9 19 -10 16 14 -5 17 -3 -16 -2 -4 21 -7 -23 -18 -15 26 -21 -11 -22 -30
right_child=1 12 10 7 -6 20 -8 9 11 27 -12 -13 -14 24 15 -17 23 -19 -20 25 28 22 -24 -25 -26 -27 -28 -29 29 -31
leaf_value=0.12218059772741113 0.0078762847570973855 0.020498607779494849 0.11544633328787185 -0.040271428431531808 0.088298305504394048 0.10123481582689653 -0.049653855930554887 -0.049696037314126994 0.13632980020828944 0.096444517523439563 0.1053472250732924 -0.050481033177012163 -0.023791876975719595 0.10324291486235378 0.31450711755805993 0.021378730273824691 -0.052593588457622908 0.04808940946053647 0.11052124967012467 0.052570278081291222 -0.032997794455240877 0.010102003957827158 0.14099638129037537 0.10524803239942065 -0.047460534954041338 0.081880847029410439 -0.040741058839381901 -0.04254839278831471 0.014631572696920246 0.10676128033074779
leaf_count=26 309 244 32 437 374 242 280 4702 70 64 81 31 162 20 21 342 20 22 54 89 106 219 32 163 1082 51 307 64 207 83
internal_value=0 -0.384457 -0.518213 -0.641049 1.05407 0.74002 -0.453999 -0.731548 -0.315538 -0.928433 0.558344 1.63185 0.739482 -0.46103 0.0243709 0.788524 1.08646 3.79283 0.581313 0.200077 1.04004 1.41369 0.600549 1.79725 -0.851476 -0.0358086 -0.350589 0.805279 0.495443 0.897113
internal_count=9936 8367 7778 7218 1569 1195 306 6855 2025 4830 560 101 589 1924 822 385 427 43 363 479 889 493 251 183 1102 447 396 128 396 290
shrinkage=0.05


Tree=11
num_leaves=31
num_cat=0
split_feature=10 92 10 82 96 14 82 72 68 35 24 71 27 42 69 90 61 63 74 48 28 49 73 5 24 86 24 61 17 96
split_gain=423.417 127.494 104.223 71.0847 66.3639 56.2692 44.5491 59.8552 43.8021 56.5969 46.9924 37.6004 36.1069 33.775 32.6051 54.9564 33.4243 41.6249 29.2876 28.5564 27.4036 27.0471 46.2701 83.2186 60.0196 26.6703 26.2613 30.5419 29.9838 26.2872
threshold=-0.0062999999999999957 0.0055000000000000127 0.010299999999999995 0.0043999999999999985 0.014750000000000001 -0.0075000000000000041 -0.0057000000000000063 -0.0099999999999999863 0.0052000000000000006 0.0038000000000000017 -0.0053999999999999977 -0.0019999999999999979 -0.0060499999999999955 -0.011500000000000005 0.0043999999999999985 -0.01339999999999999 0.0064000000000000072 -0.0055500000000000054 0.0040499999999999989 0.013800000000000005 0.0070999999999999995 -0.0036000000000000021 -0.0023999999999999955 -0.0014999999999999959 -0.0053999999999999977 -0.0025000000000000001 -0.015500000000000005 0.00030000000000000518 -0.01049999999999999 0.0091999999999999808
decision_type=2 2 2 2 2 2 2 2 2 2 2 2 2 2 2 2 2 2 2 2 2 2 2 2 2 2 2 2 2 2
left_child=4 2 3 5 6 -2 -1 -8 10 -10 13 -5 -7 -3 16 18 17 -4 -16 -13 21 22 -14 24 -24 -22 27 -9 -29 -28
right_child=1 8 14 11 -6 12 7 26 9 -11 -12 19 20 -15 15 -17 -18 -19 -20 -21 25 -23 23 -25 -26 -27 29 28 -30 -31
leaf_value=0.11229561922542813 0.026769334165552758 0.073575985643301298 0.10635302588643747 0.12248680018881647 0.089301856936873814 0.1091205770642933 -0.040557560559505254 0.096980895132124476 -0.042094304890703274 0.087720506390129335 0.093095433591468574 -0.029437409501436609 -0.042719334617769632 -0.011563982031636871 0.096877031028609034 0.077682650686980631 0.11462070113747889 -0.050124593330695057 -0.052925212954734902 0.10112097746526533 -0.029306729526761013 -0.048731895788875504 0.038474874380180858 -0.032093173793041378 0.27537987243312273 0.12883269497468081 0.015682650095819647 -0.027723020485393275 0.12717820551118117 0.084479781859038039
leaf_count=82 236 89 24 56 350 23 223 155 286 53 160 128 672 223 20 243 20 312 137 26 52 5318 48 188 36 21 576 72 22 85
internal_value=0 -0.377736 -0.536773 -0.683486 1.02792 -0.757889 0.717843 0.572335 0.523554 -0.246759 0.949783 0.777498 -0.827811 0.349924 0.402832 0.871913 -0.2779 -0.590071 -0.461571 0.0679496 -0.84813 -0.878037 -0.391412 0.657292 2.85197 0.714512 0.80883 1.40488 0.266609 0.52682
internal_count=9936 8371 7560 6804 1565 6594 1215 1133 811 339 472 210 6358 312 756 400 356 336 157 154 6335 6262 944 272 84 73 910 249 94 661
shrinkage=0.05


Tree=12
num_leaves=31
num_cat=0
split_feature=10 4 48 23 39 96 98 2 35 91 60 70 65 83 72 16 98 89 81 10 77 26 17 48 34 94 24 13 88 39
split_gain=382.534 117.666 95.6176 109.358 60.6922 59.2152 47.4812 48.3857 45.6723 44.4729 42.9016 45.4319 41.2946 40.3172 49.0312 35.3643 32.5316 30.7746 32.7955 29.4996 29.4282 26.5022 27.649 24.8422 24.7969 24.8969 22.8077 22.3258 21.5831 21.3813
threshold=-0.0062999999999999957 0.0075000000000000023 -0.0031000000000000034 0.016300000000000002 0.0024000000000000033 0.014000000000000007 0.0012000000000000103 -0.0013000000000000006 -0.0032500000000000025 -0.0013999999999999965 0.0032499999999999964 0.0081000000000000186 0.01865000000000001 -0.0072000000000000093 -0.0099999999999999863 0.017549999999999993 -0.00079999999999998464 0.0038000000000000087 0.0049000000000000042 -0.001699999999999986 -0.00080000000000000719 -0.004699999999999988 -0.01620000000000001 0.0058000000000000039 -0.0020500000000000028 -0.00069999999999999739 0.018150000000000003 -0.0047999999999999944 0.0022000000000000045 0.0068000000000000048
decision_type=2 2 2 2 2 2 2 2 2 2 2 2 2 2 2 2 2 2 2 2 2 2 2 2 2 2 2 2 2 2
left_child=5 2 6 15 23 13 -2 9 -3 -8 28 26 -13 -1 -15 27 17 -16 -19 -11 -18 -22 -23 -5 -6 -26 -12 29 -10 -4
right_child=1 8 3 4 24 -7 7 -9 10 19 11 12 -14 14 16 -17 20 18 -20 -21 21 22 -24 -25 25 -27 -28 -29 -30 -31
leaf_value=0.10889229527008748 -0.034818418813663675 0.11173513506621971 -0.017581577517659493 0.025375798251800571 0.076996850177139586 0.082867919099372314 0.17474367446330244 -0.0039280124237127383 -0.036615155418023924 -6.2649777736957643e-05 0.11184980877361467 -0.03454758491835469 0.095015454060512289 -0.037314811244245155 -0.03417312048230265 0.059589862140959883 0.096246435884055237 0.12944544190476023 -0.053283342274157576 0.075833804847581079 0.11058345861797428 0.070275339779329454 0.0076038011920549157 0.13250449469084469 -0.050066203353172557 0.085573584314351331 -0.030642900415774388 -0.048347305099317887 0.099132915496429885 0.12047586834551954
leaf_count=71 619 73 198 59 30 368 39 760 324 176 124 160 40 223 192 58 138 31 21 147 49 120 352 66 245 22 27 5164 20 20
internal_value=0 -0.367499 -0.50488 -0.727202 0.563721 0.967655 0.0578887 0.348769 0.615838 1.07374 0.351603 0.905331 0.0647946 0.66613 0.531518 -0.881838 0.742437 -0.0848254 1.32585 0.756604 0.994275 0.730123 0.538277 1.8328 -0.252356 -0.640262 1.8805 -0.916699 -0.492487 0.00679249
internal_count=9936 8371 7603 5862 422 1565 1741 1122 768 362 695 351 200 1197 1126 5440 903 244 52 323 659 521 472 125 297 267 151 5382 344 218
shrinkage=0.05


Tree=13
num_leaves=31
num_cat=0
split_feature=10 92 20 23 42 29 96 33 98 36 70 27 67 35 9 72 46 12 85 65 59 84 23 23 24 65 81 19 73 35
split_gain=346.445 110.898 93.2335 65.3908 56.7174 55.8422 53.2369 46.4792 50.9202 46.0582 40.3438 36.9221 36.6037 45.451 41.0657 34.6152 31.5223 31.2755 30.2669 29.9857 36.1178 28.7275 26.0655 26.3216 25.6928 25.0803 27.7844 28.5691 29.0964 25.0288
threshold=-0.0062999999999999957 0.0055000000000000127 0.018750000000000006 -0.0010500000000000021 0.005700000000000008 0.011950000000000004 0.014750000000000001 -0.0011999999999999977 0.0012000000000000103 0.001500000000000005 0.0093000000000000183 0.0026000000000000125 0.0053000000000000035 0.0033000000000000013 1.0000000180025095e-35 -0.0099999999999999863 0.007550000000000002 -0.011299999999999999 -0.0075000000000000023 0.01865000000000001 -0.0062499999999999977 -0.0076000000000000052 -0.0045999999999999939 -0.013249999999999996 -0.0053999999999999977 -0.0038999999999999968 -0.0016000000000000022 -0.013699999999999999 -0.0045500000000000046 0.0078000000000000057
decision_type=2 2 2 2 2 2 2 2 2 2 2 2 2 2 2 2 2 2 2 2 2 2 2 2 2 2 2 2 2 2
left_child=6 2 3 4 7 29 11 8 -2 16 -6 15 14 -14 17 18 -4 -3 -1 20 -11 -9 23 -10 -19 26 -17 -28 -29 -5
right_child=1 12 9 5 10 -7 -8 21 22 19 -12 -13 13 -15 -16 25 -18 24 -20 -21 -22 -23 -24 -25 -26 -27 27 28 -30 -31
leaf_value=0.099348729633947197 -0.031169984870684259 0.088774785606118498 0.0081246212689022376 -0.048814636144438747 0.11432135878912296 0.12213754403662308 0.07940188280505138 0.074937837260472373 0.094072399233550666 0.10486411199086357 -0.034746346283355253 0.086470926531668574 -0.043565964886662659 0.06719864329416507 0.082261675937850554 0.1334885521951297 0.1236312047904024 -0.034509734562125159 -0.047659272162584122 0.088586885230919024 -0.032982815728251409 -0.047108100261947297 0.097285783850164009 -0.0084222594947182643 0.053111311688689981 0.01677111773873961 0.083897313873300239 -0.04835648330845832 0.059330156420539994 -0.0038948380074975936
leaf_count=20 465 51 62 4606 90 22 350 31 46 25 44 126 270 63 175 54 71 189 220 36 353 1057 115 200 63 549 97 83 66 337
internal_value=0 -0.357131 -0.512308 -0.638191 -0.188526 -0.864867 0.914432 -0.358531 0.159856 0.516268 1.36312 0.638182 0.480191 -0.245574 0.858137 0.471412 1.62352 0.263555 -0.534234 -0.01352 -0.329797 -0.821226 0.871212 0.364709 -0.150262 0.666996 1.18038 0.857726 0.124774 -0.904449
internal_count=9936 8371 7560 7013 2048 4965 1565 1914 826 547 134 1215 811 333 478 1089 133 303 240 414 378 1088 361 246 252 849 300 246 149 4943
shrinkage=0.05


Tree=14
num_leaves=31
num_cat=0
split_feature=11 23 49 35 39 24 74 67 26 31 67 79 49 66 35 94 86 97 24 88 20 91 36 62 24 72 83 47 23 39
split_gain=308.747 98.4329 115.013 73.9462 63.285 47.7151 45.1276 41.9026 39.9253 32.1129 30.0553 42.5604 28.5235 28.4831 29.1507 27.637 26.0842 28.8677 32.4452 24.8135 24.6446 23.6993 22.9224 22.4205 22.2781 22.081 21.6731 47.199 21.6645 27.3356
threshold=-0.0062999999999999974 0.016300000000000002 -0.0033999999999999963 0.0078000000000000057 0.0034000000000000041 -0.035400000000000001 -0.0088999999999999999 0.0041000000000000038 -0.004699999999999988 0.0028999999999999968 0.0067999999999999909 0.0012999999999999924 0.0095000000000000067 0.018849999999999995 -0.0014000000000000087 -0.0021999999999999897 -0.011500000000000015 0.0016000000000000061 -0.0053999999999999977 0.0038999999999999977 0.00059999999999999301 -0.0011999999999999908 -0.0016000000000000022 0.0059500000000000048 -0.028799999999999992 -0.00070000000000000259 0.0046000000000000112 -0.0010999999999999983 -0.013249999999999996 0.0011999999999999982
decision_type=2 2 2 2 2 2 2 2 2 2 2 2 2 2 2 2 2 2 2 2 2 2 2 2 2 2 2 2 2 2
left_child=5 2 16 8 12 -1 9 -5 -4 -7 11 -9 22 14 -6 -16 -2 19 23 -18 21 -20 -3 25 -25 28 -10 -28 -19 -30
right_child=1 4 3 7 13 6 -8 10 26 -11 -12 -13 -14 -15 15 -17 17 18 20 -21 -22 -23 -24 24 -26 -27 27 -29 29 -31
leaf_value=0.078583370229604113 0.096884187645508629 0.074378384401559264 0.092639085756237513 -0.055907746817668184 0.086431350486947042 -0.027501614088003903 0.042292744748835764 0.063872547675959152 -0.047795311936115976 0.11054177410691111 0.0066272725013943844 0.27465237252170588 0.12335114094754476 0.084569408833577053 -0.040946465448963798 0.058211318638023479 -0.03857803797371856 0.0471664235023838 0.18210835270100517 0.071372014968190137 -0.01238732545509922 0.055112746113898853 -0.022453026304849411 -0.032228519553214201 0.092966779719799178 -0.045583718793149597 0.1190434200222099 -0.039314721210739756 -0.031763566485664745 0.11667347665357269
leaf_count=285 33 82 36 131 29 328 996 90 5181 20 124 20 77 37 453 51 567 125 24 39 96 211 80 32 57 245 36 169 262 20
internal_value=0 -0.349844 -0.488141 -0.750654 0.509305 0.842582 0.620184 0.486175 -0.870263 -0.266651 1.07875 2.06559 1.45286 -0.0746149 -0.301927 -0.5303 0.125845 0.058482 0.288797 -0.549803 0.979008 1.40839 0.81234 -0.0257116 1.05155 -0.22841 -0.902432 -0.0026865 0.145556 -0.340684
internal_count=9936 8307 7498 5787 809 1629 1344 365 5422 348 234 110 239 570 533 504 1711 1678 1072 606 331 235 162 741 89 652 5386 205 407 282
shrinkage=0.05


Tree=15
num_leaves=31
num_cat=0
split_feature=11 31 60 36 10 98 74 71 98 89 68 74 65 31 89 28 21 64 33 31 20 58 64 70 95 62 37 23 11 78
split_gain=311.659 101.39 84.7814 67.0285 46.1752 45.3842 56.8878 41.3829 34.1227 36.2512 30.4072 68.3372 47.6947 39.5067 52.0485 25.8554 30.1758 44.2357 24.8704 24.4948 23.0732 22.6218 22.4895 28.2473 21.1724 23.7007 43.1792 21.0986 33.7128 21.0122
threshold=-0.00609999999999999 -0.0026000000000000029 0.0046000000000000043 -0.0016000000000000022 0.0050000000000000001 0.018350000000000002 -0.0088999999999999999 -0.025049999999999992 0.00070000000000000108 -0.00069999999999999739 0.0065499999999999942 0.0072999999999999914 0.017650000000000002 0.010399999999999998 0.008099999999999977 0.0046499999999999953 -0.012450000000000001 -0.00080000000000000546 -0.0036499999999999931 0.0067999999999999979 0.011300000000000003 0.0024000000000000033 0.0051000000000000151 0.013500000000000007 0.010650000000000001 -0.0056000000000000034 -0.00415 1.0000000180025095e-35 -0.0025999999999999942 0.0029000000000000037
decision_type=2 2 2 2 2 2 2 2 2 2 2 2 2 2 2 2 2 2 2 2 2 2 2 2 2 2 2 2 2 2
left_child=5 4 3 8 27 6 7 -1 20 -10 11 13 -12 14 -4 16 17 -8 -5 24 -3 -19 -7 -24 25 26 -18 28 -2 -11
right_child=1 2 10 18 -6 22 15 -9 9 29 12 -13 -14 -15 -16 -17 19 21 -20 -21 -22 -23 23 -25 -26 -27 -28 -29 -30 -31
leaf_value=0.094746558664440136 -0.014812127585584546 -0.047377353146243646 -0.039096589253557051 0.069126712545499749 0.072408196196206157 0.089977204706941871 0.085623152446865525 -0.034336099191086815 0.12016943597466312 -0.0064946436313404465 -0.032066967687455421 0.11880003729294848 0.077919085579546965 0.1016139600897068 0.11875966482162365 0.10139191636494307 0.0059860286276245652 -0.012115910731689062 -0.046157979386525765 0.10458628511844284 0.084610916848829515 0.078358001889810652 -0.036195732481558926 0.094905715132204915 0.083155398493657579 -0.015717251360387308 0.21062181471144498 -0.027418217960333169 0.054923402664852898 0.072386078411157115
leaf_count=31 280 455 372 27 167 232 232 361 55 381 567 104 56 35 26 76 67 137 5023 32 20 46 44 31 42 394 21 310 252 60
internal_value=0 -0.36356 -0.526623 -0.714507 0.419496 0.810919 0.602477 -0.327048 -0.00118539 0.455282 0.16 0.640782 -0.287929 0.0624788 -0.330185 0.854867 0.739282 1.1484 -0.896613 0.314406 -0.713529 0.26164 1.50039 0.474907 0.15257 -0.0270086 1.15541 0.0914936 0.409263 0.16433
internal_count=9936 8190 7181 6021 1009 1746 1439 392 971 496 1160 537 623 433 398 1047 971 415 5050 556 475 183 307 75 524 482 88 842 532 441
shrinkage=0.05


Tree=16
num_leaves=31
num_cat=0
split_feature=11 31 60 36 14 98 74 71 70 68 74 65 31 90 38 66 6 59 72 14 47 78 9 28 65 21 90 67 42 38
split_gain=283.99 92.9723 77.512 63.2167 42.7581 41.855 49.7022 37.482 29.2665 27.6009 57.9001 43.2502 35.639 46.5212 27.1826 26.73 24.7584 23.6124 25.7379 23.4431 22.3685 22.3034 22.2025 21.792 26.7637 32.1484 34.6843 24.4826 20.8249 20.8366
threshold=-0.0062999999999999974 -0.0026000000000000029 0.0046000000000000043 -0.0016000000000000022 0.013800000000000005 0.018350000000000002 -0.0088999999999999999 -0.025049999999999992 -0.0019999999999999979 0.0065499999999999942 0.0072999999999999914 0.017650000000000002 0.010399999999999998 0.0078000000000000127 -0.0028999999999999976 -0.0043999999999999968 -0.0032000000000000062 -0.0017500000000000013 -0.00079999999999998811 -0.0075000000000000041 -0.0073999999999999995 0.0029000000000000037 0.0012499999999999944 0.0046499999999999953 -0.0019999999999999979 -0.012450000000000001 -0.001899999999999997 0.0016999999999999969 0.010299999999999985 -0.0070000000000000036
decision_type=2 2 2 2 2 2 2 2 2 2 2 2 2 2 2 2 2 2 2 2 2 2 2 2 2 2 2 2 2 2
left_child=5 4 3 8 17 6 7 -1 -3 10 12 -11 13 -4 -5 -10 -17 19 20 -2 22 -18 -19 24 25 -8 -27 -26 29 -29
right_child=1 2 9 14 -6 -7 23 -9 15 11 -12 -13 -14 -15 -16 16 21 18 -20 -21 -22 -23 -24 -25 27 26 -28 28 -30 -31
leaf_value=0.089814618876623453 0.047309521008909006 -0.02863316683995178 -0.040074848841768096 0.030697116341172816 0.073744558406620087 0.072870110788199452 0.081672233659159876 -0.033428318201639697 0.15743758409825898 -0.031293582532765096 0.10775720753870986 0.072979402051248754 0.096439743297518699 0.097220457753824832 -0.045965726423959435 0.091699494295034295 -0.01728169937463107 -0.0045447944484696317 -0.0019407215267228939 -0.027382309831802051 0.14762361575764352 0.069960039411835137 0.1326244353812516 0.095086075633169231 -0.015636000856878655 0.10441139762535612 -0.011465933485383106 -0.014713159635998764 -0.047664217491682384 0.06989768932134878
leaf_count=31 78 525 369 94 137 303 207 347 20 569 104 56 35 33 4969 54 347 69 172 512 48 53 20 74 219 57 161 50 40 183
internal_value=0 -0.346293 -0.506686 -0.689402 0.389629 0.789873 0.58447 -0.307191 -0.0101413 0.149287 0.603351 -0.282157 0.0598115 -0.31527 -0.873396 0.472445 0.300326 0.110102 0.677668 -0.261087 1.48825 0.00423408 0.75355 0.82326 0.713515 1.11676 0.366405 0.316365 0.778599 1.02635
internal_count=9936 8264 7228 6062 1036 1672 1369 378 999 1166 541 625 437 402 5063 474 454 899 309 590 137 400 89 991 917 425 218 492 273 233
shrinkage=0.05


Tree=17
num_leaves=31
num_cat=0
split_feature=10 41 68 47 23 27 96 88 48 31 44 73 66 85 10 97 8 21 48 37 29 19 48 67 2 37 21 94 81 15
split_gain=259.823 82.4251 76.811 54.6991 41.2804 38.3072 38.2054 34.299 32.7622 32.4834 31.4976 42.6637 28.3941 25.5135 25.3881 25.2774 21.6155 21.3177 28.4857 22.0348 20.6534 21.2207 21.1456 24.1904 20.314 20.1997 26.014 34.5724 27.965 27.578
threshold=-0.0075000000000000006 -0.0025499999999999963 0.0040499999999999989 -0.009799999999999991 0.014999999999999998 -0.0019999999999999979 0.010099999999999996 0.0050000000000000001 0.017350000000000001 0.0046000000000000043 -0.025049999999999999 -0.0084500000000000044 0.020550000000000002 -0.0032000000000000062 -0.0035999999999999969 -0.00029999999999999293 -0.0075000000000000041 -0.0050000000000000018 0.0022000000000000027 -0.0018999999999999883 -0.0073999999999999995 -0.012450000000000001 -0.013799999999999995 -0.0024999999999999983 -0.0093999999999999969 -0.0046999999999999984 -0.0036999999999999876 0.0050000000000000157 0.004000000000000001 -0.008699999999999989
decision_type=2 2 2 2 2 2 2 2 2 2 2 2 2 2 2 2 2 2 2 2 2 2 2 2 2 2 2 2 2 2
left_child=6 4 3 -3 10 -4 9 8 -5 15 -2 -12 17 14 -13 -1 -15 18 -7 -19 -17 22 -22 -24 -11 -18 29 28 -28 -27
right_child=1 2 5 7 -6 12 -8 -9 -10 24 11 13 -14 16 -16 20 25 19 -20 -21 21 -23 23 -25 -26 26 27 -29 -30 -31
leaf_value=-0.020537404198863164 0.087959561813542642 0.075802669596604977 0.052413793537911174 -0.045931066375770761 0.079900784427544821 -0.011573742298810016 0.065322202800705109 0.088422335666181601 0.051097883722642436 -0.024070614183380121 -0.048843070919116299 0.15533412500348498 0.096915699014852502 0.058809106477053834 0.019237267782732759 0.098622908640683793 -0.023083830854043561 0.071333491744002706 0.096806709526276818 -0.025498498851229946 -0.013023294912740208 -0.010844485028543746 0.088868273841845952 -0.0026208513924221425 0.098018189233938569 0.061603256568386611 -0.021337949828313416 0.097713650401697688 0.13995275771490809 -0.034914511223153109
leaf_count=263 43 49 179 4722 88 125 478 32 64 22 394 32 25 91 71 46 503 34 59 1413 82 195 106 53 91 57 216 80 20 303
internal_value=0 -0.30258 -0.507897 -0.772236 0.18637 -0.00537612 0.852036 -0.835321 -0.871043 0.523041 0.0659356 -0.0172103 -0.187778 0.191263 1.47209 0.312258 0.0775627 -0.26638 0.561719 -0.423493 0.595929 0.426425 0.844971 1.24559 1.56266 -0.0447117 0.289864 0.883595 0.04408 -0.255539
internal_count=9936 8600 6702 4867 1898 1835 1336 4818 4786 858 1810 1767 1656 1373 103 745 1270 1631 184 1447 482 436 241 159 113 1179 676 316 236 360
shrinkage=0.05


Tree=18
num_leaves=31
num_cat=0
split_feature=11 31 59 49 24 74 45 8 10 66 69 61 34 31 11 19 31 33 29 28 65 98 39 27 37 85 12 87 98 91
split_gain=237.742 82.7535 72.5408 60.2588 38.1458 38.3646 37.3097 36.4011 32.8277 24.0459 34.7471 31.9487 24.1524 28.2985 30.8137 28.7885 22.3802 21.1462 20.6677 18.5877 23.2391 20.9894 28.1418 21.9723 20.9489 22.0698 19.6851 19.0704 17.085 34.0545
threshold=-0.00609999999999999 -0.0026000000000000029 0.0034000000000000076 -0.0023999999999999955 -0.035400000000000001 -0.0088999999999999999 0.0024000000000000015 0.0045000000000000083 -0.0085999999999999879 0.020550000000000002 0.010249999999999997 0.0086000000000000052 -0.0015999999999999832 0.010100000000000007 0.012700000000000012 0.020050000000000002 0.0028999999999999968 -0.0036499999999999931 -0.0077999999999999936 0.0046499999999999953 -0.0039999999999999992 1.0000000180025095e-35 -0.0065999999999999904 -0.0057999999999999953 -0.0036999999999999911 0.0037000000000000127 -0.0085000000000000023 0.015500000000000005 0.0010000000000000046 -0.0022000000000000036
decision_type=2 2 2 2 2 2 2 2 2 2 2 2 2 2 2 2 2 2 2 2 2 2 2 2 2 2 2 2 2 2
left_child=4 7 3 6 -1 16 8 -2 -3 10 11 12 -4 14 -14 -16 18 -5 -6 20 24 -22 23 27 25 -7 -24 -23 -10 -30
right_child=1 2 9 17 5 19 -8 -9 28 -11 -12 -13 13 -15 15 -17 -18 -19 -20 -21 21 22 26 -25 -26 -27 -28 -29 29 -31
leaf_value=0.06760873960602419 0.0049738746240999545 0.088499957072182986 0.082058228457176807 0.035072618408915526 0.054046468965176842 0.0017811638040594923 0.13031687731902117 0.067892873102786175 -0.047801095446244106 0.09042140561735923 -0.045536737833401439 0.061834337172347612 -0.028746589465557033 0.075004177183084442 0.10658462649809192 -0.0557888417812228 0.090962502600700323 -0.048773642776631952 -0.040705642011394115 0.08429697321767593 -0.018290242597155542 0.10272493178816483 0.083679050600082058 -0.026148443151808677 0.10961127027871649 0.072152306086847404 0.020021888073780272 -0.025518871480642608 0.10624030652619675 -0.015094122474555924
leaf_count=302 858 42 40 55 43 121 29 151 441 31 336 153 849 48 48 44 20 4408 318 78 203 32 129 159 72 107 142 20 46 611
internal_value=0 -0.334618 -0.492091 -0.709197 0.703187 0.515578 -0.0985925 0.368729 -0.215492 0.0552331 -0.023873 0.2123 -0.0257637 -0.162064 -0.335317 1.10972 -0.289689 -0.934977 -0.512723 0.711604 0.614001 0.359299 0.603037 -0.0234533 1.12757 0.793495 1.10841 1.08492 -0.361673 -0.0888097
internal_count=9936 8190 7181 5632 1746 1444 1169 1009 1140 1549 1518 1182 1029 989 941 92 381 4463 361 1063 985 685 482 211 300 228 271 52 1098 657
shrinkage=0.05


Tree=19
num_leaves=31
num_cat=0
split_feature=10 41 69 85 78 6 54 2 97 92 23 14 31 98 6 32 77 77 38 74 24 49 24 69 85 35 6 30 24 38
split_gain=216.966 72.574 73.0467 55.2638 40.4005 37.6757 33.3838 34.8772 33.1464 32.4213 35.7327 30.828 29.3491 29.2474 27.698 23.3644 22.5387 31.3668 22.069 36.893 43.0377 33.9869 28.8264 28.5023 21.1002 19.7106 19.6713 19.47 17.5427 17.2058
threshold=-0.0075000000000000006 -0.0025499999999999963 0.0039000000000000046 0.0052999999999999896 -0.0081000000000000013 0.0023999999999999981 -0.00060000000000000667 0.0038000000000000017 0.0094999999999999998 0.0039000000000000115 -0.00084999999999999648 0.0020000000000000091 0.0046000000000000043 -0.00079999999999998464 -0.0095000000000000032 -0.006899999999999999 -0.00010000000000000805 0.0032500000000000033 -0.0048000000000000083 -0.0026000000000000012 -0.006000000000000001 -0.0019500000000000001 -0.016199999999999999 -0.00039999999999999059 -0.0080999999999999874 -0.0027999999999999948 -0.00069999999999999392 0.00059999999999999301 -0.013499999999999993 -0.0015499999999999956
decision_type=2 2 2 2 2 2 2 2 2 2 2 2 2 2 2 2 2 2 2 2 2 2 2 2 2 2 2 2 2 2
left_child=8 5 3 4 -3 14 9 -8 12 10 -4 -9 13 24 -2 -6 -15 25 22 28 -21 27 23 -16 -1 26 -18 -22 -20 -17
right_child=1 2 6 -5 15 -7 7 11 -10 -11 -12 -13 -14 16 18 29 17 -19 19 20 21 -23 -24 -25 -26 -27 -28 -29 -30 -31
leaf_value=0.07752075398595204 0.068366070273738408 0.062439998659560271 0.14375678584811744 0.10626615622694131 0.040106568259669538 0.046316481462529729 -0.026259744797152918 0.11959869965297898 0.059785175084619335 -0.05736043531144408 0.02901132204590752 0.0076300382685415974 0.072290870483534359 0.066292187612468953 0.073160313011851205 -0.014050317813623873 -0.050629878388321586 0.060323055159834986 0.058161067690022522 -0.030478977699517035 0.12193153630737541 -0.014446274247214317 -0.039411514665576644 -0.059364524966808691 -0.042811143142152647 0.046735224338508588 0.069323085786232336 0.0011586511271009466 -0.038731182812438841 -0.050321136490653534
leaf_count=21 68 52 50 31 46 330 1246 47 488 75 208 351 114 140 68 446 161 101 34 119 107 95 616 36 237 50 24 35 390 4150
internal_value=0 -0.285864 -0.485763 -0.767532 -0.822979 0.173384 -0.015089 -0.225225 0.77653 0.755155 1.14065 0.492279 0.465197 0.259841 -0.0353276 -0.880662 0.560167 0.225118 -0.140525 0.218583 0.809346 1.44721 -0.492467 0.612715 -0.548294 -0.29789 -0.699001 2.04397 -0.503974 -0.922877
internal_count=9936 8600 6702 4725 4694 1898 1977 1644 1336 333 258 398 848 734 1568 4642 476 336 1500 780 356 237 720 104 258 235 185 142 424 4596
shrinkage=0.05


Tree=20
num_leaves=31
num_cat=0
split_feature=20 92 11 5 88 97 30 95 74 49 42 72 39 71 86 8 69 36 62 74 48 38 83 23 67 80 3 21 48 70
split_gain=196.563 86.9491 62.5618 67.0019 39.7902 40.5831 30.2319 28.6091 26.8738 47.1883 50.9333 26.1122 30.5233 28.416 26.0784 24.9014 24.816 28.7543 22.3672 32.9293 66.5566 21.9487 26.0428 21.5751 21.3735 21.3417 23.5544 20.9874 28.6988 23.8138
threshold=-0.011050000000000009 0.0059999999999999888 0.011300000000000003 -0.0021000000000000025 0.0050000000000000001 0.003699999999999985 0.0077000000000000028 -0.019549999999999994 -0.0032500000000000025 -0.0033999999999999963 -0.0050499999999999981 0.004800000000000003 0.018450000000000005 -0.0020999999999999938 -0.0013999999999999965 0.015000000000000003 0.010249999999999997 0.0018999999999999887 -0.00020000000000000223 -0.009299999999999994 -0.034700000000000009 -0.0076999999999999942 -0.0080999999999999909 -0.0056999999999999993 0.020350000000000004 -0.00059999999999998585 -0.0062999999999999974 -0.00415 -0.0016499999999999985 0.0063000000000000079
decision_type=2 2 2 2 2 2 2 2 2 2 2 2 2 2 2 2 2 2 2 2 2 2 2 2 2 2 2 2 2 2
left_child=18 2 3 8 6 -6 15 -4 -2 10 -10 13 -13 -9 -8 -5 17 27 19 20 -1 -11 -23 -12 -14 26 -22 28 -3 -29
right_child=1 16 7 4 5 -7 14 11 9 21 23 12 24 -15 -16 -17 -18 -19 -20 -21 25 22 -24 -25 -26 -27 -28 29 -30 -31
leaf_value=0.078730337724799496 -0.026191799364983989 -0.019095741766463597 -0.054417353727805776 -0.043521604579869311 0.098210621730328185 -0.03816563935192091 -0.017619350491762508 0.070486526629413362 -0.052384937085325614 0.066712238736873375 0.05314319485767896 0.079372668707791569 -0.035699424425760344 -0.034881510437657824 0.11419513355598154 0.063462138648725755 -0.03064728491367523 0.1039107269307909 0.019514778487521513 0.069744411780170962 0.12428241775638969 0.076925383497103969 -0.02127721063685491 0.1638167481278768 0.084068719738342484 -0.049819272172549091 -0.023685842874969019 0.067159663049962723 0.11733087108823535 -0.03817441040299463
leaf_count=128 547 203 115 5435 65 99 105 47 42 51 50 184 101 268 25 48 136 66 500 427 23 38 669 59 22 194 63 160 20 46
internal_value=0 -0.245348 -0.377082 -0.500666 -0.709763 0.605121 -0.781687 0.37219 0.0518362 0.345011 1.57842 0.576959 1.01936 -0.12657 0.528636 -0.839524 0.599841 0.794152 0.772806 1.00631 0.461322 -0.0176213 -0.216758 2.38753 -0.023779 -0.462394 0.667485 0.547431 -0.0309655 1.02403
internal_count=9936 8601 7970 7233 5777 164 5613 737 1456 909 151 622 307 315 130 5483 631 495 1335 835 408 758 707 109 123 280 86 429 223 206
shrinkage=0.05


Tree=21
num_leaves=31
num_cat=0
split_feature=11 88 71 97 65 57 65 97 22 44 80 23 74 30 74 17 3 31 50 20 67 8 95 67 21 9 23 43 9 93
split_gain=180.553 71.0575 63.4996 63.1989 52.3718 31.2219 30.8919 48.3615 46.9317 28.7854 36.7215 27.7669 33.858 26.8109 30.4312 30.9189 26.3821 25.3809 24.4896 23.1172 21.5836 40.0629 29.0611 26.2904 25.6742 30.9235 23.2425 21.4753 20.7985 19.2061
threshold=-0.00609999999999999 0.0038999999999999977 0.0047999999999999961 0.0060999999999999917 0.0070999999999999995 -0.0058999999999999981 -0.0021000000000000007 0.00020000000000000749 0.016300000000000002 -0.0032999999999999987 -9.9999999999985504e-05 -0.035799999999999978 -0.01059999999999999 0.0042999999999999974 0.0079500000000000005 -0.0027999999999999861 -0.0019000000000000004 0.0028999999999999968 -0.00050000000000000381 -0.011050000000000009 0.0086000000000000052 0.010000000000000007 -0.0037999999999999939 0.020350000000000004 -0.0024999999999999914 0.0013000000000000062 0.016800000000000002 0.0088000000000000144 -0.0023999999999999972 0.012999999999999996
decision_type=2 2 2 2 2 2 2 2 2 2 2 2 2 2 2 2 2 2 2 2 2 2 2 2 2 2 2 2 2 2
left_child=11 2 3 4 6 -4 7 8 -2 -9 18 -1 17 14 15 19 -5 -13 -11 -3 21 24 -23 -22 25 -7 -26 -28 -12 -15
right_child=1 13 5 16 -6 20 -8 9 -10 10 28 12 -14 29 -16 -17 -18 -19 -20 -21 23 22 -24 -25 26 -27 27 -29 -30 -31
leaf_value=0.063308192783403619 -0.048902907851838838 0.03234345345174354 0.097284746892785406 0.090528707847886053 0.099125162340736039 0.0057041157946499561 -0.04936135854426104 -0.0060434882369864128 0.10590279438679612 0.11939385440080652 0.11134024897855649 -0.042025388971614841 0.032148869642406673 0.10149135412736487 -0.043720894303474513 0.048742521398650644 -0.0032124559587466527 0.083717391113496381 -0.046631758686911801 -0.033360240546187497 -0.047416428193619159 0.007778648022586012 0.12384234326364135 0.069771266417730224 -0.03397854019602576 0.1652714051639074 0.095220798072241153 -0.026697337542606642 0.31675318492314913 -0.020016537367562259
leaf_count=261 1186 137 41 62 44 76 3950 223 30 37 20 265 1172 64 228 320 131 21 70 269 341 72 69 24 665 26 34 58 20 20
internal_value=0 -0.273831 -0.434299 -0.63236 -0.74111 0.132065 -0.790556 -0.379318 -0.790969 0.571415 1.68506 0.647649 0.499558 0.347946 0.18507 0.410093 0.753249 -0.465666 0.472595 -0.109913 0.0146915 0.26397 1.45708 -0.613848 -0.0764588 1.15977 -0.347091 0.76329 3.8011 1.47468
internal_count=9936 8217 7179 5773 5580 1406 5536 1586 1216 370 147 1719 1458 1038 954 726 193 286 107 406 1365 1000 141 365 859 102 757 92 40 84
shrinkage=0.05


Tree=22
num_leaves=31
num_cat=0
split_feature=11 31 93 4 85 13 98 32 13 31 28 44 11 29 91 69 39 73 36 9 30 98 92 36 11 69 59 70 38 67
split_gain=164.244 66.4361 67.3724 50.1739 36.5324 31.6581 30.1668 38.4411 22.6423 50.6039 25.3221 22.0255 44.1408 27.5342 21.896 21.5539 19.621 19.0317 18.4145 17.9913 17.3902 17.2673 37.6739 17.2412 17.9686 17.2327 16.1258 24.581 24.5006 16.7977
threshold=-0.00609999999999999 -0.0029999999999999988 0.0059000000000000068 0.0075000000000000023 0.0058000000000000039 0.0063000000000000044 -0.00079999999999998464 0.0031000000000000008 -0.0016000000000000022 0.0047499999999999981 -0.0017999999999999889 -0.0063999999999999986 -0.014149999999999994 -0.0073999999999999995 -0.0014000000000000035 0.010249999999999997 0.0020000000000000091 -0.0036000000000000021 0.0018999999999999887 -0.015149999999999995 0.0031000000000000042 0.0016999999999999969 0.0039000000000000115 -0.0014000000000000087 -0.0027999999999999861 0.0074499999999999922 0.0031999999999999984 0.0072000000000000024 -0.0023999999999999972 0.020350000000000004
decision_type=2 2 2 2 2 2 2 2 2 2 2 2 2 2 2 2 2 2 2 2 2 2 2 2 2 2 2 2 2 2
left_child=6 5 3 4 8 21 7 -1 9 10 17 12 -8 -14 -15 18 -9 -3 20 -16 23 -2 -23 24 -4 -6 28 -28 -5 -29
right_child=1 2 15 26 25 -7 11 16 -10 -11 -12 -13 13 14 19 -17 -18 -19 -20 -21 -22 22 -24 -25 -26 -27 27 29 -30 -31
leaf_value=-0.030767317089319624 -0.026573717767734789 -0.035736575498803817 -0.022498533216990444 0.080302094377806554 0.1008541744808112 0.056648275554715445 0.053537951780372822 0.089816304189778692 -0.0425411917554748 0.094857217351639891 -0.039021467146688943 0.062664565843555536 0.093159906344386756 0.083361733886300249 0.084737909257299973 -0.032228224383157866 -0.0034344139243256272 0.079170970855121592 0.076492545900048003 -0.020992897685933862 0.097302153898508048 0.084397850016786569 -0.0095735502617591058 -0.048523229114909971 0.054144983534943208 -0.038383973159633863 0.081263610200179359 -0.025022680908461971 -0.037666657160993294 0.068426442065752546
leaf_count=342 344 75 86 34 33 203 419 61 4964 55 952 355 35 33 20 142 56 64 87 398 26 102 228 96 111 23 101 149 313 29
internal_value=0 -0.266491 -0.407399 -0.546948 -0.675279 0.409446 0.615057 -0.00721035 -0.721847 -0.298915 -0.536466 0.774934 0.584072 0.0581121 -0.125942 0.429027 1.01263 0.649294 0.672287 -0.288303 0.353151 0.0458027 0.419334 0.130514 0.494501 1.16812 0.243422 0.658143 -0.319295 0.0192321
internal_count=9936 8217 7340 6792 6166 877 1719 459 6110 1146 1091 1260 905 486 451 548 117 139 406 418 319 674 330 293 197 56 626 279 347 178
shrinkage=0.05


Tree=23
num_leaves=31
num_cat=0
split_feature=20 92 69 38 74 47 68 24 64 95 68 8 17 39 83 42 68 74 56 62 74 48 36 74 96 29 77 37 89 80
split_gain=152.326 71.1484 54.4801 54.1575 39.2938 38.696 35.5631 31.802 29.8145 28.4433 26.9804 25.1441 28.4336 26.2805 24.2695 22.7195 28.2505 29.7116 22.1855 21.9221 27.0913 58.5501 21.4798 20.7078 20.6446 20.2334 19.3308 23.427 19.1808 19.0934
threshold=-0.011050000000000009 0.0059999999999999888 0.004000000000000001 -0.0014 -0.0034000000000000033 -0.011400000000000002 -0.0056999999999999993 0.0002999999999999965 0.0009000000000000016 0.00080000000000001435 0.0011999999999999964 0.0088499999999999985 -0.0048000000000000083 0.018450000000000005 -0.0092499999999999995 -0.011500000000000005 0.0013999999999999883 0.0084000000000000134 -0.0055000000000000005 -0.00020000000000000223 -0.009299999999999994 -0.034700000000000009 -0.0034999999999999923 0.0025499999999999971 0.005200000000000018 0.010050000000000005 0.0053999999999999925 -0.020399999999999991 0.0052000000000000006 -0.00059999999999998585
decision_type=2 2 2 2 2 2 2 2 2 2 2 2 2 2 2 2 2 2 2 2 2 2 2 2 2 2 2 2 2 2
left_child=19 2 3 4 28 -5 9 10 24 -6 18 12 -10 -13 -14 -3 -17 -18 -8 20 21 -1 -7 -12 -4 -24 -21 -28 -2 -23
right_child=1 15 8 5 6 22 7 -9 11 -11 23 13 14 -15 -16 16 17 -19 -20 26 -22 29 25 -25 -26 -27 27 -29 -30 -31
leaf_value=0.074355834639144122 -0.037812290406027203 0.087537721013241435 0.074677069880392286 0.075227216975322031 0.13498708048344929 0.069972946486609788 0.11175297267367189 -0.0334068360290199 0.054327593251844553 -0.045373663392831401 0.14903186089169781 0.059731861899167099 0.076430625380979889 -0.010240223540105545 -0.031233727500429409 -0.041159368990512306 0.051066168928596938 -0.019478710271780227 -0.0038545471663161907 0.0033775731375614059 0.063313987781222811 0.03034553620541269 -0.04747100568522615 -0.019088308025199716 -0.060515847022011973 0.054914336021353274 -0.039354570325586501 0.087117856780870778 0.055002671400929987 -0.049334087734249861
leaf_count=128 881 59 124 35 51 23 23 354 80 20 39 181 28 214 1204 109 279 184 301 411 427 86 4291 26 32 27 20 69 36 194
internal_value=0 -0.227307 -0.3528 -0.544442 -0.0962843 -0.816274 0.356462 0.0998117 0.0950282 1.90488 0.63927 -0.0563707 -0.325532 0.506488 -0.504875 0.54032 0.359456 0.62403 0.235939 0.679416 0.915523 0.40682 -0.876529 2.12282 1.13017 -0.91152 0.304 1.16016 -0.613375 -0.46785
internal_count=9936 8601 7970 6107 1731 4376 814 743 1863 71 389 1707 1312 395 1232 631 572 463 324 1335 835 408 4341 65 156 4318 500 89 917 280
shrinkage=0.05


Tree=24
num_leaves=31
num_cat=0
split_feature=16 88 71 97 65 65 4 24 98 95 90 55 57 98 46 28 16 1 43 49 73 8 27 74 37 9 92 35 1 17
split_gain=139.386 76.5516 55.9036 47.9449 43.1158 35.8762 33.7802 32.6342 33.9215 27.8212 27.0351 26.2639 25.5182 24.6942 22.3669 29.2078 28.4503 21.1129 19.6662 33.288 31.3647 22.8165 24.8271 23.958 31.7332 20.4503 19.1967 18.4872 18.0126 35.3926
threshold=-0.0075000000000000006 0.0038999999999999977 0.0044000000000000055 0.0060999999999999917 0.0070999999999999995 -0.0021000000000000007 -0.00060000000000000147 0.020000000000000014 0.00030000000000000344 9.9999999999990735e-05 -0.001800000000000008 -0.00029999999999998425 -0.0058999999999999981 -0.0021999999999999984 -0.0011999999999999943 0.0051000000000000047 -0.0022499999999999946 -0.0023999999999999972 -0.0071999999999999903 -0.035799999999999985 -0.010849999999999997 -0.012699999999999991 -0.0051500000000000009 -0.00070000000000000259 -0.0043999999999999968 -0.0025499999999999963 0.023850000000000027 0.00024999999999999681 0.0037999999999999878 0.0054499999999999974
decision_type=2 2 2 2 2 2 2 2 2 2 2 2 2 2 2 2 2 2 2 2 2 2 2 2 2 2 2 2 2 2
left_child=13 2 3 4 5 7 -5 8 -2 -3 11 -10 -4 -1 16 -16 17 -11 19 -15 -21 26 -23 24 25 -24 -22 -20 -14 -30
right_child=1 9 12 6 -6 -7 -8 -9 10 14 -12 -13 28 18 15 -17 -18 -19 27 20 21 22 23 -25 -26 -27 -28 -29 29 -31
leaf_value=-0.011883724546348597 -0.040531090549946462 0.079922442635679991 0.083478845541209407 0.10680785636332238 0.090741098160336042 -0.0496367146261475 -0.019814487718701455 0.1010822091054619 0.041944450293961183 0.062603827096361295 -0.014181694164298304 0.22958388224951654 -0.012761307973301673 0.068602179715609515 -0.036626331955297506 0.09581660161914643 0.055757888534129343 -0.023193079577701194 0.070963915604537228 -0.055552630438242614 0.069451324572424353 0.075292286340459758 -0.016887906271415214 -0.047826089167246351 0.082178558183749958 0.081806075902743469 -0.027305812155156435 0.0143871817355362 0.10120849549359762 0.00020948202025468634
leaf_count=283 1248 94 44 50 41 3852 84 26 102 55 272 21 1153 170 350 20 218 233 284 131 150 55 248 117 64 32 27 121 84 307
internal_value=0 -0.247812 -0.41615 -0.622864 -0.708032 -0.755129 0.843338 -0.331261 -0.439654 0.420659 0.307887 1.43445 0.0814981 0.579984 0.24805 -0.393752 0.54003 -0.0629685 0.684063 0.508392 0.298174 0.44911 0.181738 -0.0177844 0.294716 -0.0892467 1.08981 1.11897 -0.0192544 0.489734
internal_count=9936 8254 7284 5696 5562 5521 134 1669 1643 970 395 123 1588 1682 876 370 506 288 1399 994 824 693 516 461 344 280 177 405 1544 391
shrinkage=0.05


Tree=25
num_leaves=31
num_cat=0
split_feature=23 93 4 4 20 69 7 27 62 74 43 62 35 77 53 84 63 49 21 98 93 83 78 78 16 82 38 98 39 48
split_gain=143.856 69.0177 59.7398 44.677 34.2808 22.6344 21.1842 26.5083 20.1031 35.1806 30.9278 28.4213 19.7284 19.4911 19.0855 18.6378 17.5012 18.5565 20.6517 17.2685 23.3117 17.6009 16.9851 16.6028 17.3571 16.3075 19.7801 15.5471 14.563 14.214
threshold=-0.011999999999999988 0.007500000000000011 0.0088000000000000005 -0.0025000000000000001 0.0195 0.0068999999999999938 -0.0028999999999999959 0.0033999999999999955 -0.013099999999999992 -0.0088999999999999999 -0.026150000000000003 -0.00039999999999999406 -0.0044999999999999927 -0.0035500000000000041 0.007199999999999992 -0.011399999999999992 0.0072999999999999949 -0.018500000000000003 -0.014999999999999994 0.0016999999999999969 -9.9999999999985504e-05 0.0068000000000000048 4.99999999999945e-05 0.0087499999999999956 0.0029499999999999982 0.0045999999999999973 -0.0019999999999999996 -0.022699999999999988 0.0054000000000000098 -0.013799999999999995
decision_type=2 2 2 2 2 2 2 2 2 2 2 2 2 2 2 2 2 2 2 2 2 2 2 2 2 2 2 2 2 2
left_child=8 2 3 15 6 12 7 -5 -1 10 -10 -11 23 -13 -7 -2 17 -15 -19 -17 -21 22 -22 24 -3 -8 -27 -4 -6 -12
right_child=1 5 27 4 28 14 25 -9 9 11 29 13 -14 16 -16 19 -18 18 -20 20 21 -23 -24 -25 -26 26 -28 -29 -30 -31
leaf_value=0.068581346453217659 0.076711856010180782 -0.045614104538661965 -0.050740708505499846 -0.018127745428438407 0.05637711388889937 -0.037317924746538465 -0.042684582029704848 0.097926172682753249 0.067575783715231194 0.057756129324898077 -0.054860781298423249 -0.051922909226925398 0.076328283071661104 0.067721874427327605 0.081500263020643865 -0.01793645930528711 0.063937336226179142 -0.026300976212482174 0.03713831660084662 0.083137481316383904 0.037749619592961643 0.081068536816136752 -0.032524430838266602 0.092432090683958468 0.072100275196436345 0.068713937060223662 -0.039179087573807038 0.033998131346597682 -0.017361203659605945 0.015112079930119713
leaf_count=159 38 72 66 438 85 152 5343 29 45 393 201 53 146 55 22 963 102 173 131 57 87 28 217 21 20 39 100 491 118 92
internal_value=0 -0.255882 -0.361308 -0.467441 -0.640529 0.675509 -0.717364 -0.067538 0.623225 0.517136 -0.273683 0.717741 1.02498 0.35039 -0.230698 -0.00997561 0.496363 0.239241 -0.0148803 -0.0879017 0.344551 0.0330882 -0.2082 0.262419 -0.249027 -0.802616 0.141876 0.530158 0.449391 -0.69779
internal_count=9936 8532 8099 7542 6152 433 5949 467 1404 1245 338 907 259 514 174 1390 461 359 304 1352 389 332 304 113 92 5482 139 557 203 293
shrinkage=0.05


Tree=26
num_leaves=31
num_cat=0
split_feature=23 26 28 34 23 98 84 46 24 39 92 46 95 17 41 74 86 63 38 73 46 56 2 29 77 63 49 36 83 79
split_gain=131.571 62.5327 56.8739 50.4565 39.4539 34.46 30.0373 27.8409 46.9548 42.7522 26.155 25.7371 23.3659 21.6832 19.7959 29.898 28.3476 25.502 17.2622 25.3687 46.5854 26.0814 17.9379 19.2678 16.6319 15.8564 15.6536 15.6153 15.2744 14.6821
threshold=-0.011999999999999988 -0.0037000000000000049 0.0050000000000000018 -0.00090000000000000832 0.016050000000000005 0.00049999999999999014 0.00080000000000001262 0.0077500000000000008 0.0011000000000000109 0.00039999999999999937 -0.0023000000000000013 -0.0091999999999999946 -0.0043000000000000026 0.00030000000000001559 -0.028899999999999999 -0.0088999999999999999 -0.011500000000000015 -0.00020000000000001264 -0.0049499999999999987 -0.0017999999999999993 -0.0021999999999999863 -0.0032999999999999935 0.0024000000000000033 -0.0077999999999999936 -0.0035500000000000041 0.0072999999999999949 -0.018500000000000003 0.0059000000000000103 -0.012000000000000005 -0.011199999999999993
decision_type=2 2 2 2 2 2 2 2 2 2 2 2 2 2 2 2 2 2 2 2 2 2 2 2 2 2 2 2 2 2
left_child=14 -2 3 4 5 -3 29 11 12 -10 -7 -5 -9 27 -1 16 -16 -17 22 -20 -21 -22 23 -12 -19 26 -26 -11 -15 -4
right_child=1 2 6 7 -6 10 -8 8 9 13 18 -13 -14 28 15 17 -18 24 19 20 21 -23 -24 -25 25 -27 -28 -29 -30 -31
leaf_value=0.068468889536630204 0.038547622845116175 -0.038735934976120573 0.053459394375128193 0.048129530264342135 0.059432240055606017 0.10069644950035186 0.081595984591434634 -0.0041031721667779677 0.089807024962159365 -0.055152121835139178 0.061559776132160876 -0.045327627131088011 0.14311810611308304 0.058879054524182954 0.073431802580958452 0.054932460981721588 -0.029639304039570803 -0.047354415388358613 -0.044992036282310362 0.066802495876296011 0.093695639227788161 -0.048129889345911329 0.037724213111587759 -0.049732823304083462 0.064661254506694174 0.060666026149660282 -5.1881634572699455e-05 0.11984051990534468 -0.048930263216442151 -0.009277748088320872
leaf_count=150 310 1027 76 52 113 43 88 44 38 30 22 4204 43 22 38 393 311 54 154 195 21 277 67 296 52 102 304 20 1012 378
internal_value=0 -0.24817 -0.337126 -0.440802 -0.0680993 -0.209946 0.527585 -0.679787 -0.207451 -0.475704 0.0968579 -0.850559 1.70235 -0.709863 0.59746 0.495258 -0.226149 0.682292 -0.0090108 0.304788 0.597359 -0.49157 -0.459454 -0.754134 0.33421 0.469649 0.223662 1.17778 -0.867529 0.127117
internal_count=9936 8532 8222 7680 2215 2102 542 5465 1209 1122 1075 4256 87 1084 1404 1254 349 905 1032 647 493 298 385 318 512 458 356 50 1034 454
shrinkage=0.05


Tree=27
num_leaves=31
num_cat=0
split_feature=14 91 4 5 82 13 98 85 95 49 74 62 37 37 33 40 23 80 94 85 60 13 53 34 38 65 21 65 15 86
split_gain=121.636 46.6085 44.8765 50.7957 36.6322 22.9772 21.7734 19.378 18.0834 16.6999 37.6409 23.1909 16.4525 15.9915 15.701 16.5715 15.2985 14.8908 14.2767 16.9396 13.3863 19.0982 18.3867 15.7711 13.1772 20.218 22.1992 14.995 12.9043 16.407
threshold=-0.0099000000000000025 0.0061999999999999998 0.0075000000000000023 -0.0025000000000000001 0.0045999999999999973 -0.0050000000000000018 0.0029000000000000106 -0.010299999999999991 0.00059999999999999301 -0.028150000000000005 -0.0088999999999999999 -0.00039999999999999406 -0.0073000000000000105 0.0068000000000000048 0.002900000000000002 -0.010299999999999991 -0.012799999999999983 -0.0013000000000000041 0.0053000000000000018 0.0047499999999999947 0.0032499999999999964 0.00960000000000002 0.0014000000000000022 -0.0022000000000000053 0.0031000000000000094 0.0061999999999999876 -0.0043000000000000026 0.0017000000000000038 0.016300000000000002 -0.00069999999999999739
decision_type=2 2 2 2 2 2 2 2 2 2 2 2 2 2 2 2 2 2 2 2 2 2 2 2 2 2 2 2 2 2
left_child=9 2 3 6 5 -5 7 -2 -8 -1 17 -12 -4 18 15 -3 -9 -11 -13 -20 23 -22 -23 -14 25 26 -17 -28 -7 -30
right_child=1 14 12 4 -6 28 8 16 -10 10 11 13 20 -15 -16 24 -18 -19 19 -21 21 22 -24 -25 -26 -27 27 -29 29 -31
leaf_value=0.059918869406560119 0.062675058615724255 0.061676536152553023 0.10638565377528063 0.0047119453263327268 0.025986324711055747 -0.042741360422869773 0.099594462441733422 0.058470294190405593 0.016957306855768583 0.047693182236088982 0.05346931329446572 -0.031012774882098346 0.059098320933131804 0.076483296558611899 0.061229858619800438 -0.01980814313702119 -0.024468409689864731 -0.043962070784995685 0.079591762126656168 0.0078124224818685618 0.092657930670829849 0.050996396742336449 -0.026410021249239649 -0.029804449697400915 0.070240555077680816 -0.054998030280490266 -0.026980322464895741 0.068531931337953531 -0.029233129222662847 0.080533420347031121
leaf_count=203 42 65 23 298 174 5379 39 43 275 42 376 110 36 45 88 194 897 228 45 244 62 93 132 325 38 169 28 79 128 36
internal_value=0 -0.2325 -0.342325 -0.449524 -0.641799 -0.726577 0.0683581 -0.221936 0.611415 0.603996 0.48298 0.672271 0.371123 0.313937 0.380941 0.203781 -0.367861 -0.547895 0.160394 0.400831 0.248926 0.629355 0.242871 -0.242086 0.0184196 -0.110765 0.192919 0.924737 -0.807318 0.0531838
internal_count=9936 8643 7982 7311 6015 5841 1296 982 314 1293 1090 820 671 444 661 573 940 270 399 289 648 287 225 361 508 470 301 107 5543 164
shrinkage=0.05


Tree=28
num_leaves=31
num_cat=0
split_feature=24 93 28 78 83 25 35 72 66 79 43 74 86 62 49 56 88 79 23 24 45 65 20 93 26 7 75 79 16 6
split_gain=112.539 55.4146 45.2631 46.8483 32.2273 30.8933 24.3689 31.0278 34.139 24.9931 22.1128 34.0915 27.9686 24.7263 20.1238 19.373 18.9113 17.2098 21.7514 17.0643 20.22 15.3111 30.4574 58.4597 14.7455 14.4518 14.132 14.1039 13.5013 15.6293
threshold=-0.012099999999999988 0.007500000000000011 0.0036000000000000029 0.0025999999999999951 0.0020999999999999947 -0.0027999999999999896 -0.00070000000000000433 -0.001699999999999986 -0.0040000000000000062 -0.00040000000000000967 -0.026150000000000003 -0.0090999999999999918 -0.011500000000000015 -0.00030000000000000507 -0.0032999999999999935 0.0038999999999999977 0.0064000000000000246 -0.011199999999999993 0.0021499999999999996 -0.016199999999999999 -0.0087000000000000011 0.0068000000000000083 0.0025499999999999971 -1.0000000180025095e-35 -0.0053999999999999942 -0.0013999999999999913 -0.00060000000000000147 0.011600000000000025 -0.0074999999999999954 -0.0024000000000000024
decision_type=2 2 2 2 2 2 2 2 2 2 2 2 2 2 2 2 2 2 2 2 2 2 2 2 2 2 2 2 2 2
left_child=10 2 3 5 17 -2 7 -7 -9 14 -1 12 -12 19 -10 26 -11 -4 -19 -13 -21 -8 23 -23 -15 -20 -5 -28 -26 -30
right_child=1 -3 4 15 -6 6 21 8 9 16 11 13 -14 24 -16 -17 -18 18 25 20 -22 22 -24 -25 28 -27 27 -29 29 -31
leaf_value=0.065248632390822847 0.050364567153244902 0.029262657552102764 0.052961319653561961 0.069812679056671767 0.075984089870757845 -0.037359247070792766 -0.046333768156039595 0.08119071117985914 0.10718794261980152 -0.045183789112429873 0.071993646093768918 0.068819472601733031 -0.039584630495763086 0.07896395079324095 -0.00042175602964014051 -0.031012007716948162 0.059847346976110542 0.031426109466776403 0.035334177968121265 -0.021639880184009374 0.064667791557193557 0.23403605253391688 -0.044957315459234287 -0.055140682402575018 -0.0049462311721801336 -0.045736069382247557 0.019169320400821647 -0.06634891840176714 0.079429086130085064 -0.0018162037906087301
leaf_count=182 87 450 81 71 93 1132 4223 81 35 494 32 252 286 36 148 202 23 168 51 81 69 23 181 49 329 488 419 27 62 81
internal_value=0 -0.234937 -0.336496 -0.454108 0.313636 -0.601649 -0.648876 -0.340837 0.149803 -0.178707 0.558997 0.437525 -0.404213 0.63052 0.765281 0.179326 -0.63794 0.0189673 -0.208041 1.0402 0.398333 -0.849163 -0.023893 1.6694 0.27698 -0.642675 0.435177 0.230221 0.153419 0.792682
internal_count=9936 8526 8076 7195 881 6476 6389 1913 781 700 1410 1228 318 910 183 719 517 788 707 402 150 4476 253 72 508 539 517 446 472 143
shrinkage=0.05


Tree=29
num_leaves=31
num_cat=0
split_feature=14 93 4 23 23 64 92 23 45 73 32 74 47 39 22 59 49 74 62 37 16 85 6 8 71 39 98 92 29 42
split_gain=103.344 42.2071 42.3306 45.1635 29.6671 30.8569 23.0793 22.8223 35.3325 18.7596 18.6957 39.7253 19.4445 38.8022 15.7897 15.4321 15.1867 30.9912 17.7335 15.2018 15.0933 13.8704 13.6384 16.9618 26.8147 20.6403 13.3367 16.9954 17.026 22.8254
threshold=-0.0099000000000000025 0.0062999999999999905 0.0087000000000000046 -0.011499999999999998 0.015000000000000003 -0.0031500000000000031 -0.0028000000000000017 -0.00014999999999999733 0.0069000000000000077 0.0046000000000000043 -0.00089999999999999445 -0.0032500000000000025 -0.0021499999999999987 -0.0046000000000000025 -0.0045000000000000014 -0.0043999999999999968 -0.035799999999999985 -0.01059999999999999 -0.00029999999999999119 0.0068000000000000048 -1.0000000180025095e-35 -0.012549999999999983 -0.0060000000000000114 0.00050000000000000229 0.0061999999999999876 0.0021999999999999958 0.00070000000000000108 0.023850000000000027 -0.0063500000000000006 -0.012649999999999996
decision_type=2 2 2 2 2 2 2 2 2 2 2 2 2 2 2 2 2 2 2 2 2 2 2 2 2 2 2 2 2 2
left_child=16 2 3 -2 7 -6 -7 8 10 -8 11 -5 13 -13 -15 -14 -1 -18 -19 26 -4 -9 -3 25 -25 -24 -20 28 -28 -30
right_child=1 22 20 4 5 6 9 21 -10 -11 -12 12 15 14 -16 -17 17 18 19 -21 -22 -23 23 24 -26 -27 27 -29 29 -31
leaf_value=0.060219854245664201 0.032291982626346992 0.055430002730789067 0.087879819570609821 -0.042140666159961301 0.089104501934609087 -0.03351162958547782 -0.044649959357460633 0.034377092999948282 0.073555585561321232 0.071063738294318279 -0.041868360045029911 -0.043505186122782154 0.064232792707213437 0.010754433761016903 0.10930005116855968 -0.051214260958562442 -0.035297810429286286 0.045173036443979755 -0.042887891703140966 0.072044819235242516 0.01218069117369752 -0.043651415589679568 -0.021911436696923178 0.056724059822371831 -0.028537426067229789 0.082921129439312166 0.066694087479339553 -0.049812764296930739 0.083782670965637851 -0.01331061886608617
leaf_count=174 254 94 44 586 51 363 53 44 62 70 1173 65 29 45 86 155 215 462 80 46 534 4305 325 149 128 28 79 39 34 164
internal_value=0 -0.219691 -0.333433 -0.436164 -0.521893 0.135597 -0.179028 -0.621909 -0.344567 0.760489 -0.459848 -0.147845 0.509917 0.978623 1.68586 -0.419279 0.561563 0.457424 0.593874 0.266058 0.410124 -0.832056 0.336193 0.180472 0.631006 -0.218493 0.113594 0.296367 0.504326 0.127474
internal_count=9936 8643 7919 7341 7087 537 486 6550 2201 123 2139 966 380 196 131 184 1293 1119 904 442 578 4349 724 630 277 353 396 316 277 198
shrinkage=0.05


Tree=30
num_leaves=31
num_cat=0
split_feature=14 79 28 91 76 26 16 8 95 4 41 73 80 57 60 84 1 24 44 20 58 29 15 82 78 58 53 72 89 45
split_gain=95.153 43.5334 38.1003 36.7718 27.5829 25.8909 25.2564 18.8549 18.3768 20.7594 17.6031 31.1134 22.9787 15.4815 13.9576 13.6068 13.6011 16.2327 23.2551 13.4827 13.5448 26.6485 13.154 13.0501 12.842 12.573 15.8365 12.571 19.4117 17.8945
threshold=-0.0075000000000000041 0.0019000000000000165 0.0036000000000000029 0.0063000000000000044 -9.9999999999985504e-05 -0.004699999999999988 -0.0081999999999999903 -0.0041000000000000038 0.0051000000000000047 -0.00080000000000000026 -0.028899999999999999 -0.0086999999999999942 -0.0010000000000000059 -0.0067000000000000072 -0.00069999999999998872 0.0019000000000000234 0.0012000000000000016 -0.016199999999999999 -0.0066999999999999898 -0.011050000000000009 -0.0023000000000000065 -0.0042499999999999994 -0.011199999999999996 0.0022999999999999987 -0.00010000000000000805 0.0029999999999999996 0.003599999999999996 0.010199999999999996 0.023599999999999979 -0.014349999999999996
decision_type=2 2 2 2 2 2 2 2 2 2 2 2 2 2 2 2 2 2 2 2 2 2 2 2 2 2 2 2 2 2
left_child=10 2 3 5 -3 -2 -7 -4 -8 23 -1 12 22 -6 16 25 17 -13 -19 -15 -21 -22 -12 -10 -23 -9 -27 28 29 -16
right_child=1 4 7 -5 13 6 8 15 9 -11 11 14 -14 19 27 -17 -18 18 -20 20 21 24 -24 -25 -26 26 -28 -29 -30 -31
leaf_value=0.064467403129898126 0.053053944991945767 0.049709820038589099 0.058551029950849265 0.031018266189471164 0.062461986971153328 0.025318838554472013 -0.039991929111377417 -0.035285738855502978 0.089400165065563086 -0.034988382055499583 0.07003266301263808 0.060298314101090204 -0.043749232810172838 0.037625866112734253 0.060950093916815988 0.05597409861240752 0.084190899409944092 -0.030931540188573477 0.050914653472506566 -0.056221950373533502 0.055244263276800647 0.074480731447327891 -0.034424768451544435 -0.044795101005327805 -0.021777344301701973 0.03001824676253222 -0.033169483974388514 0.060565815559019548 -0.079140457028699041 0.005355328031942691
leaf_count=150 56 275 91 175 43 143 5419 374 48 153 53 158 287 92 85 55 85 97 97 122 93 23 53 20 764 270 143 72 26 414
internal_value=0 -0.213792 -0.373467 -0.523984 0.228591 -0.614051 -0.660783 0.185515 -0.728034 0.113189 0.506358 0.420304 -0.361347 0.0081716 0.58941 -0.0136381 0.89613 0.690518 0.21763 -0.0901202 -0.226182 -0.0772528 0.707224 1.18046 -0.336812 -0.163895 0.164971 0.354256 0.22035 0.333986
internal_count=9936 8359 6947 6014 1412 5839 5783 933 5640 221 1577 1427 393 1137 1034 842 437 352 194 1094 1002 880 106 68 787 787 413 597 525 499
shrinkage=0.05


Tree=31
num_leaves=31
num_cat=0
split_feature=14 79 28 94 31 76 10 8 41 73 80 38 71 24 67 71 52 76 15 60 1 15 34 58 23 53 15 46 45 77
split_gain=87.1474 40.1554 35.4916 35.1439 25.3437 23.2711 20.5919 17.1423 17.0026 28.2729 21.204 16.2034 16.0056 25.7921 15.6102 21.3029 16.0181 14.9466 13.7537 12.8559 13.1265 15.2245 12.4884 15.0889 12.2133 12.0434 11.8694 11.6335 16.5638 12.5663
threshold=-0.0075000000000000041 0.0017999999999999928 0.0036000000000000029 0.0051999999999999868 -0.0060999999999999969 -9.9999999999985504e-05 -0.0057500000000000008 -0.0041000000000000038 -0.028899999999999999 -0.0086999999999999942 -0.0010000000000000059 0.0031000000000000094 0.0034000000000000041 -0.006000000000000001 0.0060500000000000007 0.0056000000000000051 -1.0000000180025095e-35 0.0039000000000000289 -1.0000000180025095e-35 -0.00069999999999998872 -0.0040999999999999951 -0.013699999999999974 0.00024999999999999334 0.0029999999999999996 0.017500000000000009 0.003500000000000007 -0.011199999999999996 -0.024399999999999995 -0.014349999999999996 0.0050000000000000018
decision_type=2 2 2 2 2 2 2 2 2 2 2 2 2 2 2 2 2 2 2 2 2 2 2 2 2 2 2 2 2 2
left_child=8 2 3 4 18 -3 -6 -4 -1 10 26 12 13 -5 -8 16 -16 24 -2 20 21 -11 -9 -24 -7 -25 -10 -21 -29 -30
right_child=1 5 7 11 6 17 14 22 9 19 -12 -13 -14 -15 15 -17 -18 -19 -20 27 -22 -23 23 25 -26 -27 -28 28 29 -31
leaf_value=0.063569593474232258 -0.044508900901602255 0.043320071194080802 0.055179978924452103 -0.015684528454798768 0.0073810730777309876 -0.014774154919968426 -0.043352948425882193 0.057170801486751383 0.066506365127188813 0.044461554762515974 -0.042681538054730558 0.09655274086748257 -0.036906594786880693 0.085490760879107563 0.13362465211941141 -0.030266720299689905 -0.053622379239817955 0.032977829374625733 0.080569811862680432 -0.05863978622318379 0.058684899253236569 -0.02689966687238032 -0.040561245162316954 0.028834488190193866 0.037215144005449521 -0.023031707796546216 -0.033345556947888648 0.063769114002886929 0.0024148202512490969 0.052537839034162731
leaf_count=150 35 314 91 117 240 989 4928 51 53 99 287 28 163 53 28 216 28 163 46 23 269 69 350 265 81 173 53 85 413 76
internal_value=0 -0.206979 -0.370397 -0.522622 -0.651454 0.198462 -0.708739 0.169362 0.486706 0.402815 -0.350433 0.287003 0.0739244 0.555276 -0.794575 0.0512643 1.66567 -0.00164694 0.870541 0.563673 0.859841 0.356968 -0.0237378 -0.159615 -0.17038 0.168679 0.675792 0.33792 0.408497 0.225197
internal_count=9936 8359 6812 5882 5521 1547 5440 930 1577 1427 393 361 333 170 5200 272 56 1233 81 1034 437 168 839 788 1070 438 106 597 574 489
shrinkage=0.05


Tree=32
num_leaves=31
num_cat=0
split_feature=8 1 5 15 90 14 67 36 66 24 98 81 37 8 42 98 91 69 49 18 79 77 80 26 24 96 34 29 29 91
split_gain=80.5525 44.983 40.2707 34.5981 38.5632 23.7166 21.9237 28.4468 17.7949 17.5641 17.4753 26.9185 16.436 18.62 16.3351 16.2633 23.782 16.5021 16.7212 14.5196 13.9045 15.2073 12.5096 12.4627 12.428 12.1225 12.0084 11.6698 11.6094 14.4616
threshold=-0.0075000000000000041 0.0037000000000000058 -0.0025000000000000001 0.016300000000000002 0.0058999999999999929 0.00040000000000000284 0.0052000000000000006 -0.0032999999999999952 0.0080000000000000054 0.022550000000000011 -0.0003000000000000068 -0.0067000000000000072 -0.005100000000000003 -0.0013000000000000006 0.0054000000000000064 -0.0014000000000000035 -0.0016000000000000022 0.0049000000000000094 0.0098999999999999973 -0.01155 0.0015000000000000033 -0.00029999999999999987 0.0022000000000000114 -0.0042999999999999939 -0.017499999999999995 -0.019649999999999997 0.0032000000000000036 -0.005099999999999996 -0.002799999999999993 0.0049999999999999966
decision_type=2 2 2 2 2 2 2 2 2 2 2 2 2 2 2 2 2 2 2 2 2 2 2 2 2 2 2 2 2 2
left_child=10 2 12 4 9 8 7 22 14 19 11 -1 13 23 -3 17 -17 -14 -19 -4 -7 -22 -6 -2 -25 -5 -8 -21 -13 -30
right_child=1 5 3 25 6 20 26 -9 -10 -11 -12 28 15 -15 -16 16 -18 18 -20 27 21 -23 -24 24 -26 -27 -28 -29 29 -31
leaf_value=0.077943289311254313 0.045264049015724193 0.048329261646283123 0.018867106737818263 -0.056177851379303159 0.03680619985480528 -0.011322799026057311 -0.055498769818203453 0.066920029677251899 -0.048531162216978417 0.052275900192415896 0.03720682381054545 -0.055166236994991125 -0.034299512334688427 0.048871435815203097 0.15747548613994489 0.086268622788297555 0.016237400986082447 0.11368694472602521 -0.014437141862721948 0.023478467123197552 0.086429024550477532 0.0092522283657327908 -0.039557565020652642 0.013741247421818837 -0.05526955877269403 0.042033528946276807 0.044843124942079884 -0.041887604685255292 -0.014926356385379654 0.083613942637889557
leaf_count=46 27 250 83 43 50 759 168 108 22 38 807 116 371 56 22 104 434 28 43 66 49 209 108 54 271 176 21 5224 162 21
internal_value=0 -0.165418 -0.297716 -0.473621 -0.560482 0.349269 0.132669 0.517431 0.967957 -0.721225 0.571605 0.0418976 0.137906 -0.321272 1.18406 0.374688 0.656749 -0.203413 0.842146 -0.756609 0.0654973 0.579762 -0.248367 -0.600039 -0.795565 0.590351 -0.741871 -0.803096 -0.335823 0.066325
internal_count=9936 8784 7473 6085 5866 1311 455 266 294 5411 1152 345 1388 408 272 980 538 442 71 5373 1017 258 158 352 325 219 189 5290 299 183
shrinkage=0.05


Tree=33
num_leaves=31
num_cat=0
split_feature=8 2 25 47 24 89 28 98 34 2 98 22 11 92 18 22 30 14 91 40 35 61 70 65 92 91 19 24 80 11
split_gain=74.1931 44.9535 38.116 39.3295 29.4844 23.4603 22.3529 19.8505 24.6827 28.2486 19.6583 26.2678 19.3213 19.1503 17.4624 17.3458 17.8238 15.2234 15.1699 14.8868 14.7792 22.5255 17.0979 20.6286 13.731 13.3087 15.7618 15.4909 14.7253 11.6529
threshold=-0.0053999999999999994 0.0050000000000000001 -0.0027999999999999896 -0.0018999999999999952 0.015550000000000003 -0.00040000000000000273 -0.0053499999999999997 0.018350000000000002 -0.0042999999999999939 -0.0074999999999999954 -0.00039999999999999579 -0.0030999999999999843 -0.0118 0.0068000000000000048 -0.0072999999999999897 0.0011999999999999964 0.00059999999999999301 0.00040000000000000284 -0.00099999999999999894 0.0047000000000000071 -0.0026500000000000026 0.0055000000000000023 0.0072000000000000024 0.017650000000000002 -0.0023000000000000013 0.0081000000000000048 -0.016199999999999999 -0.035400000000000001 0.0060000000000000131 -0.0037999999999999991
decision_type=2 2 2 2 2 2 2 2 2 2 2 2 2 2 2 2 2 2 2 2 2 2 2 2 2 2 2 2 2 2
left_child=7 2 -2 10 6 -6 -5 8 25 13 -4 12 -12 -10 -8 16 18 19 -13 -3 -19 -22 -23 -24 -14 26 -1 -27 29 -28
right_child=1 17 3 4 5 -7 14 -9 9 -11 11 15 24 -15 -16 -17 -18 20 -20 -21 21 22 23 -25 -26 27 28 -29 -30 -31
leaf_value=0.045420942425681766 0.035357249485390305 0.034536707998922785 -0.040435966292916778 0.060001712941402011 -0.025223358435136452 0.052968212664763759 0.024784918557462426 0.051451944545329725 -0.02675137900298602 0.051067247673143114 0.057723698497750657 0.15567074341021903 0.067614444419331371 0.067939939670558766 -0.044885272121669303 -0.0084664149034047089 -0.02660734212556401 0.058629829309839267 0.057354525343780882 0.13011748306884036 -0.030399514216010334 0.081349451129924991 -0.0401486005319317 0.055545094241004213 -0.018549511390462296 0.028997656816590053 -0.028268893927224738 -0.053580948633754892 0.058934806442494152 0.037960426529527365
leaf_count=140 217 169 532 37 308 102 93 273 161 487 57 38 33 34 4614 152 68 75 157 27 474 56 129 54 908 43 281 132 36 49
internal_value=0 -0.194813 -0.324002 -0.400576 -0.648146 0.149507 -0.78801 0.453841 0.316807 0.667254 -0.0470467 0.0924073 -0.160278 -0.121942 -0.838013 0.756939 1.19147 0.39683 1.54399 1.03817 0.171639 -0.0176225 0.56393 0.077302 -0.289942 -0.029491 0.19358 -0.612699 -0.104401 -0.324147
internal_count=9936 8300 7316 7099 5154 410 4744 1636 1363 682 1945 1413 998 195 4707 415 263 984 195 196 788 713 239 183 941 681 506 175 366 330
shrinkage=0.05


Tree=34
num_leaves=31
num_cat=0
split_feature=14 4 3 21 40 21 96 41 73 79 98 63 87 98 71 63 31 46 42 82 39 37 25 2 74 21 81 43 35 25
split_gain=69.4743 33.9449 47.6204 26.533 31.5425 25.3322 25.1568 15.8874 24.8593 17.1537 14.1221 13.2091 12.951 12.7756 12.4869 22.3366 12.4235 12.5425 13.3706 12.3908 11.8199 22.1706 14.2903 11.5148 11.4305 17.9189 11.1378 10.983 10.5181 10.4357
threshold=-0.0075000000000000041 0.0088000000000000005 -0.0025000000000000001 -0.00025000000000000711 0.0044000000000000055 0.018800000000000011 0.010600000000000007 -0.028899999999999999 -0.0086999999999999942 -9.9999999999985504e-05 -0.00029999999999999119 -0.00089999999999999098 -0.0012999999999999919 -0.022699999999999988 -0.0038999999999999898 -0.00329999999999999 0.011850000000000001 -0.0015999999999999936 -0.00085000000000000342 -0.0033999999999999981 -0.0055999999999999982 -0.0087999999999999971 0.00029999999999999997 0.018800000000000008 0.0025499999999999971 -0.0020999999999999938 0.006600000000000006 -0.011199999999999989 -0.0014999999999999994 -0.001100000000000007
decision_type=2 2 2 2 2 2 2 2 2 2 2 2 2 2 2 2 2 2 2 2 2 2 2 2 2 2 2 2 2 2
left_child=7 2 6 4 10 16 14 -1 9 -9 -4 20 -6 -3 27 -16 17 18 -5 -7 21 -10 -23 -19 25 29 -21 -2 -27 -12
right_child=1 13 3 5 12 19 -8 8 11 -11 24 -13 -14 -15 15 -17 -18 23 -20 26 -22 22 -24 -25 -26 28 -28 -29 -30 -31
leaf_value=0.061731173094603645 0.050737284090485925 -0.050189005614260186 -0.045672517951589692 -0.018529240312030727 0.015191256116373836 -0.045485496758074943 0.072442014893977211 0.02379840856940113 0.054867263051466955 -0.043688715238345187 0.031723146475076625 0.013618801395150239 0.10817032662315854 0.028087268737583795 0.061130545030750244 -0.00049603402222995574 0.055273062660606602 -0.04772800804113253 0.12829305629670915 0.055686754843154378 0.066626265078234867 -0.033327688065585725 0.04989351154483946 0.085404565847461311 -0.036949958391803261 0.078591837872719436 -0.038066331755819964 -0.045132320804096425 -0.011651997489171546 -0.017728935367439577
leaf_count=150 22 67 609 311 76 93 77 127 166 266 104 572 44 537 129 713 21 4010 35 97 151 106 39 22 289 62 21 292 87 641
internal_value=0 -0.191483 -0.284295 -0.461679 -0.139968 -0.67995 0.248802 0.439117 0.359396 -0.35775 -0.289831 0.511635 1.23807 0.441979 0.0820673 0.249878 -0.797997 -0.83058 -0.183596 0.273303 0.805573 0.539432 -0.170201 -0.929016 -0.125442 0.0454469 0.69554 -0.591997 1.02573 -0.168927
internal_count=9936 8359 7755 6522 1912 4610 1233 1577 1427 393 1792 1034 120 604 1156 842 4399 4378 346 211 462 311 145 4032 1183 894 118 314 149 745
shrinkage=0.05


Tree=35
num_leaves=31
num_cat=0
split_feature=11 4 4 81 11 26 5 23 31 74 53 74 3 23 17 87 97 79 46 23 85 97 25 90 72 23 98 26 2 74
split_gain=66.515 36.2993 35.5241 24.9477 20.8546 18.2217 16.2965 16.199 16.5399 17.345 17.4273 15.425 14.7193 14.6244 11.5824 12.1955 14.3639 13.1427 11.4912 13.4131 12.8089 10.7113 10.6879 10.6081 10.8965 16.185 18.1611 10.5699 10.5479 10.3469
threshold=-0.00609999999999999 0.0075000000000000023 -0.0028999999999999976 0.0023999999999999824 -0.0025999999999999942 -0.004699999999999988 -0.0022999999999999926 -0.035799999999999978 0.0049000000000000059 -0.01059999999999999 -0.00049999999999997952 0.0059000000000000068 -0.011199999999999996 0.015000000000000003 -0.011500000000000003 -0.0029000000000000098 -0.0023999999999999885 0.0032999999999999943 -0.0021999999999999863 -0.0044000000000000107 0.0021000000000000155 -0.025450000000000004 0.00039999999999999243 0.0058999999999999929 0.0045000000000000118 0.0013499999999999973 0.0027000000000000049 -0.0033999999999999963 -0.0089000000000000103 0.0038999999999999907
decision_type=2 2 2 2 2 2 2 2 2 2 2 2 2 2 2 2 2 2 2 2 2 2 2 2 2 2 2 2 2 2
left_child=7 2 4 5 -2 -4 -7 -1 9 28 14 -6 -10 18 -11 16 -16 22 19 20 -5 -3 -17 24 -8 26 -26 -23 -9 -25
right_child=1 21 3 13 11 6 23 8 12 10 -12 -13 -14 -15 15 17 -18 -19 -20 -21 -22 27 -24 29 25 -27 -28 -29 -30 -31
leaf_value=0.045378872052808855 -0.021284578161498997 -0.055468425883775901 0.061017350059536526 0.07690116991679477 0.040751746064403883 -0.0035350311103995325 -0.046785068540886543 0.040318928869558679 -0.027962769685383082 0.047169553229677648 -0.0012766399341389678 -0.018384212662761711 0.07259570007971787 0.042847975415920753 -0.057717694861900697 -0.032053932632581529 0.10846279806820694 0.061067905496986846 -0.034637579135599686 0.037833427250938717 -0.030227045335044542 0.068502757180481849 0.032719963809713599 0.036719275901921242 0.086475920610891349 -0.037941799063347881 -0.033773638058769394 0.01573812295466346 -0.050005465938322981 -0.052796293628629046
leaf_count=290 354 60 31 24 459 535 4091 33 22 235 552 128 96 85 20 181 28 37 456 135 190 57 55 50 57 657 100 628 230 60
internal_value=0 -0.218714 -0.331145 -0.474767 0.206929 -0.625638 -0.661849 0.381686 0.271031 0.180596 0.279544 0.547311 1.0663 -0.0190301 0.588428 0.233352 1.4108 0.00789661 -0.20403 0.111548 -0.3477 0.371199 -0.273 -0.764963 -0.820067 -0.379146 0.580843 0.453774 -0.668302 0.0807028
internal_count=9936 8157 7412 6471 941 5581 5550 1779 1489 1371 1108 587 118 890 556 321 48 273 805 349 214 745 236 5015 4905 814 157 685 263 110
shrinkage=0.05


Tree=36
num_leaves=31
num_cat=0
split_feature=11 4 4 81 24 11 26 5 31 98 43 31 28 19 3 20 23 20 86 93 9 9 2 34 47 24 86 13 64 90
split_gain=60.8547 33.2996 33.0633 23.5923 18.9744 18.7854 16.7833 15.8189 15.7064 15.5456 26.3932 20.1125 17.0274 21.9678 14.5973 13.7469 13.2695 12.2711 12.1891 17.2409 11.5853 17.6914 13.1784 10.8795 10.8196 12.8507 10.3838 10.2661 10.1869 10.1536
threshold=-0.00609999999999999 0.0075000000000000023 -0.0028999999999999976 0.0023999999999999824 -0.038999999999999979 -0.0025999999999999942 -0.004699999999999988 -0.0022999999999999926 0.0049000000000000059 -0.00079999999999998464 -0.0067499999999999982 0.00030000000000000344 -0.0072500000000000021 -0.048399999999999999 -0.011199999999999996 -0.0016000000000000022 0.015000000000000003 0.0063000000000000026 -0.0041999999999999997 -0.0042999999999999957 -0.015149999999999995 -0.0043999999999999985 -0.0062999999999999957 -0.0070999999999999874 -0.0020500000000000097 -0.0074999999999999971 0.000799999999999997 0.00070000000000000455 0.0027000000000000153 0.0058999999999999929
decision_type=2 2 2 2 2 2 2 2 2 2 2 2 2 2 2 2 2 2 2 2 2 2 2 2 2 2 2 2 2 2
left_child=4 2 5 6 -1 -2 -4 -8 9 18 12 -12 13 -11 -10 -7 24 -17 19 -6 22 26 -14 -23 25 -5 -22 -3 -13 -9
right_child=1 27 3 16 8 15 7 29 14 10 11 28 20 -15 -16 17 -18 -19 -20 -21 21 23 -24 -25 -26 -27 -28 -29 -30 -31
