{
    "name": "tree",
    "version": "v2",
    "num_class": 1,
    "num_tree_per_iteration": 1,
    "label_index": 0,
    "max_feature_idx": 98,
    "feature_names": [
        "feature_0",
        "feature_1",
        "feature_2",
        "feature_3",
        "feature_4",
        "feature_5",
        "feature_6",
        "feature_7",
        "feature_8",
        "feature_9",
        "feature_10",
        "feature_11",
        "feature_12",
        "feature_13",
        "feature_14",
        "feature_15",
        "feature_16",
        "feature_17",
        "feature_18",
        "feature_19",
        "feature_20",
        "feature_21",
        "feature_22",
        "feature_23",
        "feature_24",
        "feature_25",
        "feature_26",
        "feature_27",
        "feature_28",
        "feature_29",
        "feature_30",
        "feature_31",
        "feature_32",
        "feature_33",
        "feature_34",
        "feature_35",
        "feature_36",
        "feature_37",
        "feature_38",
        "feature_39",
        "feature_40",
        "feature_41",
        "feature_42",
        "feature_43",
        "feature_44",
        "feature_45",
        "feature_46",
        "feature_47",
        "feature_48",
        "feature_49",
        "feature_50",
        "feature_51",
        "feature_52",
        "feature_53",
        "feature_54",
        "feature_55",
        "feature_56",
        "feature_57",
        "feature_58",
        "feature_59",
        "feature_60",
        "feature_61",
        "feature_62",
        "feature_63",
        "feature_64",
        "feature_65",
        "feature_66",
        "feature_67",
        "feature_68",
        "feature_69",
        "feature_70",
        "feature_71",
        "feature_72",
        "feature_73",
        "feature_74",
        "feature_75",
        "feature_76",
        "feature_77",
        "feature_78",
        "feature_79",
        "feature_80",
        "feature_81",
        "feature_82",
        "feature_83",
        "feature_84",
        "feature_85",
        "feature_86",
        "feature_87",
        "feature_88",
        "feature_89",
        "feature_90",
        "feature_91",
        "feature_92",
        "feature_93",
        "feature_94",
        "feature_95",
        "feature_96",
        "feature_97",
        "feature_98"
    ],
    "tree_info": [
        {
            "tree_index": 0,
            "num_leaves": 31,
            "num_cat": 0,
            "shrinkage": 1,
            "tree_structure": {
                "split_index": 0,
                "split_feature": 13,
                "split_gain": 1644.52001953125,
                "threshold": -0.0125,
                "decision_type": "<=",
                "default_left": true,
                "missing_type": "None",
                "internal_value": 0,
                "internal_count": 9916,
                "left_child": {
                    "split_index": 3,
                    "split_feature": 24,
                    "split_gain": 230.69500732421875,
                    "threshold": -0.0354,
                    "decision_type": "<=",
                    "default_left": true,
                    "missing_type": "None",
                    "internal_value": 3.62454,
                    "internal_count": 873,
                    "left_child": {
                        "split_index": 14,
                        "split_feature": 64,
                        "split_gain": 89.11060333251953,
                        "threshold": 0.005100000000000015,
                        "decision_type": "<=",
                        "default_left": true,
                        "missing_type": "None",
                        "internal_value": 5.64345,
                        "internal_count": 292,
                        "left_child": {
                            "leaf_index": 0,
                            "leaf_value": -1.4033032612294116,
                            "leaf_count": 248
                        },
                        "right_child": {
                            "split_index": 29,
                            "split_feature": 28,
                            "split_gain": 57.08359909057617,
                            "threshold": 0.002100000000000007,
                            "decision_type": "<=",
                            "default_left": true,
                            "missing_type": "None",
                            "internal_value": 1.99186,
                            "internal_count": 44,
                            "left_child": {
                                "leaf_index": 15,
                                "leaf_value": -1.4597105049995662,
                                "leaf_count": 22
                            },
                            "right_child": {
                                "leaf_index": 30,
                                "leaf_value": -1.776841407002047,
                                "leaf_count": 22
                            }
                        }
                    },
                    "right_child": {
                        "split_index": 10,
                        "split_feature": 72,
                        "split_gain": 105.47899627685547,
                        "threshold": -0.009999999999999986,
                        "decision_type": "<=",
                        "default_left": true,
                        "missing_type": "None",
                        "internal_value": 2.60987,
                        "internal_count": 581,
                        "left_child": {
                            "split_index": 11,
                            "split_feature": 62,
                            "split_gain": 116.38899993896484,
                            "threshold": -0.013099999999999992,
                            "decision_type": "<=",
                            "default_left": true,
                            "missing_type": "None",
                            "internal_value": 0.543238,
                            "internal_count": 144,
                            "left_child": {
                                "leaf_index": 4,
                                "leaf_value": -1.4517538157020131,
                                "leaf_count": 31
                            },
                            "right_child": {
                                "leaf_index": 12,
                                "leaf_value": -1.7562606405004113,
                                "leaf_count": 113
                            }
                        },
                        "right_child": {
                            "split_index": 12,
                            "split_feature": 61,
                            "split_gain": 112.25599670410156,
                            "threshold": -0.0006999999999999887,
                            "decision_type": "<=",
                            "default_left": true,
                            "missing_type": "None",
                            "internal_value": 3.29086,
                            "internal_count": 437,
                            "left_child": {
                                "leaf_index": 11,
                                "leaf_value": -1.4728779284160436,
                                "leaf_count": 190
                            },
                            "right_child": {
                                "split_index": 18,
                                "split_feature": 64,
                                "split_gain": 73.28820037841797,
                                "threshold": 0.01070000000000001,
                                "decision_type": "<=",
                                "default_left": true,
                                "missing_type": "None",
                                "internal_value": 2.0532,
                                "internal_count": 247,
                                "left_child": {
                                    "split_index": 26,
                                    "split_feature": 28,
                                    "split_gain": 59.14500045776367,
                                    "threshold": -0.0064999999999999945,
                                    "decision_type": "<=",
                                    "default_left": true,
                                    "missing_type": "None",
                                    "internal_value": 1.54426,
                                    "internal_count": 222,
                                    "left_child": {
                                        "split_index": 27,
                                        "split_feature": 90,
                                        "split_gain": 67.65460205078125,
                                        "threshold": 0.012199999999999976,
                                        "decision_type": "<=",
                                        "default_left": true,
                                        "missing_type": "None",
                                        "internal_value": 3.7537000000000003,
                                        "internal_count": 66,
                                        "left_child": {
                                            "leaf_index": 13,
                                            "leaf_value": -1.3892369712212376,
                                            "leaf_count": 33
                                        },
                                        "right_child": {
                                            "leaf_index": 28,
                                            "leaf_value": -1.6711311063345535,
                                            "leaf_count": 33
                                        }
                                    },
                                    "right_child": {
                                        "leaf_index": 27,
                                        "leaf_value": -1.687394229514168,
                                        "leaf_count": 156
                                    }
                                },
                                "right_child": {
                                    "leaf_index": 19,
                                    "leaf_value": -1.3892369712212371,
                                    "leaf_count": 25
                                }
                            }
                        }
                    }
                },
                "right_child": {
                    "split_index": 1,
                    "split_feature": 92,
                    "split_gain": 389.10198974609375,
                    "threshold": 0.005899999999999993,
                    "decision_type": "<=",
                    "default_left": true,
                    "missing_type": "None",
                    "internal_value": -0.377065,
                    "internal_count": 9043,
                    "left_child": {
                        "split_index": 2,
                        "split_feature": 84,
                        "split_gain": 290.8169860839844,
                        "threshold": 0.006800000000000019,
                        "decision_type": "<=",
                        "default_left": true,
                        "missing_type": "None",
                        "internal_value": -0.563332,
                        "internal_count": 8191,
                        "left_child": {
                            "split_index": 4,
                            "split_feature": 83,
                            "split_gain": 225.15499877929688,
                            "threshold": -0.00929999999999999,
                            "decision_type": "<=",
                            "default_left": true,
                            "missing_type": "None",
                            "internal_value": -0.625659,
                            "internal_count": 8077,
                            "left_child": {
                                "split_index": 6,
                                "split_feature": 19,
                                "split_gain": 147.86700439453125,
                                "threshold": 0.007900000000000013,
                                "decision_type": "<=",
                                "default_left": true,
                                "missing_type": "None",
                                "internal_value": 1.56841,
                                "internal_count": 347,
                                "left_child": {
                                    "leaf_index": 1,
                                    "leaf_value": -1.4892639223904784,
                                    "leaf_count": 93
                                },
                                "right_child": {
                                    "split_index": 9,
                                    "split_feature": 65,
                                    "split_gain": 108.5790023803711,
                                    "threshold": 0.016949999999999996,
                                    "decision_type": "<=",
                                    "default_left": true,
                                    "missing_type": "None",
                                    "internal_value": 0.468634,
                                    "internal_count": 254,
                                    "left_child": {
                                        "split_index": 20,
                                        "split_feature": 31,
                                        "split_gain": 70.21240234375,
                                        "threshold": -0.002399999999999997,
                                        "decision_type": "<=",
                                        "default_left": true,
                                        "missing_type": "None",
                                        "internal_value": -0.259109,
                                        "internal_count": 219,
                                        "left_child": {
                                            "leaf_index": 7,
                                            "leaf_value": -1.4949472718887309,
                                            "leaf_count": 22
                                        },
                                        "right_child": {
                                            "leaf_index": 21,
                                            "leaf_value": -1.7571660549319552,
                                            "leaf_count": 197
                                        }
                                    },
                                    "right_child": {
                                        "leaf_index": 10,
                                        "leaf_value": -1.4667578583773992,
                                        "leaf_count": 35
                                    }
                                }
                            },
                            "right_child": {
                                "split_index": 7,
                                "split_feature": 13,
                                "split_gain": 137.60000610351562,
                                "threshold": -0.0073999999999999995,
                                "decision_type": "<=",
                                "default_left": true,
                                "missing_type": "None",
                                "internal_value": -0.724151,
                                "internal_count": 7730,
                                "left_child": {
                                    "split_index": 19,
                                    "split_feature": 43,
                                    "split_gain": 71.32830047607422,
                                    "threshold": -0.007399999999999998,
                                    "decision_type": "<=",
                                    "default_left": true,
                                    "missing_type": "None",
                                    "internal_value": 0.726002,
                                    "internal_count": 476,
                                    "left_child": {
                                        "leaf_index": 5,
                                        "leaf_value": -1.7494563109957944,
                                        "leaf_count": 184
                                    },
                                    "right_child": {
                                        "split_index": 21,
                                        "split_feature": 98,
                                        "split_gain": 69.04239654541016,
                                        "threshold": -0.00040000000000000273,
                                        "decision_type": "<=",
                                        "default_left": true,
                                        "missing_type": "None",
                                        "internal_value": 1.5815700000000001,
                                        "internal_count": 292,
                                        "left_child": {
                                            "leaf_index": 20,
                                            "leaf_value": -1.7112906568332338,
                                            "leaf_count": 136
                                        },
                                        "right_child": {
                                            "split_index": 23,
                                            "split_feature": 18,
                                            "split_gain": 60.46009826660156,
                                            "threshold": -0.012650000000000007,
                                            "decision_type": "<=",
                                            "default_left": true,
                                            "missing_type": "None",
                                            "internal_value": 2.84567,
                                            "internal_count": 156,
                                            "left_child": {
                                                "leaf_index": 22,
                                                "leaf_value": -1.4279974147993184,
                                                "leaf_count": 40
                                            },
                                            "right_child": {
                                                "split_index": 24,
                                                "split_feature": 53,
                                                "split_gain": 61.750999450683594,
                                                "threshold": -0.0020500000000000028,
                                                "decision_type": "<=",
                                                "default_left": true,
                                                "missing_type": "None",
                                                "internal_value": 1.82783,
                                                "internal_count": 116,
                                                "left_child": {
                                                    "leaf_index": 24,
                                                    "leaf_value": -1.4619128029301391,
                                                    "leaf_count": 32
                                                },
                                                "right_child": {
                                                    "leaf_index": 25,
                                                    "leaf_value": -1.689168975099245,
                                                    "leaf_count": 84
                                                }
                                            }
                                        }
                                    }
                                },
                                "right_child": {
                                    "split_index": 8,
                                    "split_feature": 82,
                                    "split_gain": 112.44499969482422,
                                    "threshold": 0.005400000000000006,
                                    "decision_type": "<=",
                                    "default_left": true,
                                    "missing_type": "None",
                                    "internal_value": -0.819308,
                                    "internal_count": 7254,
                                    "left_child": {
                                        "split_index": 15,
                                        "split_feature": 30,
                                        "split_gain": 81.0469970703125,
                                        "threshold": -0.005700000000000006,
                                        "decision_type": "<=",
                                        "default_left": true,
                                        "missing_type": "None",
                                        "internal_value": -0.859875,
                                        "internal_count": 7156,
                                        "left_child": {
                                            "split_index": 22,
                                            "split_feature": 69,
                                            "split_gain": 62.72330093383789,
                                            "threshold": 0.0017000000000000142,
                                            "decision_type": "<=",
                                            "default_left": true,
                                            "missing_type": "None",
                                            "internal_value": 1.22261,
                                            "internal_count": 142,
                                            "left_child": {
                                                "leaf_index": 8,
                                                "leaf_value": -1.708651737744312,
                                                "leaf_count": 108
                                            },
                                            "right_child": {
                                                "leaf_index": 23,
                                                "leaf_value": -1.4918381453985103,
                                                "leaf_count": 34
                                            }
                                        },
                                        "right_child": {
                                            "leaf_index": 16,
                                            "leaf_value": -1.7629707606688587,
                                            "leaf_count": 7014
                                        }
                                    },
                                    "right_child": {
                                        "split_index": 28,
                                        "split_feature": 43,
                                        "split_gain": 58.54719924926758,
                                        "threshold": -0.0012999999999999884,
                                        "decision_type": "<=",
                                        "default_left": true,
                                        "missing_type": "None",
                                        "internal_value": 2.14288,
                                        "internal_count": 98,
                                        "left_child": {
                                            "leaf_index": 9,
                                            "leaf_value": -1.4597105049995662,
                                            "leaf_count": 33
                                        },
                                        "right_child": {
                                            "leaf_index": 29,
                                            "leaf_value": -1.687394229514168,
                                            "leaf_count": 65
                                        }
                                    }
                                }
                            }
                        },
                        "right_child": {
                            "split_index": 25,
                            "split_feature": 58,
                            "split_gain": 59.55220031738281,
                            "threshold": -0.001799999999999989,
                            "decision_type": "<=",
                            "default_left": true,
                            "missing_type": "None",
                            "internal_value": 3.85261,
                            "internal_count": 114,
                            "left_child": {
                                "leaf_index": 3,
                                "leaf_value": -1.6828766952976084,
                                "leaf_count": 33
                            },
                            "right_child": {
                                "leaf_index": 26,
                                "leaf_value": -1.4610155704399057,
                                "leaf_count": 81
                            }
                        }
                    },
                    "right_child": {
                        "split_index": 5,
                        "split_feature": 23,
                        "split_gain": 158.08200073242188,
                        "threshold": 0.020050000000000002,
                        "decision_type": "<=",
                        "default_left": true,
                        "missing_type": "None",
                        "internal_value": 1.41368,
                        "internal_count": 852,
                        "left_child": {
                            "split_index": 13,
                            "split_feature": 34,
                            "split_gain": 90.72100067138672,
                            "threshold": 0.0038000000000000017,
                            "decision_type": "<=",
                            "default_left": true,
                            "missing_type": "None",
                            "internal_value": 1.09255,
                            "internal_count": 795,
                            "left_child": {
                                "split_index": 16,
                                "split_feature": 11,
                                "split_gain": 77.08889770507812,
                                "threshold": -0.014149999999999994,
                                "decision_type": "<=",
                                "default_left": true,
                                "missing_type": "None",
                                "internal_value": 0.814249,
                                "internal_count": 731,
                                "left_child": {
                                    "leaf_index": 2,
                                    "leaf_value": -1.5046936116665848,
                                    "leaf_count": 47
                                },
                                "right_child": {
                                    "split_index": 17,
                                    "split_feature": 98,
                                    "split_gain": 75.15380096435547,
                                    "threshold": 0.004099999999999983,
                                    "decision_type": "<=",
                                    "default_left": true,
                                    "missing_type": "None",
                                    "internal_value": 0.577239,
                                    "internal_count": 684,
                                    "left_child": {
                                        "leaf_index": 17,
                                        "leaf_value": -1.5478024222224775,
                                        "leaf_count": 66
                                    },
                                    "right_child": {
                                        "leaf_index": 18,
                                        "leaf_value": -1.704087176337688,
                                        "leaf_count": 618
                                    }
                                }
                            },
                            "right_child": {
                                "leaf_index": 14,
                                "leaf_value": -1.5043070380936652,
                                "leaf_count": 64
                            }
                        },
                        "right_child": {
                            "leaf_index": 6,
                            "leaf_value": -1.423237360324817,
                            "leaf_count": 57
                        }
                    }
                }
            }
        },
        {
            "tree_index": 1,
            "num_leaves": 31,
            "num_cat": 0,
            "shrinkage": 0.05,
            "tree_structure": {
                "split_index": 0,
                "split_feature": 17,
                "split_gain": 1380.3699951171875,
                "threshold": -0.011499999999999998,
                "decision_type": "<=",
                "default_left": true,
                "missing_type": "None",
                "internal_value": 0,
                "internal_count": 9916,
                "left_child": {
                    "split_index": 2,
                    "split_feature": 20,
                    "split_gain": 209.2480010986328,
                    "threshold": -0.027949999999999992,
                    "decision_type": "<=",
                    "default_left": true,
                    "missing_type": "None",
                    "internal_value": 2.62086,
                    "internal_count": 1199,
                    "left_child": {
                        "split_index": 10,
                        "split_feature": 64,
                        "split_gain": 81.4136962890625,
                        "threshold": 0.004600000000000015,
                        "decision_type": "<=",
                        "default_left": true,
                        "missing_type": "None",
                        "internal_value": 3.98712,
                        "internal_count": 448,
                        "left_child": {
                            "leaf_index": 0,
                            "leaf_value": 0.22660098809544482,
                            "leaf_count": 353
                        },
                        "right_child": {
                            "split_index": 21,
                            "split_feature": 10,
                            "split_gain": 54.496498107910156,
                            "threshold": -0.009949999999999999,
                            "decision_type": "<=",
                            "default_left": true,
                            "missing_type": "None",
                            "internal_value": 1.7786,
                            "internal_count": 95,
                            "left_child": {
                                "split_index": 24,
                                "split_feature": 33,
                                "split_gain": 52.57609939575195,
                                "threshold": -0.015799999999999998,
                                "decision_type": "<=",
                                "default_left": true,
                                "missing_type": "None",
                                "internal_value": 3.15431,
                                "internal_count": 62,
                                "left_child": {
                                    "leaf_index": 11,
                                    "leaf_value": -0.011181947040062156,
                                    "leaf_count": 22
                                },
                                "right_child": {
                                    "leaf_index": 25,
                                    "leaf_value": 0.2428696529548065,
                                    "leaf_count": 40
                                }
                            },
                            "right_child": {
                                "leaf_index": 22,
                                "leaf_value": -0.059011102357043224,
                                "leaf_count": 33
                            }
                        }
                    },
                    "right_child": {
                        "split_index": 5,
                        "split_feature": 73,
                        "split_gain": 123.70999908447266,
                        "threshold": -0.010249999999999993,
                        "decision_type": "<=",
                        "default_left": true,
                        "missing_type": "None",
                        "internal_value": 1.72326,
                        "internal_count": 751,
                        "left_child": {
                            "split_index": 18,
                            "split_feature": 32,
                            "split_gain": 57.768699645996094,
                            "threshold": 0.0013000000000000062,
                            "decision_type": "<=",
                            "default_left": true,
                            "missing_type": "None",
                            "internal_value": -0.198443,
                            "internal_count": 192,
                            "left_child": {
                                "leaf_index": 3,
                                "leaf_value": -0.04268820097023202,
                                "leaf_count": 164
                            },
                            "right_child": {
                                "leaf_index": 19,
                                "leaf_value": 0.16445711118035267,
                                "leaf_count": 28
                            }
                        },
                        "right_child": {
                            "split_index": 9,
                            "split_feature": 65,
                            "split_gain": 83.03130340576172,
                            "threshold": -0.0016999999999999964,
                            "decision_type": "<=",
                            "default_left": true,
                            "missing_type": "None",
                            "internal_value": 2.34842,
                            "internal_count": 559,
                            "left_child": {
                                "split_index": 27,
                                "split_feature": 20,
                                "split_gain": 42.3849983215332,
                                "threshold": -0.012450000000000001,
                                "decision_type": "<=",
                                "default_left": true,
                                "missing_type": "None",
                                "internal_value": 3.54429,
                                "internal_count": 234,
                                "left_child": {
                                    "leaf_index": 6,
                                    "leaf_value": 0.21541817733547386,
                                    "leaf_count": 156
                                },
                                "right_child": {
                                    "leaf_index": 28,
                                    "leaf_value": 0.09374484746059697,
                                    "leaf_count": 78
                                }
                            },
                            "right_child": {
                                "split_index": 14,
                                "split_feature": 56,
                                "split_gain": 65.00789642333984,
                                "threshold": 0.006300000000000008,
                                "decision_type": "<=",
                                "default_left": true,
                                "missing_type": "None",
                                "internal_value": 1.4548,
                                "internal_count": 325,
                                "left_child": {
                                    "leaf_index": 10,
                                    "leaf_value": 0.047938436923359515,
                                    "leaf_count": 281
                                },
                                "right_child": {
                                    "leaf_index": 15,
                                    "leaf_value": 0.22009890036359386,
                                    "leaf_count": 44
                                }
                            }
                        }
                    }
                },
                "right_child": {
                    "split_index": 1,
                    "split_feature": 91,
                    "split_gain": 310.22198486328125,
                    "threshold": 0.005599999999999998,
                    "decision_type": "<=",
                    "default_left": true,
                    "missing_type": "None",
                    "internal_value": -0.434497,
                    "internal_count": 8717,
                    "left_child": {
                        "split_index": 3,
                        "split_feature": 83,
                        "split_gain": 206.92999267578125,
                        "threshold": 0.00600000000000001,
                        "decision_type": "<=",
                        "default_left": true,
                        "missing_type": "None",
                        "internal_value": -0.60171,
                        "internal_count": 7970,
                        "left_child": {
                            "split_index": 4,
                            "split_feature": 84,
                            "split_gain": 183.21299743652344,
                            "threshold": -0.011500000000000002,
                            "decision_type": "<=",
                            "default_left": true,
                            "missing_type": "None",
                            "internal_value": -0.659396,
                            "internal_count": 7857,
                            "left_child": {
                                "split_index": 6,
                                "split_feature": 98,
                                "split_gain": 114.43299865722656,
                                "threshold": -0.016850000000000007,
                                "decision_type": "<=",
                                "default_left": true,
                                "missing_type": "None",
                                "internal_value": 1.51776,
                                "internal_count": 274,
                                "left_child": {
                                    "leaf_index": 1,
                                    "leaf_value": -0.043678821666081946,
                                    "leaf_count": 101
                                },
                                "right_child": {
                                    "split_index": 12,
                                    "split_feature": 68,
                                    "split_gain": 67.19400024414062,
                                    "threshold": 0.004199999999999989,
                                    "decision_type": "<=",
                                    "default_left": true,
                                    "missing_type": "None",
                                    "internal_value": 2.80405,
                                    "internal_count": 173,
                                    "left_child": {
                                        "split_index": 13,
                                        "split_feature": 20,
                                        "split_gain": 85.01190185546875,
                                        "threshold": 0.004650000000000002,
                                        "decision_type": "<=",
                                        "default_left": true,
                                        "missing_type": "None",
                                        "internal_value": 0.982843,
                                        "internal_count": 82,
                                        "left_child": {
                                            "leaf_index": 7,
                                            "leaf_value": 0.27957781330950005,
                                            "leaf_count": 20
                                        },
                                        "right_child": {
                                            "leaf_index": 14,
                                            "leaf_value": -0.034509831304020654,
                                            "leaf_count": 62
                                        }
                                    },
                                    "right_child": {
                                        "leaf_index": 13,
                                        "leaf_value": 0.2164621322005377,
                                        "leaf_count": 91
                                    }
                                }
                            },
                            "right_child": {
                                "split_index": 8,
                                "split_feature": 29,
                                "split_gain": 98.08290100097656,
                                "threshold": -0.004999999999999993,
                                "decision_type": "<=",
                                "default_left": true,
                                "missing_type": "None",
                                "internal_value": -0.744242,
                                "internal_count": 7583,
                                "left_child": {
                                    "split_index": 20,
                                    "split_feature": 56,
                                    "split_gain": 56.97990036010742,
                                    "threshold": -0.0024999999999999983,
                                    "decision_type": "<=",
                                    "default_left": true,
                                    "missing_type": "None",
                                    "internal_value": 1.00646,
                                    "internal_count": 233,
                                    "left_child": {
                                        "leaf_index": 5,
                                        "leaf_value": 0.01141306365394474,
                                        "leaf_count": 176
                                    },
                                    "right_child": {
                                        "leaf_index": 21,
                                        "leaf_value": 0.16855988585931908,
                                        "leaf_count": 57
                                    }
                                },
                                "right_child": {
                                    "split_index": 11,
                                    "split_feature": 14,
                                    "split_gain": 72.62650299072266,
                                    "threshold": -0.007500000000000004,
                                    "decision_type": "<=",
                                    "default_left": true,
                                    "missing_type": "None",
                                    "internal_value": -0.80293,
                                    "internal_count": 7350,
                                    "left_child": {
                                        "split_index": 23,
                                        "split_feature": 31,
                                        "split_gain": 53.253501892089844,
                                        "threshold": 0.004600000000000004,
                                        "decision_type": "<=",
                                        "default_left": true,
                                        "missing_type": "None",
                                        "internal_value": 0.433876,
                                        "internal_count": 348,
                                        "left_child": {
                                            "leaf_index": 9,
                                            "leaf_value": 0.0036244161788552063,
                                            "leaf_count": 314
                                        },
                                        "right_child": {
                                            "leaf_index": 24,
                                            "leaf_value": 0.18485671313752994,
                                            "leaf_count": 34
                                        }
                                    },
                                    "right_child": {
                                        "split_index": 19,
                                        "split_feature": 28,
                                        "split_gain": 56.983699798583984,
                                        "threshold": 0.005000000000000002,
                                        "decision_type": "<=",
                                        "default_left": true,
                                        "missing_type": "None",
                                        "internal_value": -0.866504,
                                        "internal_count": 7002,
                                        "left_child": {
                                            "split_index": 25,
                                            "split_feature": 26,
                                            "split_gain": 50.083900451660156,
                                            "threshold": -0.004499999999999993,
                                            "decision_type": "<=",
                                            "default_left": true,
                                            "missing_type": "None",
                                            "internal_value": -0.926257,
                                            "internal_count": 6642,
                                            "left_child": {
                                                "leaf_index": 12,
                                                "leaf_value": 0.12136208217745291,
                                                "leaf_count": 34
                                            },
                                            "right_child": {
                                                "leaf_index": 26,
                                                "leaf_value": -0.04720964148026638,
                                                "leaf_count": 6608
                                            }
                                        },
                                        "right_child": {
                                            "split_index": 22,
                                            "split_feature": 34,
                                            "split_gain": 54.15700149536133,
                                            "threshold": 0.0020999999999999947,
                                            "decision_type": "<=",
                                            "default_left": true,
                                            "missing_type": "None",
                                            "internal_value": 0.219047,
                                            "internal_count": 360,
                                            "left_child": {
                                                "leaf_index": 20,
                                                "leaf_value": 0.1697785714225901,
                                                "leaf_count": 37
                                            },
                                            "right_child": {
                                                "split_index": 28,
                                                "split_feature": 72,
                                                "split_gain": 38.54010009765625,
                                                "threshold": 0.005100000000000012,
                                                "decision_type": "<=",
                                                "default_left": true,
                                                "missing_type": "None",
                                                "internal_value": -0.152936,
                                                "internal_count": 323,
                                                "left_child": {
                                                    "leaf_index": 23,
                                                    "leaf_value": -0.048264255875085996,
                                                    "leaf_count": 192
                                                },
                                                "right_child": {
                                                    "split_index": 29,
                                                    "split_feature": 67,
                                                    "split_gain": 54.40010070800781,
                                                    "threshold": 0.006050000000000001,
                                                    "decision_type": "<=",
                                                    "default_left": true,
                                                    "missing_type": "None",
                                                    "internal_value": 1.0034,
                                                    "internal_count": 131,
                                                    "left_child": {
                                                        "leaf_index": 29,
                                                        "leaf_value": 0.1810097306112344,
                                                        "leaf_count": 41
                                                    },
                                                    "right_child": {
                                                        "leaf_index": 30,
                                                        "leaf_value": -0.011226977801528364,
                                                        "leaf_count": 90
                                                    }
                                                }
                                            }
                                        }
                                    }
                                }
                            }
                        },
                        "right_child": {
                            "split_index": 26,
                            "split_feature": 37,
                            "split_gain": 48.950599670410156,
                            "threshold": 0.00540000000000001,
                            "decision_type": "<=",
                            "default_left": true,
                            "missing_type": "None",
                            "internal_value": 2.9574,
                            "internal_count": 113,
                            "left_child": {
                                "leaf_index": 4,
                                "leaf_value": 0.19402477208754007,
                                "leaf_count": 87
                            },
                            "right_child": {
                                "leaf_index": 27,
                                "leaf_value": -0.017069262246577056,
                                "leaf_count": 26
                            }
                        }
                    },
                    "right_child": {
                        "split_index": 7,
                        "split_feature": 22,
                        "split_gain": 99.85700225830078,
                        "threshold": 0.023200000000000005,
                        "decision_type": "<=",
                        "default_left": true,
                        "missing_type": "None",
                        "internal_value": 1.23899,
                        "internal_count": 747,
                        "left_child": {
                            "split_index": 15,
                            "split_feature": 88,
                            "split_gain": 64.4446029663086,
                            "threshold": 0.0022999999999999935,
                            "decision_type": "<=",
                            "default_left": true,
                            "missing_type": "None",
                            "internal_value": 0.965706,
                            "internal_count": 700,
                            "left_child": {
                                "leaf_index": 2,
                                "leaf_value": 0.2069687926198535,
                                "leaf_count": 43
                            },
                            "right_child": {
                                "split_index": 16,
                                "split_feature": 13,
                                "split_gain": 71.07350158691406,
                                "threshold": -0.0125,
                                "decision_type": "<=",
                                "default_left": true,
                                "missing_type": "None",
                                "internal_value": 0.748886,
                                "internal_count": 657,
                                "left_child": {
                                    "leaf_index": 16,
                                    "leaf_value": 0.19833441843339075,
                                    "leaf_count": 44
                                },
                                "right_child": {
                                    "split_index": 17,
                                    "split_feature": 31,
                                    "split_gain": 59.858299255371094,
                                    "threshold": 0.003550000000000005,
                                    "decision_type": "<=",
                                    "default_left": true,
                                    "missing_type": "None",
                                    "internal_value": 0.496932,
                                    "internal_count": 613,
                                    "left_child": {
                                        "leaf_index": 17,
                                        "leaf_value": 0.011844043514161304,
                                        "leaf_count": 564
                                    },
                                    "right_child": {
                                        "leaf_index": 18,
                                        "leaf_value": 0.16640982494821044,
                                        "leaf_count": 49
                                    }
                                }
                            }
                        },
                        "right_child": {
                            "leaf_index": 8,
                            "leaf_value": 0.24336026510416398,
                            "leaf_count": 47
                        }
                    }
                }
            }
        },
        {
            "tree_index": 2,
            "num_leaves": 31,
            "num_cat": 0,
            "shrinkage": 0.05,
            "tree_structure": {
                "split_index": 0,
                "split_feature": 17,
                "split_gain": 1161.719970703125,
                "threshold": -0.011499999999999998,
                "decision_type": "<=",
                "default_left": true,
                "missing_type": "None",
                "internal_value": 0,
                "internal_count": 9916,
                "left_child": {
                    "split_index": 3,
                    "split_feature": 91,
                    "split_gain": 150.7790069580078,
                    "threshold": 0.0158,
                    "decision_type": "<=",
                    "default_left": true,
                    "missing_type": "None",
                    "internal_value": 2.29011,
                    "internal_count": 1199,
                    "left_child": {
                        "split_index": 4,
                        "split_feature": 74,
                        "split_gain": 144.1580047607422,
                        "threshold": -0.0089,
                        "decision_type": "<=",
                        "default_left": true,
                        "missing_type": "None",
                        "internal_value": 1.70974,
                        "internal_count": 880,
                        "left_child": {
                            "split_index": 6,
                            "split_feature": 71,
                            "split_gain": 124.60600280761719,
                            "threshold": -0.0251,
                            "decision_type": "<=",
                            "default_left": true,
                            "missing_type": "None",
                            "internal_value": 0.196703,
                            "internal_count": 303,
                            "left_child": {
                                "leaf_index": 0,
                                "leaf_value": 0.21000164196016333,
                                "leaf_count": 39
                            },
                            "right_child": {
                                "leaf_index": 7,
                                "leaf_value": -0.026775554525342395,
                                "leaf_count": 264
                            }
                        },
                        "right_child": {
                            "split_index": 8,
                            "split_feature": 64,
                            "split_gain": 107.50399780273438,
                            "threshold": -0.0008000000000000055,
                            "decision_type": "<=",
                            "default_left": true,
                            "missing_type": "None",
                            "internal_value": 2.43806,
                            "internal_count": 577,
                            "left_child": {
                                "split_index": 26,
                                "split_feature": 24,
                                "split_gain": 42.386199951171875,
                                "threshold": -0.01689999999999999,
                                "decision_type": "<=",
                                "default_left": true,
                                "missing_type": "None",
                                "internal_value": 3.5764899999999997,
                                "internal_count": 264,
                                "left_child": {
                                    "leaf_index": 5,
                                    "leaf_value": 0.2200931658872327,
                                    "leaf_count": 150
                                },
                                "right_child": {
                                    "leaf_index": 27,
                                    "leaf_value": 0.1187928506317224,
                                    "leaf_count": 114
                                }
                            },
                            "right_child": {
                                "split_index": 20,
                                "split_feature": 26,
                                "split_gain": 56.95109939575195,
                                "threshold": 0.003400000000000004,
                                "decision_type": "<=",
                                "default_left": true,
                                "missing_type": "None",
                                "internal_value": 1.36874,
                                "internal_count": 313,
                                "left_child": {
                                    "split_index": 21,
                                    "split_feature": 71,
                                    "split_gain": 55.22650146484375,
                                    "threshold": 0.009699999999999995,
                                    "decision_type": "<=",
                                    "default_left": true,
                                    "missing_type": "None",
                                    "internal_value": 0.91098,
                                    "internal_count": 272,
                                    "left_child": {
                                        "leaf_index": 9,
                                        "leaf_value": 0.02460267805811533,
                                        "leaf_count": 247
                                    },
                                    "right_child": {
                                        "leaf_index": 22,
                                        "leaf_value": 0.2145487772874336,
                                        "leaf_count": 25
                                    }
                                },
                                "right_child": {
                                    "leaf_index": 21,
                                    "leaf_value": 0.20504100893657062,
                                    "leaf_count": 41
                                }
                            }
                        }
                    },
                    "right_child": {
                        "split_index": 14,
                        "split_feature": 64,
                        "split_gain": 63.89699935913086,
                        "threshold": 0.0042,
                        "decision_type": "<=",
                        "default_left": true,
                        "missing_type": "None",
                        "internal_value": 3.69569,
                        "internal_count": 319,
                        "left_child": {
                            "leaf_index": 4,
                            "leaf_value": 0.2153825672849981,
                            "leaf_count": 233
                        },
                        "right_child": {
                            "split_index": 24,
                            "split_feature": 92,
                            "split_gain": 45.1869010925293,
                            "threshold": 0.02415000000000001,
                            "decision_type": "<=",
                            "default_left": true,
                            "missing_type": "None",
                            "internal_value": 1.76264,
                            "internal_count": 86,
                            "left_child": {
                                "leaf_index": 15,
                                "leaf_value": 0.16191891461150543,
                                "leaf_count": 49
                            },
                            "right_child": {
                                "leaf_index": 25,
                                "leaf_value": -0.029744520512509323,
                                "leaf_count": 37
                            }
                        }
                    }
                },
                "right_child": {
                    "split_index": 1,
                    "split_feature": 92,
                    "split_gain": 289.7250061035156,
                    "threshold": 0.005899999999999993,
                    "decision_type": "<=",
                    "default_left": true,
                    "missing_type": "None",
                    "internal_value": -0.420941,
                    "internal_count": 8717,
                    "left_child": {
                        "split_index": 2,
                        "split_feature": 16,
                        "split_gain": 193.30099487304688,
                        "threshold": 0.017549999999999993,
                        "decision_type": "<=",
                        "default_left": true,
                        "missing_type": "None",
                        "internal_value": -0.582748,
                        "internal_count": 8019,
                        "left_child": {
                            "split_index": 5,
                            "split_feature": 9,
                            "split_gain": 135.61599731445312,
                            "threshold": -0.006149999999999991,
                            "decision_type": "<=",
                            "default_left": true,
                            "missing_type": "None",
                            "internal_value": -0.71017,
                            "internal_count": 7450,
                            "left_child": {
                                "split_index": 10,
                                "split_feature": 84,
                                "split_gain": 94.08869934082031,
                                "threshold": -0.008599999999999988,
                                "decision_type": "<=",
                                "default_left": true,
                                "missing_type": "None",
                                "internal_value": 0.638245,
                                "internal_count": 527,
                                "left_child": {
                                    "leaf_index": 1,
                                    "leaf_value": 0.2372414614612205,
                                    "leaf_count": 32
                                },
                                "right_child": {
                                    "leaf_index": 11,
                                    "leaf_value": 0.015303670124175595,
                                    "leaf_count": 495
                                }
                            },
                            "right_child": {
                                "split_index": 9,
                                "split_feature": 78,
                                "split_gain": 95.12129974365234,
                                "threshold": 0.002800000000000001,
                                "decision_type": "<=",
                                "default_left": true,
                                "missing_type": "None",
                                "internal_value": -0.819872,
                                "internal_count": 6923,
                                "left_child": {
                                    "split_index": 18,
                                    "split_feature": 31,
                                    "split_gain": 58.03179931640625,
                                    "threshold": 0.009749999999999997,
                                    "decision_type": "<=",
                                    "default_left": true,
                                    "missing_type": "None",
                                    "internal_value": -0.90161,
                                    "internal_count": 6559,
                                    "left_child": {
                                        "split_index": 27,
                                        "split_feature": 84,
                                        "split_gain": 42.30099868774414,
                                        "threshold": 0.005849999999999995,
                                        "decision_type": "<=",
                                        "default_left": true,
                                        "missing_type": "None",
                                        "internal_value": -0.938067,
                                        "internal_count": 6453,
                                        "left_child": {
                                            "leaf_index": 6,
                                            "leaf_value": -0.047728689573546805,
                                            "leaf_count": 6425
                                        },
                                        "right_child": {
                                            "leaf_index": 28,
                                            "leaf_value": 0.11615903578624209,
                                            "leaf_count": 28
                                        }
                                    },
                                    "right_child": {
                                        "split_index": 19,
                                        "split_feature": 88,
                                        "split_gain": 69.597900390625,
                                        "threshold": -0.003399999999999998,
                                        "decision_type": "<=",
                                        "default_left": true,
                                        "missing_type": "None",
                                        "internal_value": 1.08772,
                                        "internal_count": 106,
                                        "left_child": {
                                            "leaf_index": 19,
                                            "leaf_value": -0.008880297641345812,
                                            "leaf_count": 82
                                        },
                                        "right_child": {
                                            "leaf_index": 20,
                                            "leaf_value": 0.2453699387600838,
                                            "leaf_count": 24
                                        }
                                    }
                                },
                                "right_child": {
                                    "split_index": 28,
                                    "split_feature": 14,
                                    "split_gain": 38.958900451660156,
                                    "threshold": 1.0000000180025095e-35,
                                    "decision_type": "<=",
                                    "default_left": true,
                                    "missing_type": "None",
                                    "internal_value": 0.552766,
                                    "internal_count": 364,
                                    "left_child": {
                                        "split_index": 29,
                                        "split_feature": 47,
                                        "split_gain": 54.52370071411133,
                                        "threshold": 0.006100000000000016,
                                        "decision_type": "<=",
                                        "default_left": true,
                                        "missing_type": "None",
                                        "internal_value": 1.48369,
                                        "internal_count": 173,
                                        "left_child": {
                                            "leaf_index": 10,
                                            "leaf_value": 0.04333204683022752,
                                            "leaf_count": 151
                                        },
                                        "right_child": {
                                            "leaf_index": 30,
                                            "leaf_value": 0.26518676895816057,
                                            "leaf_count": 22
                                        }
                                    },
                                    "right_child": {
                                        "leaf_index": 29,
                                        "leaf_value": -0.01627726277852907,
                                        "leaf_count": 191
                                    }
                                }
                            }
                        },
                        "right_child": {
                            "split_index": 7,
                            "split_feature": 35,
                            "split_gain": 112.20800018310547,
                            "threshold": -0.0014,
                            "decision_type": "<=",
                            "default_left": true,
                            "missing_type": "None",
                            "internal_value": 0.944531,
                            "internal_count": 569,
                            "left_child": {
                                "leaf_index": 3,
                                "leaf_value": 0.18315927630171583,
                                "leaf_count": 85
                            },
                            "right_child": {
                                "split_index": 13,
                                "split_feature": 64,
                                "split_gain": 79.95249938964844,
                                "threshold": 0.018750000000000006,
                                "decision_type": "<=",
                                "default_left": true,
                                "missing_type": "None",
                                "internal_value": 0.404929,
                                "internal_count": 484,
                                "left_child": {
                                    "split_index": 17,
                                    "split_feature": 31,
                                    "split_gain": 59.3046989440918,
                                    "threshold": -0.002399999999999997,
                                    "decision_type": "<=",
                                    "default_left": true,
                                    "missing_type": "None",
                                    "internal_value": 0.0528998,
                                    "internal_count": 448,
                                    "left_child": {
                                        "split_index": 25,
                                        "split_feature": 16,
                                        "split_gain": 42.904300689697266,
                                        "threshold": 0.03475000000000002,
                                        "decision_type": "<=",
                                        "default_left": true,
                                        "missing_type": "None",
                                        "internal_value": 2.2006,
                                        "internal_count": 73,
                                        "left_child": {
                                            "leaf_index": 8,
                                            "leaf_value": 0.21458622292343651,
                                            "leaf_count": 35
                                        },
                                        "right_child": {
                                            "leaf_index": 26,
                                            "leaf_value": 0.012575348369044143,
                                            "leaf_count": 38
                                        }
                                    },
                                    "right_child": {
                                        "leaf_index": 18,
                                        "leaf_value": -0.02112813102508123,
                                        "leaf_count": 375
                                    }
                                },
                                "right_child": {
                                    "leaf_index": 14,
                                    "leaf_value": 0.19818014104743503,
                                    "leaf_count": 36
                                }
                            }
                        }
                    },
                    "right_child": {
                        "split_index": 11,
                        "split_feature": 68,
                        "split_gain": 79.96649932861328,
                        "threshold": 0.009599999999999992,
                        "decision_type": "<=",
                        "default_left": true,
                        "missing_type": "None",
                        "internal_value": 1.2199200000000001,
                        "internal_count": 698,
                        "left_child": {
                            "split_index": 12,
                            "split_feature": 24,
                            "split_gain": 102.39399719238281,
                            "threshold": -0.007499999999999997,
                            "decision_type": "<=",
                            "default_left": true,
                            "missing_type": "None",
                            "internal_value": 1.6550500000000001,
                            "internal_count": 563,
                            "left_child": {
                                "split_index": 15,
                                "split_feature": 41,
                                "split_gain": 59.66600036621094,
                                "threshold": -0.0004999999999999986,
                                "decision_type": "<=",
                                "default_left": true,
                                "missing_type": "None",
                                "internal_value": 0.593333,
                                "internal_count": 310,
                                "left_child": {
                                    "split_index": 16,
                                    "split_feature": 7,
                                    "split_gain": 61.83219909667969,
                                    "threshold": -0.0089,
                                    "decision_type": "<=",
                                    "default_left": true,
                                    "missing_type": "None",
                                    "internal_value": 0.224748,
                                    "internal_count": 284,
                                    "left_child": {
                                        "leaf_index": 2,
                                        "leaf_value": 0.21346528597131328,
                                        "leaf_count": 22
                                    },
                                    "right_child": {
                                        "leaf_index": 17,
                                        "leaf_value": -0.008531877984319812,
                                        "leaf_count": 262
                                    }
                                },
                                "right_child": {
                                    "leaf_index": 16,
                                    "leaf_value": 0.22056986878113125,
                                    "leaf_count": 26
                                }
                            },
                            "right_child": {
                                "split_index": 22,
                                "split_feature": 68,
                                "split_gain": 46.85300064086914,
                                "threshold": 0.0056000000000000156,
                                "decision_type": "<=",
                                "default_left": true,
                                "missing_type": "None",
                                "internal_value": 2.86801,
                                "internal_count": 253,
                                "left_child": {
                                    "split_index": 23,
                                    "split_feature": 37,
                                    "split_gain": 58.978599548339844,
                                    "threshold": -0.004599999999999985,
                                    "decision_type": "<=",
                                    "default_left": true,
                                    "missing_type": "None",
                                    "internal_value": 3.4364,
                                    "internal_count": 198,
                                    "left_child": {
                                        "leaf_index": 13,
                                        "leaf_value": 0.0920370781790725,
                                        "leaf_count": 86
                                    },
                                    "right_child": {
                                        "leaf_index": 24,
                                        "leaf_value": 0.23436154430092265,
                                        "leaf_count": 112
                                    }
                                },
                                "right_child": {
                                    "leaf_index": 23,
                                    "leaf_value": 0.03234016631496794,
                                    "leaf_count": 55
                                }
                            }
                        },
                        "right_child": {
                            "leaf_index": 12,
                            "leaf_value": -0.032817777383585926,
                            "leaf_count": 135
                        }
                    }
                }
            }
        },
        {
            "tree_index": 3,
            "num_leaves": 31,
            "num_cat": 0,
            "shrinkage": 0.05,
            "tree_structure": {
                "split_index": 0,
                "split_feature": 17,
                "split_gain": 995.31201171875,
                "threshold": -0.011499999999999998,
                "decision_type": "<=",
                "default_left": true,
                "missing_type": "None",
                "internal_value": 0,
                "internal_count": 9916,
                "left_child": {
                    "split_index": 4,
                    "split_feature": 23,
                    "split_gain": 115.99199676513672,
                    "threshold": -0.03579999999999998,
                    "decision_type": "<=",
                    "default_left": true,
                    "missing_type": "None",
                    "internal_value": 2.03973,
                    "internal_count": 1199,
                    "left_child": {
                        "leaf_index": 0,
                        "leaf_value": 0.16207888848328036,
                        "leaf_count": 302
                    },
                    "right_child": {
                        "split_index": 5,
                        "split_feature": 74,
                        "split_gain": 127.58899688720703,
                        "threshold": -0.01,
                        "decision_type": "<=",
                        "default_left": true,
                        "missing_type": "None",
                        "internal_value": 1.5486900000000001,
                        "internal_count": 897,
                        "left_child": {
                            "split_index": 11,
                            "split_feature": 42,
                            "split_gain": 67.66739654541016,
                            "threshold": -0.02540000000000001,
                            "decision_type": "<=",
                            "default_left": true,
                            "missing_type": "None",
                            "internal_value": -0.240489,
                            "internal_count": 229,
                            "left_child": {
                                "leaf_index": 5,
                                "leaf_value": 0.1877005768571713,
                                "leaf_count": 20
                            },
                            "right_child": {
                                "leaf_index": 12,
                                "leaf_value": -0.03934574253281098,
                                "leaf_count": 209
                            }
                        },
                        "right_child": {
                            "split_index": 12,
                            "split_feature": 63,
                            "split_gain": 64.535400390625,
                            "threshold": -0.0007000000000000026,
                            "decision_type": "<=",
                            "default_left": true,
                            "missing_type": "None",
                            "internal_value": 2.05975,
                            "internal_count": 668,
                            "left_child": {
                                "split_index": 28,
                                "split_feature": 24,
                                "split_gain": 37.667198181152344,
                                "threshold": -0.01689999999999999,
                                "decision_type": "<=",
                                "default_left": true,
                                "missing_type": "None",
                                "internal_value": 2.8982200000000002,
                                "internal_count": 286,
                                "left_child": {
                                    "leaf_index": 6,
                                    "leaf_value": 0.18249048791958497,
                                    "leaf_count": 154
                                },
                                "right_child": {
                                    "leaf_index": 29,
                                    "leaf_value": 0.09452515628236446,
                                    "leaf_count": 132
                                }
                            },
                            "right_child": {
                                "split_index": 16,
                                "split_feature": 71,
                                "split_gain": 56.415199279785156,
                                "threshold": 0.009699999999999995,
                                "decision_type": "<=",
                                "default_left": true,
                                "missing_type": "None",
                                "internal_value": 1.3506,
                                "internal_count": 382,
                                "left_child": {
                                    "split_index": 24,
                                    "split_feature": 28,
                                    "split_gain": 46.652801513671875,
                                    "threshold": 0.004900000000000006,
                                    "decision_type": "<=",
                                    "default_left": true,
                                    "missing_type": "None",
                                    "internal_value": 0.902855,
                                    "internal_count": 326,
                                    "left_child": {
                                        "leaf_index": 13,
                                        "leaf_value": 0.028830678131063603,
                                        "leaf_count": 298
                                    },
                                    "right_child": {
                                        "leaf_index": 25,
                                        "leaf_value": 0.19214635878864125,
                                        "leaf_count": 28
                                    }
                                },
                                "right_child": {
                                    "leaf_index": 17,
                                    "leaf_value": 0.17466811748448627,
                                    "leaf_count": 56
                                }
                            }
                        }
                    }
                },
                "right_child": {
                    "split_index": 1,
                    "split_feature": 92,
                    "split_gain": 259.4700012207031,
                    "threshold": 0.005899999999999993,
                    "decision_type": "<=",
                    "default_left": true,
                    "missing_type": "None",
                    "internal_value": -0.407914,
                    "internal_count": 8717,
                    "left_child": {
                        "split_index": 2,
                        "split_feature": 16,
                        "split_gain": 176.4429931640625,
                        "threshold": 0.017549999999999993,
                        "decision_type": "<=",
                        "default_left": true,
                        "missing_type": "None",
                        "internal_value": -0.566919,
                        "internal_count": 8019,
                        "left_child": {
                            "split_index": 3,
                            "split_feature": 9,
                            "split_gain": 126.40399932861328,
                            "threshold": -0.006149999999999991,
                            "decision_type": "<=",
                            "default_left": true,
                            "missing_type": "None",
                            "internal_value": -0.693355,
                            "internal_count": 7450,
                            "left_child": {
                                "split_index": 9,
                                "split_feature": 31,
                                "split_gain": 79.36799621582031,
                                "threshold": 0.004600000000000004,
                                "decision_type": "<=",
                                "default_left": true,
                                "missing_type": "None",
                                "internal_value": 0.59304,
                                "internal_count": 527,
                                "left_child": {
                                    "leaf_index": 1,
                                    "leaf_value": 0.007439299611798312,
                                    "leaf_count": 459
                                },
                                "right_child": {
                                    "split_index": 25,
                                    "split_feature": 1,
                                    "split_gain": 45.316001892089844,
                                    "threshold": -0.007149999999999996,
                                    "decision_type": "<=",
                                    "default_left": true,
                                    "missing_type": "None",
                                    "internal_value": 3.13187,
                                    "internal_count": 68,
                                    "left_child": {
                                        "leaf_index": 10,
                                        "leaf_value": -0.009850163382201717,
                                        "leaf_count": 21
                                    },
                                    "right_child": {
                                        "leaf_index": 26,
                                        "leaf_value": 0.2215429690032544,
                                        "leaf_count": 47
                                    }
                                }
                            },
                            "right_child": {
                                "split_index": 6,
                                "split_feature": 78,
                                "split_gain": 89.45649719238281,
                                "threshold": 0.002800000000000001,
                                "decision_type": "<=",
                                "default_left": true,
                                "missing_type": "None",
                                "internal_value": -0.803346,
                                "internal_count": 6923,
                                "left_child": {
                                    "split_index": 18,
                                    "split_feature": 33,
                                    "split_gain": 54.05030059814453,
                                    "threshold": 0.012200000000000015,
                                    "decision_type": "<=",
                                    "default_left": true,
                                    "missing_type": "None",
                                    "internal_value": -0.885858,
                                    "internal_count": 6559,
                                    "left_child": {
                                        "split_index": 23,
                                        "split_feature": 23,
                                        "split_gain": 47.007301330566406,
                                        "threshold": 0.025149999999999995,
                                        "decision_type": "<=",
                                        "default_left": true,
                                        "missing_type": "None",
                                        "internal_value": -0.918599,
                                        "internal_count": 6477,
                                        "left_child": {
                                            "split_index": 26,
                                            "split_feature": 49,
                                            "split_gain": 39.22060012817383,
                                            "threshold": -0.002899999999999996,
                                            "decision_type": "<=",
                                            "default_left": true,
                                            "missing_type": "None",
                                            "internal_value": -0.938025,
                                            "internal_count": 6441,
                                            "left_child": {
                                                "split_index": 27,
                                                "split_feature": 45,
                                                "split_gain": 54.58060073852539,
                                                "threshold": 0.0024000000000000015,
                                                "decision_type": "<=",
                                                "default_left": true,
                                                "missing_type": "None",
                                                "internal_value": -0.478988,
                                                "internal_count": 1256,
                                                "left_child": {
                                                    "leaf_index": 4,
                                                    "leaf_value": -0.02885964140287295,
                                                    "leaf_count": 1226
                                                },
                                                "right_child": {
                                                    "leaf_index": 28,
                                                    "leaf_value": 0.1620047213402872,
                                                    "leaf_count": 30
                                                }
                                            },
                                            "right_child": {
                                                "leaf_index": 27,
                                                "leaf_value": -0.052536245809948125,
                                                "leaf_count": 5185
                                            }
                                        },
                                        "right_child": {
                                            "leaf_index": 24,
                                            "leaf_value": 0.11268563721268746,
                                            "leaf_count": 36
                                        }
                                    },
                                    "right_child": {
                                        "split_index": 19,
                                        "split_feature": 92,
                                        "split_gain": 55.2333984375,
                                        "threshold": -0.00609999999999999,
                                        "decision_type": "<=",
                                        "default_left": true,
                                        "missing_type": "None",
                                        "internal_value": 1.24571,
                                        "internal_count": 82,
                                        "left_child": {
                                            "leaf_index": 19,
                                            "leaf_value": -0.029904254432621354,
                                            "leaf_count": 53
                                        },
                                        "right_child": {
                                            "leaf_index": 20,
                                            "leaf_value": 0.19012912406903063,
                                            "leaf_count": 29
                                        }
                                    }
                                },
                                "right_child": {
                                    "leaf_index": 7,
                                    "leaf_value": 0.025699039997322162,
                                    "leaf_count": 364
                                }
                            }
                        },
                        "right_child": {
                            "split_index": 7,
                            "split_feature": 87,
                            "split_gain": 81.07039642333984,
                            "threshold": 0.002000000000000004,
                            "decision_type": "<=",
                            "default_left": true,
                            "missing_type": "None",
                            "internal_value": 0.868723,
                            "internal_count": 569,
                            "left_child": {
                                "split_index": 8,
                                "split_feature": 60,
                                "split_gain": 80.15650177001953,
                                "threshold": -0.006499999999999998,
                                "decision_type": "<=",
                                "default_left": true,
                                "missing_type": "None",
                                "internal_value": 0.447754,
                                "internal_count": 498,
                                "left_child": {
                                    "leaf_index": 3,
                                    "leaf_value": 0.1883314961524718,
                                    "leaf_count": 41
                                },
                                "right_child": {
                                    "split_index": 21,
                                    "split_feature": 67,
                                    "split_gain": 52.02939987182617,
                                    "threshold": 0.020199999999999992,
                                    "decision_type": "<=",
                                    "default_left": true,
                                    "missing_type": "None",
                                    "internal_value": 0.0879929,
                                    "internal_count": 457,
                                    "left_child": {
                                        "split_index": 22,
                                        "split_feature": 74,
                                        "split_gain": 50.183998107910156,
                                        "threshold": -0.0001999999999999953,
                                        "decision_type": "<=",
                                        "default_left": true,
                                        "missing_type": "None",
                                        "internal_value": -0.174056,
                                        "internal_count": 432,
