tree
version=v2
num_class=1
num_tree_per_iteration=1
label_index=0
max_feature_idx=98
objective=binary sigmoid:1
feature_names=DFF_5 DFF_10 DFF_15 DFF_20 DFF_25 DFF_30 DFF_35 DFF_40 DFF_45 DFF_50 DFF_55 DFF_60 DFF_65 DFF_70 DFF_75 DFF_80 DFF_85 DFF_90 DFF_95 DFF_100 DFF_105 DFF_110 DFF_115 DFF_120 DFF_125 DTB3_5 DTB3_10 DTB3_15 DTB3_20 DTB3_25 DTB3_30 DTB3_35 DTB3_40 DTB3_45 DTB3_50 DTB3_55 DTB3_60 DTB3_65 DTB3_70 DTB3_75 DTB3_80 DTB3_85 DTB3_90 DTB3_95 DTB3_100 DTB3_105 DTB3_110 DTB3_115 DTB3_120 DTB3_125 DGS10_5 DGS10_10 DGS10_15 DGS10_20 DGS10_25 DGS10_30 DGS10_35 DGS10_40 DGS10_45 DGS10_50 DGS10_55 DGS10_60 DGS10_65 DGS10_70 DGS10_75 DGS10_80 DGS10_85 DGS10_90 DGS10_95 DGS10_100 DGS10_105 DGS10_110 DGS10_115 DGS10_120 DGS10_125 Curve_5 Curve_10 Curve_15 Curve_20 Curve_25 Curve_30 Curve_35 Curve_40 Curve_45 Curve_50 Curve_55 Curve_60 Curve_65 Curve_70 Curve_75 Curve_80 Curve_85 Curve_90 Curve_95 Curve_100 Curve_105 Curve_110 Curve_115 Curve_120
feature_infos=[-0.097100000000000006:0.099400000000000016] [-0.10240000000000002:0.099500000000000005] [-0.10280000000000002:0.096400000000000013] [-0.10200000000000001:0.1031] [-0.10150000000000001:0.1023] [-0.099500000000000005:0.10140000000000002] [-0.099700000000000011:0.1019] [-0.10290000000000001:0.10010000000000001] [-0.11410000000000002:0.10280000000000002] [-0.1135:0.1018] [-0.11120000000000001:0.1003] [-0.10630000000000001:0.10240000000000002] [-0.11410000000000002:0.10340000000000002] [-0.1135:0.1031] [-0.11250000000000002:0.10280000000000002] [-0.11950000000000001:0.10390000000000001] [-0.11889999999999999:0.1086] [-0.1123:0.10569999999999997] [-0.11550000000000001:0.10270000000000001] [-0.11550000000000001:0.1106] [-0.1132:0.12119999999999999] [-0.1157:0.11210000000000001] [-0.1132:0.11720000000000001] [-0.1162:0.12519999999999998] [-0.1231:0.12349999999999998] [-0.021699999999999997:0.019099999999999978] [-0.029399999999999996:0.025599999999999984] [-0.036500000000000019:0.029999999999999971] [-0.045200000000000004:0.033700000000000035] [-0.052400000000000002:0.037499999999999978] [-0.057300000000000018:0.037099999999999994] [-0.062200000000000005:0.041499999999999995] [-0.0683:0.044299999999999978] [-0.071899999999999992:0.051399999999999973] [-0.078600000000000003:0.054099999999999981] [-0.07640000000000001:0.059400000000000008] [-0.084600000000000009:0.058899999999999994] [-0.083299999999999999:0.058399999999999994] [-0.087900000000000006:0.056299999999999989] [-0.0906:0.063700000000000007] [-0.09820000000000001:0.068499999999999978] [-0.091899999999999996:0.068000000000000005] [-0.091899999999999996:0.069199999999999984] [-0.094299999999999995:0.073700000000000002] [-0.095200000000000007:0.072700000000000001] [-0.088899999999999993:0.068299999999999986] [-0.084099999999999994:0.076000000000000012] [-0.080399999999999999:0.083399999999999988] [-0.081700000000000009:0.08589999999999999] [-0.078799999999999995:0.085199999999999998] [-0.0126:0.010200000000000015] [-0.016200000000000006:0.014500000000000013] [-0.022499999999999992:0.016400000000000012] [-0.024699999999999972:0.019300000000000025] [-0.024599999999999983:0.023600000000000024] [-0.027200000000000002:0.025500000000000009] [-0.028899999999999981:0.028000000000000011] [-0.031700000000000006:0.029399999999999996] [-0.02990000000000001:0.029700000000000018] [-0.03040000000000001:0.030200000000000005] [-0.028900000000000009:0.031500000000000014] [-0.033200000000000021:0.032400000000000012] [-0.033199999999999993:0.032600000000000004] [-0.038500000000000006:0.033100000000000018] [-0.034200000000000008:0.031400000000000011] [-0.036400000000000016:0.033500000000000002] [-0.036800000000000013:0.032100000000000017] [-0.03800000000000002:0.032800000000000024] [-0.036699999999999983:0.031400000000000011] [-0.041099999999999984:0.028899999999999995] [-0.040800000000000017:0.030200000000000005] [-0.043700000000000003:0.029700000000000004] [-0.04229999999999999:0.028100000000000014] [-0.040700000000000014:0.028999999999999984] [-0.040799999999999989:0.030299999999999994] [-0.018800000000000011:0.017799999999999996] [-0.025700000000000028:0.0252] [-0.027800000000000047:0.028899999999999988] [-0.027800000000000047:0.036400000000000002] [-0.031299999999999939:0.041500000000000009] [-0.032400000000000012:0.042200000000000001] [-0.031099999999999961:0.046200000000000005] [-0.035800000000000012:0.049100000000000005] [-0.037299999999999972:0.051000000000000004] [-0.040400000000000019:0.052600000000000008] [-0.042199999999999974:0.057900000000000007] [-0.040099999999999983:0.059300000000000019] [-0.039399999999999963:0.056799999999999989] [-0.045100000000000015:0.057800000000000004] [-0.052100000000000007:0.057599999999999998] [-0.05029999999999997:0.062300000000000008] [-0.049599999999999977:0.057300000000000031] [-0.049099999999999977:0.061700000000000019] [-0.051699999999999982:0.063100000000000031] [-0.05319999999999997:0.061000000000000013] [-0.053299999999999972:0.055199999999999999] [-0.055300000000000016:0.053100000000000008] [-0.06049999999999997:0.051800000000000013] [-0.060699999999999976:0.052300000000000027]
tree_sizes=2510 2544 2541 2537 2544 2549 2544 2540 2574 2571 2577 2574 2579 2574 2588 2577 2585 2588 2585 2585 2576 2591 2602 2581 2582 2595 2591 2601 2597 2588 2592 2591 2594 2612 2593 2621 2598 2601 2581 2592 2609 2596 2600 2604 2617 2602 2601 2585 2623 2587 2608 2599 2605 2571 2596 2590 2617 2608 2613 2619 2614 2621 2604 2609 2600 2626 2615 2617 2604 2607 2578 2611 2625 2623 2611 2599 2623 2631 2627 2596 2587 2592 2608 2618 2626 2627 2617 2598 2614 2605 2618 2598 2589 2622 2615 2631 2578 2608 2598 2616

Tree=0
num_leaves=31
num_cat=0
split_feature=13 92 84 83 24 74 23 7 64 13 65 74 74 21 65 87 9 35 62 18 66 58 63 53 98 55 43 24 42 87
split_gain=1649.42 380.812 271.211 240.338 227.631 170.278 169.813 155.292 152.435 135.287 107.601 102.981 99.1023 99.0193 136.318 94.5953 92.8541 87.985 86.6028 80.3222 72.3575 69.3567 68.935 64.4496 61.8955 58.5032 56.2433 52.2739 79.3545 101.048
threshold=-0.012500000000000001 0.0057000000000000011 0.0068000000000000187 -0.0092999999999999906 -0.037049999999999986 -0.009749999999999993 0.020050000000000002 -0.00015000000000000427 -0.00089999999999999445 -0.0073999999999999995 0.01865000000000001 -0.007799999999999997 -0.0012999999999999919 0.018800000000000011 -0.0028999999999999924 0.0011000000000000057 -0.013800000000000002 0.0037000000000000058 -0.013099999999999992 -0.012449999999999998 0.01205 -0.0017999999999999889 0.0050499999999999998 -0.0019999999999999979 0.0047999999999999978 0.0055000000000000092 -0.0058000000000000022 -0.00099999999999999894 0.0060499999999999972 -0.0013000000000000075
decision_type=2 2 2 2 2 2 2 2 2 2 2 2 2 2 2 2 2 2 2 2 2 2 2 2 2 2 2 2 2 2
left_child=4 2 3 7 22 18 16 -2 -7 11 12 -5 -9 27 -15 -16 -3 24 -6 26 -10 -4 -1 -21 -18 -19 -13 28 -11 -30
right_child=1 6 21 9 5 8 -8 10 20 13 -12 19 -14 14 15 -17 17 25 -20 23 -22 -23 -24 -25 -26 -27 -28 -29 29 -31
leaf_value=-1.4012418228598365 -1.4122476128001122 -1.4448258841805939 -1.6973074873793261 -1.7682120354930522 -1.4568656801255546 -1.4395364906811785 -1.4222971812598539 -1.5066488363816937 -1.6297412295038562 -1.7514159346601974 -1.404353647042534 -1.6685734520217412 -1.7368456621910924 -1.4236500077832808 -1.7473026038439881 -1.5414747559426891 -1.5853239661235758 -1.4098471085931292 -1.7488263377047373 -1.5811534198035322 -1.3894428228337752 -1.4590266691413165 -1.6109750682210497 -1.7310362501617058 -1.7058054987347064 -1.6840807091988506 -1.4070647059895811 -1.7710354346056869 -1.7363156807427973 -1.4782864837442968
leaf_count=230 51 35 34 174 23 178 59 43 242 1885 26 25 231 34 286 51 95 38 137 91 27 78 35 143 636 25 44 4839 76 48
internal_value=0 -0.378923 -0.567393 -0.627287 3.63105 2.69103 1.35276 1.62605 3.57339 -0.730057 0.862392 0.706181 0.34869 -0.824958 0.576142 0.0400164 1.02791 0.83225 0.225948 1.68663 2.25065 3.73585 5.78424 0.908118 0.560131 3.98969 4.3268 -0.900864 -0.523291 1.63442
internal_count=9919 9047 8159 8047 872 607 888 351 447 7696 300 477 274 7219 371 337 829 794 160 303 269 112 265 234 731 63 69 6848 2009 124
shrinkage=1


Tree=1
num_leaves=31
num_cat=0
split_feature=15 92 83 20 83 74 24 97 27 63 14 74 22 74 81 64 43 58 8 12 31 19 18 63 7 32 6 77 57 65
split_gain=1368.53 303.523 241.684 237.747 194.551 125.817 115.085 105.715 89.6194 86.763 78.1372 77.8152 117.195 72.1448 71.139 66.0482 61.7 57.3852 56.3859 55.2302 81.5467 53.2018 51.2063 50.5122 50.424 50.343 49.2165 48.1708 58.8404 46.7337
threshold=-0.010799999999999985 0.0057000000000000011 0.0060000000000000097 -0.027949999999999992 -0.0092999999999999906 -0.010299999999999981 0.016999999999999998 -0.0093499999999999955 -0.0057999999999999953 -0.00064999999999999769 -0.0075000000000000041 0.0025499999999999971 -0.0050499999999999981 -0.007799999999999997 -0.017650000000000009 0.0053000000000000035 -0.0079999999999999846 -0.0011000000000000001 0.0013000000000000045 0.014049999999999995 -0.0020000000000000048 -0.014299999999999995 -0.012449999999999998 -0.0038999999999999968 0.043850000000000035 0.0020999999999999999 0.00010000000000000114 0.0053999999999999925 0.0076000000000000173 -0.0021000000000000007
decision_type=2 2 2 2 2 2 2 2 2 2 2 2 2 2 2 2 2 2 2 2 2 2 2 2 2 2 2 2 2 2
left_child=3 2 4 15 7 25 11 14 23 21 13 12 18 -10 24 -1 -17 -4 -3 -12 -21 -7 -15 -6 -2 -5 -9 28 -11 -28
right_child=1 6 17 5 8 9 -8 26 10 27 19 -13 -14 22 -16 16 -18 -19 -20 20 -22 -23 -24 -25 -26 -27 29 -29 -30 -31
leaf_value=0.22988879186003042 0.27013767006654188 0.0078599183221064843 0.027745729844100137 -0.04435317756486841 0.25828786655649277 0.22377468117067267 0.21345254138651493 0.25958130390766532 -0.055879845473062878 0.01416647511509833 -0.046178762400283853 -0.0078069371686809988 0.21157927707834273 0.21629069659640338 -0.051250563728168254 -0.0052238108151657463 0.22923704986346363 0.20700842222440174 0.16445006095303352 0.18363820934959976 -0.015692004359009224 0.1081402081139043 0.041104374685663379 0.027555286514798619 -0.020880638881984406 0.17612554172490111 -0.047253385608300384 0.19502978840314958 0.20417272736871983 0.15063377254245239
leaf_count=348 23 222 52 163 26 135 73 44 143 220 6709 322 96 35 147 47 33 88 52 44 290 143 184 53 20 21 31 42 33 80
internal_value=0 -0.431619 -0.599302 2.62621 -0.668282 1.68872 1.19796 1.32024 -0.767352 2.28698 -0.800184 0.836366 1.68197 0.456745 -0.0756334 4.13059 1.94619 2.87952 0.763831 -0.867016 0.238606 3.33483 1.43256 2.13439 2.90432 -0.336248 2.9362 1.25416 0.803323 1.93156
internal_count=9919 8734 7969 1185 7829 757 765 345 7484 573 7405 692 370 362 190 428 80 140 274 7043 334 278 219 79 43 184 155 295 253 111
shrinkage=0.05


Tree=2
num_leaves=31
num_cat=0
split_feature=17 92 78 24 28 74 26 64 86 71 23 11 7 79 10 31 92 31 22 56 35 65 28 26 53 21 85 24 3 61
split_gain=1163.25 293.942 190.295 147.671 147.528 136.835 93.0025 87.8776 87.057 82.867 79.9199 75.7645 67.9905 61.6736 72.2655 61.3514 60.3517 54.3351 56.4968 54.0301 53.7653 53.134 52.9449 51.4242 48.0664 44.6779 38.7054 37.1209 35.0928 33.0481
threshold=-0.011499999999999998 0.0058999999999999929 0.0028500000000000057 -0.035400000000000001 0.0051000000000000047 -0.009299999999999994 -0.0044999999999999927 -0.00080000000000000546 0.0015999999999999923 0.0096999999999999951 0.020050000000000002 -0.00609999999999999 -0.011299999999999992 -0.012699999999999994 0.038950000000000005 0.0050499999999999998 0.015900000000000008 -0.0066499999999999953 0.016300000000000002 -0.0060999999999999969 0.0037000000000000058 0.0060500000000000007 0.0049000000000000059 -0.0025000000000000001 -0.0023000000000000065 -0.012450000000000001 0.0065000000000000101 -0.016899999999999991 0.0080000000000000019 -0.001050000000000009
decision_type=2 2 2 2 2 2 2 2 2 2 2 2 2 2 2 2 2 2 2 2 2 2 2 2 2 2 2 2 2 2
left_child=3 2 4 21 6 16 -2 27 13 22 12 15 -3 14 -6 -8 -5 18 -13 -4 23 -1 29 24 -14 -21 -19 -7 -27 -9
right_child=1 10 19 5 8 7 11 9 -10 -11 -12 17 20 -15 -16 -17 -18 26 -20 25 -22 -23 -24 -25 -26 28 -28 -29 -30 -31
leaf_value=0.19867402004342535 0.11530203066344605 0.21903434663802437 0.18078502414998321 -0.026586756642189475 0.21196390357491041 0.21219065738394915 -0.0044656103396015353 0.18435185410908159 0.20854661256712942 0.21543962413749362 0.19616866477757755 -0.029589865524762921 -0.022837298802256781 -0.0073921043605423373 -0.03816206949085562 0.17786795462164851 0.20193033879954581 -0.049265114701791207 0.2276122791360638 0.18297894872514223 0.16210472906298698 0.043781104611214525 0.21961828068404532 0.005278513753975967 0.18830216148919415 0.0083142165124680412 0.13793247518104776 0.11732960358612983 0.12099935177757465 0.013124947668650883
leaf_count=289 68 34 47 224 46 135 442 21 44 51 56 42 30 411 35 35 20 6309 24 33 49 43 25 486 56 404 20 125 55 260
internal_value=0 -0.420271 -0.585535 2.30585 -0.708131 1.69868 -0.823934 2.31291 0.676096 1.43956 1.20656 -0.85892 0.914795 0.325497 2.3433 0.207254 -0.0769648 -0.943528 1.52486 0.978426 0.699329 3.63721 0.879057 0.452649 2.34887 0.694451 -0.971816 3.39235 0.463105 0.529461
internal_count=9919 8726 8015 1193 7476 861 6940 617 536 357 711 6872 655 492 81 477 244 6395 66 539 621 332 306 572 86 492 6329 260 459 281
shrinkage=0.05


Tree=3
num_leaves=31
num_cat=0
split_feature=22 93 20 32 16 5 36 67 59 69 23 13 48 54 62 74 70 98 95 91 7 45 35 23 41 26 76 90 34 16
split_gain=1004.29 287.599 165.237 144.707 121.547 94.3919 91.1959 78.9938 83.1492 76.7086 110.229 89.4388 69.1939 60.6329 59.2159 99.4525 101.652 58.7955 104.532 55.2994 48.9395 46.1262 45.004 42.3544 41.2811 40.1143 38.917 46.4579 37.3199 36.339
threshold=-0.012999999999999989 0.006100000000000016 0.018750000000000006 0.010200000000000009 -0.023700000000000002 -0.0025000000000000001 0.00050000000000000229 0.020199999999999992 -0.0062499999999999977 0.006650000000000004 -0.0053999999999999907 -0.012500000000000001 0.013000000000000006 0.0091999999999999946 -9.9999999999999381e-05 -0.0088999999999999999 -0.024700000000000003 0.0015999999999999992 -1.0000000180025095e-35 0.0065999999999999991 0.0025000000000000009 0.0037000000000000058 -0.0044999999999999927 -0.017499999999999995 0.01085 -0.004699999999999988 -0.0001500000000000008 -0.0017000000000000051 -0.00039999999999999926 0.0097000000000000055
decision_type=2 2 2 2 2 2 2 2 2 2 2 2 2 2 2 2 2 2 2 2 2 2 2 2 2 2 2 2 2 2
left_child=4 2 3 5 -1 17 21 8 -8 10 11 -3 -5 -11 15 16 -6 -2 -19 25 -13 -4 29 -16 -23 -7 28 -28 -20 -12
right_child=1 9 6 12 14 19 7 -9 -10 13 22 20 -14 -15 23 -17 -18 18 26 -21 -22 24 -24 -25 -26 -27 27 -29 -30 -31
leaf_value=0.15024182544265027 -0.024852693711636314 0.2001074168673978 -0.012414916531532458 0.1533719071205831 0.2000707281880775 0.0824675292803565 0.19405007954791312 0.19109454878505466 -0.030493510550913556 -0.027778497255059376 0.013745865181043244 -0.03310518288770993 -0.043364171627748679 0.19247992017010482 -0.02327502664833998 0.15237913894071575 -0.0074730840208130037 0.28235021895664003 0.14018785642873463 0.13048161245053222 0.1760435539177245 0.2037430119458481 0.20607539313368403 0.074906705434735987 0.040259662239967443 -0.048302662607889763 0.16267216765744297 -0.026846891749363756 -0.058117493955507207 0.18713702664428836
leaf_count=426 875 38 36 96 40 41 29 28 399 204 53 184 51 22 161 235 214 30 73 29 21 80 122 145 37 5922 27 248 26 27
internal_value=0 -0.411977 -0.575499 -0.702176 2.04348 -0.765089 0.761679 0.107003 -0.244833 1.22747 1.83946 0.584804 1.87909 -0.0607552 1.40229 1.9467 0.730848 -0.0736004 0.789372 -0.922015 -0.185733 2.41184 3.17139 0.482756 3.13501 -0.9441 0.383059 -0.156307 1.85937 1.69097
internal_count=9919 8698 8027 7418 1221 7271 609 456 428 671 445 243 147 226 795 489 254 1279 404 5992 205 153 202 306 117 5963 374 275 99 80
shrinkage=0.05


Tree=4
num_leaves=31
num_cat=0
split_feature=21 92 16 17 33 24 5 32 68 24 6 97 64 49 61 98 61 88 14 4 35 8 19 74 35 40 77 98 71 65
split_gain=880.765 254.491 163.256 108.472 107.805 88.7372 79.3698 78.6442 74.417 71.7156 67.8532 64.8059 63.0247 54.1151 72.8997 71.6039 85.6916 53.8932 52.0502 48.9729 46.1005 45.1386 40.4795 37.3528 36.7043 32.9052 32.7934 31.0048 45.6907 31.5215
threshold=-0.011950000000000001 0.0058999999999999929 0.017549999999999993 -0.022499999999999992 0.012200000000000015 0.022550000000000011 -0.0025000000000000001 -0.0022999999999999926 0.0056000000000000156 -0.0074999999999999971 -0.0075000000000000041 0.0057999999999999901 0.018350000000000009 -0.013099999999999995 -0.012600000000000019 -0.00099999999999999894 -0.00079999999999999158 0.0025000000000000061 0.0071000000000000065 -0.00975 -0.0030999999999999947 -0.0052000000000000058 0.053850000000000002 0.00044999999999999213 -0.002599999999999996 0.0058000000000000039 0.0028999999999999898 0.015900000000000008 -0.0086999999999999907 0.0060500000000000007
decision_type=2 2 2 2 2 2 2 2 2 2 2 2 2 2 2 2 2 2 2 2 2 2 2 2 2 2 2 2 2 2
left_child=3 2 4 27 5 6 11 22 9 10 -3 -2 23 14 -5 -15 -17 -13 -6 -16 -18 -10 -4 -9 -25 -7 -8 28 -1 -29
right_child=1 8 7 13 18 25 26 12 21 -11 -12 17 -14 15 19 16 20 -19 -20 -21 -22 -23 -24 24 -26 -27 -28 29 -30 -31
leaf_value=-0.0052169562599857118 -0.015706435892443315 0.20614821114640472 0.15722283641890983 0.16515736273758866 0.18674526941939473 0.13553176244765328 -0.048819279005350456 0.14408067787047538 0.11990316965308941 0.13374646975902771 -0.0080522189418168206 0.1982966801995838 0.15663345899911604 -0.02442595918220003 0.1448692096976997 0.16444463890132294 -0.016530319310719174 -0.033964465905083695 0.0079480376454099787 -0.029502481951400525 0.10368806052797233 -0.032250841424633019 -0.044269986716538971 0.12885859473381817 -0.031137269355901304 -0.02614085356432232 0.0097106948504390393 0.1662636416716041 0.12629857401984695 0.071565180178264062
leaf_count=54 1140 25 98 35 44 63 5795 22 36 212 163 45 35 96 28 179 105 31 61 258 111 197 20 24 364 37 201 253 125 62
internal_value=0 -0.414317 -0.572201 1.79085 -0.697623 -0.746473 -0.78917 0.803402 1.13126 1.76026 0.532266 -0.13359 0.231081 1.17084 0.326828 1.69057 2.12096 2.23941 1.84723 -0.194138 0.970173 -0.0927105 2.54136 -0.134103 -0.368555 1.69615 -0.933948 2.58902 1.81047 3.0046
internal_count=9919 8613 7980 1306 7417 7312 7212 563 633 400 188 1216 445 812 321 491 395 76 105 286 216 233 118 410 388 100 5996 494 179 315
shrinkage=0.05


Tree=5
num_leaves=31
num_cat=0
split_feature=14 93 16 22 31 23 95 74 85 85 32 61 36 68 8 64 26 28 90 23 45 49 91 35 23 26 91 95 21 69
split_gain=818.291 224.892 150.669 114.251 103.329 90.146 84.4878 110.257 69.5951 61.9512 57.9606 53.5301 51.326 61.9881 70.841 49.0816 43.2077 39.048 38.7065 37.2882 131.149 36.1399 39.2189 35.8162 37.7361 36.0565 35.7767 33.7673 31.804 31.0941
threshold=-0.0099000000000000025 0.0062999999999999905 0.017549999999999993 -0.011999999999999992 0.010799999999999999 0.021300000000000006 0.014950000000000003 -0.009749999999999993 -0.0093999999999999865 0.0058000000000000039 -0.002700000000000004 -0.00050000000000000381 0.0028000000000000078 0.0052000000000000006 0.00030000000000001559 0.018350000000000009 -0.0044999999999999927 0.0039000000000000046 -0.0064000000000000055 -0.00034999999999999609 0.0067499999999999999 0.0060999999999999917 -0.0032999999999999865 -0.002599999999999996 0.017500000000000002 0.002100000000000012 -0.00050000000000000207 0.002699999999999998 -0.0077000000000000081 0.010150000000000001
decision_type=2 2 2 2 2 2 2 2 2 2 2 2 2 2 2 2 2 2 2 2 2 2 2 2 2 2 2 2 2 2
left_child=6 2 3 -2 5 9 7 8 -1 16 29 -9 13 14 28 23 26 -13 -6 20 -18 -7 -23 -12 25 -25 -5 -11 -3 -4
right_child=1 12 10 4 18 21 -8 11 -10 27 15 17 -14 -15 -16 -17 19 -19 -20 -21 -22 22 -24 24 -26 -27 -28 -29 -30 -31
leaf_value=0.16128316529515266 0.062777307584516259 -0.019484097198314891 0.14427946016958673 -0.034733558491296924 0.018448352553894039 -0.059508862131210163 0.12640463814192168 0.1169443312491148 -0.045639774696528079 0.18470267263518464 0.12176527705522713 0.028758157026834038 0.13100319578950836 -0.02635343665683176 0.12944514707730234 0.13503685040509394 -0.035262506828281498 0.16020507200493006 0.19007429420470717 -0.052204752803345446 0.16959211059029289 0.01099069742913044 0.19423019017454296 -0.0089940407370113964 -0.040754159456690697 0.16211497749267367 0.1796903904923077 0.01335676226312537 0.074307412262775804 -0.029256161477414305
leaf_count=24 206 153 84 27 47 29 404 346 227 26 30 272 95 210 134 37 2066 35 36 4680 64 38 41 60 298 35 27 69 98 21
internal_value=0 -0.380497 -0.53933 -0.664674 -0.735457 -0.781295 1.71792 1.25824 -0.329833 -0.829033 0.765343 1.73792 0.997455 0.699606 1.26278 0.300804 -0.86708 0.936634 2.0451 -0.891086 -0.570421 1.58641 2.41217 -0.0285823 -0.294839 1.17732 1.47718 1.25372 0.394117 2.31034
internal_count=9919 8611 7921 7356 7150 7067 1308 904 251 6959 565 653 690 595 385 460 6864 307 83 6810 2130 108 79 423 393 95 54 95 251 105
shrinkage=0.05


Tree=6
num_leaves=31
num_cat=0
split_feature=14 92 16 9 19 72 31 78 81 60 88 24 90 35 68 64 31 65 22 66 63 64 46 17 8 12 3 72 24 49
split_gain=719.835 206.423 144.078 105.997 71.2532 70.193 64.2576 64.4931 58.258 48.7931 55.1893 46.431 41.6214 41.237 43.788 43.9148 41.1696 34.9902 43.7687 36.8064 34.7183 34.6979 37.752 31.1462 29.7508 32.4471 28.7913 26.4185 25.793 33.1369
threshold=-0.0099000000000000025 0.0057000000000000011 0.017549999999999993 -0.0062000000000000067 -0.025499999999999998 -0.0099999999999999863 0.010799999999999999 0.0024999999999999974 -0.0063999999999999986 -0.006499999999999998 0.001599999999999994 0.016999999999999998 -0.0064000000000000055 0.0033000000000000013 0.0052000000000000006 0.0038000000000000017 0.0022499999999999955 0.01865000000000001 0.018700000000000008 0.0063000000000000044 -0.0012000000000000029 0.0022499999999999955 -0.010999999999999998 -0.0099500000000000057 0.00020000000000001269 -0.011849999999999999 0.0075000000000000023 -9.9999999999992442e-05 -0.0019000000000000004 0.016900000000000009
decision_type=2 2 2 2 2 2 2 2 2 2 2 2 2 2 2 2 2 2 2 2 2 2 2 2 2 2 2 2 2 2
left_child=4 2 3 8 -1 16 7 23 -2 -4 17 13 -8 14 15 24 -6 18 19 -11 -7 22 -22 -5 25 -3 -9 -10 -29 -30
right_child=1 11 9 6 5 20 12 26 27 10 -12 -13 -14 -15 -16 -17 -18 -19 -20 -21 21 -23 -24 -25 -26 -27 -28 28 29 -31
leaf_value=0.11139676032353343 0.16486601505058104 0.11305434047070424 0.14770497938670937 0.025026933496222422 -0.04682734308220219 0.10096605007170048 -0.019034878559364976 -0.00019068176514021315 -0.015308243914909687 -0.018246498588307406 0.12045657560387027 0.11989393085917006 0.15146656261969002 0.11721422886558713 -0.031718240813170068 0.14704970996598843 0.13454073537117589 0.1153562915037748 -0.033738334124825117 0.150300856522181 0.092865803796529603 0.08717542015557031 -0.027156244379426427 -0.045912792684358966 0.085632280823370238 -0.018133367032080194 0.12160835519543063 0.13241965364004948 -0.0512601267338193 0.13893712720317219
leaf_count=457 36 32 46 122 179 297 52 414 238 50 67 82 37 65 220 51 20 30 333 41 55 153 147 6230 82 217 34 53 59 20
internal_value=0 -0.369262 -0.534042 -0.662352 1.57477 1.11009 -0.760005 -0.800624 0.679672 0.725969 0.46009 0.871646 1.33823 0.614573 0.379182 0.863799 -0.404788 0.0752711 -0.179856 1.42383 1.44788 0.906217 0.18655 -0.885369 0.51326 0.0325687 0.228301 0.273998 1.23265 0.215326
internal_count=9919 8611 7862 7295 1308 851 6889 6800 406 567 521 749 89 667 602 382 199 454 424 91 652 355 202 6352 331 249 448 370 132 79
shrinkage=0.05


Tree=7
num_leaves=31
num_cat=0
split_feature=14 92 12 9 85 95 74 71 33 32 68 22 91 28 68 58 23 42 61 61 70 65 98 30 23 28 65 66 2 68
split_gain=637.912 190.036 134.349 96.9786 77.1242 64.8327 86.0543 56.4263 53.1769 44.5391 43.9776 48.0145 42.5881 41.0284 40.3305 37.5443 37.1974 102.848 36.7475 36.6175 77.3386 49.082 34.8942 47.0022 34.8903 33.0581 30.4629 45.3401 30.0925 29.6292
threshold=-0.0095999999999999922 0.0057000000000000011 0.014049999999999995 -0.0062000000000000067 0.0065000000000000101 0.014950000000000003 -0.009749999999999993 -0.025100000000000001 0.012200000000000015 -0.0022999999999999926 0.010050000000000005 -0.0036999999999999876 -0.0064999999999999876 -0.0050499999999999981 0.0079000000000000129 -0.0022999999999999926 -0.0010500000000000021 0.005700000000000008 -0.00050000000000000381 0.004800000000000003 0.0072000000000000024 0.01865000000000001 0.0064000000000000142 0.0050000000000000122 0.021300000000000006 0.0039000000000000046 0.0047000000000000002 0.01205 -0.0041999999999999876 0.0055000000000000127
decision_type=2 2 2 2 2 2 2 2 2 2 2 2 2 2 2 2 2 2 2 2 2 2 2 2 2 2 2 2 2 2
left_child=5 2 3 22 8 6 7 -1 13 -4 11 14 -10 -5 -3 -13 17 -15 -8 -11 -21 -22 23 -2 -18 -20 -7 -28 -25 -19
right_child=1 10 9 4 -6 26 18 -9 12 19 -12 15 -14 16 -16 -17 24 29 25 20 21 -23 -24 28 -26 -27 27 -29 -30 -31
leaf_value=0.1334974703146011 -0.0063601743857858526 0.011790383919752425 0.10473626350672627 0.047100863724486901 0.092673585541959924 0.12191747701582317 0.094588909692773837 -0.045439793815332655 -0.059076886791641615 -0.022009569222852406 -0.029137583376994614 0.0033450598255034417 0.14518170538439132 -0.032852152921814697 0.15564635260580048 0.12010121795551221 -0.052513749105440093 0.063940373355864125 0.023154005698280661 0.18673895870058765 -0.038880632719890076 0.10880727607553049 0.14978315576900761 0.001321648283560234 0.036556235946087763 0.13772716992863995 -0.0072573997845179726 0.14254418942004249 0.17985312742079543 0.24516246263536345
leaf_count=24 324 347 92 93 64 298 369 235 32 277 135 54 34 1737 30 167 4707 43 281 50 140 39 31 25 87 36 69 38 33 28
internal_value=0 -0.364042 -0.526096 -0.655444 -0.754173 1.43175 1.0477 -0.36164 -0.79493 0.671467 0.825975 1.09029 1.39207 -0.82896 0.502368 1.91149 -0.861889 -0.497085 1.43333 0.301328 1.03731 0.185889 0.599427 0.34437 -1.00951 0.788566 2.11385 1.06087 2.27594 2.73414
internal_count=9919 8569 7836 7238 6825 1350 945 259 6761 598 733 598 66 6695 377 221 6602 1808 686 506 229 179 413 382 4794 317 405 107 58 71
shrinkage=0.05


Tree=8
num_leaves=31
num_cat=0
split_feature=11 89 31 31 14 98 74 31 67 70 98 5 16 6 17 70 90 16 65 96 23 5 5 24 79 97 22 9 17 14
split_gain=572.996 162.508 122.292 82.4515 77.6417 73.9001 72.2551 64.9906 71.3386 62.9976 63.6896 65.8002 63.5787 65.7282 61.5129 61.1971 48.1916 41.179 40.9172 38.4011 38.3698 36.9083 33.7316 31.0081 30.6258 28.9039 28.7552 28.5251 36.5992 27.9039
threshold=-0.0075000000000000041 0.0051500000000000027 -0.0031000000000000034 0.010399999999999998 0.012749999999999999 0.018350000000000002 -0.0088999999999999999 0.0035000000000000018 0.0055499999999999933 0.0053000000000000208 0.005700000000000008 -0.0015500000000000025 -0.0023999999999999972 0.012449999999999994 -0.0036999999999999963 -0.024700000000000003 -0.0056000000000000104 -0.0099499999999999988 0.0071499999999999975 0.0024000000000000206 -0.0050000000000000018 0.0050000000000000001 -0.0063000000000000061 -0.027050000000000001 -0.015099999999999987 -0.006999999999999988 -0.011999999999999992 0.0012000000000000016 0.0026999999999999962 -0.036999999999999998
decision_type=2 2 2 2 2 2 2 2 2 2 2 2 2 2 2 2 2 2 2 2 2 2 2 2 2 2 2 2 2 2
left_child=5 2 4 9 17 6 15 8 14 10 18 -12 19 20 21 -1 24 -2 26 -11 -14 22 -3 -8 -5 -15 -4 -19 -29 -25
right_child=1 7 3 16 -6 -7 23 -9 -10 12 11 -13 13 25 -16 -17 -18 27 -20 -21 -22 -23 -24 29 -26 -27 -28 28 -30 -31
leaf_value=0.13403078281174857 0.096812719585053275 0.11061373421968815 0.031080491989568956 0.067491794815234041 0.10481546230034278 0.10970193409550813 0.11862402843838538 0.12117313406066586 -0.041867294866341137 0.19210063934911481 0.12155332202201526 -0.030016644330875353 0.10559559310012551 -0.0019309184266349786 0.097861358870068943 -0.032401335943725781 0.13090558714974557 -0.031281739493474396 0.10897130408457029 -0.00097115726778867128 -0.038644850615399767 0.13257340273141546 -0.029944218571281961 -0.05931470860908461 -0.033180531611658397 0.18035064248617624 -0.050045957809114132 0.12239743014081271 -0.022936198955561718 0.061032735070992265
leaf_count=28 58 26 79 64 124 302 101 97 247 43 73 163 30 29 178 284 47 442 34 36 686 25 225 26 158 41 5454 49 81 689
internal_value=0 -0.361228 -0.521047 -0.663979 0.504645 1.31229 0.989944 0.697933 0.398698 -0.746819 -0.868929 0.537521 0.000779442 -0.285063 0.936752 -0.147112 0.695484 0.0265253 -0.945268 2.29642 -0.588109 0.130181 -0.220513 1.3237 0.0994082 2.23219 -0.968541 -0.248309 0.853912 1.12283
internal_count=9919 8489 7691 6937 754 1430 1128 798 701 6668 5803 236 865 786 454 312 269 630 5567 79 716 276 251 816 222 70 5533 572 130 715
shrinkage=0.05


Tree=9
num_leaves=31
num_cat=0
split_feature=14 92 12 84 84 23 43 19 74 38 68 14 7 31 31 80 25 19 74 61 71 65 33 6 92 91 16 93 12 22
split_gain=513.33 160.372 115.748 90.5304 80.5906 59.7871 89.1703 50.8865 50.0864 36.0395 35.9964 36.3228 33.0224 32.7991 32.5772 30.8421 30.6746 32.728 41.2775 28.8655 46.5328 41.5762 28.4837 28.0329 24.2638 24.1331 23.513 23.9611 23.5012 22.1126
threshold=-0.0095999999999999922 0.0057000000000000011 0.014049999999999995 0.005700000000000008 -0.010099999999999993 -0.0022499999999999946 0.0063000000000000044 -0.024049999999999985 -0.01059999999999999 -0.0096999999999999951 0.009700000000000009 -0.0030000000000000109 0.003599999999999996 -0.0019999999999999996 0.0025000000000000009 0.0082499999999999952 -0.0027999999999999896 -0.012450000000000001 -0.0069999999999999949 0.0047000000000000002 0.0079000000000000129 0.017650000000000002 -0.0020999999999999938 -0.00019999999999999703 0.0039000000000000115 -0.004299999999999987 -0.0061999999999999928 0.0023499999999999984 -0.011299999999999999 -0.0047999999999999944
decision_type=2 2 2 2 2 2 2 2 2 2 2 2 2 2 2 2 2 2 2 2 2 2 2 2 2 2 2 2 2 2
left_child=7 2 3 4 23 6 16 -1 14 -7 11 12 28 15 -9 -4 -6 18 -18 22 -21 -22 -15 -2 -5 -8 27 -11 -3 -12
right_child=1 10 13 24 5 9 25 8 -10 26 29 -13 -14 19 -16 -17 17 -19 -20 20 21 -23 -24 -25 -26 -27 -28 -29 -30 -31
leaf_value=0.087778776653269497 0.12419372104708651 0.10941522719326346 0.11779156871707075 0.10279811074992032 0.13449728665638902 0.10912858221569544 0.013285405136378589 -0.049789038741646405 0.055996358475995926 -0.021267912746399283 0.073687902230053254 0.074597210437208447 0.11832314939208129 0.10353889479631634 0.10564459929342417 -0.026220905731976586 -0.057810750827394987 -0.030808006044468345 0.13684809111608018 0.13645127093686957 -0.043258411172206288 0.087803967616667256 -0.042470698988681908 0.002620661487632544 -0.0042939548437019434 0.16253651375783962 -0.049287711266808192 0.14098692520328435 -0.016901095313337191 -0.055979335119966979
leaf_count=494 48 21 77 81 21 23 28 181 655 79 24 306 33 24 20 27 40 1604 40 56 129 49 236 72 53 51 5078 20 233 116
internal_value=0 -0.344279 -0.501238 -0.628252 -0.691056 -0.746184 -0.280922 1.25047 0.857361 -0.929506 0.730943 0.965403 0.290165 0.597749 -0.466299 1.68822 -0.455047 -0.507591 1.14354 0.247628 0.861929 0.152855 -0.474965 1.33935 1.31103 2.30381 -0.952537 0.465601 -0.0651559 -0.53739
internal_count=9919 8569 7836 7238 7104 6984 1784 1350 856 5200 733 593 287 598 201 104 1705 1684 80 494 234 178 260 120 134 79 5177 99 254 140
shrinkage=0.05


Tree=10
num_leaves=31
num_cat=0
split_feature=14 93 84 84 95 74 28 71 98 30 62 21 85 68 12 94 26 59 79 34 6 74 64 58 65 77 5 17 97 91
split_gain=459.877 135.42 108.635 95.5828 63.1198 69.8118 53.1723 48.9995 42.972 41.6843 40.9261 43.2273 44.7774 37.0537 41.3791 35.4567 33.6935 32.4099 36.9442 33.5913 32.1772 32.0961 30.6356 35.1496 29.5242 32.1475 28.607 27.218 25.9682 24.8921
threshold=-0.0075000000000000041 0.0062999999999999905 0.0050999999999999978 -0.011500000000000002 0.015800000000000026 -0.0088999999999999999 0.0050000000000000018 -0.025100000000000001 -0.016850000000000007 -0.0050000000000000001 -0.00020000000000000223 -0.012450000000000001 0.00030000000000000518 0.009700000000000009 0.0013000000000000045 -0.0025000000000000001 -0.0039999999999999923 0.0025000000000000096 0.0074000000000000081 -0.0050000000000000001 -0.0050000000000000018 0.0033000000000000082 0.0059999999999999958 -0.0013999999999999948 0.0047000000000000002 0.0027000000000000153 0.0045000000000000118 -0.0099500000000000057 0.0047999999999999892 0.00060000000000000689
decision_type=2 2 2 2 2 2 2 2 2 2 2 2 2 2 2 2 2 2 2 2 2 2 2 2 2 2 2 2 2 2
left_child=4 2 3 8 5 7 9 -1 -2 29 11 -7 -13 14 20 -8 -11 18 -12 -19 -3 -17 23 -4 -6 -26 -22 -18 -23 -5
right_child=1 13 22 6 24 10 15 -9 -10 16 17 12 -14 -15 -16 21 27 19 -20 -21 26 28 -24 -25 25 -27 -28 -29 -30 -31
leaf_value=0.10944978772415409 -0.045228116098966438 0.091764461135790551 -0.011405030911088868 -0.027813901619469727 0.10470591222503355 0.10655127038643378 -0.017352158137100098 -0.03523098535723463 0.070685350297798474 0.061084808344822161 -0.023281287605072309 0.093801573946222627 -0.015659892615430337 -0.0283483743619889 0.10223313881623781 -0.047010100402047429 0.021317184788206163 -0.064056114328445588 0.12318500107443209 0.092797880613851691 -0.011273765887206228 0.14307081562877319 -0.034561940777205799 0.11621642713052822 -0.033388490676794488 0.087867053429427994 0.10254574604920406 -0.044284396688114673 -0.039069275469966164 0.064275441240205733
leaf_count=29 94 73 43 108 274 218 253 341 175 53 218 107 122 146 120 38 122 25 25 115 266 65 51 114 47 61 30 6458 20 108
internal_value=0 -0.393558 -0.534041 -0.613502 1.05594 0.745198 -0.700449 -0.298931 0.837709 -0.772582 1.07832 1.52332 0.711675 0.682455 0.969116 0.330944 -0.826162 0.4739 -0.0969521 1.35382 0.51192 1.45038 1.19126 1.65771 1.75723 0.771834 0.100146 -0.851926 2.21228 0.392094
internal_count=9919 8337 7702 7494 1582 1200 7225 370 269 6849 830 447 229 635 489 376 6633 383 243 140 369 123 208 157 382 108 296 6580 85 216
shrinkage=0.05


Tree=11
num_leaves=31
num_cat=0
split_feature=10 92 10 82 95 14 74 70 68 35 24 27 71 39 62 65 65 16 65 28 82 27 21 71 48 66 28 84 73 63
split_gain=436.314 129.068 110.443 76.3829 60.6779 56.91 46.9232 46.7245 45.5336 46.5567 41.509 38.9883 35.9698 62.7333 51.3869 36.2859 34.3086 34.1871 30.4796 30.0389 29.7463 29.6475 29.2787 28.6255 26.0104 25.0562 25.4586 30.5155 24.7798 23.5041
threshold=-0.0062999999999999957 0.0055999999999999965 0.010650000000000001 0.0045999999999999973 0.015800000000000026 -0.0075000000000000041 -0.0088999999999999999 -0.024700000000000003 0.0052000000000000006 0.0033000000000000013 -0.0074999999999999971 -0.0060499999999999955 0.004899999999999992 0.018450000000000005 0.0062999999999999905 0.01865000000000001 -0.0039999999999999992 -0.011599999999999994 -0.002799999999999993 0.0070999999999999995 -0.0019999999999999996 0.0033999999999999955 -0.012450000000000001 -0.0019999999999999979 0.013800000000000005 0.0058500000000000019 -0.0055000000000000005 0.0088000000000000005 -0.00060000000000000667 -0.00015000000000000427
decision_type=2 2 2 2 2 2 2 2 2 2 2 2 2 2 2 2 2 2 2 2 2 2 2 2 2 2 2 2 2 2
left_child=4 2 3 5 6 -2 7 -1 10 -10 17 -7 14 -14 18 -15 20 -3 -4 -13 -8 25 -22 -5 -25 26 27 -18 -24 -28
right_child=1 8 12 23 -6 11 16 -9 9 -11 -12 19 13 15 -16 -17 21 -19 -20 -21 22 -23 28 24 -26 -27 29 -29 -30 -31
leaf_value=0.11408863731237973 0.026553764366373491 0.074325894376425269 0.083248697295170343 0.13251209387667814 0.088182349624927936 0.10266343157789695 0.15847565390105786 -0.03068728121252158 -0.045996225756242251 0.069227012039675948 0.086116051569973762 -0.044482122537762438 0.097721821076651505 -0.041687261506089049 0.12245193284165884 0.089696809596786123 0.14800489407450607 -0.016023883328233381 -0.052023415960690045 0.037991030506101087 0.098364980714227029 0.093359723765482253 -0.01623531455157836 -0.016651051010797762 0.1147367531481711 0.090181890383901064 0.029316806221567893 0.0038177721660454314 0.11515586837298751 -0.032106857451821229
leaf_count=27 230 83 27 45 343 26 53 306 249 61 184 6301 174 171 27 31 33 198 307 80 112 82 89 112 26 64 188 42 26 222
internal_value=0 -0.386441 -0.544435 -0.694279 1.03412 -0.765486 0.743578 -0.177459 0.538255 -0.287175 0.96615 -0.835497 0.432403 0.95405 -0.25474 -0.145261 0.992414 0.319616 -0.693617 -0.858186 1.62952 0.658329 1.28116 0.945475 0.328723 0.426395 0.221332 1.40179 0.337503 -0.0579525
internal_count=9919 8332 7557 6820 1587 6637 1244 333 775 310 465 6407 737 376 361 202 911 281 334 6381 280 631 227 183 138 549 485 75 115 410
shrinkage=0.05


Tree=12
num_leaves=31
num_cat=0
split_feature=10 23 48 35 39 98 95 16 74 70 94 47 44 36 43 27 72 98 65 32 28 98 37 96 45 11 82 24 39 34
split_gain=394.426 121.878 123.34 74.3065 71.8425 55.1502 54.2045 43.298 41.1914 42.1379 38.2418 36.1444 35.5961 34.915 32.8609 32.7294 30.6375 33.6703 29.9352 29.723 26.694 27.0142 43.3729 33.3201 31.446 25.9694 28.6235 24.3457 45.0251 42.0791
threshold=-0.0062999999999999957 0.016300000000000002 -0.0031000000000000034 0.0078000000000000057 0.0034000000000000041 0.0016999999999999969 0.015800000000000026 0.0026999999999999962 -0.0088999999999999999 -0.024700000000000003 -0.00020000000000000917 0.0089000000000000034 0.0068000000000000118 0.0043000000000000095 -0.0031999999999999871 -0.0055000000000000005 0.0049000000000000094 -0.022699999999999988 -0.0039999999999999992 0.0089500000000000014 0.0044000000000000055 1.0000000180025095e-35 -0.0057000000000000063 0.0098500000000000063 -0.0080499999999999999 0.012299999999999986 -0.0043999999999999899 -0.0044999999999999927 -0.0052999999999999948 -0.0013999999999999948
decision_type=2 2 2 2 2 2 2 2 2 2 2 2 2 2 2 2 2 2 2 2 2 2 2 2 2 2 2 2 2 2
left_child=6 2 5 15 11 13 8 12 9 -1 -7 14 -5 -2 -3 -4 -6 -18 -10 -17 21 -20 24 -24 -23 -9 -27 -12 -29 -30
right_child=1 4 3 7 16 10 -8 25 18 -11 27 -13 -14 -15 -16 19 17 -19 20 -21 -22 22 23 -25 -26 26 -28 28 29 -31
leaf_value=0.10741903416732448 -0.040735831750667625 0.10051628215355324 0.070326732207888334 -0.024895374836247999 -0.048106331442430358 0.12950461481784645 0.083065374202421993 -0.038073046422772892 0.075943242912865125 -0.029779104683134456 0.0034711611537726773 0.13178782275992795 0.18637321034426002 0.11381896985443869 -0.0077421104402238053 -0.047729983346093741 -0.058288059562412224 0.045165944534793806 -0.0187625227646619 0.0785314237472617 0.093375190763122784 -0.040090771613757327 0.049665423470273966 0.16551557343399731 0.082406948591175019 0.0020015926086440171 0.15794302146306055 -0.043097241398798933 0.13700982854538116 0.017762293276425159
leaf_count=27 670 55 36 27 238 53 343 211 280 306 758 83 41 20 114 5311 93 229 192 28 71 125 166 41 36 58 23 72 98 114
internal_value=0 -0.375812 -0.523275 -0.787411 0.579747 0.0999161 0.974794 0.463749 0.700924 -0.171701 0.4333 1.54007 2.38884 -0.641739 0.831333 -0.900266 -0.0672152 0.42831 0.929975 -0.929659 0.618568 0.418395 0.788274 1.51466 -0.162975 -0.0528143 1.01469 0.318074 0.988359 1.60401
internal_count=9919 8332 7520 5735 812 1785 1587 360 1244 333 1095 252 68 690 169 5375 560 322 911 5339 631 560 368 207 161 292 81 1042 284 212
shrinkage=0.05


Tree=13
num_leaves=31
num_cat=0
split_feature=10 91 24 49 35 23 38 94 69 85 16 72 47 33 19 98 93 49 26 65 58 44 7 26 73 10 82 59 73 54
split_gain=356.901 112.759 97.0856 71.9444 51.3339 49.0928 45.4754 44.4295 38.8184 37.6307 37.1916 36.5779 34.5452 33.5528 33.8967 32.7793 35.6455 32.5047 31.8932 30.001 32.9756 29.1309 29.0292 28.6953 27.0948 26.2094 25.3802 26.3863 23.7839 23.5967
threshold=-0.0062999999999999957 0.0064000000000000142 0.015550000000000003 -0.0033999999999999963 0.0078000000000000057 -0.035799999999999978 0.0025499999999999971 -0.0022999999999999856 0.0118 -0.010299999999999991 0.0026999999999999962 -0.0099999999999999863 0.0079000000000000129 0.0025499999999999971 -0.0045999999999999852 0.0016999999999999969 0.00030000000000001212 -0.028599999999999997 -0.004699999999999988 0.01865000000000001 -0.005199999999999992 0.006600000000000006 -1.0000000180025095e-35 -0.0044999999999999927 -0.0012999999999999919 -0.0037999999999999939 0.0055000000000000023 -0.0010000000000000041 -0.0026999999999999867 -0.0017500000000000083
decision_type=2 2 2 2 2 2 2 2 2 2 2 2 2 2 2 2 2 2 2 2 2 2 2 2 2 2 2 2 2 2
left_child=5 2 3 9 18 -1 12 19 13 -2 21 17 -4 14 24 -11 22 -7 -5 20 -8 -6 28 -13 25 -3 27 -18 -17 -16
right_child=1 8 6 4 10 11 7 -9 -10 15 -12 23 -14 -15 29 16 26 -19 -20 -21 -22 -23 -24 -25 -26 -27 -28 -29 -30 -31
leaf_value=0.085174081516571173 0.089529245855087425 -0.026687124979915766 0.017302729972540561 0.094918220478453261 -0.057167172157147339 0.098105749793327215 0.071539375724430823 0.089450182580645174 -0.042684630119359218 -0.038418287547340502 -0.013983208163326872 0.088528764495131709 0.12009882906666497 0.11324914517869014 -0.040883470728136737 0.039562394163560201 0.028090270319684498 -0.037307890936061176 -0.047798313697310413 0.082560955555881027 -0.043836624872318875 0.15206856759498444 -0.010469047538804187 0.035169967523733622 -0.040686468664379909 0.09748031778149259 0.10712230552033275 -0.033955430597603108 0.23740445607850266 0.084846515995612368
leaf_count=258 46 51 116 23 22 22 41 69 117 619 251 133 72 68 29 20 233 232 5204 28 502 43 33 942 141 49 28 366 30 131
internal_value=0 -0.365234 -0.498437 -0.646973 -0.836913 0.919911 0.375552 -0.0489837 0.633496 -0.0544112 0.293305 0.703897 1.36158 0.895188 0.606395 -0.185864 0.202657 -0.29183 -0.930744 -0.3673 -0.596915 2.04263 1.9443 0.865468 -0.0352684 0.884377 -0.0328975 -0.185339 3.24643 1.36052
internal_count=9919 8332 7746 6918 5543 1587 828 640 586 1375 316 1329 188 469 401 1329 710 254 5227 571 543 65 83 1075 241 100 627 599 50 160
shrinkage=0.05


Tree=14
num_leaves=31
num_cat=0
split_feature=14 83 83 92 71 24 73 11 28 34 4 70 95 71 66 14 31 64 62 21 83 72 74 21 94 18 31 22 58 57
split_gain=320.508 105.679 72.6176 71.2494 42.8866 42.1945 49.5984 40.049 39.4441 38.2782 32.9215 45.5605 29.0009 25.9819 24.0868 23.8972 23.6711 23.6252 22.5262 31.2069 45.8144 29.8227 29.7247 26.8853 35.4451 21.9696 21.6715 21.924 21.4893 28.3229
threshold=-0.0075000000000000041 0.0033000000000000065 -0.0092999999999999906 0.0078000000000000092 0.0050999999999999978 -0.035400000000000001 -0.0097999999999999806 -0.0053999999999999977 0.0038000000000000087 -0.0010000000000000041 0.0073000000000000053 0.0081000000000000186 -0.010699999999999996 0.0088499999999999985 0.0066000000000000164 -0.0045999999999999956 -0.0047999999999999944 -0.019999999999999993 -0.00029999999999999119 -0.012450000000000001 -0.0018999999999999952 0.010100000000000007 0.0019000000000000026 -0.014999999999999994 0.0086999999999999977 -0.0099500000000000057 0.0049000000000000059 -0.012999999999999989 -0.0016000000000000005 -0.0057999999999999953
decision_type=2 2 2 2 2 2 2 2 2 2 2 2 2 2 2 2 2 2 2 2 2 2 2 2 2 2 2 2 2 2
left_child=5 2 12 4 7 14 17 26 9 15 16 -12 -2 -5 -1 -3 -6 -7 19 -8 -21 23 -22 -20 -25 -11 27 -4 29 -17
right_child=1 8 3 13 10 6 18 -9 -10 25 11 -13 -14 -15 -16 28 -18 -19 21 20 22 -23 -24 24 -26 -27 -28 -29 -30 -31
leaf_value=0.085693708144328321 -0.012087034973710531 -0.010827888393448956 0.098563933808907433 0.089080824435464515 0.079297825228379124 0.086180636133217275 0.0834760586675595 -0.044161891534013488 0.095957248080401597 0.077780237880402794 0.10762219993295206 -0.035224433027565921 0.063759333270183668 -0.058678470607972238 -0.0047210640213150891 0.10820954644331271 -0.027030692948555327 -0.035680984753002909 -0.022815049945118772 0.1178855743594371 -0.023320876177641864 0.0929907414461974 0.11044278980323752 0.0057458999216528058 0.10652303316516583 -0.03356840425218155 0.1125042921631093 -0.019180793027725358 0.069274382048792188 -0.034647633026515988
leaf_count=271 187 162 26 75 28 20 246 5509 77 27 94 78 151 32 39 22 803 283 183 54 174 56 25 169 62 400 23 319 240 84
internal_value=0 -0.355995 -0.522537 -0.616023 -0.677035 0.858695 0.639288 -0.797276 0.411237 0.233905 -0.0906114 0.965019 0.620534 1.243 1.51148 0.655785 -0.391961 -0.415714 0.852506 1.17833 0.532534 0.475579 -0.0580687 0.222238 0.773428 -0.453525 0.125784 -0.111469 0.990712 0.0696665
internal_count=9919 8337 7325 6987 6880 1582 1272 5877 1012 935 1003 172 338 107 310 508 831 303 969 499 253 470 199 414 231 427 368 345 346 106
shrinkage=0.05


Tree=15
num_leaves=31
num_cat=0
split_feature=20 89 4 6 73 66 31 32 64 98 81 23 31 81 83 41 74 80 62 74 80 66 68 14 45 85 84 45 92 98
split_gain=311.436 93.9577 74.8853 86.0231 58.0655 62.5879 57.2233 46.4361 46.2738 41.0723 36.9709 35.4816 31.4459 30.0222 28.6179 28.3043 49.8064 38.668 33.1669 27.9939 26.4924 21.821 21.7376 46.9355 21.4965 30.567 25.4904 31.6273 21.1739 49.267
threshold=-0.011050000000000009 0.0055000000000000075 0.0088000000000000005 -0.0019999999999999996 -0.0034999999999999992 -0.0043999999999999968 0.0035000000000000018 -0.0062999999999999888 0.005749999999999999 0.0055000000000000005 0.0012999999999999976 -0.0053999999999999907 0.006200000000000005 0.0044000000000000055 0.0058000000000000213 -0.028899999999999999 -0.009299999999999994 -0.00050000000000001074 -0.00020000000000000223 0.010249999999999997 0.0066499999999999971 0.002799999999999987 0.0045999999999999973 -0.0023999999999999972 -0.014349999999999996 0.018250000000000006 0.0049999999999999949 -0.0091999999999999946 -0.00069999999999998872 -0.00010000000000000805
decision_type=2 2 2 2 2 2 2 2 2 2 2 2 2 2 2 2 2 2 2 2 2 2 2 2 2 2 2 2 2 2
left_child=15 2 3 4 -2 28 8 -5 11 12 -11 20 13 -7 22 -1 17 -17 -18 24 -3 -15 -9 -24 25 -20 27 -26 29 -6
right_child=1 6 -4 7 5 9 -8 14 -10 10 -12 -13 -14 21 -16 16 18 -19 19 -21 -22 -23 23 -25 26 -27 -28 -29 -30 -31
leaf_value=0.087927613519051179 -0.037032930210502892 -0.028133527687729018 0.02710171449753488 0.045430629637586956 0.038190046753908503 -0.032698836119938783 0.11136509420427763 -0.046673399410226142 -0.046578020635190856 0.13275535340889608 0.0023380002827785816 0.066108432716362797 0.068987123618597421 0.1189876347248881 0.080052847205366942 0.050507976804433807 0.075821183613210136 -0.039924456858469543 0.096288681862342476 0.092333379895032763 0.09955891345912958 -0.025712886363111351 0.091334831322771426 -0.031389070033962081 0.13055445091947279 -0.051708555588551079 -0.038683193394822735 0.0028541273296894777 0.056711830551130604 0.30041394887456013
leaf_count=152 600 165 536 99 26 605 78 4831 206 68 73 179 64 33 27 120 390 223 64 66 25 26 58 816 31 20 140 128 40 30
internal_value=0 -0.309398 -0.43658 -0.539662 0.0585431 0.468961 0.55861 -0.753781 0.243332 0.206459 1.42586 0.673852 -0.118603 -0.375137 -0.810261 0.950944 0.813367 -0.0719735 1.07182 0.629046 -0.143597 1.16627 -0.835073 -0.36845 0.356687 1.2417 0.00458014 0.668293 2.50748 3.66305
internal_count=9919 8585 7932 7396 1565 965 653 5831 575 869 141 369 728 664 5732 1334 1182 343 839 449 190 59 5705 874 383 84 299 159 96 56
shrinkage=0.05


Tree=16
num_leaves=31
num_cat=0
split_feature=20 79 29 35 74 87 31 49 22 87 44 35 79 22 16 38 41 74 80 62 77 38 10 54 56 58 74 80 48 71
split_gain=282.867 85.6674 89.9041 55.0552 59.7112 50.5784 42.2207 40.7098 82.0596 45.0761 41.8114 39.9085 42.6316 37.2536 28.4436 27.6022 26.7381 44.4155 31.3893 31.1255 26.5961 26.14 25.173 25.0439 30.1729 38.1127 24.9547 24.4207 24.3608 22.7965
threshold=-0.011050000000000009 0.0032000000000000054 0.0049000000000000059 -0.0014000000000000087 -0.0024999999999999983 0.0010999999999999918 -0.0044500000000000017 -0.0026999999999999988 -0.0050499999999999981 0.0018000000000000136 0.0055000000000000092 0.0074999999999999971 0.0016000000000000079 -0.0073500000000000015 0.0037000000000000058 0.00060000000000001036 -0.028899999999999999 -0.0088999999999999999 -0.00029999999999999987 -0.00020000000000000223 -0.00019999999999998835 -0.0030499999999999967 -0.0013999999999999948 9.9999999999999408e-05 -0.0021999999999999863 -0.0066500000000000092 0.010249999999999997 -0.0016500000000000054 -0.002799999999999993 -0.0022999999999999891
decision_type=2 2 2 2 2 2 2 2 2 2 2 2 2 2 2 2 2 2 2 2 2 2 2 2 2 2 2 2 2 2
left_child=16 2 3 4 15 22 -5 8 -6 28 13 21 -13 -9 -14 -2 -1 18 -18 -19 -3 27 -4 24 25 -22 -21 -8 -10 -24
right_child=1 20 5 6 7 -7 11 10 9 -11 -12 12 14 -15 -16 -17 17 19 -20 26 23 -23 29 -25 -26 -27 -28 -29 -30 -31
leaf_value=0.084765688903175929 -0.039657162978089008 0.09932875126671796 0.068928397912261824 0.072415163622473896 -0.029831362080184699 0.09668994534770628 0.11374073933523443 0.10653908745763191 0.24030699115381238 0.059811628030757784 0.1014055182879241 -0.02095639935171548 0.19420078474511904 -0.041516867923587719 0.014125997907062472 0.092665594828723982 0.043628411036516893 0.073094257276614685 -0.035045262121023719 0.016804532142964512 0.091747375256507446 -0.046747318273597113 0.079579497008581079 -0.0012534188174190132 0.10148299754786626 -0.042350298609729622 0.086945422643380399 -0.032433216312695266 0.060188188437070467 -0.01747771989554708
leaf_count=152 896 55 77 49 111 95 31 28 58 80 40 267 27 431 36 26 135 372 228 381 41 4942 34 481 84 89 66 62 22 523
internal_value=0 -0.300227 -0.428801 -0.567724 -0.103547 0.470496 -0.758006 0.474582 1.23938 2.37834 -0.117082 -0.801292 0.231356 -0.50133 2.1337 -0.673448 0.903825 0.771111 -0.0358158 1.02361 0.497092 -0.890424 0.111538 0.34322 0.989745 0.229611 0.595895 0.580544 3.95287 -0.145405
internal_count=9919 8585 7835 7106 1692 729 5414 770 271 160 499 5365 330 459 63 922 1334 1182 363 819 750 5035 634 695 214 130 447 93 80 557
shrinkage=0.05


Tree=17
num_leaves=31
num_cat=0
split_feature=19 89 31 31 31 13 70 58 64 7 8 61 23 41 74 80 82 97 54 67 71 8 8 70 72 16 97 97 64 73
split_gain=257.189 83.3201 64.9042 70.5567 44.4122 41.8432 40.4181 43.508 40.2222 39.0366 34.3787 32.9176 27.4308 26.2556 39.4296 32.242 24.9573 24.1236 32.4499 22.0446 23.8868 22.1357 21.6054 21.1475 25.6513 19.7743 18.6059 17.8407 17.8354 19.1615
threshold=-0.010599999999999993 0.0055000000000000075 -0.0026000000000000029 0.0067999999999999979 0.0039000000000000029 0.0022999999999999987 0.0021000000000000016 -0.0012999999999999884 0.0062000000000000015 -0.0025500000000000032 0.014800000000000002 0.00494999999999999 -0.0053999999999999907 -0.028899999999999999 -0.0088999999999999999 -0.00050000000000001074 0.00049999999999999014 0.0026000000000000073 -0.00069999999999998872 0.020199999999999992 -0.0015000000000000115 -0.00025000000000001405 -0.0075000000000000041 -0.0018500000000000042 -0.0031000000000000016 -0.0094999999999999894 -0.012899999999999986 0.0071000000000000065 -0.00089999999999999445 0.010799999999999999
decision_type=2 2 2 2 2 2 2 2 2 2 2 2 2 2 2 2 2 2 2 2 2 2 2 2 2 2 2 2 2 2
left_child=13 2 6 9 8 -5 7 25 12 17 -11 -12 22 -1 15 -15 -8 -4 -19 20 -7 -22 -3 24 -9 -2 -27 -20 -16 -30
right_child=1 4 3 5 -6 19 16 23 -10 10 11 -13 -14 14 28 -17 -18 18 27 -21 21 -23 -24 -25 -26 26 -28 -29 29 -31
leaf_value=0.08194108521702359 0.039761387846891448 0.065188690803936453 -0.018687614924485087 0.081554559943969096 0.10271894970025992 0.096975972863267146 0.1206306539681536 0.047024706929901496 -0.046311906795479675 -0.043651210362369373 -0.013294525624432445 0.14463953108033997 0.059162488444925304 0.045972611628812686 0.065202364123903178 -0.03430945001539356 0.029941499365370772 0.13755299244387997 -0.043827316843499317 0.085197688017715892 0.07598371759501632 -0.03702654646312116 -0.030704411586706549 -0.045059439224530443 0.19908661717439083 0.08788287903715189 -0.042566803459238592 0.073016108040884251 0.023319723529718273 0.083617247165669872
leaf_count=151 68 39 618 112 71 20 58 59 195 5386 118 24 188 124 359 251 176 42 73 25 27 410 152 32 23 20 555 28 448 67
internal_value=0 -0.297175 -0.421661 -0.56079 0.526768 0.335382 0.239386 -0.149011 0.254096 -0.695835 -0.815793 0.591261 0.630748 0.841472 0.716012 -0.0466901 1.08748 -0.0535432 0.891311 -0.0875985 -0.301378 -0.508672 -0.0931292 1.33382 1.92443 -0.497644 -0.722106 0.0267512 0.943975 0.660273
internal_count=9919 8519 7874 6883 645 594 991 757 574 6289 5528 142 379 1400 1249 375 234 761 143 482 457 437 191 114 82 643 575 101 874 515
shrinkage=0.05


Tree=18
num_leaves=31
num_cat=0
split_feature=11 78 90 29 31 24 29 98 39 28 43 65 29 20 45 70 16 74 52 25 32 64 48 57 74 62 22 80 49 36
split_gain=239.828 83.1914 65.6588 52.1139 50.9835 39.6754 34.5016 38.2571 42.732 37.809 31.3469 30.3858 39.1199 52.795 34.898 27.658 27.0778 24.2182 23.9652 23.4935 22.7847 22.7199 22.4493 32.7197 23.1498 54.2998 27.0652 39.0972 57.8106 22.0403
threshold=-0.00609999999999999 0.0024999999999999974 0.0059999999999999941 0.0073000000000000087 -0.0026000000000000029 -0.035400000000000001 0.0046000000000000043 -0.00079999999999998464 -0.0042999999999999939 -0.0067999999999999892 0.0041000000000000021 0.006700000000000002 0.0012000000000000016 0.0028000000000000182 0.007550000000000002 0.0081000000000000186 -0.0061999999999999928 0.0039000000000000046 0.00020000000000000229 0.00030000000000000691 0.0031000000000000008 0.020099999999999996 -0.001899999999999997 0.0068000000000000083 -0.0026000000000000012 -0.0013999999999999948 -0.0041999999999999997 -0.00039999999999998885 -0.0044000000000000037 -0.0033999999999999894
decision_type=2 2 2 2 2 2 2 2 2 2 2 2 2 2 2 2 2 2 2 2 2 2 2 2 2 2 2 2 2 2
left_child=5 2 3 4 10 -1 7 20 9 -9 16 22 13 14 -13 -5 -2 -4 -10 -3 -7 -17 24 -24 -6 26 -26 28 -28 -11
right_child=1 19 17 15 11 6 -8 8 18 29 -12 12 -14 -15 -16 21 -18 -19 -20 -21 -22 -23 23 -25 25 -27 27 -29 -30 -31
leaf_value=0.068956866252464999 0.047398173946581808 0.0061911197633008159 0.058826867119700768 0.05735203793499908 -0.042950951148033253 -0.03726410939635369 0.082479373590056804 0.071301041439130228 0.10461338198833894 -0.006322724725154551 0.084149098491197172 0.061289090796420059 -0.03240528846321316 -0.036336194511146711 0.30852417312727026 -0.049171383697150142 -0.028872417899069677 -0.012353775938642996 0.033262749032876723 0.052868978358356383 0.042151230959914333 0.076624044940734812 -0.050359785164960563 0.094693382431169842 -0.024727394374182601 -0.032962888868081346 0.20583411666418039 0.34352044238161805 -0.054975732692160176 0.078968744791996337
leaf_count=304 111 609 163 168 669 332 113 105 137 532 61 21 207 50 22 136 455 143 119 262 63 20 4587 27 40 323 26 21 51 42
internal_value=0 -0.32581 -0.474237 -0.570173 -0.659045 0.719138 0.525802 0.398139 0.629056 0.308562 0.142527 -0.779469 0.202725 1.7626 3.80128 0.451194 -0.15245 0.621901 1.4323 0.423436 -0.369036 -0.413679 -0.846842 -0.972592 -0.431391 0.110806 1.71248 2.57041 1.68705 0.0233961
internal_count=9919 8172 7301 6995 6671 1747 1443 1330 935 679 627 6044 300 93 43 324 566 306 256 871 395 156 5744 4614 1130 461 138 98 77 574
shrinkage=0.05


Tree=19
num_leaves=31
num_cat=0
split_feature=20 4 6 83 74 92 49 31 23 24 74 41 41 73 82 61 69 14 54 74 74 98 25 92 44 20 95 15 24 38
split_gain=218.724 72.1478 80.9942 50.8891 43.0939 29.2428 28.8804 34.08 30.3736 27.6024 34.6518 24.7153 23.2909 35.3081 33.3264 28.7257 23.037 35.9084 22.1296 25.5734 21.619 21.2836 20.9547 20.0993 28.8527 19.518 19.3889 18.9037 18.3138 25.2793
threshold=-0.011050000000000009 0.0088000000000000005 -0.0025000000000000001 0.0034000000000000111 -0.0031999999999999871 0.0066000000000000199 -0.00089999999999999618 0.006200000000000005 -0.0049999999999999932 0.015550000000000003 0.0025499999999999971 -0.00019999999999999703 -0.028899999999999999 -0.0091000000000000057 -0.0045999999999999886 9.999999999999247e-05 0.0043999999999999985 -0.0023999999999999972 -0.0010500000000000021 0.0065999999999999991 0.010249999999999997 -0.022699999999999988 -0.0024999999999999983 0.023850000000000027 -0.014600000000000007 0.0037000000000000058 0.0012000000000000103 -0.012499999999999999 -0.0074999999999999971 -0.0019999999999999996
decision_type=2 2 2 2 2 2 2 2 2 2 2 2 2 2 2 2 2 2 2 2 2 2 2 2 2 2 2 2 2 2
left_child=12 2 4 5 25 16 8 22 11 10 28 27 -1 14 -14 -15 -4 26 19 -19 23 -3 -8 24 -17 -2 -18 -6 -5 -30
right_child=1 21 3 9 6 -7 7 -9 -10 -11 -12 -13 13 15 -16 20 17 18 -20 -21 -22 -23 -24 -25 -26 -27 -28 -29 29 -31
leaf_value=0.077667467250140995 -0.033460823249666406 -0.057464009798498611 -0.044093695711769909 -0.014682955199217801 0.082765677280355193 0.037292833112886274 0.058339652451134309 0.065918740586331945 0.092155405643257512 0.063393945000606841 -0.045420822163254632 0.094535637197336223 0.073247577321445337 0.06369780447916952 -0.028901673065927974 0.0801681813895634 0.12135986238979105 0.10336980424849443 -0.038534242835104482 -0.042771718958915364 0.076192765497972437 0.037618565787093876 -0.028444228556202447 -0.075740314730726704 0.00032726835174073021 0.089315424172012228 -0.030418226318252192 -0.026355637230875126 0.10820174516736228 -0.011977535947738462
leaf_count=152 574 67 4759 105 22 81 45 81 151 84 291 52 49 413 279 63 39 43 811 64 66 531 453 29 283 20 25 155 58 74
internal_value=0 -0.277522 -0.380637 -0.584982 0.17822 -0.719566 0.49986 0.0729282 1.01849 0.143104 -0.159785 0.393056 0.790951 0.670069 -0.113865 0.876545 -0.765092 -0.301057 -0.535294 0.708236 0.457906 0.605892 -0.309559 0.216702 0.385993 -0.52734 1.49246 -0.0996853 0.565352 1.22286
internal_count=9919 8585 7987 6434 1553 5822 959 579 380 612 528 229 1334 1182 328 854 5741 982 918 107 441 598 498 375 346 594 64 177 237 132
shrinkage=0.05


Tree=20
num_leaves=31
num_cat=0
split_feature=11 31 60 36 33 8 98 31 39 68 74 65 31 90 8 24 97 89 29 43 11 9 23 42 51 15 81 36 3 87
split_gain=187.05 80.2055 67.3814 69.8342 42.0748 35.2395 33.783 40.8947 33.0589 26.7123 50.8832 32.3288 29.4803 39.4236 28.8981 25.9687 33.7875 46.3044 21.585 21.3381 36.2626 27.1294 19.6856 54.8012 19.6754 17.2655 17.1441 16.2707 14.4583 14.3056
threshold=-0.00609999999999999 -0.0029999999999999988 0.0046000000000000043 -0.0017500000000000013 -0.0036999999999999841 0.00480000000000001 -0.0014000000000000035 0.0028999999999999968 0.0038000000000000017 0.0065499999999999942 0.0070500000000000016 0.017650000000000002 0.010799999999999999 0.0078999999999999817 -0.0034000000000000102 0.016300000000000002 0.00020000000000000749 -0.00070000000000000433 -0.0021999999999999967 -0.0067499999999999982 -0.012949999999999995 -0.013800000000000002 -0.0050000000000000018 0.005700000000000008 -0.0012000000000000133 0.051550000000000019 0.0044000000000000055 0.0067000000000000037 0.0014999999999999998 -0.0029499999999999973
decision_type=2 2 2 2 2 2 2 2 2 2 2 2 2 2 2 2 2 2 2 2 2 2 2 2 2 2 2 2 2 2
left_child=6 5 3 15 -5 18 7 -1 -9 10 12 14 13 -4 -11 16 -3 -18 -2 20 -8 -22 23 -6 -23 -7 -20 -12 -26 -21
right_child=1 2 9 4 22 25 19 8 -10 11 27 -13 -14 -15 -16 -17 17 -19 26 29 21 24 -24 -25 28 -27 -28 -29 -30 -31
leaf_value=-0.035266566464374281 -0.0079528383069374375 -0.045378516627631635 -0.03799088287955793 0.08546849827134062 -0.034705074282983521 0.083407284228291703 0.051556327144325453 0.097844776444903483 -0.0275790720077587 0.069004756917193849 0.019700728566733619 0.061268092399921148 0.092727924995468336 0.10311028429938854 -0.03850654149143512 0.098431867635323758 0.12365113157169082 0.0022781342591378624 0.019235448348182894 0.13352411689341551 0.089742796092016547 0.037720846553193008 -0.047105929126162259 0.1277392449879273 -0.036893393003958878 -0.030178647833762857 0.10606147585195982 0.12545998525329655 0.036042829126643958 0.056271561593613295
leaf_count=313 529 418 353 38 385 130 450 63 47 37 38 63 32 25 548 32 61 518 160 33 39 107 4666 32 237 22 38 80 45 380
internal_value=0 -0.27281 -0.422193 -0.602952 -0.812124 0.462839 0.662424 -0.0280565 1.02369 0.19227 0.664857 -0.217626 0.0684074 -0.304673 -0.521012 0.109265 -0.0219768 0.361845 0.153437 0.824173 0.621688 0.0901258 -0.858176 -0.199148 -0.129392 1.3874 0.901783 1.99677 -0.476014 1.25417
internal_count=9919 8205 7326 6150 5121 879 1714 423 110 1176 528 648 410 378 585 1029 997 579 727 1291 878 428 5083 417 389 152 198 118 282 413
shrinkage=0.05


Tree=21
num_leaves=31
num_cat=0
split_feature=11 31 60 36 33 8 24 74 31 40 68 73 65 31 90 9 44 97 90 68 21 41 29 78 95 85 77 24 2 83
split_gain=170.185 73.8783 62.93 66.427 38.4965 31.6633 26.4797 28.494 31.1166 25.3382 24.1755 47.5484 29.324 27.6393 36.1219 26.6013 23.5625 31.2961 29.4251 21.4233 24.4421 53.3567 19.2102 18.6646 24.2318 28.6173 24.6697 19.3386 18.5395 22.3839
threshold=-0.00609999999999999 -0.0029999999999999988 0.0046000000000000043 -0.0017500000000000013 -0.0036999999999999841 0.00480000000000001 -0.035400000000000001 -0.01059999999999999 0.0028999999999999968 -0.008849999999999995 0.0065499999999999942 0.0068000000000000048 0.017650000000000002 0.010799999999999999 0.0070000000000000036 -0.0024999999999999914 0.0060499999999999972 0.00020000000000000749 -0.0006000000000000084 0.0045999999999999973 -0.0010500000000000021 0.0050499999999999998 -0.0021999999999999967 -0.00019999999999998835 0.0093000000000000114 0.0065000000000000101 0.0053999999999999925 -0.014399999999999998 -0.0037999999999999905 0.0016000000000000061
decision_type=2 2 2 2 2 2 2 2 2 2 2 2 2 2 2 2 2 2 2 2 2 2 2 2 2 2 2 2 2 2
left_child=6 5 3 16 -5 22 -1 8 -8 -6 11 13 15 14 -4 -12 17 -3 -19 -11 21 -21 -2 28 27 -26 -27 -25 29 -9
right_child=1 2 10 4 9 -7 7 23 -10 19 12 -13 -14 -15 -16 -17 -18 18 -20 20 -22 -23 -24 24 25 26 -28 -29 -30 -31
leaf_value=0.060748352321812832 -0.0075895485159496309 -0.043697415576488693 -0.043844727370919614 0.078653425495849527 0.082556677668856715 0.065685061171819811 -0.042618095958577344 -0.0093707649540331946 0.092043207895675411 -0.049157596214035648 0.058003939826086259 0.094609310224673865 0.057739141071604105 0.088767372906972342 0.075111259824269028 -0.038677817301413731 0.10556728869836303 0.10191560507222033 0.0053279348051045276 -0.045121451250540706 -0.035734267287047698 0.14702309555172074 0.042249095758127728 0.035347263460107713 0.10654650954696483 -0.014347608772791341 0.063647967028501978 -0.014213708181535493 0.075551503246864826 0.078895347295891691
leaf_count=277 529 422 339 38 24 152 262 117 22 4451 45 117 63 32 40 540 25 66 516 91 482 35 198 148 63 114 86 359 214 52
internal_value=0 -0.265078 -0.411757 -0.590195 -0.800275 0.43892 0.630161 0.480215 -0.410216 -0.846654 0.183888 0.632875 -0.210623 0.0413882 -0.325604 -0.50624 0.10383 -0.00703979 0.352802 -0.876227 -0.285234 0.810553 0.145509 0.613358 0.40467 0.922481 0.49193 0.0716577 1.04112 0.465632
internal_count=9919 8205 7326 6150 5121 879 1714 1437 284 5083 1176 528 648 411 379 585 1029 1004 582 5059 608 126 727 1153 770 263 200 507 383 169
shrinkage=0.05


Tree=22
num_leaves=31
num_cat=0
split_feature=16 88 71 49 67 74 5 96 85 98 36 46 57 79 74 55 41 16 1 1 67 5 10 73 49 9 43 0 91 28
split_gain=155.469 88.4984 64.5786 49.6547 35.2466 32.4907 68.5849 31.2642 30.3886 27.5809 26.7271 25.3708 25.335 25.2247 25.2233 29.1257 25.1802 21.4514 19.6171 18.4024 28.382 19.4015 21.4381 21.1034 18.3187 30.4965 22.2782 21.6408 21.2805 23.6138
threshold=-0.0075000000000000041 0.0038999999999999977 0.0044000000000000055 -0.0033999999999999963 0.0075499999999999951 -0.0026000000000000012 -0.0015500000000000025 0.00049999999999999535 -0.010999999999999987 -0.0021999999999999984 -0.0087999999999999901 -0.0021999999999999863 -0.0067000000000000072 0.0035000000000000001 0.0079500000000000005 0.010900000000000002 -0.0082999999999999897 -0.0023999999999999972 -0.0023999999999999972 0.0038000000000000017 0.0064999999999999962 -0.0024999999999999966 0.0088000000000000005 0.0047999999999999892 -0.0058999999999999981 -0.015199999999999993 -0.026150000000000003 -0.0052999999999999948 -0.00040000000000000793 -0.0073500000000000015
decision_type=2 2 2 2 2 2 2 2 2 2 2 2 2 2 2 2 2 2 2 2 2 2 2 2 2 2 2 2 2 2
left_child=9 2 3 5 10 8 11 -3 -2 -1 -5 -7 -4 -10 17 -16 -12 18 -9 21 -21 23 -23 -14 25 -11 -27 -26 -28 -30
right_child=1 7 12 4 -6 6 -8 14 13 24 16 -13 19 -15 15 -17 -18 -19 -20 20 -22 22 -24 -25 27 26 28 -29 29 -31
leaf_value=-0.010721947976010102 0.087820691213175858 0.082565925139048174 0.098989170029912602 0.060195694794852407 0.092484679149791638 0.13816145827852042 -0.031650243134926093 0.063357911084698237 -0.041788742054515347 0.058150996599451277 0.087110821550301407 -0.0003042102852677689 0.10612686618949008 0.074999216125409038 -0.051569251987564874 0.091394321568494627 -0.048170083300429233 0.049274913212030105 -0.017778817686424062 0.063545128119052371 -0.012749752842859348 -0.038964569819302568 0.018051918171602545 0.0016996327297760863 0.014792308977486247 0.075014334204489386 0.065890802646510815 0.080442171653458461 0.086839757619801616 -0.005072606779709111
leaf_count=295 25 119 32 35 30 78 205 56 719 288 22 32 33 32 221 21 4518 296 244 189 202 783 190 151 88 64 82 218 33 618
internal_value=0 -0.253462 -0.426211 -0.638509 -0.844988 -0.0501397 0.708994 0.469633 -0.453242 0.61201 -0.88822 2.0968 0.105724 -0.651548 0.275974 -0.578144 -0.931122 0.52756 0.0109403 0.0228501 0.532007 -0.208512 -0.452974 0.530378 0.725693 0.579783 0.316395 1.2122 0.178799 0.0263098
internal_count=9919 8233 7276 5696 4605 1091 315 957 776 1686 4575 110 1580 751 838 242 4540 596 300 1548 391 1157 973 184 1391 1085 797 306 733 651
shrinkage=0.05


Tree=23
num_leaves=31
num_cat=0
split_feature=90 5 8 8 86 98 90 33 67 98 37 10 96 78 95 84 71 29 24 35 98 69 53 60 38 23 92 52 34 30
split_gain=143.98 72.7324 61.3323 47.6059 35.7479 30.9479 30.7954 27.1814 39.7451 27.3913 35.5773 26.4684 26.2575 26.2762 26.1041 25.4647 22.3529 22.298 20.3281 19.699 19.6799 26.5871 24.7057 21.085 20.9748 18.4184 19.5252 18.2956 18.5584 17.6595
threshold=0.0056000000000000051 -0.0025000000000000001 0.010000000000000007 -0.0045999999999999956 0.0047000000000000141 0.0009999999999999959 -0.0017000000000000051 0.0030000000000000066 0.0050000000000000122 0.019700000000000006 -0.0043999999999999968 -0.0085999999999999879 0.0049999999999999966 0.0078000000000000092 0.0032999999999999995 -0.011500000000000002 -0.0037999999999999939 0.0076999999999999924 -0.016199999999999999 0.0053000000000000104 -0.016850000000000007 0.0046000000000000043 0.0033999999999999903 0.0076000000000000069 -0.0023999999999999972 0.021300000000000006 -0.0020000000000000118 0.0014999999999999981 -0.0052999999999999948 -0.011400000000000002
decision_type=2 2 2 2 2 2 2 2 2 2 2 2 2 2 2 2 2 2 2 2 2 2 2 2 2 2 2 2 2 2
left_child=1 5 3 -3 17 15 -7 8 9 10 12 -10 29 27 -6 -1 18 25 -8 -19 -4 23 -23 24 -22 -5 -27 -14 -29 -2
right_child=7 2 20 4 14 6 16 -9 11 -11 -12 -13 13 -15 -16 -17 -18 19 -20 -21 21 22 -24 -25 -26 26 -28 28 -30 -31
leaf_value=0.079347071563499946 -0.046886069235378497 0.025616234382389275 -0.045704595419775493 -0.042044772543257447 0.099097515304483727 0.080713039351798244 0.029842962954377619 0.071645110605684806 0.030585006466846483 0.075279838985951544 0.068331925769483756 -0.044719109529082819 -0.032071019507498473 0.06512152354667651 -0.022501777798771248 -0.012919055965313442 0.038147174890616586 0.12347363216858637 -0.047698633999967016 -0.015732049285471929 0.075234376100268882 0.074014702774402683 -0.014896642780970552 0.088012524565968142 -0.05279743925502417 -0.036252847199473165 0.088801570382130546 -0.016270993902711309 0.075573119539919131 0.080458745897923484
leaf_count=41 22 297 114 5503 46 120 86 168 89 169 186 254 288 54 82 996 344 20 140 70 21 180 71 20 236 64 32 73 48 85
internal_value=0 -0.228845 -0.437178 -0.587611 -0.688906 0.251092 0.626498 0.637682 0.506414 0.728855 0.52717 -0.293041 0.221848 -0.0369168 0.699428 -0.123316 0.34293 -0.75472 -0.280087 0.624128 0.3666 0.558763 1.05025 -0.219208 -0.614884 -0.798013 0.38795 -0.27969 0.459642 1.21877
internal_count=9919 8483 6756 6114 5817 1727 690 1436 1268 925 756 343 570 463 128 1037 570 5689 226 90 642 528 251 277 257 5599 96 409 121 107
shrinkage=0.05


Tree=24
num_leaves=31
num_cat=0
split_feature=11 31 49 74 68 5 5 14 4 73 98 32 65 44 98 69 65 59 86 44 11 29 65 4 11 54 23 1 49 55
split_gain=132.876 61.2391 54.8855 62.7658 37.0196 28.0441 26.9945 26.1812 26.6908 25.508 24.9451 34.6995 22.4198 31.9765 28.0493 22.2273 29.0686 19.7439 19.2347 18.5364 33.3929 23.8826 18.4873 18.3195 17.4964 17.2181 17.1159 19.315 17.7065 16.5419
threshold=-0.00609999999999999 -0.0029999999999999988 -0.0023999999999999955 0.0055000000000000023 0.0068999999999999938 -0.0021000000000000025 0.0037999999999999913 -0.0025000000000000001 0.0050000000000000001 -0.0023999999999999955 -0.0014000000000000035 0.0031000000000000008 0.0029999999999999996 -0.0095500000000000081 0.01375 0.007000000000000014 0.017650000000000002 0.0041499999999999948 0.0052000000000000006 -0.0063999999999999986 -0.014149999999999994 -0.0077999999999999936 -0.0042000000000000049 -0.0074999999999999954 -0.0040999999999999951 0.00015000000000000432 -0.016749999999999991 0.0025000000000000009 -0.013550000000000001 0.0016000000000000009
decision_type=2 2 2 2 2 2 2 2 2 2 2 2 2 2 2 2 2 2 2 2 2 2 2 2 2 2 2 2 2 2
left_child=10 6 5 4 18 9 24 -5 -9 -3 11 -1 13 -7 -14 17 -17 -10 -4 20 -12 -22 26 -13 -2 -6 28 -28 -23 -26
right_child=1 2 3 7 25 12 -8 8 15 -11 19 23 14 -15 -16 16 -18 -19 -20 -21 21 22 -24 -25 29 -27 27 -29 -30 -31
leaf_value=-0.035628230086957362 -0.034191766406749161 -0.0037534792900430266 -0.048950887491574703 0.065891889236958143 0.14033596235470266 0.040558368447984328 0.065213772010008039 -0.029645461571210466 0.006260141904287181 0.070020604045847784 0.047233377666064662 -0.0059866892276076236 0.047238109666111583 -0.038666438295713867 -0.05821414752481812 -0.041551922747668307 0.058048715883975394 0.10379011945658385 0.076369273760695314 0.055596969655033079 0.091807326554901175 0.022873913083236122 -0.033190707513249734 0.084556548243605562 0.011222007637400703 -0.027600640405722462 -0.032710862346218769 0.087558375733256033 0.13456439478745846 0.092999792066252085
leaf_count=307 172 216 4233 77 20 104 138 924 101 169 420 54 203 836 56 225 52 57 20 385 30 76 211 62 537 33 123 23 23 32
internal_value=0 -0.24555 -0.386674 -0.591272 -0.885935 0.0972593 0.396141 -0.0445515 -0.185391 0.745746 0.557252 -0.0494165 -0.165278 -0.460939 0.481445 0.344242 -0.166724 1.15318 -0.947523 0.695884 0.511347 0.0505766 -0.114436 0.899025 0.152314 1.48836 0.339088 -0.229919 1.07915 0.37004
internal_count=9919 8205 7326 5742 4306 1584 879 1436 1359 385 1714 423 1199 940 259 435 277 158 4253 1291 906 486 456 116 741 53 245 146 99 569
shrinkage=0.05


Tree=25
num_leaves=31
num_cat=0
split_feature=23 81 31 29 69 86 88 46 22 78 4 98 13 63 74 63 43 77 94 58 44 40 77 81 97 98 91 44 21 92
split_gain=150.102 68.1629 63.5506 42.2257 34.8758 31.2293 25.1375 20.3385 21.7272 23.018 19.9075 25.3751 20.3611 19.351 34.3284 28.4665 25.2679 19.5714 18.715 17.0862 21.6212 20.9877 21.3734 17.0828 16.9957 16.8181 42.5212 37.5694 21.1248 18.3134
threshold=-0.012499999999999989 0.003599999999999996 0.0067999999999999979 -0.0012000000000000047 0.0039000000000000046 -0.00089999999999999618 0.006749999999999993 -0.013300000000000001 0.016300000000000002 0.010400000000000001 -0.0025999999999999942 0.0019000000000000078 0.016300000000000002 -0.013299999999999998 -0.0088999999999999999 -0.00020000000000001264 -0.026150000000000003 -0.0035500000000000041 0.00050000000000000229 0.013199999999999984 -0.00025000000000001405 -0.0038999999999999898 0.0046999999999999863 -0.011549999999999996 -0.002899999999999989 -0.0016000000000000022 -0.0014000000000000035 -0.0014999999999999994 -0.0032999999999999935 0.006899999999999999
decision_type=2 2 2 2 2 2 2 2 2 2 2 2 2 2 2 2 2 2 2 2 2 2 2 2 2 2 2 2 2 2
left_child=13 2 3 4 25 23 10 -3 19 -10 11 -5 -12 -1 16 -16 -15 -17 -13 20 21 22 -9 -4 -25 -2 27 28 -27 -28
right_child=1 7 5 6 -6 -7 -8 8 9 -11 12 18 -14 14 15 17 -18 -19 -20 -21 -22 -23 -24 24 -26 26 29 -29 -30 -31
leaf_value=0.068050866967539397 -0.041780002810057233 0.09016844563674907 0.040097004562405947 -0.033396691683022492 0.045334559222113852 0.078038459357942305 0.039732692605931097 -0.030259365320461553 0.061797988806536974 -0.053126415115329742 -0.044983707127673578 0.10990214973434574 0.023038297272053036 0.064480786950695784 0.05992274470781616 -0.057154667351904567 -0.030849793521766779 0.025725087550912192 0.00068305242020143687 0.09209383241312083 -0.044850404204290373 0.051973838389388453 0.065831932019764408 -0.037402191563125263 0.039431013619712012 0.075886091551644705 -0.032564345215718084 -0.047502896750091395 0.22704987391314033 0.053404039583651169
leaf_count=173 563 42 136 420 215 92 71 198 155 26 4939 31 101 42 375 45 289 435 84 25 230 137 36 309 72 52 501 67 25 33
internal_value=0 -0.24846 -0.396439 -0.525582 -0.0576692 0.452829 -0.705008 0.39852 0.289281 0.925894 -0.751115 -0.169776 -0.848206 0.65929 0.546639 0.75337 -0.240602 0.37053 0.83938 0.0117341 -0.0972885 0.237236 -0.221871 0.0842823 -0.330483 -0.317091 -0.0218305 1.47072 2.50552 -0.428841
internal_count=9919 8560 7711 7102 1456 609 5646 849 807 181 5575 535 5040 1359 1186 855 331 480 115 626 601 371 234 517 381 1241 678 144 77 534
shrinkage=0.05


Tree=26
num_leaves=31
num_cat=0
split_feature=23 81 31 29 69 86 88 4 98 13 69 28 63 74 63 43 77 15 72 79 24 94 63 49 21 71 64 98 91 43
split_gain=137.153 62.8219 58.8423 40.101 31.3467 28.1287 23.4147 19.2302 23.1404 19.3905 18.8249 21.3049 18.4947 30.8083 25.956 23.3226 17.8636 17.3911 19.9319 18.8584 17.2016 16.4494 16.2712 20.2897 16.8919 16.037 17.0326 15.8288 37.3759 31.3188
threshold=-0.012499999999999989 0.003599999999999996 0.0067999999999999979 -0.0012000000000000047 0.0039000000000000046 -0.00089999999999999618 0.006749999999999993 -0.0025999999999999942 0.0019000000000000078 0.016300000000000002 -0.0042000000000000049 0.0036999999999999989 -0.013299999999999998 -0.0088999999999999999 -0.00020000000000001264 -0.026150000000000003 -0.0035500000000000041 0.015800000000000005 0.0034000000000000041 0.016500000000000004 -0.0082999999999999931 0.00050000000000000229 0.0072999999999999949 -0.018799999999999987 -0.017499999999999995 -0.0019999999999999979 0.020099999999999996 -0.0016000000000000022 -0.0014000000000000035 -0.00099999999999999894
decision_type=2 2 2 2 2 2 2 2 2 2 2 2 2 2 2 2 2 2 2 2 2 2 2 2 2 2 2 2 2 2
left_child=12 2 3 4 27 25 7 8 -5 -9 20 17 -1 15 -15 -14 -16 19 -19 -12 -3 -10 23 -18 -25 -4 -27 -2 29 -29
right_child=1 10 5 6 -6 -7 -8 9 21 -11 11 -13 13 14 16 -17 22 18 -20 -21 -22 -23 -24 24 -26 26 -28 28 -30 -31
leaf_value=0.0663184404071991 -0.041045422178312876 0.00068731915272488388 0.08193057865184003 -0.032524004099374504 0.042409408480740568 0.074153967155183784 0.037283489604130284 -0.04444001715220245 0.10245609532384117 0.021642979544223343 -0.012524366690205714 0.073961354064661519 0.062781205751733321 0.057094794020551454 -0.055853552802687736 -0.029856965552481202 0.074125223995364517 -0.06512270351252869 0.067986612209779404 0.089520778558676295 0.10150537032760039 0.00064867289852358831 0.063243525750848018 -0.031357465089326034 0.026009803311116315 -0.014677918821640424 0.081327315823647051 0.11139548146872627 -0.020781914153372417 -0.046886704746409547
leaf_count=173 563 49 26 420 215 92 71 4939 31 101 562 57 42 375 45 289 49 23 79 20 59 84 95 131 160 469 22 77 534 67
internal_value=0 -0.241399 -0.386044 -0.51299 -0.0561869 0.43241 -0.692038 -0.738275 -0.163919 -0.836386 0.380836 0.227945 0.630771 0.521399 0.71578 -0.233091 0.351108 0.0774736 0.910905 -0.129113 1.31607 0.791301 0.486289 0.232722 -0.028407 0.08036 -0.10032 -0.307244 -0.0220815 1.34465
internal_count=9919 8560 7711 7102 1456 609 5646 5575 535 5040 849 741 1359 1186 855 331 480 684 102 582 108 115 435 340 291 517 491 1241 678 144
shrinkage=0.05


Tree=27
num_leaves=31
num_cat=0
split_feature=23 81 31 29 69 86 38 35 49 95 81 63 73 63 43 46 28 60 46 92 42 63 87 74 49 92 82 60 96 49
split_gain=125.484 57.8905 54.4816 38.1545 28.1692 25.3591 22.4811 20.0236 21.2018 20.8062 19.7464 17.624 28.2606 24.9061 24.6977 17.5504 17.9032 21.2928 18.0411 16.8856 19.891 20.023 20.0617 16.6885 22.4864 15.2495 15.1649 15.6437 19.1933 14.679
threshold=-0.012499999999999989 0.003599999999999996 0.0067999999999999979 -0.0012000000000000047 0.0039000000000000046 -0.00089999999999999618 -0.002799999999999993 0.0078000000000000057 -0.0088000000000000213 -0.0039999999999999992 -0.00029999999999999119 -0.013299999999999998 -0.0091000000000000057 0.00020000000000001269 -0.026150000000000003 -0.012849999999999999 0.0036999999999999989 0.0031999999999999984 0.0085999999999999948 0.023850000000000027 -0.012699999999999991 0.0072999999999999949 -0.00079999999999999332 -0.0049999999999999932 -0.004000000000000001 0.006899999999999999 -0.0086999999999999873 0.0022499999999999955 -0.021550000000000003 -0.0065000000000000014
decision_type=2 2 2 2 2 2 2 2 2 2 2 2 2 2 2 2 2 2 2 2 2 2 2 2 2 2 2 2 2 2
left_child=11 2 3 4 25 26 10 8 -8 -9 23 -1 14 -14 -13 -3 17 18 -17 20 -15 29 -23 -5 -25 -2 27 -4 -29 -22
right_child=1 15 5 6 -6 -7 7 9 -10 -11 -12 12 13 19 -16 16 -18 -19 -20 -21 21 22 -24 24 -26 -27 -28 28 -30 -31
leaf_value=0.064682358020563935 -0.019977702326618673 0.080119027129539749 -0.044735651981330268 -0.054459831666270303 0.039727025286322971 0.070595219363136119 0.032882886096315532 -0.045621732178359235 -0.045247577682328954 0.059149858776348055 -0.03803880867196742 0.061304380359512779 0.051671210079822061 0.075443005274805616 -0.035729669407281596 0.012520129620428977 0.070390497419134224 -0.021776274958584682 0.083632564367858181 -0.06338496370661878 -0.037818035351798743 -0.064052204287327455 0.065925950209253834 0.10171078817545126 1.2963540905607823e-05 0.054654534965023031 -0.025984836363701098 -0.05698493960276118 0.061959464842158474 0.026241423098481965
leaf_count=173 1207 47 79 81 215 92 79 130 4832 96 236 43 450 60 257 357 57 342 46 31 154 23 89 55 137 34 276 50 112 79
internal_value=0 -0.234243 -0.375648 -0.500186 -0.054359 0.414329 -0.679091 -0.784445 -0.853579 0.206983 -0.0540077 0.604986 0.498721 0.672099 -0.282545 0.363628 0.255458 0.126481 0.476211 0.268398 0.404708 0.161498 0.910987 0.513424 0.894709 -0.296592 0.0772408 0.527947 0.870324 -0.278626
internal_count=9919 8560 7711 7102 1456 609 5646 5137 4911 226 509 1359 1186 886 300 849 802 745 403 436 405 345 112 273 192 1241 517 241 162 233
shrinkage=0.05


Tree=28
num_leaves=31
num_cat=0
split_feature=23 81 29 29 69 35 38 97 35 37 59 46 41 74 82 63 47 69 71 63 54 77 5 91 52 92 63 42 50 18
split_gain=114.902 53.3454 43.4471 39.9728 28.2364 22.625 25.3897 21.6012 20.5785 19.7782 19.3391 17.5629 17.4105 22.5421 25.9976 21.5465 16.3044 16.2032 18.5057 22.1667 22.4257 15.6196 15.5517 14.9995 14.7327 14.3113 14.4637 22.4989 17.2632 17.4374
threshold=-0.012499999999999989 0.003599999999999996 0.004800000000000003 -0.0012000000000000047 0.0039000000000000046 0.0078000000000000057 -0.0026999999999999971 -0.002899999999999989 0.0017000000000000021 -0.0043999999999999968 0.0029999999999999927 0.006700000000000002 -0.028899999999999999 -0.0088999999999999999 -0.0048999999999999834 -0.00020000000000001264 -0.0099999999999999967 -0.0041000000000000021 0.0014999999999999981 0.0061999999999999946 0.0095999999999999992 -0.0040999999999999951 -0.001800000000000001 -0.013699999999999992 0.0030999999999999956 0.023850000000000027 0.0072999999999999949 -0.012699999999999991 -0.00040000000000000793 -0.014999999999999994
decision_type=2 2 2 2 2 2 2 2 2 2 2 2 2 2 2 2 2 2 2 2 2 2 2 2 2 2 2 2 2 2
left_child=12 2 3 4 -2 6 9 -7 -4 -5 -10 -9 -1 14 -14 -15 -8 24 -19 -20 -21 -17 -11 -12 -3 26 27 -23 -29 -30
right_child=1 17 8 5 -6 7 16 11 10 22 23 -13 13 15 -16 21 -18 18 19 20 -22 25 -24 -25 -26 -27 -28 28 29 -31
leaf_value=0.065871266065006151 -0.01455288482843812 0.075493189984577533 0.072201345382473747 -0.043504500884230184 0.03808400639661947 -0.028742015208283778 0.068193622751622052 -0.044624913516226564 -0.035980641326084639 0.06690471053444183 -0.031462062437361507 0.1086910132841277 0.059642491578206031 0.052163905004760737 -0.028978834505869064 -0.059203483816587903 -0.045472017565371205 -0.023716356394317208 0.039971667824514549 -0.03840044547901314 0.08332102653091028 0.072462926501049491 -0.0080840102167240094 0.036753183409527428 -0.058774497843932162 -0.055501523345257979 0.064633049932055611 0.061385091082265975 -0.057692791460215199 0.012758817266732831
leaf_count=157 1247 93 71 212 230 181 20 32 261 84 103 47 62 373 287 41 4734 210 308 196 22 60 213 276 20 26 92 43 89 129
internal_value=0 -0.227213 -0.365552 -0.484716 -0.0377047 -0.679091 -0.752256 0.285362 0.307802 -0.0872529 0.0853475 1.39609 0.581038 0.4818 -0.146899 0.652578 -0.880367 0.346614 0.199292 0.446544 -0.326306 0.318554 0.437574 0.438211 1.18917 0.435341 0.547472 0.295405 -0.0434815 -0.348825
internal_count=9919 8560 7711 7000 1477 5523 5263 260 711 509 640 79 1359 1202 349 853 4754 849 736 526 218 480 297 379 113 439 413 321 261 218
shrinkage=0.05


Tree=29
num_leaves=31
num_cat=0
split_feature=24 81 31 49 72 12 13 93 85 34 42 74 86 63 79 73 46 53 19 77 92 71 24 26 10 94 73 87 74 76
split_gain=105.295 54.53 45.2319 36.077 44.825 30.8229 35.5271 30.7297 23.7873 19.8622 19.5762 25.743 25.075 20.0057 19.3577 18.7754 18.7156 18.6969 19.6344 18.6531 18.5692 15.8927 14.7912 23.743 14.6857 14.1025 13.6091 13.1014 21.3354 12.6319
threshold=-0.012099999999999988 0.003599999999999996 0.0067999999999999979 -0.0033999999999999963 -0.0022999999999999995 0.013149999999999997 -0.00680000000000001 0.00050000000000000229 -0.0019999999999999996 0.012700000000000012 -0.025400000000000009 -0.0088999999999999999 -0.011500000000000015 0.00020000000000001269 0.0025999999999999951 0.014400000000000001 -0.012849999999999999 0.00010000000000000635 -0.0033999999999999981 -0.00010000000000000805 -0.010500000000000015 0.0046000000000000112 -0.017499999999999995 -0.00019999999999999703 0.0088000000000000005 -0.0031999999999999958 -0.0039999999999999819 -0.0041999999999999997 -0.008349999999999998 0.002699999999999998
decision_type=2 2 2 2 2 2 2 2 2 2 2 2 2 2 2 2 2 2 2 2 2 2 2 2 2 2 2 2 2 2
left_child=10 2 3 4 14 6 -5 -6 9 -4 -1 12 -12 22 27 -10 -3 18 -9 -18 -11 -7 -13 26 -21 -23 -24 28 -2 -15
right_child=1 16 8 5 7 21 -8 17 15 20 11 13 -14 29 -16 -17 19 -19 -20 24 -22 25 23 -25 -26 -27 -28 -29 -30 -31
leaf_value=0.063226752701084674 -0.054203994236423025 0.074849156710412479 -0.039845346771450879 0.021682341526621688 0.10505086824543841 -0.031833783553611168 -0.04280275616632713 -0.021200983504770465 0.081522934125123209 -0.015345477266481184 0.073746054965802804 0.065560956910374182 -0.031850627756128493 0.0012803478504133229 0.035721828742253429 -0.047295377483763938 0.055089185806201757 -0.018388118772402842 0.084973149088834785 -0.0077459940573742104 0.062810787822538836 -0.00019608968110177962 -0.041793198336137607 0.067847250025379599 0.039224315660522396 0.087232184748026298 0.043830992070262489 -0.047657860872855645 0.087941128942754382 0.047186772373704944
leaf_count=186 84 57 261 180 70 149 5296 72 93 143 33 235 297 355 79 20 111 204 81 561 83 68 83 87 119 54 35 687 38 98
internal_value=0 -0.222572 -0.366682 -0.483587 -0.0299061 -0.659046 -0.755611 0.670336 0.370119 -0.0108276 0.551908 0.43727 -0.281404 0.610798 -0.53636 1.23847 0.353889 0.265442 0.979578 0.22917 0.4947 0.31761 0.946797 0.473649 0.0485713 0.883949 -0.246532 -0.74736 0.26701 0.25271
internal_count=9919 8510 7662 7062 1315 5747 5476 427 600 487 1409 1223 330 893 888 113 848 357 153 791 226 271 440 205 680 122 118 809 122 453
shrinkage=0.05


Tree=30
num_leaves=31
num_cat=0
split_feature=10 3 3 41 15 96 37 9 77 72 94 83 21 91 15 95 10 6 76 78 83 3 2 20 41 98 90 24 66 2
split_gain=97.721 43.914 45.2653 32.6838 27.0309 21.303 20.1549 18.6587 17.0461 17.0052 16.8818 16.7149 15.1509 23.2733 18.5698 15.0416 23.7682 14.8732 16.4401 15.7809 22.3651 14.8653 13.6275 19.8466 13.4719 18.2978 14.2335 14.364 13.9498 13.3164
threshold=-0.0075000000000000006 0.0075000000000000023 -0.0023999999999999972 -0.0025499999999999963 0.016300000000000002 0.0098500000000000063 -0.0052999999999999948 -0.0023999999999999972 -0.0029000000000000046 0.0047000000000000002 -0.005799999999999997 -0.0069999999999999949 -0.0033999999999999963 0.0020999999999999947 -0.0087999999999999988 0.0042000000000000049 -0.001699999999999986 -0.024899999999999999 0.0033000000000000186 -0.00010000000000000112 0.00069999999999999414 0.00060000000000000689 0.0068000000000000083 0.00020000000000001269 -0.0071999999999999903 0.019700000000000006 0.010199999999999992 -0.035400000000000001 0.0065000000000000101 -0.0061999999999999928
decision_type=2 2 2 2 2 2 2 2 2 2 2 2 2 2 2 2 2 2 2 2 2 2 2 2 2 2 2 2 2 2
left_child=5 2 15 6 7 11 -4 8 -5 -6 -11 -1 14 -14 21 -2 -17 -13 19 20 29 -8 -9 -24 25 26 -7 -28 -27 -19
right_child=1 -3 3 4 9 24 12 22 -10 10 -12 17 13 -15 -16 16 -18 18 -20 -21 -22 -23 23 -25 -26 28 27 -29 -30 -31
leaf_value=0.074626991363589676 -0.0024689034180335233 0.023731238822204528 -0.027465743168014284 0.083024998193767713 -0.054362395440713251 0.059105884142957969 -0.015022252766879074 -0.043637019832448942 -0.016427621129237343 -0.022035807244698724 0.089902127813934335 -0.052253628895903417 -0.016318680303226196 0.069140386338597939 -0.02559979076727438 -0.0003151609612676804 0.068003518427956489 -0.050804928622282509 0.067809185367296965 -0.008997991858667273 0.073123006695260603 0.089887645593394516 0.095813945987513915 -0.039319724996185357 0.080219656846708065 0.067624712999353451 0.03768741936875894 -0.050312141144169847 -0.026602449783926438 0.02758649167795358
leaf_count=57 1096 694 446 38 84 43 45 4567 350 40 50 46 200 135 363 176 130 56 68 388 94 37 36 122 105 202 38 80 20 113
internal_value=0 -0.193578 -0.293333 -0.459929 -0.64511 0.571571 -0.043817 -0.727199 0.00892226 0.476724 1.02 0.312765 0.261411 0.764484 -0.108352 0.180654 0.619267 0.204843 0.303777 0.163616 0.630608 0.871654 -0.819871 0.241167 0.939772 0.720101 0.105418 -0.358169 1.14933 -0.0142926
internal_count=9919 8609 7915 6513 5287 1310 1226 5113 388 174 90 822 780 335 445 1402 306 765 719 651 263 82 4725 158 488 383 161 118 222 169
shrinkage=0.05


Tree=31
num_leaves=31
num_cat=0
split_feature=15 25 1 47 27 74 91 17 88 24 14 98 31 38 44 49 74 86 5 24 44 36 38 71 60 39 71 8 38 62
split_gain=90.1054 49.084 38.8753 33.7872 41.5988 33.8108 40.276 27.3436 26.7553 22.0784 20.3723 19.8136 18.4871 20.6273 16.9736 22.3054 23.9189 16.4981 16.355 16.1761 14.0146 13.8209 20.5784 16.6154 15.4077 15.4054 13.9984 13.3038 13.1807 12.4627
threshold=-0.008699999999999989 -0.0017000000000000034 0.0050000000000000001 -0.0016999999999999982 0.0036499999999999974 -0.0026000000000000012 -0.0010999999999999827 -0.0025999999999999942 -0.0038999999999999898 -0.011099999999999994 1.0000000180025095e-35 -0.0014999999999999994 -0.0002000000000000005 -0.0052000000000000058 -0.0066999999999999898 -0.028599999999999997 -0.01059999999999999 0.0085999999999999879 -0.001800000000000001 -0.017499999999999995 0.0047999999999999892 -0.0037999999999999939 -0.010299999999999991 -0.0059999999999999836 0.0018999999999999957 -0.0070999999999999978 0.0068500000000000028 0.00030000000000001559 0.0030000000000000066 -0.00070000000000000259
decision_type=2 2 2 2 2 2 2 2 2 2 2 2 2 2 2 2 2 2 2 2 2 2 2 2 2 2 2 2 2 2
left_child=11 -2 3 5 9 19 8 -8 -7 -5 20 -1 13 -9 15 -13 -17 -12 -10 -3 -4 22 24 -24 -18 -25 -23 -6 -21 -16
right_child=1 2 10 4 27 6 7 12 18 -11 17 14 -14 -15 29 16 21 -19 -20 28 -22 26 23 25 -26 -27 -28 -29 -30 -31
leaf_value=-0.011565958835707449 0.026411581537725555 0.048135253519837301 0.037323355395334781 0.065298352358253625 0.048137869892730847 0.2671322417419395 -0.023299096661930904 -0.030508947335096653 0.11010341004129701 -0.04223817774185612 -0.0068536510849856215 0.058104959551829698 -0.017624516677817666 0.080857425920706105 0.07720359783846148 -0.049113176315244061 0.047699726735593174 0.075278353016495506 -0.037570189796624215 -0.040085016247212842 0.13811087211159068 0.073716984924868834 0.026264049968445502 -0.056854118552432047 -0.053572513704057349 0.020485205467122583 -0.013275644223018893 -0.0081871991799842211 0.058133390248414074 0.030065942563585503
leaf_count=274 614 37 117 33 111 21 356 41 35 4700 599 202 151 142 144 132 188 36 43 959 23 92 108 134 20 50 32 344 27 154
internal_value=0 -0.20568 -0.31397 -0.428891 -0.636543 -0.0712845 0.341216 0.0890226 2.1004 -0.801515 0.314586 0.503507 0.709522 1.17387 0.610352 0.448074 0.257823 0.0399242 1.37542 -0.561663 1.20621 0.40659 0.223355 -0.21138 0.747242 -0.668157 1.05815 0.239458 -0.700623 1.08509
internal_count=9919 8389 7775 7000 5188 1812 789 690 99 4733 775 1530 334 183 1256 958 756 635 78 1023 140 624 500 292 208 184 124 455 986 298
shrinkage=0.05


Tree=32
num_leaves=31
num_cat=0
split_feature=19 25 25 34 71 67 63 66 72 49 88 1 17 61 49 38 16 35 63 41 73 83 63 19 73 87 44 84 45 98
split_gain=85.155 46.237 39.3516 32.2716 28.2742 25.768 24.6168 62.5806 22.7377 23.1727 21.722 21.3109 20.384 20.322 18.617 18.0809 16.6362 29.7581 13.6072 13.5224 21.5508 19.1462 15.3846 18.1696 13.9153 15.3326 16.1515 15.4254 16.6328 12.6237
threshold=-0.010599999999999993 -0.0017000000000000034 0.0021999999999999975 -0.0013999999999999948 0.0051500000000000027 0.0069999999999999967 -0.004699999999999988 -0.0021999999999999863 -0.0022999999999999995 -9.9999999999997647e-05 0.0025000000000000061 0.0060999999999999987 0.018700000000000001 0.0012499999999999944 -0.0071999999999999955 -0.0030499999999999967 0.0025499999999999971 0.0074999999999999971 0.0009000000000000016 -0.028899999999999999 -0.0088999999999999999 -0.0078500000000000011 -0.00089999999999999098 -0.012450000000000001 0.010799999999999999 0.020849999999999997 -0.012750000000000003 0.0048000000000000204 -0.0091999999999999946 -0.022699999999999988
decision_type=2 2 2 2 2 2 2 2 2 2 2 2 2 2 2 2 2 2 2 2 2 2 2 2 2 2 2 2 2 2
left_child=19 -2 3 8 5 6 7 15 11 10 -10 -3 -11 -12 -15 -5 17 -6 -18 -1 21 -21 23 -22 25 26 -24 28 -28 -4
right_child=1 2 29 4 16 -7 -8 -9 9 12 13 -13 -14 14 -16 -17 18 -19 -20 20 22 -23 24 -25 -26 -27 27 -29 -30 -31
leaf_value=0.061161423405723087 0.024501416219824199 -0.033661307522074468 -0.061117034439761402 0.053130630771927215 -0.0068115135141300735 0.079223735596388761 -0.047240466428621619 0.35757421071841228 0.068010117552503635 -0.047188190164088747 -0.030689853537408315 0.047948374581614904 0.064986830069765064 -0.033358471685751616 0.0713758161208152 -0.046060707831246127 0.038882249995756402 0.09886490234624043 -0.032701848186190305 0.065273963714224101 0.05911415472973839 -0.025871538256756255 0.05556946538286002 -0.015345320875145414 0.065876750679043292 -0.076498126969887004 0.073881493399882162 -0.028797059858555071 0.0012995299142866872 0.025301545273756693
leaf_count=155 644 801 43 60 282 41 4138 21 186 328 145 62 25 47 78 286 68 47 673 37 288 312 94 58 61 22 49 146 172 550
internal_value=0 -0.191423 -0.299627 -0.404203 -0.592455 -0.783777 -0.832942 0.182041 -0.0397723 0.296308 0.62066 -0.462025 -0.504478 0.158083 0.832065 -0.23515 -0.116003 0.438048 -0.453883 0.519106 0.435875 -0.211064 0.597311 0.968454 0.346299 0.200863 0.304251 0.0567561 0.450757 0.395749
internal_count=9919 8525 7881 7288 5616 4546 4505 367 1672 809 456 863 353 270 125 346 1070 329 741 1394 1239 349 890 346 544 483 461 367 221 593
shrinkage=0.05


Tree=33
num_leaves=31
num_cat=0
split_feature=10 4 23 23 45 40 98 23 38 18 98 95 19 1 78 95 61 16 83 0 32 3 92 35 61 70 68 74 37 20
split_gain=78.9688 37.9075 39.984 60.6488 34.6919 31.7257 26.0616 20.275 37.1822 20.2601 21.3489 18.2096 17.0049 16.8454 15.1065 14.4425 18.4439 14.3215 14.2751 15.6769 13.9898 13.8026 13.4425 13.1655 13.3894 20.9657 18.7996 12.52 15.3229 12.2892
threshold=-0.0075000000000000006 0.0077999999999999988 -0.00039999999999999926 0.013949999999999999 0.0069000000000000077 0.0027000000000000049 -0.00039999999999999579 -0.0030999999999999843 -0.00079999999999999158 -0.01059999999999999 0.0059000000000000016 0.0095000000000000171 -0.0037500000000000029 0.0062999999999999992 -0.00010000000000000112 -0.00069999999999999392 -0.0043999999999999968 0.016849999999999993 0.00069999999999999414 -0.0099999999999999985 -0.0026999999999999867 0.003500000000000007 -0.0023000000000000013 -0.0031999999999999906 0.0033999999999999972 0.0079499999999999935 0.020150000000000005 -0.0088999999999999999 -0.0086499999999999997 -0.0025000000000000001
decision_type=2 2 2 2 2 2 2 2 2 2 2 2 2 2 2 2 2 2 2 2 2 2 2 2 2 2 2 2 2 2
left_child=11 2 4 17 6 -5 -2 9 12 10 -8 14 -9 21 18 16 -7 29 19 -1 -21 22 -11 -3 -25 -26 -27 -16 -29 -4
right_child=1 23 3 5 -6 15 7 8 -10 13 -12 -13 -14 -15 27 -17 -18 -19 -20 20 -22 -23 -24 24 25 26 -28 28 -30 -31
leaf_value=-0.054449662198684273 -0.036426493305423469 0.061643393733416575 0.0033287554948814701 0.055884812866645775 0.082147386073720741 0.054856814659632526 0.068647572268518989 -0.016743982923051091 -0.041962785770566467 0.039439400018275277 0.00019775587488186621 0.043927148724254024 0.084543099527595755 0.054170007120055277 -0.051482920725485486 0.061183950998961269 -0.045218066324708005 0.048739957871163225 0.06864201177582345 -0.04407212707085334 0.049753541324996708 0.0332275614658663 -0.032910010271881791 -0.01952359886295001 0.060429587161967196 -0.0324441663070279 0.058367988383221707 0.043238845848256949 -0.0082441965693291989 -0.045630114025309663
leaf_count=43 867 87 171 167 75 38 92 49 202 59 230 483 181 47 130 34 384 43 103 44 135 85 944 296 137 166 43 107 265 4212
internal_value=0 -0.179388 -0.27946 -0.547472 -0.00322424 0.29954 -0.0824641 0.0765125 0.722402 -0.0776403 0.430596 0.522138 1.32922 -0.320123 0.284832 -0.300626 -0.554843 -0.808687 0.700051 0.293733 0.64197 -0.427963 -0.550199 0.421935 0.241302 0.529627 -0.0821812 0.00333827 0.160687 -0.847016
internal_count=9919 8609 7880 5049 2831 623 2756 1889 432 1457 322 1310 230 1135 827 456 422 4426 325 222 179 1088 1003 729 642 346 209 502 372 4383
shrinkage=0.05


Tree=34
num_leaves=31
num_cat=0
split_feature=10 3 3 41 72 8 88 24 38 3 21 38 73 0 10 95 31 72 21 43 74 29 49 16 73 47 92 84 97 24
split_gain=72.1792 34.9976 37.3122 29.0059 22.4044 22.7899 19.1674 18.0209 16.2241 16.5477 14.3431 13.6269 13.2066 13.7913 12.7722 19.6178 13.4577 13.2831 12.6144 12.3098 16.3177 12.471 13.3551 15.4522 13.2968 12.3688 12.2442 11.8914 11.4891 11.1392
threshold=-0.0075000000000000006 0.0075000000000000023 -0.0021000000000000025 -0.0025499999999999963 0.0046000000000000043 0.0084000000000000134 0.0051000000000000047 -0.038999999999999979 -0.0053999999999999977 0.0025000000000000009 -0.0050000000000000018 0.0034000000000000024 -0.011199999999999993 -0.012450000000000008 -0.0019999999999999909 0.0042000000000000049 -0.0032500000000000025 0.0059000000000000068 0.018050000000000004 -0.0093999999999999952 -0.0067999999999999892 -0.0002000000000000005 -0.0086000000000000052 -0.0072999999999999983 -0.0017999999999999993 -0.00080000000000000026 -0.012149999999999999 0.0019000000000000234 -0.02555 -0.0041999999999999963
decision_type=2 2 2 2 2 2 2 2 2 2 2 2 2 2 2 2 2 2 2 2 2 2 2 2 2 2 2 2 2 2
left_child=7 2 14 8 6 10 -5 -1 9 -4 11 -6 -9 27 -2 16 -16 -17 -12 -10 -21 22 -22 -24 -25 -23 -7 -14 -3 -26
right_child=1 28 3 4 5 26 -8 12 19 -11 18 -13 13 -15 15 17 -18 -19 -20 20 21 25 23 24 29 -27 -28 -29 -30 -31
leaf_value=0.058436462166002325 -0.0069093614700998689 -0.05772252938763215 -0.042803962864352584 -0.044221640653065795 -0.036950554663908841 -0.045476113503044112 0.050948816822251233 -0.023318397373541539 0.057827670511164525 0.022026700929759255 -0.040528591847283836 0.082994009577074895 -0.050226308979932272 0.028696739506276631 0.041240505780549219 0.072207758060700677 -0.014257425010892694 -0.029399278230794086 0.035466175884124741 -0.054220116163412727 -0.038093362130889624 -0.035317195055508684 0.13350847405485691 -0.036895183402974541 -0.041791089181438708 0.070137556013266739 0.063093313541160684 0.025060214609478063 0.025573767444365292 0.070765800213273708
leaf_count=210 748 54 347 4007 40 36 38 186 78 103 941 32 62 803 95 115 505 35 35 170 36 195 23 94 20 24 98 49 640 100
internal_value=0 -0.174014 -0.268429 -0.434864 -0.623415 -0.197966 -0.825583 0.500411 -0.0328268 -0.484628 -0.458284 0.663084 0.374072 0.461615 0.151023 0.441893 0.0750927 1.14844 -0.648758 0.261126 0.0753739 0.304917 0.686376 0.974197 0.633308 -0.334026 0.845426 -0.293687 0.425117 1.06905
internal_count=9919 8609 7915 6417 5227 1182 4045 1310 1190 450 1048 72 1100 914 1498 750 600 150 976 740 662 492 273 237 214 219 134 111 694 120
shrinkage=0.05


Tree=35
num_leaves=31
num_cat=0
split_feature=11 4 4 34 40 31 98 29 96 85 11 20 20 15 93 98 37 49 19 97 79 73 44 87 79 96 31 35 16 23
split_gain=66.0309 33.2597 38.5143 26.6082 24.7525 19.5024 25.2461 19.6614 18.034 17.9286 17.1511 19.2544 16.5388 16.0266 15.5815 15.0134 15.9617 19.097 19.1612 13.6055 13.2163 17.0371 22.6673 13.3961 19.8113 15.7819 12.6662 11.9982 13.1245 11.8487
threshold=-0.00609999999999999 0.0075000000000000023 -0.0026999999999999867 -0.0012000000000000012 -0.0075500000000000003 0.0064999999999999858 -0.00079999999999998464 -0.0081500000000000027 0.00010000000000000461 -0.0088999999999999999 -0.0025999999999999942 -0.0016000000000000022 0.0062000000000000085 0.0075000000000000023 0.0082000000000000111 -0.00019999999999998835 -0.0045999999999999852 -0.0023999999999999955 -0.0035000000000000009 0.0029000000000000106 -0.00025000000000000017 -0.0088999999999999999 -0.013699999999999999 0.0046999999999999863 0.0058000000000000039 0.0098500000000000063 -0.0051999999999999989 -0.0026500000000000026 -0.00029999999999997384 0.0012999999999999976
decision_type=2 2 2 2 2 2 2 2 2 2 2 2 2 2 2 2 2 2 2 2 2 2 2 2 2 2 2 2 2 2
left_child=5 2 10 13 -5 6 9 -8 -9 -1 -2 -12 -13 15 -6 -4 19 18 -18 -17 -10 -22 -23 25 -25 26 -24 -3 -29 -20
right_child=1 27 3 4 14 -7 7 8 20 -11 11 12 -14 -15 -16 16 17 -19 29 -21 21 22 23 24 -26 -27 -28 28 -30 -31
leaf_value=0.070667804421431502 -0.015478555713990722 0.0587881405100995 -0.043334334286975085 0.064295781443533359 -0.039242400742946076 0.062015757537772213 0.052904025134022474 0.062819660487036938 0.036605960742670897 -0.031987407433660547 0.056830388603771688 -0.045377246407299301 0.026099473077564897 0.049277863560355212 0.010004109955722802 0.031296068685889453 -0.010947785331088637 -0.037408785154922609 0.082053916780696512 -0.043455695827425866 -0.045741983519821949 0.060694769712168965 0.063207441872123946 -0.037568083442732325 0.053559300719277392 0.083588292583790968 -0.014444507049689845 0.06224277431883142 0.00098567220443321443 -0.019208747785922273
leaf_count=28 390 83 505 38 4851 126 239 96 202 367 218 217 194 83 133 79 123 195 129 213 144 89 33 213 37 34 152 56 612 40
internal_value=0 -0.209558 -0.316555 -0.471107 -0.660361 0.391197 0.307122 0.450165 0.293838 -0.402915 0.219065 0.530472 0.0459679 -0.0817228 -0.712703 -0.208877 0.00741151 0.392137 0.758323 -0.515036 0.179992 0.0173366 0.178116 -0.0476039 -0.437428 0.384082 0.0596288 0.351563 0.187476 1.32471
internal_count=9919 8159 7408 6389 5022 1760 1634 1239 1000 395 1019 629 411 1367 4984 1284 779 487 292 292 904 702 558 469 250 219 185 751 668 169
shrinkage=0.05


Tree=36
num_leaves=31
num_cat=0
split_feature=13 4 23 23 39 42 98 91 9 19 38 0 20 19 36 93 78 18 49 10 97 64 49 20 31 17 64 31 3 24
split_gain=60.8076 29.0778 35.9839 53.1459 24.4184 23.5091 27.4607 24.7631 19.441 17.2173 15.8296 15.1957 15.163 14.9217 34.3016 15.1205 14.8631 14.2857 17.8247 16.9558 13.6179 12.8089 12.6501 11.1497 12.0724 10.9495 12.5756 11.5984 10.8982 10.4332
threshold=-0.011499999999999998 0.0075000000000000023 -0.00014999999999999733 0.015000000000000003 0.0047999999999999892 0.006700000000000002 -0.00049999999999997952 -0.0015000000000000063 -0.013800000000000002 -0.0013000000000000006 -0.0026999999999999971 0.0037000000000000058 0.0094999999999999998 -0.0031000000000000034 -0.0019000000000000039 0.0064000000000000072 0.0068000000000000118 -0.010999999999999984 -0.0080999999999999909 -0.0017500000000000013 0.0045000000000000083 -0.00059999999999998238 0.023049999999999991 0.0050000000000000001 0.0049000000000000059 0.0020999999999999947 0.018350000000000009 -0.0048999999999999972 0.0049999999999999949 -0.0043000000000000026
decision_type=2 2 2 2 2 2 2 2 2 2 2 2 2 2 2 2 2 2 2 2 2 2 2 2 2 2 2 2 2 2
left_child=22 2 5 8 -5 6 23 9 -4 29 -3 13 -6 17 -15 -16 -10 18 19 -9 -13 -14 -1 24 -2 -12 27 -27 -19 -8
right_child=1 10 3 4 12 -7 7 11 16 -11 25 20 21 14 15 -17 -18 28 -20 -21 -22 -23 -24 -25 -26 26 -28 -29 -30 -31
