tree
version=v2
num_class=1
num_tree_per_iteration=1
label_index=0
max_feature_idx=28
objective=regression
feature_names=IP Exports Real_Exports NewOrders NewOrders_NoDef Real_PCE Real_Imports Imports Wk_hrs_manu Wk_hrs_priv Leading_Idx Tot_veh_sales Lt_wght_veh Heavy_trucks LMCI UMich GDP_1 GDP_2 GDP_3 GDP_SMA3 GDP_SMA6 GDP_SMA12 GDP_EMA6 GDP_EMA3 GDP_diff3 GDP_diff6 GDP_diff9 GDP_diff12 GDP_diff2
feature_infos=[-15.7667:7.3624999999999972] [-180.51599999999996:420.33600000000001] [-266.77800000000002:239.73199999999997] [-87795:42642] [-22418:10512] [-244.35499999999956:459.93399999999929] [-468.65599999999995:369.65000000000009] [-811.72100000000023:472.18799999999987] [-2.0999999999999943:2.1000000000000014] [-0.70000000000000284:0.60000000000000142] [-2.6699999999999999:2.3399999999999999] [-6.2690000000000001:4.5410000000000004] [-6.1430000000000007:4.5919999999999987] [-0.22600000000000003:0.13800000000000001] [-4.1965700000000004:1.1532899999999999] [55.299999999999997:112] [-3.8999999999999999:5.2999999999999998] [-3.8999999999999999:5.2999999999999998] [-3.8999999999999999:5.2999999999999998] [-3.7333333333333409:5.0444444444444398] [-3.5499999999999976:4.8166666666666673] [-3.0833333333333353:4.7666666666666648] [-2.5476730015014062:4.7514756214997123] [-3.2370900709113881:4.8253567321236499] [-2.7999999999999998:3.2000000000000002] [-3.8999999999999999:4.7000000000000002] [-4.4000000000000004:5.7999999999999998] [-5:6.6999999999999993] [-1.8666666666666665:2.1333333333333333]
tree_sizes=610 631 554 629 627 629 704 706 634 711 556 708 711 711 711 640 634 643 637 642 637 636 641 643 635 717 639 644 721 723 642 567 642 716 642 724 723 726 727 721 726 651 644 645 635 648 571 645 648 645 651 720 650 728 722 654 730 637 654 649 730 726 648 646 635 733 732 649 731 573 651 732 735 737 651 653 653 651 721 651 731 662 651 655 655 737 734 651 743 651 659 657 659 656 734 664 660 723 660 741

Tree=0
num_leaves=7
num_cat=0
split_feature=16 0 16 16 16 16
split_gain=391.638 133.877 56.9263 8.30933 4.59488 3.92641
threshold=2.3166666666666669 -3.1552000000000002 3.9166666666666674 2.8333333333333339 1.7333333333333336 4.3833333333333346
decision_type=2 2 2 2 2 2
left_child=1 -1 3 -2 -3 -4
right_child=2 4 5 -5 -6 -7
leaf_value=2.4430014417801069 2.6374458878883664 2.5788564238197358 2.7210014469799022 2.6774482226186591 2.6104915232292791 2.746378871298226
leaf_count=21 21 22 35 34 24 27
internal_value=0 -1.92809 1.10385 0.363261 -0.972997 1.76083
internal_count=184 67 117 55 46 62
shrinkage=1


Tree=1
num_leaves=7
num_cat=0
split_feature=16 16 16 16 16 16
split_gain=353.453 122.547 51.376 7.49917 4.79183 3.54358
threshold=2.3166666666666669 0.71666666666666679 3.9166666666666674 2.8333333333333339 1.7333333333333336 4.3833333333333346
decision_type=2 2 2 2 2 2
left_child=1 -1 3 -2 -3 -4
right_child=2 4 5 -5 -6 -7
leaf_value=-0.19524601221084595 -0.0062373744379285549 -0.063781449457873479 0.073140401499611998 0.031764843665501655 -0.03184402016922832 0.097248956009193699
leaf_count=20 21 23 35 34 24 27
internal_value=0 -1.83169 1.04866 0.345098 -0.949459 1.67279
internal_count=184 67 117 55 47 62
shrinkage=0.05


Tree=2
num_leaves=6
num_cat=0
split_feature=16 16 16 16 16
split_gain=319.42 98.8204 11.8293 7.47053 2.55879
threshold=1.466666666666667 3.2166666666666672 4.0500000000000007 2.3166666666666669 4.5833333333333339
decision_type=2 2 2 2 2
left_child=-1 3 -3 -2 -4
right_child=1 2 4 -5 -6
leaf_value=-0.13131828114793107 -0.032352205390731491 0.041283832766391616 0.072746910154819489 0.0021223191559935611 0.094340347725412124
leaf_count=37 30 27 34 33 23
internal_value=0 0.660865 1.37093 -0.285882 1.6292
internal_count=184 147 84 63 57
shrinkage=0.05


Tree=3
num_leaves=7
num_cat=0
split_feature=0 16 16 16 16 16
split_gain=292.264 125.402 12.5663 11.8851 2.30931 2.27388
threshold=-3.1552000000000002 3.1666666666666674 4.0500000000000007 1.916666666666667 4.5833333333333339 2.416666666666667
decision_type=2 2 2 2 2 2
left_child=-1 3 -3 -2 -4 -5
right_child=1 2 4 5 -6 -7
leaf_value=-0.17557041276068916 -0.048795349498589838 0.037407666146755218 0.069109566422069779 -0.021018452849239113 0.089623332541921868 0.0014064559079022625
leaf_count=21 30 30 34 20 23 26
internal_value=0 0.452225 1.27202 -0.486227 1.54774 -0.16687
internal_count=184 163 87 76 57 46
shrinkage=0.05


Tree=4
num_leaves=7
num_cat=0
split_feature=0 16 16 16 16 16
split_gain=263.769 113.216 12.42 9.66027 2.49991 1.37942
threshold=-3.1552000000000002 3.2166666666666672 2.3166666666666669 4.1333333333333337 1.7333333333333336 4.5833333333333339
decision_type=2 2 2 2 2 2
left_child=-1 2 4 -3 -2 -5
right_child=1 3 -4 5 -6 -7
leaf_value=-0.16679189517384485 -0.050454583222215826 0.041829446128436504 0.001918147134799228 0.068332243424195513 -0.027120338147506119 0.08514216619989147
leaf_count=21 22 35 33 26 24 23
internal_value=0 0.429613 -0.42977 1.23784 -0.765604 1.52445
internal_count=184 163 79 84 46 49
shrinkage=0.05


Tree=5
num_leaves=7
num_cat=0
split_feature=16 16 16 16 16 16
split_gain=211.372 81.9511 12.9534 5.7434 2.1193 1.08048
threshold=0.91666666666666685 3.0333333333333337 3.9166666666666674 2.3166666666666669 4.4666666666666677 1.8166666666666669
decision_type=2 2 2 2 2 2
left_child=-1 3 -3 5 -4 -2
right_child=1 2 4 -5 -6 -7
leaf_value=-0.14284593408757992 -0.039065369591116908 0.030470853298902513 0.060412479471415287 -0.0019067498296499253 0.080310421404631238 -0.022630056720227006
leaf_count=22 20 37 32 30 23 20
internal_value=0 0.4465 1.0669 -0.368889 1.37467 -0.616954
internal_count=184 162 92 70 55 40
shrinkage=0.05


Tree=6
num_leaves=8
num_cat=0
split_feature=0 16 16 16 16 16 24
split_gain=191.49 77.5563 11.7404 6.06381 1.54499 1.40162 1.35874
threshold=-2.4292999999999974 3.0333333333333337 4.0500000000000007 1.8833333333333335 4.4666666666666677 2.3833333333333337 -0.1000000000000003
decision_type=2 2 2 2 2 2 2
left_child=-1 3 6 -2 -4 -5 -3
right_child=1 2 4 5 -6 -7 -8
leaf_value=-0.14361579701304436 -0.03850273793935776 0.02142998386640102 0.058805513914142342 -0.017632066130283335 0.076294902744500542 -0.00026452405234942067 0.039639799048503239
leaf_count=20 25 20 28 21 23 26 21
internal_value=0 0.405202 1.01356 -0.372144 1.33386 -0.16049 0.615139
internal_count=184 164 92 72 51 47 41
shrinkage=0.05


Tree=7
num_leaves=8
num_cat=0
split_feature=16 16 16 16 16 16 21
split_gain=173.084 62.7265 8.36861 4.82808 1.60092 0.976963 0.238323
threshold=1.1166666666666669 3.3833333333333337 2.3833333333333337 4.2500000000000009 2.8333333333333339 1.8833333333333335 4.4652777777777759
decision_type=2 2 2 2 2 2 2
left_child=-1 2 5 -3 -4 -2 -5
right_child=1 3 4 6 -6 -7 -8
leaf_value=-0.11997241365909578 -0.032191492654383182 0.041228086522647311 -0.0030560228880494832 0.062797352969646461 0.016286368750803852 -0.016750462774542115 0.070516207814216622
leaf_count=25 20 35 20 20 23 21 20
internal_value=0 0.431086 -0.16241 1.0958 0.145798 -0.485653 1.33314
internal_count=184 159 84 75 43 41 40
shrinkage=0.05


Tree=8
num_leaves=7
num_cat=0
split_feature=0 16 16 16 16 16
split_gain=158.447 62.6937 9.72103 4.62806 1.56462 1.12958
threshold=-2.4292999999999974 3.0333333333333337 3.9166666666666674 1.8833333333333335 4.4666666666666677 2.3833333333333337
decision_type=2 2 2 2 2 2
left_child=-1 3 -3 -2 -4 -5
right_child=1 2 4 5 -6 -7
leaf_value=-0.13065583974123002 -0.033914655625820161 0.025944451104245477 0.051941357646137477 -0.015912939728947268 0.069038247414257223 -0.00032167821549452272
leaf_count=20 25 37 32 21 23 26
internal_value=0 0.368237 0.915206 -0.330667 1.18182 -0.14576
internal_count=184 164 92 72 55 47
shrinkage=0.05


Tree=9
num_leaves=8
num_cat=0
split_feature=19 16 16 16 16 25 21
split_gain=143.294 55.4947 7.99732 3.92345 1.29621 1.25482 0.183725
threshold=0.95555555555554916 3.3833333333333337 2.3833333333333337 4.2500000000000009 2.8333333333333339 -0.21666666666666676 4.4652777777777759
decision_type=2 2 2 2 2 2 2
left_child=-1 2 5 -3 -4 -2 -5
right_child=1 3 4 6 -6 -7 -8
leaf_value=-0.12083216096673693 -0.031199519813060763 0.037312383098261702 -0.0028871378535404802 0.056846703290939327 0.014517429519606674 -0.014396691196598114 0.063623968213796608
leaf_count=21 25 35 20 20 23 20 20
internal_value=0 0.358722 -0.179946 0.990759 0.128446 -0.474632 1.20471
internal_count=184 163 88 75 43 45 40
shrinkage=0.05


Tree=10
num_leaves=6
num_cat=0
split_feature=5 19 19 19 19
split_gain=160.741 50.2925 6.90011 4.20676 1.07143
threshold=108.98849999999949 3.066666666666662 3.9333333333333287 2.2388888888888832 4.3777777777777755
decision_type=2 2 2 2 2
left_child=-1 3 -3 -2 -4
right_child=1 2 4 -5 -6
leaf_value=-0.12985596905152005 -0.025823329083430463 0.023680537694266868 0.045227202077706662 -0.00114704902178698 0.058826805012566707
leaf_count=21 39 35 30 31 28
internal_value=0 0.342346 0.824255 -0.297905 1.03585
internal_count=184 163 93 70 58
shrinkage=0.05


Tree=11
num_leaves=8
num_cat=0
split_feature=5 16 16 16 16 16 16
split_gain=145.068 50.4262 7.22115 2.71931 1.11881 0.910547 0.529794
threshold=108.98849999999949 3.3833333333333337 2.3166666666666669 4.1333333333333337 2.8333333333333339 1.7333333333333336 4.4666666666666677
decision_type=2 2 2 2 2 2 2
left_child=-1 2 5 -3 -4 -2 -5
right_child=1 3 4 6 -6 -7 -8
leaf_value=-0.12336317279509135 -0.031902284446087753 0.034206048471312367 -0.0038709869925779381 0.047761055149815303 0.01207498021821762 -0.017161534950137138 0.058503066500027984
leaf_count=21 22 31 22 22 22 20 24
internal_value=0 0.325228 -0.201068 0.91304 0.0820399 -0.497658 1.06731
internal_count=184 163 86 77 44 42 46
shrinkage=0.05


Tree=12
num_leaves=8
num_cat=0
split_feature=16 16 16 16 16 25 16
split_gain=130.94 46.5986 6.91124 2.45418 1.00972 0.983948 0.478139
threshold=0.71666666666666679 3.3833333333333337 2.3166666666666669 4.1333333333333337 2.8333333333333339 -0.40000000000000019 4.4666666666666677
decision_type=2 2 2 2 2 2 2
left_child=-1 2 5 -3 -4 -2 -5
right_child=1 3 4 6 -6 -7 -8
leaf_value=-0.12047262504696846 -0.031679581918499691 0.032495746545253265 -0.0036774374629286208 0.045373001288283955 0.011471231453205374 -0.016548519483989194 0.055577910443147027
leaf_count=20 22 31 22 22 22 21 24
internal_value=0 0.300785 -0.200691 0.867388 0.0779379 -0.4858 1.01395
internal_count=184 164 87 77 44 43 46
shrinkage=0.05


Tree=13
num_leaves=8
num_cat=0
split_feature=5 16 16 16 24 16 16
split_gain=120.586 40.6186 5.62801 2.21489 0.973361 0.680537 0.431521
threshold=108.98849999999949 3.3833333333333337 2.3166666666666669 4.1333333333333337 -0.23333333333333325 1.7333333333333336 4.4666666666666677
decision_type=2 2 2 2 2 2 2
left_child=-1 2 5 -3 -4 -2 -5
right_child=1 3 4 6 -6 -7 -8
leaf_value=-0.11247587902914911 -0.027954901077530604 0.030870958778166004 -0.0037346560042351485 0.043104352598840545 0.011138759792613036 -0.01521123862825334 0.052799015864729883
leaf_count=21 22 31 22 22 22 20 24
internal_value=0 0.296458 -0.175894 0.824019 0.074041 -0.43773 0.963249
internal_count=184 163 86 77 44 42 46
shrinkage=0.05


Tree=14
num_leaves=8
num_cat=0
split_feature=0 16 16 16 16 16 16
split_gain=110.118 37.3212 5.27326 1.99894 0.89423 0.706384 0.389447
threshold=-3.1552000000000002 3.3833333333333337 2.3166666666666669 4.1333333333333337 2.8333333333333339 1.7333333333333336 4.4666666666666677
decision_type=2 2 2 2 2 2 2
left_child=-1 2 5 -3 -4 -2 -5
right_child=1 3 4 6 -6 -7 -8
leaf_value=-0.11048417806625366 -0.027365369442850354 0.029327411468951931 -0.0036110619591041048 0.040949134867299689 0.010644960864671951 -0.014544908163536872 0.050159065549572314
leaf_count=20 22 31 22 22 22 21 24
internal_value=0 0.275745 -0.173043 0.782818 0.070339 -0.422084 0.915086
internal_count=184 164 87 77 44 43 46
shrinkage=0.05


Tree=15
num_leaves=7
num_cat=0
split_feature=16 5 16 16 28 13
split_gain=66.2932 30.6915 6.8906 1.53427 0.688804 0.203494
threshold=2.8333333333333339 108.98849999999949 3.9166666666666674 1.916666666666667 0.066666666666666888 0.015000000000000015
decision_type=2 2 2 2 2 2
left_child=1 -1 -2 -3 -4 -5
right_child=2 3 4 5 -6 -7
leaf_value=-0.083932698364369576 0.014573751626180879 -0.022311539058723757 0.037859936961621952 -0.011008576696206418 0.049443658476784114 -0.0039614418521523474
leaf_count=20 38 31 33 21 21 20
internal_value=0 -0.582765 0.617717 -0.278352 0.847294 -0.151419
internal_count=184 92 92 72 54 41
shrinkage=0.05


Tree=16
num_leaves=7
num_cat=0
split_feature=16 5 16 24 16 16
split_gain=59.8932 26.4341 7.4923 1.16429 1.11879 0.658793
threshold=2.7333333333333338 108.98849999999949 3.9166666666666674 -0.20000000000000004 1.916666666666667 4.3833333333333346
decision_type=2 2 2 2 2 2
left_child=1 -1 3 -2 -3 -4
right_child=2 4 5 -5 -6 -7
leaf_value=-0.079736062735319135 0.0038528279709031006 -0.02119596190750599 0.034924722622547831 0.020312206552956593 -0.0082376110105542473 0.045977608171793138
leaf_count=20 21 31 28 22 36 26
internal_value=0 -0.585828 0.556925 0.245478 -0.284665 0.80493
internal_count=184 87 97 43 67 54
shrinkage=0.05


Tree=17
num_leaves=7
num_cat=0
split_feature=16 0 16 16 28 28
split_gain=54.0701 25.9735 5.5924 1.24393 0.612962 0.22552
threshold=2.8333333333333339 -2.4292999999999974 3.9166666666666674 1.8833333333333335 -1.0000000180025095e-35 -0.066666666666666638
decision_type=2 2 2 2 2 2
left_child=1 -1 -2 -3 -4 -5
right_child=2 3 4 5 -6 -7
leaf_value=-0.076723002269864088 0.01319762395792886 -0.020552311892554697 0.032278292129437135 -0.010491538155095084 0.042998849252859753 -0.0033249106269241089
leaf_count=20 38 28 24 23 30 21
internal_value=0 -0.526316 0.55786 -0.246276 0.764683 -0.141422
internal_count=184 92 92 72 54 44
shrinkage=0.05


Tree=18
num_leaves=7
num_cat=0
split_feature=5 16 16 28 16 21
split_gain=49.0857 25.575 3.12454 1.29372 0.785814 0.618246
threshold=108.98849999999949 3.5166666666666671 2.7333333333333338 -0.066666666666666638 1.9833333333333336 4.2666666666666648
decision_type=2 2 2 2 2 2
left_child=-1 2 4 -3 -2 -5
right_child=1 3 -4 5 -6 -7
leaf_value=-0.073202100843191148 -0.018005348188859044 0.024256007891634238 0.0066890956871511961 0.033356729668119679 -0.00717429212801268 0.045376772582530978
leaf_count=20 33 23 31 23 34 20
internal_value=0 0.195352 -0.128723 0.676554 -0.25018 0.778949
internal_count=184 164 98 66 67 43
shrinkage=0.05


Tree=19
num_leaves=7
num_cat=0
split_feature=0 16 16 28 16 21
split_gain=45.4762 22.8538 2.73501 1.16758 0.746556 0.557967
threshold=-2.4292999999999974 3.5166666666666671 2.7333333333333338 -0.066666666666666638 1.8833333333333335 4.2666666666666648
decision_type=2 2 2 2 2 2
left_child=-1 2 4 -3 -2 -5
right_child=1 3 -4 5 -6 -7
leaf_value=-0.070468674153089536 -0.017835903859564236 0.023043207305928935 0.0063546408489797146 0.031688893100489744 -0.0071348327817992337 0.043107934296131134
leaf_count=20 28 23 31 23 39 20
internal_value=0 0.187845 -0.118504 0.642726 -0.232138 0.740002
internal_count=184 164 98 66 67 43
shrinkage=0.05


Tree=20
num_leaves=7
num_cat=0
split_feature=20 16 0 28 16 16
split_gain=65.854 19.9463 1.87486 1.58832 0.761744 0.536864
threshold=0.80000000000000238 3.2166666666666672 3.2038499999999961 0.19999999999999987 2.3166666666666669 4.4666666666666677
decision_type=2 2 2 2 2 2
left_child=-1 3 -3 4 -2 -4
right_child=1 2 5 -5 -6 -7
leaf_value=-0.087151877712458373 -0.016788602882140392 0.014768294277398484 0.027689360827207566 0.003130184285565401 -0.005351052792199577 0.037580268117396731
leaf_count=20 37 23 34 23 24 23
internal_value=0 0.179006 0.536364 -0.161336 -0.245772 0.633609
internal_count=184 164 80 84 61 57
shrinkage=0.05


Tree=21
num_leaves=7
num_cat=0
split_feature=1 16 16 28 16 5
split_gain=61.4027 17.1728 1.7033 1.38756 0.618147 0.180482
threshold=49.371500000000033 3.2166666666666672 4.2166666666666677 0.19999999999999987 2.3166666666666669 387.45366666666729
decision_type=2 2 2 2 2 2
left_child=1 3 -3 4 -1 -4
right_child=-2 2 5 -5 -6 -7
leaf_value=-0.015544638612440653 -0.081891742419628877 0.017807145220668695 0.02913928216411954 0.0023238006702740676 -0.0046937222897429909 0.035694572116647449
leaf_count=35 21 38 21 27 21 21
internal_value=0 0.178932 0.509546 -0.139732 -0.229511 0.648339
internal_count=184 163 80 83 56 42
shrinkage=0.05


Tree=22
num_leaves=7
num_cat=0
split_feature=0 16 0 16 24 28
split_gain=56.6072 15.7319 1.60588 1.30862 0.568179 0.438132
threshold=-3.1552000000000002 3.2166666666666672 3.2038499999999961 2.3166666666666669 0.15000000000000022 -0.066666666666666638
decision_type=2 2 2 2 2 2
left_child=-1 3 -3 4 -2 -4
right_child=1 2 5 -5 -6 -7
leaf_value=-0.080765058882534504 -0.016779992862471515 0.013051366202695215 0.022740972377359867 0.00042844306622605977 -0.0057458360737655317 0.031926283079224668
leaf_count=20 28 23 20 36 20 37
internal_value=0 0.1667 0.484068 -0.135555 -0.243649 0.574067
internal_count=184 164 80 84 48 57
shrinkage=0.05


Tree=23
num_leaves=7
num_cat=0
split_feature=20 16 16 16 16 10
split_gain=52.2965 13.9988 1.5825 0.989232 0.336518 0.320004
threshold=0.80000000000000238 3.1666666666666674 4.0500000000000007 2.3166666666666669 4.4666666666666677 0.80000000000000016
decision_type=2 2 2 2 2 2
left_child=-1 3 -3 5 -4 -2
right_child=1 2 4 -5 -6 -7
leaf_value=-0.077613917668313659 -0.0076032424794027099 0.013725332535743233 0.024368876990463056 -5.6471187974025006e-05 0.032531241781037785 -0.015832806862003748
leaf_count=20 27 31 28 34 23 21
internal_value=0 0.160529 0.452691 -0.131633 0.560999 -0.224074
internal_count=184 164 82 82 51 48
shrinkage=0.05


Tree=24
num_leaves=7
num_cat=0
split_feature=1 16 28 28 22 22
split_gain=48.7496 12.0215 1.426 1.25085 0.70912 0.371386
threshold=49.371500000000033 3.2166666666666672 -0.15000000000000011 0.19999999999999987 4.0687956963622849 2.1424261853186137
decision_type=2 2 2 2 2 2
left_child=1 3 -3 5 -4 -1
right_child=-2 2 4 -5 -6 -7
leaf_value=-0.013364217414055019 -0.072920129852164325 0.010288035290432164 0.021110505953963313 0.0035283759650256903 0.032136086761951448 -0.0051997235474678192
leaf_count=30 21 20 35 27 25 26
internal_value=0 0.16039 0.437008 -0.10623 0.51409 -0.191471
internal_count=184 163 80 83 60 56
shrinkage=0.05


Tree=25
num_leaves=8
num_cat=0
split_feature=27 16 16 28 11 22 16
split_gain=56.6202 10.6627 1.27671 0.814176 0.453074 0.304067 0.282894
threshold=-2.0499999999999998 3.5166666666666671 2.8333333333333339 -0.05000000000000026 1.0335000000000003 4.0687956963622849 1.916666666666667
decision_type=2 2 2 2 2 2 2
left_child=-1 2 4 -3 6 -5 -2
right_child=1 3 -4 5 -6 -7 -8
leaf_value=-0.079498514914885174 -0.012060846132226289 0.017370819086388042 0.0082905905554071079 0.024559160419132399 0.00144420352880843 0.032880777049632298 -0.0043310906580480719
leaf_count=20 20 26 25 23 20 21 29
internal_value=0 0.192235 -0.0278021 0.487714 -0.097952 0.570617 -0.149722
internal_count=184 164 94 70 69 44 49
shrinkage=0.05


Tree=26
num_leaves=7
num_cat=0
split_feature=5 19 28 5 5 7
split_gain=51.8953 6.97031 1.79328 0.843392 0.624067 0.244159
threshold=108.98849999999949 3.9333333333333287 0.38333333333333336 279.3464999999988 387.45366666666729 83.752666666666599
decision_type=2 2 2 2 2 2
left_child=-1 2 3 5 -3 -2
right_child=1 4 -4 -5 -6 -7
leaf_value=-0.072126598416996951 -0.0013887427989393473 0.019070300462966164 0.013300869686753248 0.0061953074075669669 0.029653874268898595 -0.008079219581559301
leaf_count=22 25 30 27 24 26 30
internal_value=0 0.194299 0.0435313 -0.0325083 0.479682 -0.100762
internal_count=184 162 106 79 56 55
shrinkage=0.05


Tree=27
num_leaves=7
num_cat=0
split_feature=3 16 16 28 28 22
split_gain=48.0293 8.29656 1.00817 0.724022 0.498477 0.240253
threshold=-13375.499999999998 3.5166666666666671 2.8333333333333339 -0.05000000000000026 0.083333333333333495 4.0687956963622849
decision_type=2 2 2 2 2 2
left_child=-1 2 4 -3 -2 -5
right_child=1 3 -4 5 -6 -7
leaf_value=-0.071237134915732206 -0.0074819442505637814 0.015489383729604575 0.0081426422034079834 0.02248300657324169 0.0010908854426816105 0.029880039039112273
leaf_count=21 39 26 24 23 30 21
internal_value=0 0.182045 -0.0136873 0.44209 -0.0750925 0.520268
internal_count=184 163 93 70 69 44
shrinkage=0.05


Tree=28
num_leaves=8
num_cat=0
split_feature=27 16 16 28 16 12 16
split_gain=44.2189 7.63681 0.927005 0.653635 0.343039 0.324213 0.152156
threshold=-2.0499999999999998 3.5166666666666671 2.8333333333333339 0.13333333333333355 4.2166666666666677 0.81300000000000072 1.9833333333333336
decision_type=2 2 2 2 2 2 2
left_child=-1 2 5 4 -3 6 -2
right_child=1 3 -4 -5 -6 -7 -8
leaf_value=-0.07025302949594335 -0.0093138866592198614 0.012517222417518499 0.0074342869995161895 0.027481497526168824 0.021302655056118967 0.0012060518651692705 -0.0035916316412532563
leaf_count=20 21 20 25 25 25 22 26
internal_value=0 0.169923 -0.0162944 0.419985 0.34796 -0.0760698 -0.122968
internal_count=184 164 94 70 45 69 47
shrinkage=0.05


Tree=29
num_leaves=8
num_cat=0
split_feature=1 16 16 28 28 2 23
split_gain=41.4591 6.25493 0.662613 0.604822 0.236782 0.241687 0.215757
threshold=49.371500000000033 3.5166666666666671 2.8333333333333339 -0.05000000000000026 0.083333333333333495 84.727833333333322 4.2523738074531234
decision_type=2 2 2 2 2 2 2
left_child=1 2 4 -3 5 -1 -5
right_child=-2 3 -4 6 -6 -7 -8
leaf_value=-0.00090940335765480988 -0.064465002899735488 0.013903207736662948 0.0070625725290738052 0.020176400503386621 0.0012565443972842052 -0.0085894523986748284 0.027186201441855656
leaf_count=20 22 26 25 23 26 21 21
internal_value=0 0.173718 0.00231911 0.398986 -0.0495213 -0.0968617 0.47044
internal_count=184 162 92 70 67 41 44
shrinkage=0.05


Tree=30
num_leaves=7
num_cat=0
split_feature=5 16 28 28 6 21
split_gain=41.1228 6.07015 0.772338 0.511394 0.43569 0.269429
threshold=80.009000000000029 3.5166666666666671 0.083333333333333495 0.13333333333333355 70.94166666666662 4.0374999999999988
decision_type=2 2 2 2 2 2
left_child=-1 2 4 5 -2 -3
right_child=1 3 -4 -5 -6 -7
leaf_value=-0.06676788278190153 0.0017394670475782319 0.011868009113130115 0.0054310076224750705 0.025162842416245008 -0.0070604774223354001 0.019701306768895491
leaf_count=21 22 21 35 23 39 23
internal_value=0 0.151423 -0.00979272 0.382419 -0.0777345 0.319254
internal_count=184 163 96 67 61 44
shrinkage=0.05


Tree=31
num_leaves=6
num_cat=0
split_feature=1 19 28 23 0
split_gain=37.2482 4.84121 0.965742 0.658551 0.619482
threshold=55.130166666666703 3.4555555555555508 0.16666666666666655 4.196157846708263 2.007999999999996
decision_type=2 2 2 2 2
left_child=1 2 4 -3 -1
right_child=-2 3 -4 -5 -6
leaf_value=0.00036821376383563303 -0.06528750187717379 0.012112565001691966 0.0067407675120193748 0.021883038970242658 -0.0096507185121515286
leaf_count=36 20 34 32 35 27
internal_value=0 0.139771 -0.00665456 0.341372 -0.0785123
internal_count=184 164 95 69 63
shrinkage=0.05


Tree=32
num_leaves=7
num_cat=0
split_feature=5 16 28 15 28 19
split_gain=34.8472 4.86108 0.610698 0.61934 0.480584 0.25176
threshold=80.009000000000029 3.4500000000000006 0.083333333333333495 81.700000000000003 0.13333333333333355 4.294444444444439
decision_type=2 2 2 2 2 2
left_child=-1 2 3 -2 5 -3
right_child=1 4 -4 -5 -6 -7
leaf_value=-0.06144604624825574 -0.010368349946968791 0.010359129528312581 0.0049419370562057289 0.00028210446590748738 0.022778078354895117 0.017840732244605369
leaf_count=21 21 23 34 39 24 22
internal_value=0 0.139721 -0.00823562 -0.0689111 0.341284 0.280336
internal_count=184 163 94 60 69 45
shrinkage=0.05


Tree=33
num_leaves=8
num_cat=0
split_feature=21 16 15 16 10 1 16
split_gain=32.1118 4.483 0.875395 0.369109 0.238301 0.207948 0.0882558
threshold=0.83333333333333093 3.5166666666666671 78.15000000000002 4.3833333333333346 1.3150000000000002 14.523166666666677 4.1333333333333337
decision_type=2 2 2 2 2 2 2
left_child=-1 2 -2 6 5 -4 -3
right_child=1 3 4 -5 -6 -7 -8
leaf_value=-0.060596563601866361 -0.0074574735698600611 0.011472458363806998 -0.0025898188636030838 0.02142564735064904 0.0070840932995038623 0.0042097079906273979 0.016004092299512454
leaf_count=20 30 22 23 24 22 22 21
internal_value=0 0.130228 -0.0071807 0.329163 0.0563874 0.0146879 0.273712
internal_count=184 164 97 67 67 45 43
shrinkage=0.05


Tree=34
num_leaves=7
num_cat=0
split_feature=10 16 28 16 6 22
split_gain=30.1494 3.93987 0.723155 0.558842 0.52168 0.201472
threshold=0.18500000000000003 3.1666666666666674 0.083333333333333495 4.1333333333333337 70.94166666666662 4.3231255621970037
decision_type=2 2 2 2 2 2
left_child=-1 2 4 -3 -2 -5
right_child=1 3 -4 5 -6 -7
leaf_value=-0.058700950462371115 0.0011906083999201657 0.0095267919597349007 0.0043870352016871462 0.01453004198318178 -0.0092345183653136098 0.021222847230408504
leaf_count=20 20 35 34 22 30 23
internal_value=0 0.126483 -0.0247772 0.285306 -0.101289 0.359016
internal_count=184 164 84 80 50 45
shrinkage=0.05


Tree=35
num_leaves=8
num_cat=0
split_feature=1 17 28 8 19 28 20
split_gain=24.5746 2.20372 1.11599 0.626958 0.709086 0.390385 0.143425
threshold=49.371500000000033 3.9166666666666674 0.38333333333333336 -0.14999999999999855 2.3777777777777764 -0.066666666666666638 2.4916666666666685
decision_type=2 2 2 2 2 2 2
left_child=1 2 3 6 -5 -3 -1
right_child=-2 5 -4 4 -6 -7 -8
leaf_value=0.0061807363804074981 -0.053270567124709491 0.008678271124760311 0.011304440422226555 -0.012217711843550206 0.00041337350662797696 0.017507604076977698 0.00046549060017518379
leaf_count=21 20 21 23 20 25 31 23
internal_value=0 0.108715 0.0297293 -0.0210153 -0.104009 0.278838 0.0638644
internal_count=184 164 112 89 45 52 44
shrinkage=0.05


Tree=36
num_leaves=8
num_cat=0
split_feature=1 16 28 28 6 23 16
split_gain=22.1785 2.62738 0.729746 0.565864 0.718976 0.645335 0.0785769
threshold=49.371500000000033 3.5166666666666671 -0.13333333333333305 0.16666666666666655 52.939333333333373 2.5501934679127118 4.3166666666666673
decision_type=2 2 2 2 2 2 2
left_child=1 3 -3 4 -1 -6 -4
right_child=-2 2 6 -5 5 -7 -8
leaf_value=0.0058037577383220204 -0.050607038401067263 0.005420453854021616 0.014756333455443383 0.0058659341937351613 -0.012384111708961427 -0.00086412369123389657 0.019086610424247655
leaf_count=20 20 20 20 31 20 31 22
internal_value=0 0.103279 0.265626 0.00459785 -0.0446183 -0.107635 0.340491
internal_count=184 164 62 102 71 51 42
shrinkage=0.05


Tree=37
num_leaves=8
num_cat=0
split_feature=21 15 28 28 13 21 6
split_gain=20.1833 2.383 0.865592 0.460633 0.373221 0.503095 0.222002
threshold=0.83333333333333093 91.550000000000011 -0.26666666666666633 0.16666666666666655 -0.046000000000000006 3.1541666666666646 129.46149999999992
decision_type=2 2 2 2 2 2 2
left_child=-1 3 -3 4 -2 -6 -4
right_child=1 2 6 -5 5 -7 -8
leaf_value=-0.048273483673110608 0.0026741933543235064 0.0021923167142085735 0.010103025677658264 0.0055449231283827907 -0.010909909202547913 -0.00021693054798313166 0.016508815202273822
leaf_count=20 20 20 21 21 22 22 38
internal_value=0 0.0985953 0.223632 -0.0176149 -0.0597833 -0.111268 0.284576
internal_count=184 164 79 85 64 44 59
shrinkage=0.05


Tree=38
num_leaves=8
num_cat=0
split_feature=1 16 28 28 6 23 27
split_gain=19.1256 2.07691 0.608518 0.540978 0.611013 0.512527 0.0770895
threshold=49.371500000000033 3.5166666666666671 -0.13333333333333305 0.16666666666666655 52.939333333333373 2.5501934679127118 0.58333333333333326
decision_type=2 2 2 2 2 2 2
left_child=1 3 -3 4 -1 -6 -4
right_child=-2 2 6 -5 5 -7 -8
leaf_value=0.0054328225925564765 -0.046971609764732421 0.0048576502385549248 0.017596276822899069 0.0059427317276957541 -0.011119085198733955 -0.00085269806966666256 0.013312045804091864
leaf_count=20 20 20 21 31 20 31 21
internal_value=0 0.0963773 0.240719 0.00864035 -0.0394814 -0.0975746 0.309083
internal_count=184 164 62 102 71 51 42
shrinkage=0.05


Tree=39
num_leaves=8
num_cat=0
split_feature=5 16 28 1 28 23 16
split_gain=17.6244 1.76984 0.549187 0.533846 0.736757 0.357609 0.0607921
threshold=80.009000000000029 3.5166666666666671 -0.13333333333333305 14.523166666666677 0.16666666666666655 2.5897259794688972 4.3166666666666673
decision_type=2 2 2 2 2 2 2
left_child=-1 3 -3 4 5 -2 -4
right_child=1 2 6 -5 -6 -7 -8
leaf_value=-0.043882377445697784 -0.010191371804103256 0.0046147677651606506 0.012686349973082543 0.0068762184299815165 0.0053651972163396965 -0.0015006043916118558 0.016495183838362043
leaf_count=21 20 20 20 26 26 29 22
internal_value=0 0.0956869 0.228683 0.0140459 -0.02876 -0.100957 0.293629
internal_count=184 163 62 101 75 49 42
shrinkage=0.05


Tree=40
num_leaves=8
num_cat=0
split_feature=4 16 24 5 5 1 13
split_gain=15.6574 1.82215 0.626254 0.338447 0.269923 0.356082 0.140127
threshold=-4297.9999999999991 3.9166666666666674 0.58333333333333359 387.45366666666729 303.83566666666599 -50.576499999999946 -0.028500000000000022
decision_type=2 2 2 2 2 2 2
left_child=-1 2 4 -3 5 -2 -7
right_child=1 3 -4 -5 -6 6 -8
leaf_value=-0.039704553071748132 -0.0068584533592608455 0.0094184871872558321 0.0093647013485315261 0.017377488856965845 0.004630527263507247 0.0038051862083375455 -0.0019775024451188406
leaf_count=22 24 34 20 22 20 20 22
internal_value=0 0.104992 0.0279057 0.250905 -0.00916132 -0.0400013 0.0155232
internal_count=184 162 106 56 86 66 42
shrinkage=0.05


Tree=41
num_leaves=7
num_cat=0
split_feature=27 16 25 9 22 2
split_gain=14.1469 1.7012 0.423686 0.223896 0.185027 0.247306
threshold=-1.8999999999999995 3.9166666666666674 0.91666666666666696 1.0000000180025095e-35 2.1565111494291469 91.170833333333306
decision_type=2 2 2 2 2 2
left_child=-1 2 4 -3 -2 -6
right_child=1 3 -4 -5 5 -7
leaf_value=-0.038744707228172394 -0.0032610349220168946 0.015314016835047649 0.0075289335788034989 0.0089747404213994745 -0.0027070162174779745 0.0043204501973495135
leaf_count=21 34 26 21 30 21 31
internal_value=0 0.0971443 0.0232372 0.23836 -0.00785781 0.0296487
internal_count=184 163 107 56 86 52
shrinkage=0.05


Tree=42
num_leaves=7
num_cat=0
split_feature=4 15 28 0 24 5
split_gain=13.0242 1.26308 0.574104 0.403204 0.407122 0.306845
threshold=-4297.9999999999991 91.100000000000009 -0.18333333333333332 1.5067000000000024 -0.16666666666666682 357.5891666666667
decision_type=2 2 2 2 2 2
left_child=-1 3 -3 -2 -5 -4
right_child=1 2 5 4 -6 -7
leaf_value=-0.03621109565719962 0.0067951580323278903 0.0026013407020152295 0.0093351468211039911 -0.0058720458515121475 0.002119098209801155 0.017098722364753485
leaf_count=22 20 22 35 28 37 20
internal_value=0 0.0957811 0.188554 0.0117394 -0.0264648 0.243165
internal_count=184 162 77 85 65 55
shrinkage=0.05


Tree=43
num_leaves=7
num_cat=0
split_feature=20 16 28 0 16 10
split_gain=11.7739 1.45744 0.369618 0.31426 0.325054 0.195717
threshold=0.9250000000000026 3.5166666666666671 0.13333333333333355 1.8006000000000031 2.2166666666666672 1.7050000000000003
decision_type=2 2 2 2 2 2
left_child=-1 3 5 -2 -5 -3
right_child=1 2 -4 4 -6 -7
leaf_value=-0.036325821112841369 0.0041442761738675052 0.0037960140457884831 0.014851077242443958 -0.0065461187886641089 0.00098495942871331386 0.010392543276690919
leaf_count=20 34 22 24 23 38 23
internal_value=0 0.0861878 0.196802 0.00584697 -0.0370925 0.143351
internal_count=184 164 69 95 61 45
shrinkage=0.05


Tree=44
num_leaves=7
num_cat=0
split_feature=27 16 5 2 28 5
split_gain=11.1459 1.2124 0.349972 0.304134 0.233141 0.173375
threshold=-1.8999999999999995 3.5166666666666671 387.45366666666729 135.501 -1.0000000180025095e-35 256.66150000000022
decision_type=2 2 2 2 2 2
left_child=-1 3 4 5 -3 -2
right_child=1 2 -4 -5 -6 -7
leaf_value=-0.034386943262957395 -0.0037960262526111261 0.0031578689305619759 0.014552839989350599 0.0040729807138344962 0.010215309157967568 0.0020101684419205411
leaf_count=21 36 22 22 38 25 20
internal_value=0 0.0862991 0.186962 0.0124084 0.138237 -0.0344477
internal_count=184 163 69 94 47 56
shrinkage=0.05


Tree=45
num_leaves=7
num_cat=0
split_feature=27 16 2 26 5 28
split_gain=15.6432 0.838619 0.281519 0.360193 0.586579 0.134331
threshold=-1.8999999999999995 3.9166666666666674 58.952666666666694 0.21666666666666681 238.31933333333384 0.13333333333333355
decision_type=2 2 2 2 2 2
left_child=-1 2 -2 4 -4 -3
right_child=1 5 3 -5 -6 -7
leaf_value=-0.041645749268077674 -0.0026421349362603258 0.0073100623657052048 -0.0044241614884902867 0.0089967184839770207 0.0054904911334493333 0.01242556878853412
leaf_count=21 28 33 26 20 35 21
internal_value=0 0.0840813 0.0335952 0.0634749 0.0252915 0.185989
internal_count=184 163 109 81 61 54
shrinkage=0.05


Tree=46
num_leaves=6
num_cat=0
split_feature=20 15 8 13 8
split_gain=14.4487 0.95249 0.402375 0.387799 0.15148
threshold=0.80000000000000238 88.250000000000014 -0.19999999999999926 0.041000000000000016 0.35000000000000148
decision_type=2 2 2 2 2
left_child=-1 3 -3 -2 -4
right_child=1 2 4 -5 -6
leaf_value=-0.040012795886113534 0.0031138885290628035 0.0028735646978020669 0.011606067872459167 -0.0045016672866950106 0.0065321235141406466
leaf_count=21 35 34 38 32 24
internal_value=0 0.081035 0.144896 -0.0104678 0.192839
internal_count=184 163 96 67 62
shrinkage=0.05


Tree=47
num_leaves=7
num_cat=0
split_feature=27 0 2 22 19 26
split_gain=13.2036 0.694607 0.367752 0.195041 0.178289 0.123702
threshold=-1.8999999999999995 3.1887999999999939 132.80883333333352 1.9299659668562497 4.3055555555555536 0.21666666666666681
decision_type=2 2 2 2 2 2
left_child=-1 2 3 -2 5 -3
right_child=1 4 -4 -5 -6 -7
leaf_value=-0.038244189702284832 -0.0056154256503214133 0.0027482330703853886 0.0052054373857875671 0.00057421134036433484 0.01066699154325761 0.0076843841156611845
leaf_count=21 20 22 30 35 26 30
internal_value=0 0.0775812 0.0150475 -0.0335313 0.145727 0.11192
internal_count=184 163 85 55 78 52
shrinkage=0.05


Tree=48
num_leaves=7
num_cat=0
split_feature=21 15 0 8 5 13
split_gain=12.6602 1.02648 0.453112 0.241159 0.139548 0.132357
threshold=0.83333333333333093 88.250000000000014 1.9205499999999989 -0.19999999999999926 212.32566666666665 0.057500000000000016
decision_type=2 2 2 2 2 2
left_child=-1 2 -2 -3 -4 -5
right_child=1 3 4 5 -6 -7
leaf_value=-0.037421823479235172 0.0047035412344319585 0.0036787330306002073 -0.0070363696897402413 0.01072152554131064 -0.0012721885644298579 0.0060918078560811967
leaf_count=21 22 35 21 38 21 26
internal_value=0 0.0765103 -0.0221881 0.140315 -0.0830856 0.176814
internal_count=184 163 64 99 42 64
shrinkage=0.05


Tree=49
num_leaves=7
num_cat=0
split_feature=5 15 13 2 10 2
split_gain=11.5914 0.770065 0.304671 0.21422 0.289937 0.138824
threshold=108.98849999999949 88.250000000000014 0.041000000000000016 113.32600000000004 1.3450000000000004 85.463500000000138
decision_type=2 2 2 2 2 2
left_child=-1 2 -2 4 -3 -6
right_child=1 3 -4 -5 5 -7
leaf_value=-0.035801396323811442 0.0029001311146809412 0.00071576515642496254 -0.0041135481857509154 0.010171331858469381 0.010320612912376723 0.0049002102923286321
leaf_count=21 30 26 32 27 21 27
internal_value=0 0.0733306 -0.0143966 0.127183 0.0993644 0.145433
internal_count=184 163 62 101 74 48
shrinkage=0.05


Tree=50
num_leaves=7
num_cat=0
split_feature=9 28 1 18 6 28
split_gain=15.3121 0.613996 0.293656 0.257913 0.206273 0.131102
threshold=-0.35000000000000137 0.083333333333333495 -27.439833333333329 3.1166666666666671 145.57899999999998 -0.13333333333333305
decision_type=2 2 2 2 2 2
left_child=-1 2 3 -2 -3 -5
right_child=1 4 -4 5 -6 -7
leaf_value=-0.041244928017258646 -0.0038722062882568156 0.0065716375057634563 0.0064229773977250958 0.00019895109530214383 0.012351303246731941 0.0055978493648581214
leaf_count=20 21 38 34 23 26 22
internal_value=0 0.101908 0.0529587 0.0140643 0.178393 0.0567682
internal_count=184 164 100 66 64 45
shrinkage=0.05


Tree=51
num_leaves=8
num_cat=0
split_feature=5 28 15 1 10 0 12
split_gain=14.0047 0.467861 0.554765 0.295995 0.367271 0.0764579 0.0312757
threshold=53.156500000000058 0.46666666666666679 81.700000000000003 16.993500000000022 1.1000000000000003 3.555300000000003 0.42950000000000005
decision_type=2 2 2 2 2 2 2
left_child=-1 2 -2 4 -4 -6 -7
right_child=1 -3 3 -5 5 6 -8
leaf_value=-0.039445197619497774 -0.002755415190821859 0.010758352678801333 -0.001792201800604484 0.010583994364632029 0.0036648117852074885 0.0084785830673007739 0.0057158391701523223
leaf_count=20 27 28 21 21 26 21 20
internal_value=0 0.0974533 0.0732182 0.105005 0.0795491 0.115717 0.142618
internal_count=184 164 136 109 88 67 41
shrinkage=0.05


Tree=52
num_leaves=7
num_cat=0
split_feature=9 28 3 22 28 8
split_gain=13.0658 0.522497 0.316789 0.482185 0.249384 0.0627394
threshold=-0.35000000000000137 0.46666666666666679 2719.0000000000005 2.1565111494291469 -0.19999999999999982 0.35000000000000148
decision_type=2 2 2 2 2 2
left_child=-1 2 -2 -4 -5 -6
right_child=1 -3 3 4 5 -7
leaf_value=-0.03810088563943282 0.0073813633123386863 0.010670219051341218 -0.0050294366478919987 -0.0011418174771824852 0.006525954824112553 0.0030661823979221481
leaf_count=20 36 30 20 20 38 20
internal_value=0 0.0941123 0.0674051 0.0379357 0.0734548 0.106659
internal_count=184 164 134 98 78 58
shrinkage=0.05


Tree=53
num_leaves=8
num_cat=0
split_feature=1 16 16 28 0 11 5
split_gain=12.0746 0.989625 0.612111 0.434545 0.220787 0.0706898 0.0515952
threshold=55.130166666666703 1.2500000000000002 2.5666666666666673 0.21666666666666681 3.1887999999999939 0.69450000000000067 216.29883333333331
decision_type=2 2 2 2 2 2 2
left_child=1 -1 6 4 -4 -6 -3
right_child=-2 2 3 -5 5 -7 -8
leaf_value=0.014944981057196854 -0.036627854742109778 -0.00020291823286401191 -0.00065071741168503652 0.010395137843643798 0.0071469799696427319 0.0032268587530226165 -0.0036308129218273928
leaf_count=20 20 23 25 29 23 23 21
internal_value=0 0.0904603 0.0615104 0.104758 0.0626283 0.103738 -0.0367792
internal_count=184 164 144 100 71 46 44
shrinkage=0.05


Tree=54
num_leaves=8
num_cat=0
split_feature=9 28 0 18 2 0 16
split_gain=11.1725 0.448031 0.328641 0.374369 0.155701 0.126645 0.0659088
threshold=-0.35000000000000137 0.083333333333333495 1.7256999999999965 2.8333333333333339 113.32600000000004 3.555300000000003 3.3833333333333337
decision_type=2 2 2 2 2 2 2
left_child=-1 2 -2 -4 6 -5 -3
right_child=1 4 3 5 -6 -7 -8
leaf_value=-0.035233617778867486 0.0073602047195890918 0.0036769939353689554 -0.0050304461161084918 -1.292238442186752e-05 0.01080072857439518 0.0048512289082282226 0.0077362049277871856
leaf_count=20 24 20 21 23 24 32 20
internal_value=0 0.0870036 0.0451895 0.0129744 0.152338 0.0563426 0.114132
internal_count=184 164 100 76 64 55 40
shrinkage=0.05


Tree=55
num_leaves=7
num_cat=0
split_feature=5 15 13 28 11 25
split_gain=8.30229 0.5206 0.309282 0.159985 0.107909 0.0601085
threshold=80.009000000000029 88.250000000000014 0.041000000000000016 0.21666666666666681 -0.14799999999999966 -0.099999999999999964
decision_type=2 2 2 2 2 2
left_child=-1 2 -2 4 -3 -6
right_child=1 3 -4 -5 5 -7
leaf_value=-0.031211335901170967 0.0023663746193051342 0.0012045549622808514 -0.0049253428137700003 0.0081824053753295854 0.0068414791227461623 0.0033714708920645842
leaf_count=20 33 26 26 29 26 24
internal_value=0 0.0582236 -0.0169385 0.100458 0.0763453 0.103518
internal_count=184 164 59 105 76 50
shrinkage=0.05


Tree=56
num_leaves=8
num_cat=0
split_feature=21 22 14 21 5 28 0
split_gain=7.78622 0.422924 0.57901 0.361808 0.380591 0.165013 0.0611257
threshold=0.83333333333333093 2.1565111494291469 -0.63693999999999995 2.9833333333333321 387.45366666666729 -0.29999999999999993 3.1887999999999939
decision_type=2 2 2 2 2 2 2
left_child=-1 2 -2 -3 5 -5 -7
right_child=1 3 -4 4 -6 6 -8
leaf_value=-0.030211026887409387 0.0049239116301760082 0.0095917487033427909 -0.0065951901517109952 -0.0025614189661361956 0.008213072163052856 0.00059028875984949995 0.0042372735777731849
leaf_count=20 20 26 24 22 25 20 27
internal_value=0 0.0566789 -0.0271847 0.0874289 0.0585506 0.0202495 0.0537073
internal_count=184 164 44 120 94 69 47
shrinkage=0.05


Tree=57
num_leaves=7
num_cat=0
split_feature=1 28 3 18 10 19
split_gain=7.36252 0.383948 0.385614 0.484028 0.244531 0.0771073
threshold=43.386666666666663 0.46666666666666679 2719.0000000000005 2.3166666666666669 1.405 4.3055555555555536
decision_type=2 2 2 2 2 2
left_child=1 2 -1 -4 -5 -6
right_child=-2 -3 3 4 5 -7
leaf_value=0.006546038391834666 -0.02936055401340127 0.0079925227035158152 -0.0067980840732343494 -0.0024085517085040923 0.0022478273639885281 0.0060057811630291067
leaf_count=31 20 29 20 24 39 21
internal_value=0 0.0554549 0.0330292 0.00384995 0.0371384 0.0712622
internal_count=184 164 135 104 84 60
shrinkage=0.05


Tree=58
num_leaves=7
num_cat=0
split_feature=21 15 10 22 5 14
split_gain=6.71312 0.410965 0.393401 0.173688 0.265943 0.164121
threshold=0.83333333333333093 88.250000000000014 0.80000000000000016 3.0541372899314569 387.45366666666729 0.072420000000000012
decision_type=2 2 2 2 2 2
left_child=-1 2 -2 -3 5 -5
right_child=1 3 -4 4 -6 -7
leaf_value=-0.028032298441976314 0.0046768688358662823 0.0078382906367488459 -0.0037246940548548561 -0.0023320728261023763 0.0074923222586512576 0.0035153096836681172
leaf_count=20 22 29 38 20 25 30
internal_value=0 0.0530231 -0.0128824 0.0910454 0.0656336 0.0235271
internal_count=184 164 60 104 75 50
shrinkage=0.05


Tree=59
num_leaves=7
num_cat=0
split_feature=1 28 3 16 7 10
split_gain=6.3449 0.373055 0.345705 0.563641 0.305242 0.0816892
threshold=43.386666666666663 0.46666666666666679 5851.0000000000009 2.7333333333333338 71.437500000000014 1.4750000000000003
decision_type=2 2 2 2 2 2
left_child=1 2 4 -4 -1 -5
right_child=-2 -3 3 5 -6 -7
leaf_value=0.0096696437685750425 -0.027237476729787886 0.0077377974264452171 -0.0060405319556593902 -9.7220244986767124e-06 0.0013823331836611032 0.0038007039767809407
leaf_count=20 20 29 29 22 25 39
internal_value=0 0.0518519 0.0297466 -0.00603597 0.101312 0.048529
internal_count=184 164 135 90 45 61
shrinkage=0.05


Tree=60
num_leaves=8
num_cat=0
split_feature=22 0 22 5 7 24 14
split_gain=5.18916 1.03003 0.836158 0.170084 0.174478 0.13558 0.0667267
threshold=1.2243666093566106 0.48154999999999865 1.9959993089485506 235.04133333333314 150.20400000000009 -0.083333333333333467 1.0000000180025095e-35
decision_type=2 2 2 2 2 2 2
left_child=-1 -2 -3 -4 6 -6 -5
right_child=1 2 3 4 5 -7 -8
leaf_value=-0.023596462933346631 0.014012920102104545 -0.006408991726115346 0.00016062306283317783 0.0089935451844939968 -0.00035749755651605402 0.0051328433070169845 0.0051831345177359052
leaf_count=20 20 25 27 20 22 23 27
internal_value=0 0.0676069 0.0380719 0.0729988 0.0934796 0.0489735 0.136092
internal_count=184 164 144 119 92 45 47
shrinkage=0.05


Tree=61
num_leaves=8
num_cat=0
split_feature=21 6 22 28 28 2 0
split_gain=4.71999 0.971904 0.772075 0.186089 0.0893983 0.1239 0.122905
threshold=0.94166666666666432 38.904166666666477 2.1565111494291469 -0.28333333333333316 0.21666666666666681 126.77600000000008 3.555300000000003
decision_type=2 2 2 2 2 2 2
left_child=-1 -2 -3 -4 5 6 -5
right_child=1 2 3 4 -6 -7 -8
leaf_value=-0.021885148755141668 0.013339816441848167 -0.0059721669815749369 -0.00016513316608884803 -0.00053078177595688471 0.0074076735372231766 0.0069337847770103034 0.004612104788136024
leaf_count=21 21 26 26 21 22 21 26
internal_value=0 0.0660016 0.0363066 0.0712161 0.0927437 0.074817 0.0462844
internal_count=184 163 142 116 90 68 47
shrinkage=0.05


Tree=62
num_leaves=7
num_cat=0
split_feature=15 16 15 4 10 12
split_gain=4.511 0.743857 0.253162 0.166824 0.280559 0.0949866
threshold=71.550000000000011 1.7333333333333336 91.550000000000011 4732.0000000000009 1.4900000000000002 0.061999999999999396
decision_type=2 2 2 2 2 2
left_child=-1 -2 5 4 -4 -3
right_child=1 2 3 -5 -6 -7
leaf_value=-0.018074700344420439 0.012475219153843467 -0.0021098094736225906 -0.0015959477538920264 0.0081481277570128446 0.0055709931624328933 0.0019780510114893938
leaf_count=28 21 30 22 20 36 27
internal_value=0 0.0744231 0.0471882 0.084207 0.05705 -0.00346909
internal_count=184 156 135 78 58 57
shrinkage=0.05


Tree=63
num_leaves=7
num_cat=0
split_feature=1 6 6 28 10 27
split_gain=4.19233 0.903472 0.527713 0.431141 0.279885 0.06129
threshold=49.371500000000033 38.904166666666477 100.72116666666689 0.46666666666666679 1.4750000000000003 0.31666666666666693
decision_type=2 2 2 2 2 2
left_child=1 -1 -3 4 -4 -6
right_child=-2 2 3 -5 5 -7
leaf_value=0.012703992634834278 -0.021227867938578129 -0.0033624086052907679 -0.0015281621011880428 0.010055278709623965 0.0062061711386575003 0.0026628362749201752
leaf_count=21 20 39 35 20 23 26
internal_value=0 0.0603958 0.0319527 0.069153 0.0377357 0.0865207
internal_count=184 164 143 104 84 49
shrinkage=0.05


Tree=64
num_leaves=7
num_cat=0
split_feature=21 6 22 2 10 6
split_gain=3.99538 0.816954 0.622544 0.146878 0.197515 0.0621407
threshold=0.94166666666666432 38.904166666666477 2.1565111494291469 122.01700000000007 1.405 149.95649999999992
decision_type=2 2 2 2 2 2
left_child=-1 -2 -3 4 -4 -6
right_child=1 2 3 -5 5 -7
leaf_value=-0.02016198602283285 0.012214239983863775 -0.0053445463507159731 -0.0017447996380118031 0.0059786811680490196 0.0024155569816955266 0.0058209055945986797
leaf_count=21 21 26 24 34 37 21
internal_value=0 0.0601909 0.0329657 0.0643129 0.0413999 0.0729706
internal_count=184 163 142 116 82 58
shrinkage=0.05


Tree=65
num_leaves=8
num_cat=0
split_feature=3 23 5 28 28 13 27
split_gain=6.26459 0.562919 0.400714 0.331833 0.114059 0.0869354 0.0751787
threshold=-18782.999999999996 1.5174712186235932 210.82199999999969 0.083333333333333495 -0.29999999999999993 0.034500000000000024 0.31666666666666693
decision_type=2 2 2 2 2 2 2
left_child=-1 -2 -3 4 -4 -5 -6
right_child=1 2 3 5 6 -7 -8
leaf_value=-0.026472658026032148 0.010610274432904342 -0.0043606634939178119 -0.0017175089096781448 0.0089112817997201565 0.0040860200033057481 0.0044616810440936171 0.00028648219962158929
leaf_count=20 22 21 24 21 30 23 23
internal_value=0 0.0633606 0.0403002 0.0624306 0.022844 0.131707 0.0487433
internal_count=184 164 142 121 77 44 53
shrinkage=0.05


Tree=66
num_leaves=8
num_cat=0
split_feature=3 23 5 28 15 13 13
split_gain=5.65379 0.508034 0.361644 0.299479 0.108058 0.107444 0.0784592
threshold=-18782.999999999996 1.5174712186235932 210.82199999999969 0.083333333333333495 86.050000000000011 0.023500000000000024 0.034500000000000024
decision_type=2 2 2 2 2 2 2
left_child=-1 -2 -3 4 -4 -6 -5
right_child=1 2 3 6 5 -7 -8
leaf_value=-0.025149024907732381 0.010079760417680848 -0.0041426305016059248 -0.0020770072416053157 0.0084657177794724703 -0.00035091609073181952 0.0040458828358995646 0.0042385969999367782
leaf_count=20 22 21 20 21 24 33 23
internal_value=0 0.0601926 0.0382852 0.0593091 0.0217018 0.043892 0.125122
internal_count=184 164 142 121 77 57 44
shrinkage=0.05


Tree=67
num_leaves=7
num_cat=0
split_feature=18 1 28 21 7 28
split_gain=5.17015 0.47289 0.350407 0.194576 0.0691155 0.130145
threshold=0.53333333333333344 20.866333333333348 0.46666666666666679 2.8069444444444422 106.42433333333339 -0.13333333333333305
decision_type=2 2 2 2 2 2
left_child=-1 2 3 -2 -5 -6
right_child=1 -3 -4 4 5 -7
leaf_value=-0.024048995282500985 -0.002703285444482801 0.010082692424766719 0.007012100443588915 0.0034731489068900163 -0.0021788464488715609 0.0030940742800012232
leaf_count=20 31 20 27 39 22 25
internal_value=0 0.0575669 0.0375548 0.0138578 0.0383419 0.012518
internal_count=184 164 144 117 86 47
shrinkage=0.05


Tree=68
num_leaves=8
num_cat=0
split_feature=3 23 28 15 10 28 1
split_gain=4.79172 0.506848 0.289327 0.140331 0.0962576 0.0789715 0.0425454
threshold=-18782.999999999996 1.5174712186235932 -0.29999999999999993 84.800000000000026 1.7850000000000004 0.19999999999999987 -85.838000000000008
decision_type=2 2 2 2 2 2 2
left_child=-1 -2 -3 -4 5 6 -5
right_child=1 2 3 4 -6 -7 -8
leaf_value=-0.023151527382433416 0.0098334945907646975 -0.0025931876081871923 -0.00092194919270696121 0.0019489909035407685 0.001132496107759205 0.0071687122245996512 0.0050953580421351256
leaf_count=20 22 31 20 22 26 22 21
internal_value=0 0.0554324 0.0335506 0.057405 0.074074 0.0946437 0.0697118
internal_count=184 164 142 111 91 65 43
shrinkage=0.05


Tree=69
num_leaves=6
num_cat=0
split_feature=20 0 5 28 7
split_gain=4.4285 0.571057 0.291109 0.17726 0.0949136
threshold=0.63333333333333608 0.80490000000000361 220.95850000000021 0.083333333333333495 130.51216666666679
decision_type=2 2 2 2 2
left_child=-1 -2 -3 4 -4
right_child=1 2 3 -5 -6
leaf_value=-0.022256242027506232 0.010160873273641548 -0.002610734710822616 0.0032506517473393616 0.0054506896015925291 -0.00044521660280511964
leaf_count=20 22 33 32 39 38
internal_value=0 0.0533005 0.030074 0.0549871 0.0248865
internal_count=184 164 142 109 70
shrinkage=0.05


Tree=70
num_leaves=7
num_cat=0
split_feature=21 6 15 2 24 13
split_gain=3.42068 0.769886 0.317115 0.118462 0.126766 0.0923421
threshold=0.94166666666666432 16.621166666666799 82.550000000000026 122.01700000000007 0.15000000000000022 0.061000000000000033
decision_type=2 2 2 2 2 2
left_child=-1 -2 -3 4 5 -4
right_child=1 2 3 -5 -6 -7
leaf_value=-0.01827076187526638 0.011925660240813159 -0.0032165820414304797 -0.00215153462998569 0.0052202390445017961 0.0038946831830045472 0.002345945191613975
leaf_count=22 20 29 25 32 35 21
internal_value=0 0.0548235 0.0289517 0.0528917 0.0325408 -0.00196675
internal_count=184 162 142 113 81 46
shrinkage=0.05


Tree=71
num_leaves=8
num_cat=0
split_feature=5 6 1 22 28 0 9
split_gain=3.32867 0.416836 0.377694 0.247981 0.121825 0.063869 0.0522258
threshold=80.009000000000029 229.00299999999996 -9.6058333333332993 1.9299659668562497 -0.28333333333333316 3.9923499999999952 1.0000000180025095e-35
decision_type=2 2 2 2 2 2 2
left_child=-1 2 3 -2 -5 6 -6
right_child=1 -3 -4 4 5 -7 -8
leaf_value=-0.019040210423991084 -0.0048885616040206517 0.0091438542275379103 0.0061138158564322765 -0.0021510241221403704 0.0051590968706560414 0.00027855492196977139 0.0016731109841549325
leaf_count=20 20 21 35 20 22 25 21
internal_value=0 0.0513186 0.0319988 0.00274215 0.0255861 0.0457645 0.0691328
internal_count=184 164 143 108 88 68 43
shrinkage=0.05


Tree=72
num_leaves=8
num_cat=0
split_feature=8 28 1 25 16 24 26
split_gain=3.06919 0.483579 0.17029 0.326302 0.133071 0.0713397 0.0516437
threshold=-0.74999999999999989 0.63333333333333341 -26.464833333333335 -0.18333333333333332 1.916666666666667 -0.23333333333333325 0.20000000000000009
decision_type=2 2 2 2 2 2 2
left_child=-1 2 4 -4 -2 -6 -7
right_child=1 -3 3 -5 5 6 -8
leaf_value=-0.018285279185511174 -0.0033667676382174252 0.0097469732351601127 0.0081706447045966669 -0.00025165915443642957 -0.0012077467404940929 0.0041896893444936722 0.0010208046131689721
leaf_count=20 20 20 23 23 22 20 36
internal_value=0 0.0492333 0.0289963 0.0791899 0.00543612 0.0240955 0.043051
internal_count=184 164 144 46 98 78 56
shrinkage=0.05


Tree=73
num_leaves=8
num_cat=0
split_feature=21 6 15 28 8 27 12
split_gain=2.88497 0.825006 0.261282 0.088877 0.0601436 0.0568713 0.030502
threshold=0.94166666666666432 16.621166666666799 82.550000000000026 0.083333333333333495 -1.0000000180025095e-35 0.38333333333333358 0.49800000000000028
decision_type=2 2 2 2 2 2 2
left_child=-1 -2 -3 4 -4 -5 -6
right_child=1 2 3 5 6 -7 -8
leaf_value=-0.016793167201632802 0.012011024495586754 -0.0030693649928284217 -0.0012355294015287655 0.0056037056526596039 0.00078667291242669787 0.0021615872227509197 0.0033908178667347369
leaf_count=22 20 29 20 24 23 24 22
internal_value=0 0.0500687 0.0232868 0.0450173 0.0209172 0.0776529 0.0411962
internal_count=184 162 142 113 65 48 45
shrinkage=0.05


Tree=74
num_leaves=7
num_cat=0
split_feature=5 6 1 16 24 0
split_gain=2.79541 0.388121 0.320926 0.178097 0.0893046 0.0518606
threshold=80.009000000000029 229.00299999999996 -9.6058333333332993 2.0833333333333339 -0.16666666666666682 3.8295999999999997
decision_type=2 2 2 2 2 2
left_child=-1 2 3 -2 -5 -6
right_child=1 -3 -4 4 5 -7
leaf_value=-0.0174613814507029 -0.0040746758093259169 0.0086859117932839413 0.0055673217986311231 -0.0012098910792827094 0.0034003506600856787 0.00034398953987123528
leaf_count=20 21 21 35 29 35 23
internal_value=0 0.0467719 0.0281294 0.00116093 0.021112 0.0437669
internal_count=184 164 143 108 87 58
shrinkage=0.05


Tree=75
num_leaves=7
num_cat=0
split_feature=13 19 6 4 13 2
split_gain=2.27099 0.783127 0.236197 0.0826226 0.113346 0.0987463
threshold=-0.076999999999999999 1.249999999999994 100.72116666666689 1696.5000000000002 0.057500000000000016 119.30266666666684
decision_type=2 2 2 2 2 2
left_child=-1 -2 -3 -4 5 -5
right_child=1 2 3 4 -6 -7
leaf_value=-0.013266748089895206 0.011673950785771013 -0.0022086276616065359 -0.00047501642256975174 0.0025802449579549087 0.0010684756427912767 0.0074345696880482141
leaf_count=27 20 39 20 22 36 20
internal_value=0 0.0486324 0.0216475 0.0478411 0.0625441 0.0978366
internal_count=184 157 137 98 78 42
shrinkage=0.05


Tree=76
num_leaves=7
num_cat=0
split_feature=9 23 22 8 5 1
split_gain=2.22479 0.841964 0.217701 0.134287 0.10503 0.0996004
threshold=-0.24999999999999997 1.5174712186235932 2.1565111494291469 -0.19999999999999926 323.69266666666732 -27.010166666666652
decision_type=2 2 2 2 2 2
left_child=-1 -2 -3 -4 5 -5
right_child=1 2 3 4 -6 -7
leaf_value=-0.014797747601749673 0.010791310458444059 -0.0031234914980207882 -0.0015213301235635301 -0.00097324659070000062 0.0050229005841538315 0.0033687490620650353
leaf_count=22 24 30 25 25 30 28
internal_value=0 0.0429548 0.0128903 0.0338236 0.0531761 0.0264128
internal_count=184 162 138 108 83 53
shrinkage=0.05


Tree=77
num_leaves=7
num_cat=0
split_feature=9 23 5 2 7 27
split_gain=2.00787 0.759872 0.199257 0.10968 0.0783273 0.0496487
threshold=-0.24999999999999997 1.5174712186235932 203.84783333333419 33.46100000000002 233.50133333333329 0.38333333333333358
decision_type=2 2 2 2 2 2
left_child=-1 -2 -3 -4 5 -5
right_child=1 2 3 4 -6 -7
leaf_value=-0.014057860920332711 0.010251744952984155 -0.0035285059576078007 -0.0018782226624898613 0.0042923135332162739 -0.00013475168648605736 0.0015713305693740645
leaf_count=22 24 24 20 38 26 30
internal_value=0 0.0408071 0.0122458 0.0296807 0.0439881 0.0618376
internal_count=184 162 138 114 94 68
shrinkage=0.05


Tree=78
num_leaves=8
num_cat=0
split_feature=15 16 4 10 27 20 7
split_gain=1.90423 0.405756 0.120764 0.180677 0.0891667 0.0322037 0.0270584
threshold=68.800000000000026 1.7333333333333336 6010.0000000000009 1.405 0.31666666666666693 2.6388888888888906 111.53400000000001
decision_type=2 2 2 2 2 2 2
left_child=-1 -2 3 5 -5 -3 -6
right_child=1 2 -4 4 6 -7 -8
leaf_value=-0.013347875456447188 0.0083416771736334674 -0.0035619066488421103 0.004343462275827061 0.0038524943558513772 -0.00098193455341970552 -0.00078972720075398684 0.0015591533219611103
leaf_count=23 22 22 23 32 20 20 22
internal_value=0 0.0406463 0.0206742 0.00754931 0.0372818 -0.0448364 0.00698223
internal_count=184 161 139 116 74 42 42
shrinkage=0.05


Tree=79
num_leaves=7
num_cat=0
split_feature=13 16 5 12 6 13
split_gain=1.8095 0.683713 0.199114 0.139617 0.172257 0.0611621
threshold=-0.076999999999999999 1.2500000000000002 323.69266666666732 1.1305000000000007 100.72116666666689 0.064500000000000016
decision_type=2 2 2 2 2 2
left_child=-1 -2 3 4 -3 -4
right_child=1 2 5 -5 -6 -7
leaf_value=-0.0118523217599701 0.01079632867127657 -0.0049944236376322816 0.0055101140105927532 0.0023668498545885088 0.00037815875194438205 0.0018225283098771521
leaf_count=27 20 25 22 30 37 23
internal_value=0 0.0432107 0.0179967 -0.00866592 -0.0357641 0.072507
internal_count=184 157 137 92 62 45
shrinkage=0.05


Tree=80
num_leaves=8
num_cat=0
split_feature=5 13 6 4 0 26 28
split_gain=2.2461 0.458984 0.288046 0.134721 0.0705936 0.0384451 0.037557
threshold=80.009000000000029 -0.044000000000000004 100.72116666666689 5531.5000000000009 2.1929500000000037 1.0166666666666668 -0.05000000000000026
decision_type=2 2 2 2 2 2 2
left_child=-1 -2 4 5 -3 6 -4
right_child=1 2 3 -5 -6 -7 -8
leaf_value=-0.016077362475916745 0.0068431868245277336 -0.0011116730049252511 1.4824371430135908e-06 0.0047658621084078088 -0.0053126741084270181 -0.0011524762847416458 0.0030289718123094646
leaf_count=20 34 20 21 28 20 21 20
internal_value=0 0.0334188 0.00636396 0.037745 -0.0642435 0.0117447 0.0295661
internal_count=184 164 130 90 40 62 41
shrinkage=0.05


Tree=81
num_leaves=7
num_cat=0
split_feature=8 0 2 19 26 28
split_gain=2.18177 0.458548 0.276765 0.209282 0.0801451 0.0345011
threshold=-0.85000000000000131 0.80490000000000361 132.80883333333352 2.3777777777777764 -0.2833333333333336 -1.0000000180025095e-35
decision_type=2 2 2 2 2 2
left_child=-1 -2 3 -3 -5 -6
right_child=1 2 -4 4 5 -7
leaf_value=-0.01583624569931999 0.0083729875104671166 -0.0051780592650175102 0.0042671584398608266 -0.0017683037897638445 -7.5593446048774894e-05 0.0025020261541666353
leaf_count=20 22 21 38 28 21 34
internal_value=0 0.0331204 0.0123073 -0.0143789 0.00818528 0.0303569
internal_count=184 164 142 104 83 55
shrinkage=0.05


Tree=82
num_leaves=7
num_cat=0
split_feature=1 0 0 22 10 5
split_gain=2.11088 0.8425 0.228322 0.110908 0.092091 0.0405706
threshold=49.371500000000033 0.80490000000000361 4.4623999999999961 1.9959993089485506 1.4750000000000003 244.92916666666636
decision_type=2 2 2 2 2 2
left_child=1 -1 3 -3 -5 -6
right_child=-2 2 -4 4 5 -7
leaf_value=0.0098032364552771614 -0.014765516871755775 -0.0041078651286873295 0.0040592039020025525 -0.0023410233044220755 -0.00053880676489577374 0.0022504357955767775
leaf_count=27 22 22 29 30 22 32
internal_value=0 0.03481 0.00255902 -0.0189516 -0.00239774 0.0222816
internal_count=184 162 135 106 84 54
shrinkage=0.05


Tree=83
num_leaves=7
num_cat=0
split_feature=5 1 0 22 24 14
split_gain=1.93404 0.491335 0.189952 0.168883 0.0674773 0.0305757
threshold=80.009000000000029 14.523166666666677 4.4623999999999961 1.8463396249833119 -0.23333333333333325 0.04957000000000001
decision_type=2 2 2 2 2 2
left_child=-1 2 3 -2 -5 -6
right_child=1 -3 -4 4 5 -7
leaf_value=-0.0149005357734859 -0.0046231964730064972 0.0072374252039158057 0.0039066331527595017 -0.0014957035207771698 0.0029575427609961481 0.00045000642327772036
leaf_count=20 22 31 28 32 20 31
internal_value=0 0.0313749 0.00494947 -0.0145661 0.00608158 0.0286671
internal_count=184 164 133 105 83 51
shrinkage=0.05


Tree=84
num_leaves=7
num_cat=0
split_feature=8 0 0 22 21 10
split_gain=1.87024 0.417624 0.139928 0.131269 0.0927152 0.0701995
threshold=-0.85000000000000131 0.80490000000000361 4.4623999999999961 1.9959993089485506 3.1541666666666646 1.4900000000000002
decision_type=2 2 2 2 2 2
left_child=-1 -2 3 -3 -5 -6
right_child=1 2 -4 4 5 -7
leaf_value=-0.014645318873226643 0.007960273198444735 -0.003704165847210044 0.0036551692298260226 0.0025723686551726941 -0.0030545667040860281 0.00065881206383762349
leaf_count=20 22 22 29 36 20 35
internal_value=0 0.0310008 0.0111381 -0.00476448 0.0119939 -0.0138301
internal_count=184 164 142 113 91 55
shrinkage=0.05


Tree=85
num_leaves=8
num_cat=0
split_feature=20 14 28 5 22 19 10
split_gain=2.73035 0.648474 0.164572 0.132791 0.0756944 0.0758753 0.0497125
threshold=0.63333333333333608 -1.1907499999999998 0.46666666666666679 346.35549999999881 1.9959993089485506 2.5333333333333274 1.4900000000000002
decision_type=2 2 2 2 2 2 2
left_child=-1 -2 3 4 -3 -6 -7
right_child=1 2 -4 -5 5 6 -8
leaf_value=-0.017618388533592225 0.010154331876851974 -0.0035645592425550734 0.0044300742950290446 0.0031193740764417902 0.002291903974202631 -0.0031604285625508061 7.988361256389782e-05
leaf_count=20 21 21 25 26 22 20 29
internal_value=0 0.0389964 0.0148993 -0.000715606 -0.0185491 -0.00294931 -0.0248539
internal_count=184 164 143 118 92 71 49
shrinkage=0.05


Tree=86
num_leaves=8
num_cat=0
split_feature=20 13 5 8 1 0 13
split_gain=2.46414 0.680962 0.200588 0.130076 0.143421 0.073297 0.0477618
threshold=0.63333333333333608 -0.053499999999999985 323.69266666666732 0.099999999999997882 -26.464833333333335 3.1887999999999939 0.08450000000000002
decision_type=2 2 2 2 2 2 2
left_child=-1 -2 3 -3 5 -5 -4
right_child=1 2 6 4 -6 -7 -8
leaf_value=-0.016737468428909781 0.0091098452055895767 -0.0042367739714047111 0.0048788267992098226 -0.0029267913420536109 0.003633797139627859 0.00090046893297271295 0.0015451488395531975
leaf_count=20 27 22 22 29 21 22 21
internal_value=0 0.0370466 0.00844035 -0.0174396 0.00312309 -0.0255163 0.065015
internal_count=184 164 137 94 72 51 43
shrinkage=0.05


Tree=87
num_leaves=7
num_cat=0
split_feature=1 0 0 5 12 5
split_gain=2.29544 0.59765 0.209821 0.100784 0.0993536 0.0573029
threshold=49.371500000000033 0.80490000000000361 4.4623999999999961 346.35549999999881 1.1305000000000007 220.95850000000021
decision_type=2 2 2 2 2 2
left_child=1 -1 3 4 5 -3
right_child=-2 2 -4 -5 -6 -7
leaf_value=0.0087944474644385852 -0.015718754487378257 -0.0042888391843956455 0.0049994363618845288 0.0022188221479782131 0.0013225169013754501 -0.0010938522304059007
leaf_count=26 21 23 22 29 27 36
internal_value=0 0.0368926 0.0105138 -0.00660316 -0.023794 -0.0467871
internal_count=184 163 137 115 86 59
shrinkage=0.05


Tree=88
num_leaves=8
num_cat=0
split_feature=20 13 16 28 5 9 26
split_gain=2.1186 0.615921 0.177139 0.106208 0.117061 0.0742698 0.0320714
threshold=0.63333333333333608 -0.053499999999999985 1.9833333333333336 0.38333333333333336 285.18150000000065 1.0000000180025095e-35 -0.2833333333333336
decision_type=2 2 2 2 2 2 2
left_child=-1 -2 -3 4 6 -6 -4
right_child=1 2 3 -5 5 -7 -8
leaf_value=-0.015515471510589124 0.0086239415945278276 -0.0039871289487928155 -0.0028680894105822187 0.0039946458861231807 0.0037752994305467131 -0.00024472076354868481 -0.00019778833046312568
leaf_count=20 27 20 22 25 27 20 23
internal_value=0 0.0344343 0.00722849 0.0220953 0.00638947 0.0412931 -0.0300654
internal_count=184 164 137 117 92 47 45
shrinkage=0.05


Tree=89
num_leaves=7
num_cat=0
split_feature=1 0 6 23 4 5
split_gain=1.96965 0.537611 0.196104 0.095154 0.0697452 0.0417543
threshold=49.371500000000033 0.80490000000000361 229.00299999999996 2.5075359629915028 3072.0000000000005 311.43416666666604
decision_type=2 2 2 2 2 2
left_child=1 -1 3 -3 -5 -6
right_child=-2 2 -4 4 5 -7
leaf_value=0.008304027346177743 -0.01455681962626321 -0.0027679091160340858 0.0049076150394588092 0.0023991157242562624 -0.0016079011202678626 0.0012559670861810447
leaf_count=26 21 30 21 31 35 20
internal_value=0 0.0342506 0.00923183 -0.00686584 0.0100501 -0.0113299
internal_count=184 163 137 116 86 55
shrinkage=0.05


Tree=90
num_leaves=7
num_cat=0
split_feature=13 18 16 23 1 9
split_gain=1.0308 0.540357 0.132743 0.117671 0.0765745 0.0298213
threshold=-0.11499999999999999 1.1166666666666669 2.0333333333333337 2.8709711606305333 -78.242333333333292 0.099999999999997882
decision_type=2 2 2 2 2 2
left_child=-1 -2 -3 -4 -5 -6
right_child=1 2 3 4 5 -7
leaf_value=-0.0098298574120483616 0.0093991093337535865 -0.0030487215922524531 0.0038039413457171935 0.0020755213245542514 -0.0024389140555285851 2.2276032541412861e-05
leaf_count=22 20 21 33 36 20 32
internal_value=0 0.0340917 0.0124169 0.0251543 0.00605757 -0.0184867
internal_count=184 162 142 121 88 52
shrinkage=0.05


Tree=91
num_leaves=7
num_cat=0
split_feature=13 23 16 18 1 25
split_gain=0.930868 0.710745 0.147932 0.095397 0.07198 0.0219445
threshold=-0.09849999999999999 1.3004057760281198 2.1500000000000008 2.9000000000000004 -78.242333333333292 0.20000000000000009
decision_type=2 2 2 2 2 2
left_child=-1 -2 -3 -4 -5 -6
right_child=1 2 3 4 5 -7
leaf_value=-0.0084577258819570917 0.010089742341502147 -0.0035683449567295612 0.0035713265176284419 0.0019717452550644847 -0.0021880121890544184 -8.061086991801859e-05
leaf_count=26 22 20 29 36 21 30
internal_value=0 0.035037 0.00806144 0.021756 0.00519914 -0.0189673
internal_count=184 158 136 116 87 51
shrinkage=0.05


Tree=92
num_leaves=7
num_cat=0
split_feature=21 0 5 26 24 1
split_gain=0.957738 0.900084 0.170454 0.124176 0.0593095 0.0224846
threshold=0.94166666666666432 0.48154999999999865 220.95850000000021 -0.48333333333333334 0.43333333333333363 -64.157333333333341
decision_type=2 2 2 2 2 2
left_child=-1 -2 -3 -4 5 -5
right_child=1 2 3 4 -6 -7
leaf_value=-0.0100360537879169 0.010964172570542857 -0.0031163550437668165 0.0038374176586111045 -0.0015005476282497583 0.0022402854488146576 0.00056146508781239389
leaf_count=20 22 32 29 39 22 20
internal_value=0 0.0310692 0.00190929 0.0205962 0.000492401 -0.0160312
internal_count=184 164 142 110 81 59
shrinkage=0.05


Tree=93
num_leaves=7
num_cat=0
split_feature=15 16 6 18 1 22
split_gain=0.870602 0.583149 0.115348 0.0920373 0.0414949 0.019082
threshold=71.550000000000011 1.8166666666666669 81.867499999999794 2.9000000000000004 -78.242333333333292 3.747127911648771
decision_type=2 2 2 2 2 2
left_child=-1 -2 -3 -4 -5 -6
right_child=1 2 3 4 5 -7
leaf_value=-0.0086012090711543969 0.0089781771554439532 -0.0026965376259759071 0.0035423024562727997 0.0014548792748859056 -0.0018414958454245193 0.00019715771389504277
leaf_count=24 23 25 28 38 22 24
internal_value=0 0.0322217 0.00748545 0.0211944 0.00464388 -0.015557
internal_count=184 160 137 112 84 46
shrinkage=0.05


Tree=94
num_leaves=8
num_cat=0
split_feature=21 0 22 25 7 7 7
split_gain=0.866516 0.804 0.121144 0.0616606 0.0463419 0.0530382 0.0584949
threshold=0.94166666666666432 0.48154999999999865 1.9689091462197765 -0.7833333333333331 231.46766666666659 144.28200000000007 70.14966666666659
decision_type=2 2 2 2 2 2 2
left_child=-1 -2 -3 -4 5 6 -5
right_child=1 2 3 4 -6 -7 -8
leaf_value=-0.0095604439731687314 0.010357573420994661 -0.0035216135834343731 0.0031418122584000231 -0.0017536968369746492 0.0020824815280017601 -0.0026491887355223299 0.0015668190802292277
leaf_count=20 22 20 21 21 24 20 36
internal_value=0 0.0292666 0.00170696 0.0135331 0.00328191 -0.00867686 0.00686942
internal_count=184 164 142 122 101 77 57
shrinkage=0.05


Tree=95
num_leaves=7
num_cat=0
split_feature=15 19 15 12 4 24
split_gain=0.882155 0.771001 0.0858264 0.0781745 0.0610147 0.0860276
threshold=71.550000000000011 1.8444444444444374 90.250000000000014 0.033000000000000369 4732.0000000000009 1.0000000180025095e-35
decision_type=2 2 2 2 2 2
left_child=-1 -2 3 -3 5 -4
right_child=1 2 4 -5 -6 -7
leaf_value=-0.0082596942352560852 0.0099322288297116756 -0.0033328573445032816 -0.0012581313817229655 0.00058303660774254237 0.0032577728903852403 0.0026783212310756031
leaf_count=26 24 26 35 25 25 23
internal_value=0 0.0335831 0.00401981 -0.028266 0.0238581 0.00605751
internal_count=184 158 134 51 83 58
shrinkage=0.05


Tree=96
num_leaves=7
num_cat=0
split_feature=15 19 28 25 10 10
split_gain=0.796144 0.695829 0.0810881 0.0903943 0.116141 0.0489537
threshold=71.550000000000011 1.8444444444444374 0.38333333333333336 -0.80000000000000004 1.4750000000000003 1.7850000000000004
decision_type=2 2 2 2 2 2
left_child=-1 -2 3 -3 -5 -6
right_child=1 2 -4 4 5 -7
leaf_value=-0.0078467095127472512 0.009435617683144909 0.0024763219479253802 0.0031274644844233993 -0.00309465419775687 0.0018286114040529358 -0.0012766099471429532
leaf_count=26 24 23 20 39 30 22
internal_value=0 0.0319039 0.00381882 -0.00648477 -0.0206414 0.0102973
internal_count=184 158 134 114 91 52
shrinkage=0.05


Tree=97
num_leaves=8
num_cat=0
split_feature=15 19 4 10 10 2 3
split_gain=0.71852 0.627985 0.0760945 0.0954763 0.0650461 0.0610621 0.0351057
threshold=71.550000000000011 1.8444444444444374 6010.0000000000009 1.405 1.7850000000000004 85.463500000000138 4375.0000000000009
decision_type=2 2 2 2 2 2 2
left_child=-1 -2 3 6 5 -5 -3
right_child=1 2 -4 4 -6 -7 -8
leaf_value=-0.0074543739615294804 0.0089638367140044764 -0.00072434416090670444 0.0029453026147426239 0.0040189094527158893 -0.0011759124535064285 0.00027813338372955818 -0.0035824089998972015
leaf_count=26 24 21 21 20 26 24 22
internal_value=0 0.0303087 0.00362788 -0.00664505 0.016137 0.0395697 -0.0437322
internal_count=184 158 134 113 70 44 43
shrinkage=0.05


Tree=98
num_leaves=7
num_cat=0
split_feature=15 19 15 18 25 11
split_gain=0.648465 0.566757 0.0716693 0.0731948 0.060325 0.0595574
threshold=71.550000000000011 1.8444444444444374 90.250000000000014 3.4500000000000006 0.11666666666666627 0.062500000000000014
decision_type=2 2 2 2 2 2
left_child=-1 -2 5 -4 -5 -3
right_child=1 2 3 4 -6 -7
leaf_value=-0.0070816553403766679 0.008515644888393582 -0.0029782993217500357 0.0034769315475031088 -0.0013235786391305737 0.001854320660900807 0.00043965409373049628
leaf_count=26 24 26 23 32 28 25
internal_value=0 0.0287933 0.00344649 0.0215749 0.00318882 -0.0260566
internal_count=184 158 134 83 60 51
shrinkage=0.05


Tree=99
num_leaves=8
num_cat=0
split_feature=13 23 28 15 0 27 2
split_gain=0.628651 0.726055 0.101733 0.0787721 0.0662598 0.0412092 0.0292139
threshold=-0.093499999999999986 1.3004057760281198 0.46666666666666679 90.250000000000014 2.2441500000000052 -0.10000000000000007 98.974333333333234
decision_type=2 2 2 2 2 2 2
left_child=-1 -2 3 4 -3 -5 -7
right_child=1 2 -4 5 -6 6 -8
leaf_value=-0.0068236945748881067 0.010334956189617515 0.00024002274453994773 0.0033389023416453886 0.0023565281153423712 -0.0034219068789388984 0.0010503167131294807 -0.0016198105656076223
leaf_count=27 20 21 21 24 30 21 20
internal_value=0 0.0287155 0.00273246 -0.008862 -0.0382811 0.0142207 -0.00504369
internal_count=184 157 137 116 51 65 41
shrinkage=0.05


end of trees

feature importances:
GDP_1=146
GDP_diff2=68
Real_PCE=45
IP=40
Exports=31
UMich=25
Heavy_trucks=22
GDP_EMA6=22
Leading_Idx=21
Real_Imports=20
GDP_SMA12=20
GDP_SMA3=18
Real_Exports=16
GDP_EMA3=14
GDP_diff3=13
GDP_diff12=13
Wk_hrs_manu=11
Imports=10
GDP_SMA6=10
NewOrders_NoDef=9
Wk_hrs_priv=9
GDP_diff6=9
NewOrders=8
GDP_3=8
Lt_wght_veh=7
GDP_diff9=7
LMCI=5
Tot_veh_sales=4
GDP_2=1

parameters:
[boosting: gbdt]
[objective: regression]
[metric: l1,l2]
[tree_learner: serial]
[device_type: cpu]
[data: ]
[valid: ]
[num_iterations: 100]
[learning_rate: 0.05]
[num_leaves: 31]
[num_threads: 0]
[max_depth: -1]
[min_data_in_leaf: 20]
[min_sum_hessian_in_leaf: 0.001]
[bagging_fraction: 0.8]
[bagging_freq: 5]
[bagging_seed: 3]
[feature_fraction: 0.9]
[feature_fraction_seed: 2]
[early_stopping_round: 0]
[max_delta_step: 0]
[lambda_l1: 0]
[lambda_l2: 0]
[min_gain_to_split: 0]
[drop_rate: 0.1]
[max_drop: 50]
[skip_drop: 0.5]
[xgboost_dart_mode: 0]
[uniform_drop: 0]
[drop_seed: 4]
[top_rate: 0.2]
[other_rate: 0.1]
[min_data_per_group: 100]
[max_cat_threshold: 32]
[cat_l2: 10]
[cat_smooth: 10]
[max_cat_to_onehot: 4]
[top_k: 20]
[monotone_constraints: ]
[feature_contri: ]
[forcedsplits_filename: ]
[refit_decay_rate: 0.9]
[verbosity: 0]
[max_bin: 255]
[min_data_in_bin: 3]
[bin_construct_sample_cnt: 200000]
[histogram_pool_size: -1]
[data_random_seed: 1]
[output_model: LightGBM_model.txt]
[snapshot_freq: -1]
[input_model: ]
[output_result: LightGBM_predict_result.txt]
[initscore_filename: ]
[valid_data_initscores: ]
[pre_partition: 0]
[enable_bundle: 1]
[max_conflict_rate: 0]
[is_enable_sparse: 1]
[sparse_threshold: 0.8]
[use_missing: 1]
[zero_as_missing: 0]
[two_round: 0]
[save_binary: 0]
[enable_load_from_binary_file: 1]
[header: 0]
[label_column: ]
[weight_column: ]
[group_column: ]
[ignore_column: ]
[categorical_feature: ]
[predict_raw_score: 0]
[predict_leaf_index: 0]
[predict_contrib: 0]
[num_iteration_predict: -1]
[pred_early_stop: 0]
[pred_early_stop_freq: 10]
[pred_early_stop_margin: 10]
[convert_model_language: ]
[convert_model: gbdt_prediction.cpp]
[num_class: 1]
[is_unbalance: 0]
[scale_pos_weight: 1]
[sigmoid: 1]
[boost_from_average: 1]
[reg_sqrt: 0]
[alpha: 0.9]
[fair_c: 1]
[poisson_max_delta_step: 0.7]
[tweedie_variance_power: 1.5]
[max_position: 20]
[label_gain: ]
[metric_freq: 1]
[is_provide_training_metric: 0]
[eval_at: ]
[num_machines: 1]
[local_listen_port: 12400]
[time_out: 120]
[machine_list_filename: ]
[machines: ]
[gpu_platform_id: -1]
[gpu_device_id: -1]
[gpu_use_dp: 0]

end of parameters

pandas_categorical:null
